{"learner":{"attributes":{"best_iteration":"977","best_score":"0.6083803529760661","scikit_learn":"{\"_estimator_type\": \"classifier\"}"},"feature_names":["Sex","Age","Weight","Height","InitialO2","InitialHR","InititalRR"],"feature_types":["float","float","float","float","float","float","float"],"gradient_booster":{"model":{"gbtree_model_param":{"num_parallel_tree":"1","num_trees":"1000"},"iteration_indptr":[0,1,2,3,4,5,6,7,8,9,10,11,12,13,14,15,16,17,18,19,20,21,22,23,24,25,26,27,28,29,30,31,32,33,34,35,36,37,38,39,40,41,42,43,44,45,46,47,48,49,50,51,52,53,54,55,56,57,58,59,60,61,62,63,64,65,66,67,68,69,70,71,72,73,74,75,76,77,78,79,80,81,82,83,84,85,86,87,88,89,90,91,92,93,94,95,96,97,98,99,100,101,102,103,104,105,106,107,108,109,110,111,112,113,114,115,116,117,118,119,120,121,122,123,124,125,126,127,128,129,130,131,132,133,134,135,136,137,138,139,140,141,142,143,144,145,146,147,148,149,150,151,152,153,154,155,156,157,158,159,160,161,162,163,164,165,166,167,168,169,170,171,172,173,174,175,176,177,178,179,180,181,182,183,184,185,186,187,188,189,190,191,192,193,194,195,196,197,198,199,200,201,202,203,204,205,206,207,208,209,210,211,212,213,214,215,216,217,218,219,220,221,222,223,224,225,226,227,228,229,230,231,232,233,234,235,236,237,238,239,240,241,242,243,244,245,246,247,248,249,250,251,252,253,254,255,256,257,258,259,260,261,262,263,264,265,266,267,268,269,270,271,272,273,274,275,276,277,278,279,280,281,282,283,284,285,286,287,288,289,290,291,292,293,294,295,296,297,298,299,300,301,302,303,304,305,306,307,308,309,310,311,312,313,314,315,316,317,318,319,320,321,322,323,324,325,326,327,328,329,330,331,332,333,334,335,336,337,338,339,340,341,342,343,344,345,346,347,348,349,350,351,352,353,354,355,356,357,358,359,360,361,362,363,364,365,366,367,368,369,370,371,372,373,374,375,376,377,378,379,380,381,382,383,384,385,386,387,388,389,390,391,392,393,394,395,396,397,398,399,400,401,402,403,404,405,406,407,408,409,410,411,412,413,414,415,416,417,418,419,420,421,422,423,424,425,426,427,428,429,430,431,432,433,434,435,436,437,438,439,440,441,442,443,444,445,446,447,448,449,450,451,452,453,454,455,456,457,458,459,460,461,462,463,464,465,466,467,468,469,470,471,472,473,474,475,476,477,478,479,480,481,482,483,484,485,486,487,488,489,490,491,492,493,494,495,496,497,498,499,500,501,502,503,504,505,506,507,508,509,510,511,512,513,514,515,516,517,518,519,520,521,522,523,524,525,526,527,528,529,530,531,532,533,534,535,536,537,538,539,540,541,542,543,544,545,546,547,548,549,550,551,552,553,554,555,556,557,558,559,560,561,562,563,564,565,566,567,568,569,570,571,572,573,574,575,576,577,578,579,580,581,582,583,584,585,586,587,588,589,590,591,592,593,594,595,596,597,598,599,600,601,602,603,604,605,606,607,608,609,610,611,612,613,614,615,616,617,618,619,620,621,622,623,624,625,626,627,628,629,630,631,632,633,634,635,636,637,638,639,640,641,642,643,644,645,646,647,648,649,650,651,652,653,654,655,656,657,658,659,660,661,662,663,664,665,666,667,668,669,670,671,672,673,674,675,676,677,678,679,680,681,682,683,684,685,686,687,688,689,690,691,692,693,694,695,696,697,698,699,700,701,702,703,704,705,706,707,708,709,710,711,712,713,714,715,716,717,718,719,720,721,722,723,724,725,726,727,728,729,730,731,732,733,734,735,736,737,738,739,740,741,742,743,744,745,746,747,748,749,750,751,752,753,754,755,756,757,758,759,760,761,762,763,764,765,766,767,768,769,770,771,772,773,774,775,776,777,778,779,780,781,782,783,784,785,786,787,788,789,790,791,792,793,794,795,796,797,798,799,800,801,802,803,804,805,806,807,808,809,810,811,812,813,814,815,816,817,818,819,820,821,822,823,824,825,826,827,828,829,830,831,832,833,834,835,836,837,838,839,840,841,842,843,844,845,846,847,848,849,850,851,852,853,854,855,856,857,858,859,860,861,862,863,864,865,866,867,868,869,870,871,872,873,874,875,876,877,878,879,880,881,882,883,884,885,886,887,888,889,890,891,892,893,894,895,896,897,898,899,900,901,902,903,904,905,906,907,908,909,910,911,912,913,914,915,916,917,918,919,920,921,922,923,924,925,926,927,928,929,930,931,932,933,934,935,936,937,938,939,940,941,942,943,944,945,946,947,948,949,950,951,952,953,954,955,956,957,958,959,960,961,962,963,964,965,966,967,968,969,970,971,972,973,974,975,976,977,978,979,980,981,982,983,984,985,986,987,988,989,990,991,992,993,994,995,996,997,998,999,1000],"tree_info":[0,0,0,0,0,0,0,0,0,0,0,0,0,0,0,0,0,0,0,0,0,0,0,0,0,0,0,0,0,0,0,0,0,0,0,0,0,0,0,0,0,0,0,0,0,0,0,0,0,0,0,0,0,0,0,0,0,0,0,0,0,0,0,0,0,0,0,0,0,0,0,0,0,0,0,0,0,0,0,0,0,0,0,0,0,0,0,0,0,0,0,0,0,0,0,0,0,0,0,0,0,0,0,0,0,0,0,0,0,0,0,0,0,0,0,0,0,0,0,0,0,0,0,0,0,0,0,0,0,0,0,0,0,0,0,0,0,0,0,0,0,0,0,0,0,0,0,0,0,0,0,0,0,0,0,0,0,0,0,0,0,0,0,0,0,0,0,0,0,0,0,0,0,0,0,0,0,0,0,0,0,0,0,0,0,0,0,0,0,0,0,0,0,0,0,0,0,0,0,0,0,0,0,0,0,0,0,0,0,0,0,0,0,0,0,0,0,0,0,0,0,0,0,0,0,0,0,0,0,0,0,0,0,0,0,0,0,0,0,0,0,0,0,0,0,0,0,0,0,0,0,0,0,0,0,0,0,0,0,0,0,0,0,0,0,0,0,0,0,0,0,0,0,0,0,0,0,0,0,0,0,0,0,0,0,0,0,0,0,0,0,0,0,0,0,0,0,0,0,0,0,0,0,0,0,0,0,0,0,0,0,0,0,0,0,0,0,0,0,0,0,0,0,0,0,0,0,0,0,0,0,0,0,0,0,0,0,0,0,0,0,0,0,0,0,0,0,0,0,0,0,0,0,0,0,0,0,0,0,0,0,0,0,0,0,0,0,0,0,0,0,0,0,0,0,0,0,0,0,0,0,0,0,0,0,0,0,0,0,0,0,0,0,0,0,0,0,0,0,0,0,0,0,0,0,0,0,0,0,0,0,0,0,0,0,0,0,0,0,0,0,0,0,0,0,0,0,0,0,0,0,0,0,0,0,0,0,0,0,0,0,0,0,0,0,0,0,0,0,0,0,0,0,0,0,0,0,0,0,0,0,0,0,0,0,0,0,0,0,0,0,0,0,0,0,0,0,0,0,0,0,0,0,0,0,0,0,0,0,0,0,0,0,0,0,0,0,0,0,0,0,0,0,0,0,0,0,0,0,0,0,0,0,0,0,0,0,0,0,0,0,0,0,0,0,0,0,0,0,0,0,0,0,0,0,0,0,0,0,0,0,0,0,0,0,0,0,0,0,0,0,0,0,0,0,0,0,0,0,0,0,0,0,0,0,0,0,0,0,0,0,0,0,0,0,0,0,0,0,0,0,0,0,0,0,0,0,0,0,0,0,0,0,0,0,0,0,0,0,0,0,0,0,0,0,0,0,0,0,0,0,0,0,0,0,0,0,0,0,0,0,0,0,0,0,0,0,0,0,0,0,0,0,0,0,0,0,0,0,0,0,0,0,0,0,0,0,0,0,0,0,0,0,0,0,0,0,0,0,0,0,0,0,0,0,0,0,0,0,0,0,0,0,0,0,0,0,0,0,0,0,0,0,0,0,0,0,0,0,0,0,0,0,0,0,0,0,0,0,0,0,0,0,0,0,0,0,0,0,0,0,0,0,0,0,0,0,0,0,0,0,0,0,0,0,0,0,0,0,0,0,0,0,0,0,0,0,0,0,0,0,0,0,0,0,0,0,0,0,0,0,0,0,0,0,0,0,0,0,0,0,0,0,0,0,0,0,0,0,0,0,0,0,0,0,0,0,0,0,0,0,0,0,0,0,0,0,0,0,0,0,0,0,0,0,0,0,0,0,0,0,0,0,0,0,0,0,0,0,0,0,0,0,0,0,0,0,0,0,0,0,0,0,0,0,0,0,0,0,0,0,0,0,0,0,0,0,0,0,0,0,0,0,0,0,0,0,0,0,0,0,0,0,0,0,0,0,0,0,0,0,0,0,0,0,0,0,0,0,0,0,0,0,0,0,0,0,0,0,0,0,0,0,0,0,0,0,0,0,0,0,0,0,0,0,0,0,0,0,0,0,0,0,0,0,0,0,0,0,0,0,0,0,0,0,0,0,0,0,0,0,0,0,0,0,0,0,0,0,0,0,0,0,0,0,0,0,0,0,0,0,0,0,0,0,0,0,0,0,0,0,0,0,0,0,0,0,0,0,0,0,0,0,0,0,0,0,0,0,0,0,0,0,0,0,0,0,0,0,0,0,0,0,0,0,0,0,0,0,0,0,0,0,0,0,0,0,0,0,0],"trees":[{"base_weights":[-0E0,-5.570353E-1,3.7622213E-1,-2.9451137E-2,-5.5437526E-3,-7.2316383E-3,1.9542806E-2],"categories":[],"categories_nodes":[],"categories_segments":[],"categories_sizes":[],"default_left":[0,0,0,0,0,0,0],"id":0,"left_children":[1,3,5,-1,-1,-1,-1],"loss_changes":[4.4889685E2,4.5274567E1,9.6878494E1,0E0,0E0,0E0,0E0],"parents":[2147483647,0,0,1,1,2,2],"right_children":[2,4,6,-1,-1,-1,-1],"split_conditions":[-3.0470574E-1,3.2716644E-1,-8.4372044E-1,-2.9451137E-2,-5.5437526E-3,-7.2316383E-3,1.9542806E-2],"split_indices":[2,1,1,0,0,0,0],"split_type":[0,0,0,0,0,0,0],"sum_hessian":[1.76E3,6.725E2,1.0875E3,3.6925E2,3.0325E2,1.63E2,9.245E2],"tree_param":{"num_deleted":"0","num_feature":"7","num_nodes":"7","size_leaf_vector":"1"}},{"base_weights":[-2.2210183E-3,-5.425472E-1,3.6303857E-1,-2.8678864E-2,-5.4077217E-3,-7.0984866E-3,1.8896455E-2],"categories":[],"categories_nodes":[],"categories_segments":[],"categories_sizes":[],"default_left":[0,0,0,0,0,0,0],"id":1,"left_children":[1,3,5,-1,-1,-1,-1],"loss_changes":[4.2263437E2,4.2834396E1,9.158711E1,0E0,0E0,0E0,0E0],"parents":[2147483647,0,0,1,1,2,2],"right_children":[2,4,6,-1,-1,-1,-1],"split_conditions":[-3.0470574E-1,3.2716644E-1,-8.4372044E-1,-2.8678864E-2,-5.4077217E-3,-7.0984866E-3,1.8896455E-2],"split_indices":[2,1,1,0,0,0,0],"split_type":[0,0,0,0,0,0,0],"sum_hessian":[1.7598271E3,6.724176E2,1.0874095E3,3.6916995E2,3.0324765E2,1.6299788E2,9.2441174E2],"tree_param":{"num_deleted":"0","num_feature":"7","num_nodes":"7","size_leaf_vector":"1"}},{"base_weights":[-4.315961E-3,-5.4035E-1,3.4296042E-1,-2.8490553E-2,-5.8482545E-3,-7.601747E-3,1.7809974E-2],"categories":[],"categories_nodes":[],"categories_segments":[],"categories_sizes":[],"default_left":[0,0,0,0,0,0,0],"id":2,"left_children":[1,3,5,-1,-1,-1,-1],"loss_changes":[3.9845355E2,3.7090607E1,8.705975E1,0E0,0E0,0E0,0E0],"parents":[2147483647,0,0,1,1,2,2],"right_children":[2,4,6,-1,-1,-1,-1],"split_conditions":[-3.4231073E-1,2.532755E-1,-9.1192746E-1,-2.8490553E-2,-5.8482545E-3,-7.601747E-3,1.7809974E-2],"split_indices":[2,1,1,0,0,0,0],"split_type":[0,0,0,0,0,0,0],"sum_hessian":[1.7593293E3,6.499374E2,1.109392E3,3.452083E2,3.0472906E2,1.522406E2,9.571514E2],"tree_param":{"num_deleted":"0","num_feature":"7","num_nodes":"7","size_leaf_vector":"1"}},{"base_weights":[-6.5098465E-3,-4.7305384E-1,3.7177438E-1,-2.6631648E-2,-3.363614E-3,-5.5989414E-3,1.8670563E-2],"categories":[],"categories_nodes":[],"categories_segments":[],"categories_sizes":[],"default_left":[0,0,0,0,0,0,0],"id":3,"left_children":[1,3,5,-1,-1,-1,-1],"loss_changes":[3.776621E2,6.105049E1,7.0013016E1,0E0,0E0,0E0,0E0],"parents":[2147483647,0,0,1,1,2,2],"right_children":[2,4,6,-1,-1,-1,-1],"split_conditions":[-1.8813027E-1,3.2716644E-1,-8.948757E-1,-2.6631648E-2,-3.363614E-3,-5.5989414E-3,1.8670563E-2],"split_indices":[2,1,1,0,0,0,0],"split_type":[0,0,0,0,0,0,0],"sum_hessian":[1.7585632E3,7.6599677E2,9.925664E2,4.2130023E2,3.4469656E2,1.4123349E2,8.513329E2],"tree_param":{"num_deleted":"0","num_feature":"7","num_nodes":"7","size_leaf_vector":"1"}},{"base_weights":[-7.912215E-3,-5.145287E-1,3.2076657E-1,-2.7113698E-2,-5.595008E-3,-6.9185677E-3,1.686699E-2],"categories":[],"categories_nodes":[],"categories_segments":[],"categories_sizes":[],"default_left":[0,0,0,0,0,0,0],"id":4,"left_children":[1,3,5,-1,-1,-1,-1],"loss_changes":[3.5598734E2,3.329216E1,7.867262E1,0E0,0E0,0E0,0E0],"parents":[2147483647,0,0,1,1,2,2],"right_children":[2,4,6,-1,-1,-1,-1],"split_conditions":[-3.4231073E-1,2.532755E-1,-8.4372044E-1,-2.7113698E-2,-5.595008E-3,-6.9185677E-3,1.686699E-2],"split_indices":[2,1,1,0,0,0,0],"split_type":[0,0,0,0,0,0,0],"sum_hessian":[1.7575676E3,6.4908527E2,1.1084823E3,3.443945E2,3.0469077E2,1.64961E2,9.435213E2],"tree_param":{"num_deleted":"0","num_feature":"7","num_nodes":"7","size_leaf_vector":"1"}},{"base_weights":[-9.834423E-3,-4.5078698E-1,3.4822014E-1,-2.5372842E-2,-3.224666E-3,-5.3865016E-3,1.7536402E-2],"categories":[],"categories_nodes":[],"categories_segments":[],"categories_sizes":[],"default_left":[0,0,0,0,0,0,0],"id":5,"left_children":[1,3,5,-1,-1,-1,-1],"loss_changes":[3.3743362E2,5.517424E1,6.2772522E1,0E0,0E0,0E0,0E0],"parents":[2147483647,0,0,1,1,2,2],"right_children":[2,4,6,-1,-1,-1,-1],"split_conditions":[-1.8813027E-1,3.2716644E-1,-8.948757E-1,-2.5372842E-2,-3.224666E-3,-5.3865016E-3,1.7536402E-2],"split_indices":[2,1,1,0,0,0,0],"split_type":[0,0,0,0,0,0,0],"sum_hessian":[1.7563136E3,7.648795E2,9.914341E2,4.202295E2,3.4465005E2,1.412092E2,8.502249E2],"tree_param":{"num_deleted":"0","num_feature":"7","num_nodes":"7","size_leaf_vector":"1"}},{"base_weights":[-1.1063631E-2,-4.9023423E-1,3.00186E-1,-2.5826124E-2,-5.352934E-3,1.7626023E-2,-2.543576E-3],"categories":[],"categories_nodes":[],"categories_segments":[],"categories_sizes":[],"default_left":[0,0,0,0,0,0,0],"id":6,"left_children":[1,3,5,-1,-1,-1,-1],"loss_changes":[3.1831668E2,2.9959137E1,7.1680984E1,0E0,0E0,0E0,0E0],"parents":[2147483647,0,0,1,1,2,2],"right_children":[2,4,6,-1,-1,-1,-1],"split_conditions":[-3.4231073E-1,2.532755E-1,7.770754E-1,-2.5826124E-2,-5.352934E-3,1.7626023E-2,-2.543576E-3],"split_indices":[2,1,4,0,0,0,0],"split_type":[0,0,0,0,0,0,0],"sum_hessian":[1.75486E3,6.4777374E2,1.1070862E3,3.4313818E2,3.046356E2,7.695693E2,3.3751697E2],"tree_param":{"num_deleted":"0","num_feature":"7","num_nodes":"7","size_leaf_vector":"1"}},{"base_weights":[-1.2212432E-2,-4.1918722E-1,3.3564603E-1,-2.3958461E-2,-2.7562322E-3,-4.9745054E-3,1.7052982E-2],"categories":[],"categories_nodes":[],"categories_segments":[],"categories_sizes":[],"default_left":[0,0,0,0,0,0,0],"id":7,"left_children":[1,3,5,-1,-1,-1,-1],"loss_changes":[3.0214478E2,5.3892303E1,5.8280884E1,0E0,0E0,0E0,0E0],"parents":[2147483647,0,0,1,1,2,2],"right_children":[2,4,6,-1,-1,-1,-1],"split_conditions":[-1.354833E-1,3.2716644E-1,-8.4372044E-1,-2.3958461E-2,-2.7562322E-3,-4.9745054E-3,1.7052982E-2],"split_indices":[2,1,1,0,0,0,0],"split_type":[0,0,0,0,0,0,0],"sum_hessian":[1.753424E3,7.900018E2,9.6342224E2,4.324546E2,3.5754718E2,1.4695825E2,8.16464E2],"tree_param":{"num_deleted":"0","num_feature":"7","num_nodes":"7","size_leaf_vector":"1"}},{"base_weights":[-1.317494E-2,-4.7137958E-1,2.7983394E-1,-2.4886457E-2,-4.9964283E-3,-6.4291814E-3,1.5097327E-2],"categories":[],"categories_nodes":[],"categories_segments":[],"categories_sizes":[],"default_left":[0,0,0,0,0,0,0],"id":8,"left_children":[1,3,5,-1,-1,-1,-1],"loss_changes":[2.860102E2,2.8457855E1,6.769044E1,0E0,0E0,0E0,0E0],"parents":[2147483647,0,0,1,1,2,2],"right_children":[2,4,6,-1,-1,-1,-1],"split_conditions":[-3.5735273E-1,2.532755E-1,-7.925652E-1,-2.4886457E-2,-4.9964283E-3,-6.4291814E-3,1.5097327E-2],"split_indices":[2,1,1,0,0,0,0],"split_type":[0,0,0,0,0,0,0],"sum_hessian":[1.7516455E3,6.378731E2,1.1137725E3,3.385533E2,2.993198E2,1.7958414E2,9.3418835E2],"tree_param":{"num_deleted":"0","num_feature":"7","num_nodes":"7","size_leaf_vector":"1"}},{"base_weights":[-1.4751058E-2,-3.7913564E-1,3.3497298E-1,-2.5668554E-2,-4.1063214E-3,1.832066E-2,-1.0305273E-3],"categories":[],"categories_nodes":[],"categories_segments":[],"categories_sizes":[],"default_left":[0,0,0,0,0,0,0],"id":9,"left_children":[1,3,5,-1,-1,-1,-1],"loss_changes":[2.7156943E2,6.2920334E1,5.0709457E1,0E0,0E0,0E0,0E0],"parents":[2147483647,0,0,1,1,2,2],"right_children":[2,4,6,-1,-1,-1,-1],"split_conditions":[-6.7794316E-2,-2.1280567E-1,7.770754E-1,-2.5668554E-2,-4.1063214E-3,1.832066E-2,-1.0305273E-3],"split_indices":[2,1,4,0,0,0,0],"split_type":[0,0,0,0,0,0,0],"sum_hessian":[1.7497091E3,8.490273E2,9.006818E2,3.060479E2,5.4297943E2,6.3319727E2,2.6748456E2],"tree_param":{"num_deleted":"0","num_feature":"7","num_nodes":"7","size_leaf_vector":"1"}},{"base_weights":[-1.5404409E-2,-4.381467E-1,2.717466E-1,-2.3088386E-2,-4.5099542E-3,1.625551E-2,-2.8001391E-3],"categories":[],"categories_nodes":[],"categories_segments":[],"categories_sizes":[],"default_left":[0,0,0,0,0,0,0],"id":10,"left_children":[1,3,5,-1,-1,-1,-1],"loss_changes":[2.5812146E2,2.636998E1,6.398957E1,0E0,0E0,0E0,0E0],"parents":[2147483647,0,0,1,1,2,2],"right_children":[2,4,6,-1,-1,-1,-1],"split_conditions":[-3.0470574E-1,3.2716644E-1,7.770754E-1,-2.3088386E-2,-4.5099542E-3,1.625551E-2,-2.8001391E-3],"split_indices":[2,1,4,0,0,0,0],"split_type":[0,0,0,0,0,0,0],"sum_hessian":[1.7480259E3,6.6644836E2,1.0815775E3,3.633564E2,3.0309192E2,7.49979E2,3.3159854E2],"tree_param":{"num_deleted":"0","num_feature":"7","num_nodes":"7","size_leaf_vector":"1"}},{"base_weights":[-1.620087E-2,-3.6246583E-1,3.1635582E-1,-2.4680508E-2,-3.8458207E-3,-5.022183E-3,1.5925854E-2],"categories":[],"categories_nodes":[],"categories_segments":[],"categories_sizes":[],"default_left":[0,0,0,0,0,0,0],"id":11,"left_children":[1,3,5,-1,-1,-1,-1],"loss_changes":[2.4495317E2,5.9033524E1,4.894673E1,0E0,0E0,0E0,0E0],"parents":[2147483647,0,0,1,1,2,2],"right_children":[2,4,6,-1,-1,-1,-1],"split_conditions":[-6.7794316E-2,-2.1280567E-1,-9.346631E-1,-2.4680508E-2,-3.8458207E-3,-5.022183E-3,1.5925854E-2],"split_indices":[2,1,1,0,0,0,0],"split_type":[0,0,0,0,0,0,0],"sum_hessian":[1.7460061E3,8.469579E2,8.990482E2,3.0445352E2,5.425044E2,1.2445022E2,7.7459796E2],"tree_param":{"num_deleted":"0","num_feature":"7","num_nodes":"7","size_leaf_vector":"1"}},{"base_weights":[-1.7310696E-2,-4.316188E-1,2.4794208E-1,-2.2846613E-2,-4.549868E-3,-6.4156298E-3,1.3623728E-2],"categories":[],"categories_nodes":[],"categories_segments":[],"categories_sizes":[],"default_left":[0,0,0,0,0,0,0],"id":12,"left_children":[1,3,5,-1,-1,-1,-1],"loss_changes":[2.3307808E2,2.4183472E1,5.9652542E1,0E0,0E0,0E0,0E0],"parents":[2147483647,0,0,1,1,2,2],"right_children":[2,4,6,-1,-1,-1,-1],"split_conditions":[-3.5735273E-1,2.532755E-1,-7.925652E-1,-2.2846613E-2,-4.549868E-3,-6.4156298E-3,1.3623728E-2],"split_indices":[2,1,1,0,0,0,0],"split_type":[0,0,0,0,0,0,0],"sum_hessian":[1.7438948E3,6.339344E2,1.1099603E3,3.3477222E2,2.9916217E2,1.7944855E2,9.3051184E2],"tree_param":{"num_deleted":"0","num_feature":"7","num_nodes":"7","size_leaf_vector":"1"}},{"base_weights":[-1.863702E-2,-3.4758306E-1,2.977796E-1,-2.3739569E-2,-3.656653E-3,1.6568318E-2,-1.4005955E-3],"categories":[],"categories_nodes":[],"categories_segments":[],"categories_sizes":[],"default_left":[0,0,0,0,0,0,0],"id":13,"left_children":[1,3,5,-1,-1,-1,-1],"loss_changes":[2.2091434E2,5.4875076E1,4.492247E1,0E0,0E0,0E0,0E0],"parents":[2147483647,0,0,1,1,2,2],"right_children":[2,4,6,-1,-1,-1,-1],"split_conditions":[-6.7794316E-2,-2.1280567E-1,7.770754E-1,-2.3739569E-2,-3.656653E-3,1.6568318E-2,-1.4005955E-3],"split_indices":[2,1,4,0,0,0,0],"split_type":[0,0,0,0,0,0,0],"sum_hessian":[1.7415281E3,8.4463464E2,8.968935E2,3.0262277E2,5.4201184E2,6.298238E2,2.670697E2],"tree_param":{"num_deleted":"0","num_feature":"7","num_nodes":"7","size_leaf_vector":"1"}},{"base_weights":[-1.9122975E-2,-4.1320676E-1,2.3329958E-1,-2.1898016E-2,-4.3502557E-3,-6.3579804E-3,1.2930836E-2],"categories":[],"categories_nodes":[],"categories_segments":[],"categories_sizes":[],"default_left":[0,0,0,0,0,0,0],"id":14,"left_children":[1,3,5,-1,-1,-1,-1],"loss_changes":[2.1044048E2,2.2249527E1,5.5649353E1,0E0,0E0,0E0,0E0],"parents":[2147483647,0,0,1,1,2,2],"right_children":[2,4,6,-1,-1,-1,-1],"split_conditions":[-3.5735273E-1,2.532755E-1,-7.925652E-1,-2.1898016E-2,-4.3502557E-3,-6.3579804E-3,1.2930836E-2],"split_indices":[2,1,1,0,0,0,0],"split_type":[0,0,0,0,0,0,0],"sum_hessian":[1.7394012E3,6.316324E2,1.1077688E3,3.3255E2,2.990824E2,1.7936314E2,9.284057E2],"tree_param":{"num_deleted":"0","num_feature":"7","num_nodes":"7","size_leaf_vector":"1"}},{"base_weights":[-2.0334726E-2,-3.3340976E-1,2.8113455E-1,-2.2847058E-2,-3.4758076E-3,1.5778385E-2,-1.5531983E-3],"categories":[],"categories_nodes":[],"categories_segments":[],"categories_sizes":[],"default_left":[0,0,0,0,0,0,0],"id":15,"left_children":[1,3,5,-1,-1,-1,-1],"loss_changes":[1.9986093E2,5.1073883E1,4.2295403E1,0E0,0E0,0E0,0E0],"parents":[2147483647,0,0,1,1,2,2],"right_children":[2,4,6,-1,-1,-1,-1],"split_conditions":[-6.7794316E-2,-2.1280567E-1,7.770754E-1,-2.2847058E-2,-3.4758076E-3,1.5778385E-2,-1.5531983E-3],"split_indices":[2,1,4,0,0,0,0],"split_type":[0,0,0,0,0,0,0],"sum_hessian":[1.7368774E3,8.42111E2,8.9476636E2,3.0061502E2,5.4149603E2,6.279055E2,2.6686087E2],"tree_param":{"num_deleted":"0","num_feature":"7","num_nodes":"7","size_leaf_vector":"1"}},{"base_weights":[-2.0746456E-2,-2.8215685E-1,3.2250687E-1,-2.223744E-2,-1.853412E-3,1.7457293E-2,-8.876163E-4],"categories":[],"categories_nodes":[],"categories_segments":[],"categories_sizes":[],"default_left":[0,0,0,0,0,0,0],"id":16,"left_children":[1,3,5,-1,-1,-1,-1],"loss_changes":[1.901637E2,7.223181E1,3.8041E1,0E0,0E0,0E0,0E0],"parents":[2147483647,0,0,1,1,2,2],"right_children":[2,4,6,-1,-1,-1,-1],"split_conditions":[1.5407512E-1,-2.1280567E-1,7.770754E-1,-2.223744E-2,-1.853412E-3,1.7457293E-2,-8.876163E-4],"split_indices":[2,1,4,0,0,0,0],"split_type":[0,0,0,0,0,0,0],"sum_hessian":[1.7345901E3,1.0039849E3,7.306052E2,3.4462155E2,6.593634E2,5.109128E2,2.196924E2],"tree_param":{"num_deleted":"0","num_feature":"7","num_nodes":"7","size_leaf_vector":"1"}},{"base_weights":[-2.0687431E-2,-3.8891003E-1,2.151789E-1,-2.0622741E-2,-4.114913E-3,-1.1473789E-3,1.4914609E-2],"categories":[],"categories_nodes":[],"categories_segments":[],"categories_sizes":[],"default_left":[0,0,0,0,0,0,0],"id":17,"left_children":[1,3,5,-1,-1,-1,-1],"loss_changes":[1.8303468E2,1.9542435E1,5.1855297E1,0E0,0E0,0E0,0E0],"parents":[2147483647,0,0,1,1,2,2],"right_children":[2,4,6,-1,-1,-1,-1],"split_conditions":[-3.5735273E-1,2.532755E-1,1E0,-2.0622741E-2,-4.114913E-3,-1.1473789E-3,1.4914609E-2],"split_indices":[2,1,0,0,0,0,0],"split_type":[0,0,0,0,0,0,0],"sum_hessian":[1.7324114E3,6.2803033E2,1.104381E3,3.290549E2,2.9897543E2,4.950449E2,6.093361E2],"tree_param":{"num_deleted":"0","num_feature":"7","num_nodes":"7","size_leaf_vector":"1"}},{"base_weights":[-2.097769E-2,-2.6374713E-1,3.1749135E-1,-2.1358375E-2,-1.4960015E-3,1.710354E-2,-8.6519175E-4],"categories":[],"categories_nodes":[],"categories_segments":[],"categories_sizes":[],"default_left":[0,0,0,0,0,0,0],"id":18,"left_children":[1,3,5,-1,-1,-1,-1],"loss_changes":[1.7385667E2,7.0991234E1,3.496212E1,0E0,0E0,0E0,0E0],"parents":[2147483647,0,0,1,1,2,2],"right_children":[2,4,6,-1,-1,-1,-1],"split_conditions":[2.217641E-1,-2.1280567E-1,7.770754E-1,-2.1358375E-2,-1.4960015E-3,1.710354E-2,-8.6519175E-4],"split_indices":[2,1,4,0,0,0,0],"split_type":[0,0,0,0,0,0,0],"sum_hessian":[1.7301749E3,1.0320764E3,6.980985E2,3.5213022E2,6.799462E2,4.8938943E2,2.0870905E2],"tree_param":{"num_deleted":"0","num_feature":"7","num_nodes":"7","size_leaf_vector":"1"}},{"base_weights":[-2.0822207E-2,-3.734689E-1,2.0484322E-1,-1.9800654E-2,-3.978531E-3,-7.3116445E-3,1.1400088E-2],"categories":[],"categories_nodes":[],"categories_segments":[],"categories_sizes":[],"default_left":[0,0,0,0,0,0,0],"id":19,"left_children":[1,3,5,-1,-1,-1,-1],"loss_changes":[1.6731924E2,1.7787209E1,5.0141533E1,0E0,0E0,0E0,0E0],"parents":[2147483647,0,0,1,1,2,2],"right_children":[2,4,6,-1,-1,-1,-1],"split_conditions":[-3.5735273E-1,2.532755E-1,-9.346631E-1,-1.9800654E-2,-3.978531E-3,-7.3116445E-3,1.1400088E-2],"split_indices":[2,1,1,0,0,0,0],"split_type":[0,0,0,0,0,0,0],"sum_hessian":[1.7279109E3,6.2543964E2,1.1024713E3,3.265325E2,2.989071E2,1.4700984E2,9.554615E2],"tree_param":{"num_deleted":"0","num_feature":"7","num_nodes":"7","size_leaf_vector":"1"}},{"base_weights":[-2.1984352E-2,-2.5428987E-1,3.0227938E-1,-2.0590886E-2,-1.4639657E-3,1.6390054E-2,-9.892543E-4],"categories":[],"categories_nodes":[],"categories_segments":[],"categories_sizes":[],"default_left":[0,0,0,0,0,0,0],"id":20,"left_children":[1,3,5,-1,-1,-1,-1],"loss_changes":[1.5902287E2,6.558759E1,3.3110474E1,0E0,0E0,0E0,0E0],"parents":[2147483647,0,0,1,1,2,2],"right_children":[2,4,6,-1,-1,-1,-1],"split_conditions":[2.217641E-1,-2.1280567E-1,7.770754E-1,-2.0590886E-2,-1.4639657E-3,1.6390054E-2,-9.892543E-4],"split_indices":[2,1,4,0,0,0,0],"split_type":[0,0,0,0,0,0,0],"sum_hessian":[1.7251649E3,1.0291144E3,6.960505E2,3.4984427E2,6.7927014E2,4.8750507E2,2.0854543E2],"tree_param":{"num_deleted":"0","num_feature":"7","num_nodes":"7","size_leaf_vector":"1"}},{"base_weights":[-2.1796618E-2,-3.4872445E-1,2.0039517E-1,-2.1089753E-2,-5.5767302E-3,-1.3840714E-3,1.4143991E-2],"categories":[],"categories_nodes":[],"categories_segments":[],"categories_sizes":[],"default_left":[0,0,0,0,0,0,0],"id":21,"left_children":[1,3,5,-1,-1,-1,-1],"loss_changes":[1.523668E2,1.7499565E1,4.772564E1,0E0,0E0,0E0,0E0],"parents":[2147483647,0,0,1,1,2,2],"right_children":[2,4,6,-1,-1,-1,-1],"split_conditions":[-3.0470574E-1,-5.197372E-1,1E0,-2.1089753E-2,-5.5767302E-3,-1.3840714E-3,1.4143991E-2],"split_indices":[2,1,0,0,0,0,0],"split_type":[0,0,0,0,0,0,0],"sum_hessian":[1.7227928E3,6.530866E2,1.0697062E3,1.9588435E2,4.5720227E2,4.80516E2,5.891902E2],"tree_param":{"num_deleted":"0","num_feature":"7","num_nodes":"7","size_leaf_vector":"1"}},{"base_weights":[-2.234051E-2,-2.2263287E-1,3.2382306E-1,-2.0064056E-2,-3.1750652E-4,1.6907962E-2,-3.7468996E-4],"categories":[],"categories_nodes":[],"categories_segments":[],"categories_sizes":[],"default_left":[0,0,0,0,0,0,0],"id":22,"left_children":[1,3,5,-1,-1,-1,-1],"loss_changes":[1.4630986E2,7.854636E1,2.6402954E1,0E0,0E0,0E0,0E0],"parents":[2147483647,0,0,1,1,2,2],"right_children":[2,4,6,-1,-1,-1,-1],"split_conditions":[3.9098653E-1,-2.1280567E-1,7.770754E-1,-2.0064056E-2,-3.1750652E-4,1.6907962E-2,-3.7468996E-4],"split_indices":[2,1,4,0,0,0,0],"split_type":[0,0,0,0,0,0,0],"sum_hessian":[1.720618E3,1.1331375E3,5.8748065E2,3.8179852E2,7.5133887E2,4.1347055E2,1.7401012E2],"tree_param":{"num_deleted":"0","num_feature":"7","num_nodes":"7","size_leaf_vector":"1"}},{"base_weights":[-2.1859162E-2,-3.4600106E-1,1.8538347E-1,-1.8368984E-2,-3.7030785E-3,-1.6048881E-3,1.3393366E-2],"categories":[],"categories_nodes":[],"categories_segments":[],"categories_sizes":[],"default_left":[0,0,0,0,0,0,0],"id":23,"left_children":[1,3,5,-1,-1,-1,-1],"loss_changes":[1.4051137E2,1.5158295E1,4.6009068E1,0E0,0E0,0E0,0E0],"parents":[2147483647,0,0,1,1,2,2],"right_children":[2,4,6,-1,-1,-1,-1],"split_conditions":[-3.5735273E-1,2.532755E-1,1E0,-1.8368984E-2,-3.7030785E-3,-1.6048881E-3,1.3393366E-2],"split_indices":[2,1,0,0,0,0,0],"split_type":[0,0,0,0,0,0,0],"sum_hessian":[1.7183134E3,6.202757E2,1.0980376E3,3.21521E2,2.987547E2,4.9334872E2,6.0468896E2],"tree_param":{"num_deleted":"0","num_feature":"7","num_nodes":"7","size_leaf_vector":"1"}},{"base_weights":[-2.2045154E-2,-2.1440196E-1,3.1052932E-1,-1.9385252E-2,-2.8892528E-4,1.6281696E-2,-4.5599928E-4],"categories":[],"categories_nodes":[],"categories_segments":[],"categories_sizes":[],"default_left":[0,0,0,0,0,0,0],"id":24,"left_children":[1,3,5,-1,-1,-1,-1],"loss_changes":[1.3470589E2,7.3295044E1,2.502105E1,0E0,0E0,0E0,0E0],"parents":[2147483647,0,0,1,1,2,2],"right_children":[2,4,6,-1,-1,-1,-1],"split_conditions":[3.9098653E-1,-2.1280567E-1,7.770754E-1,-1.9385252E-2,-2.8892528E-4,1.6281696E-2,-4.5599928E-4],"split_indices":[2,1,4,0,0,0,0],"split_type":[0,0,0,0,0,0,0],"sum_hessian":[1.7158911E3,1.1301146E3,5.857765E2,3.7942883E2,7.5068585E2,4.1181778E2,1.7395872E2],"tree_param":{"num_deleted":"0","num_feature":"7","num_nodes":"7","size_leaf_vector":"1"}},{"base_weights":[-2.1577183E-2,-3.3291182E-1,1.7720814E-1,-1.1480533E-3,-1.6053319E-2,-7.3605566E-3,1.0179078E-2],"categories":[],"categories_nodes":[],"categories_segments":[],"categories_sizes":[],"default_left":[0,0,0,0,0,0,0],"id":25,"left_children":[1,3,5,-1,-1,-1,-1],"loss_changes":[1.2913576E2,1.4628517E1,4.4865818E1,0E0,0E0,0E0,0E0],"parents":[2147483647,0,0,1,1,2,2],"right_children":[2,4,6,-1,-1,-1,-1],"split_conditions":[-3.5735273E-1,-4.1451833E-1,-9.346631E-1,-1.1480533E-3,-1.6053319E-2,-7.3605566E-3,1.0179078E-2],"split_indices":[2,4,1,0,0,0,0],"split_type":[0,0,0,0,0,0,0],"sum_hessian":[1.7135103E3,6.175068E2,1.0960034E3,1.6316628E2,4.5434048E2,1.4663605E2,9.4936743E2],"tree_param":{"num_deleted":"0","num_feature":"7","num_nodes":"7","size_leaf_vector":"1"}},{"base_weights":[-2.218922E-2,-2.0674463E-1,2.972346E-1,-1.8762346E-2,-2.547736E-4,1.5665106E-2,-5.551387E-4],"categories":[],"categories_nodes":[],"categories_segments":[],"categories_sizes":[],"default_left":[0,0,0,0,0,0,0],"id":26,"left_children":[1,3,5,-1,-1,-1,-1],"loss_changes":[1.23855774E2,6.8708565E1,2.3792053E1,0E0,0E0,0E0,0E0],"parents":[2147483647,0,0,1,1,2,2],"right_children":[2,4,6,-1,-1,-1,-1],"split_conditions":[3.9098653E-1,-2.1280567E-1,7.770754E-1,-1.8762346E-2,-2.547736E-4,1.5665106E-2,-5.551387E-4],"split_indices":[2,1,4,0,0,0,0],"split_type":[0,0,0,0,0,0,0],"sum_hessian":[1.7108809E3,1.1270659E3,5.8381494E2,3.7718103E2,7.498849E2,4.0999167E2,1.7382324E2],"tree_param":{"num_deleted":"0","num_feature":"7","num_nodes":"7","size_leaf_vector":"1"}},{"base_weights":[-2.1723388E-2,-3.6117047E-1,1.4738159E-1,1.7111645E-3,-1.5872473E-2,-3.1061384E-3,1.2328032E-2],"categories":[],"categories_nodes":[],"categories_segments":[],"categories_sizes":[],"default_left":[0,0,0,0,0,0,0],"id":27,"left_children":[1,3,5,-1,-1,-1,-1],"loss_changes":[1.1919903E2,1.3132645E1,5.5363117E1,0E0,0E0,0E0,0E0],"parents":[2147483647,0,0,1,1,2,2],"right_children":[2,4,6,-1,-1,-1,-1],"split_conditions":[-5.115332E-1,-1.1294745E0,1E0,1.7111645E-3,-1.5872473E-2,-3.1061384E-3,1.2328032E-2],"split_indices":[2,4,0,0,0,0,0],"split_type":[0,0,0,0,0,0,0],"sum_hessian":[1.7084415E3,4.9595996E2,1.2124816E3,3.7110317E1,4.5884964E2,5.4651465E2,6.65967E2],"tree_param":{"num_deleted":"0","num_feature":"7","num_nodes":"7","size_leaf_vector":"1"}},{"base_weights":[-2.1376608E-2,-2.2506121E-1,2.4669993E-1,-1.809321E-2,-1.3695066E-3,-4.81696E-3,1.2406592E-2],"categories":[],"categories_nodes":[],"categories_segments":[],"categories_sizes":[],"default_left":[0,0,0,0,0,0,0],"id":28,"left_children":[1,3,5,-1,-1,-1,-1],"loss_changes":[1.1420868E2,4.813295E1,2.834428E1,0E0,0E0,0E0,0E0],"parents":[2147483647,0,0,1,1,2,2],"right_children":[2,4,6,-1,-1,-1,-1],"split_conditions":[1.5407512E-1,-2.1280567E-1,-1.1051806E0,-1.809321E-2,-1.3695066E-3,-4.81696E-3,1.2406592E-2],"split_indices":[2,1,1,0,0,0,0],"split_type":[0,0,0,0,0,0,0],"sum_hessian":[1.7064001E3,9.8707104E2,7.1932904E2,3.310478E2,6.560233E2,8.0756676E1,6.385724E2],"tree_param":{"num_deleted":"0","num_feature":"7","num_nodes":"7","size_leaf_vector":"1"}},{"base_weights":[-2.1749489E-2,-1.9486965E-1,2.7824455E-1,-1.7848006E-2,-1.7219881E-4,7.470575E-4,1.6057989E-2],"categories":[],"categories_nodes":[],"categories_segments":[],"categories_sizes":[],"default_left":[0,0,0,0,0,0,0],"id":29,"left_children":[1,3,5,-1,-1,-1,-1],"loss_changes":[1.0875846E2,6.2554283E1,2.3255924E1,0E0,0E0,0E0,0E0],"parents":[2147483647,0,0,1,1,2,2],"right_children":[2,4,6,-1,-1,-1,-1],"split_conditions":[3.9098653E-1,-2.1280567E-1,1E0,-1.7848006E-2,-1.7219881E-4,7.470575E-4,1.6057989E-2],"split_indices":[2,1,0,0,0,0,0],"split_type":[0,0,0,0,0,0,0],"sum_hessian":[1.7037172E3,1.122739E3,5.809782E2,3.736814E2,7.490576E2,2.5779993E2,3.2317828E2],"tree_param":{"num_deleted":"0","num_feature":"7","num_nodes":"7","size_leaf_vector":"1"}},{"base_weights":[-2.1029534E-2,-3.5130847E-1,1.3401031E-1,1.8505611E-3,-1.5517572E-2,-3.1373214E-3,1.1500024E-2],"categories":[],"categories_nodes":[],"categories_segments":[],"categories_sizes":[],"default_left":[0,0,0,0,0,0,0],"id":30,"left_children":[1,3,5,-1,-1,-1,-1],"loss_changes":[1.05896866E2,1.3000496E1,5.081046E1,0E0,0E0,0E0,0E0],"parents":[2147483647,0,0,1,1,2,2],"right_children":[2,4,6,-1,-1,-1,-1],"split_conditions":[-5.453777E-1,-1.1294745E0,1E0,1.8505611E-3,-1.5517572E-2,-3.1373214E-3,1.1500024E-2],"split_indices":[2,4,0,0,0,0,0],"split_type":[0,0,0,0,0,0,0],"sum_hessian":[1.7014352E3,4.662975E2,1.2351377E3,3.51009E1,4.311966E2,5.572529E2,6.778847E2],"tree_param":{"num_deleted":"0","num_feature":"7","num_nodes":"7","size_leaf_vector":"1"}},{"base_weights":[-2.0748524E-2,-4.24235E-1,1.012352E-1,-1.9805579E-2,3.3967165E-4,-4.0179617E-3,1.145636E-2],"categories":[],"categories_nodes":[],"categories_segments":[],"categories_sizes":[],"default_left":[0,0,0,0,0,0,0],"id":31,"left_children":[1,3,5,-1,-1,-1,-1],"loss_changes":[1.0124669E2,1.5396851E1,6.546509E1,0E0,0E0,0E0,0E0],"parents":[2147483647,0,0,1,1,2,2],"right_children":[2,4,6,-1,-1,-1,-1],"split_conditions":[-9.346631E-1,8.535279E-1,1E0,-1.9805579E-2,3.3967165E-4,-4.0179617E-3,1.145636E-2],"split_indices":[1,2,0,0,0,0,0],"split_type":[0,0,0,0,0,0,0],"sum_hessian":[1.6994109E3,2.8464127E2,1.4147697E3,2.2089783E2,6.374342E1,7.190253E2,6.957444E2],"tree_param":{"num_deleted":"0","num_feature":"7","num_nodes":"7","size_leaf_vector":"1"}},{"base_weights":[-2.115632E-2,-1.8695053E-1,2.6614818E-1,-1.7131872E-2,-1.8547902E-4,1.432898E-2,-9.634436E-4],"categories":[],"categories_nodes":[],"categories_segments":[],"categories_sizes":[],"default_left":[0,0,0,0,0,0,0],"id":32,"left_children":[1,3,5,-1,-1,-1,-1],"loss_changes":[9.94672E1,5.7251656E1,2.2222404E1,0E0,0E0,0E0,0E0],"parents":[2147483647,0,0,1,1,2,2],"right_children":[2,4,6,-1,-1,-1,-1],"split_conditions":[3.9098653E-1,-2.1280567E-1,7.770754E-1,-1.7131872E-2,-1.8547902E-4,1.432898E-2,-9.634436E-4],"split_indices":[2,1,4,0,0,0,0],"split_type":[0,0,0,0,0,0,0],"sum_hessian":[1.6976677E3,1.1187743E3,5.7889343E2,3.7054468E2,7.482296E2,4.0550424E2,1.7338919E2],"tree_param":{"num_deleted":"0","num_feature":"7","num_nodes":"7","size_leaf_vector":"1"}},{"base_weights":[-2.0738889E-2,-3.261068E-1,1.3084331E-1,1.7576372E-3,-1.4417394E-2,-2.8526294E-3,1.1055138E-2],"categories":[],"categories_nodes":[],"categories_segments":[],"categories_sizes":[],"default_left":[0,0,0,0,0,0,0],"id":33,"left_children":[1,3,5,-1,-1,-1,-1],"loss_changes":[9.545633E1,1.1667854E1,4.4859398E1,0E0,0E0,0E0,0E0],"parents":[2147483647,0,0,1,1,2,2],"right_children":[2,4,6,-1,-1,-1,-1],"split_conditions":[-5.115332E-1,-1.1294745E0,1E0,1.7576372E-3,-1.4417394E-2,-2.8526294E-3,1.1055138E-2],"split_indices":[2,4,0,0,0,0,0],"split_type":[0,0,0,0,0,0,0],"sum_hessian":[1.6951462E3,4.8937466E2,1.2057716E3,3.7003292E1,4.5237137E2,5.4547375E2,6.6029785E2],"tree_param":{"num_deleted":"0","num_feature":"7","num_nodes":"7","size_leaf_vector":"1"}},{"base_weights":[-2.0385966E-2,-4.359754E-1,9.0210274E-2,-1.8461365E-2,1.3157023E-3,-4.1658175E-3,1.0837161E-2],"categories":[],"categories_nodes":[],"categories_segments":[],"categories_sizes":[],"default_left":[0,0,0,0,0,0,0],"id":34,"left_children":[1,3,5,-1,-1,-1,-1],"loss_changes":[9.410629E1,8.03743E0,6.321274E1,0E0,0E0,0E0,0E0],"parents":[2147483647,0,0,1,1,2,2],"right_children":[2,4,6,-1,-1,-1,-1],"split_conditions":[-1.0824449E0,2.2674754E0,1E0,-1.8461365E-2,1.3157023E-3,-4.1658175E-3,1.0837161E-2],"split_indices":[1,2,0,0,0,0,0],"split_type":[0,0,0,0,0,0,0],"sum_hessian":[1.6930171E3,2.3773717E2,1.4552799E3,2.2828075E2,9.45642E0,7.401781E2,7.151018E2],"tree_param":{"num_deleted":"0","num_feature":"7","num_nodes":"7","size_leaf_vector":"1"}},{"base_weights":[-2.0652648E-2,-1.7954879E-1,2.548105E-1,-1.6486196E-2,-1.8210917E-4,1.3750222E-2,-9.565738E-4],"categories":[],"categories_nodes":[],"categories_segments":[],"categories_sizes":[],"default_left":[0,0,0,0,0,0,0],"id":35,"left_children":[1,3,5,-1,-1,-1,-1],"loss_changes":[9.112955E1,5.2794796E1,2.0598724E1,0E0,0E0,0E0,0E0],"parents":[2147483647,0,0,1,1,2,2],"right_children":[2,4,6,-1,-1,-1,-1],"split_conditions":[3.9098653E-1,-2.1280567E-1,7.770754E-1,-1.6486196E-2,-1.8210917E-4,1.3750222E-2,-9.565738E-4],"split_indices":[2,1,4,0,0,0,0],"split_type":[0,0,0,0,0,0,0],"sum_hessian":[1.6913636E3,1.1148098E3,5.7655383E2,3.674906E2,7.473192E2,4.0329385E2,1.7325996E2],"tree_param":{"num_deleted":"0","num_feature":"7","num_nodes":"7","size_leaf_vector":"1"}},{"base_weights":[-2.0248447E-2,-4.2273444E-1,8.664972E-2,-1.8485809E-2,2.3295912E-4,-4.040831E-3,1.0457322E-2],"categories":[],"categories_nodes":[],"categories_segments":[],"categories_sizes":[],"default_left":[0,0,0,0,0,0,0],"id":36,"left_children":[1,3,5,-1,-1,-1,-1],"loss_changes":[8.7876015E1,7.725815E0,5.8965145E1,0E0,0E0,0E0,0E0],"parents":[2147483647,0,0,1,1,2,2],"right_children":[2,4,6,-1,-1,-1,-1],"split_conditions":[-1.0824449E0,1.2295778E0,1E0,-1.8485809E-2,2.3295912E-4,-4.040831E-3,1.0457322E-2],"split_indices":[1,2,0,0,0,0,0],"split_type":[0,0,0,0,0,0,0],"sum_hessian":[1.68883E3,2.3598714E2,1.4528428E3,2.0240475E2,3.3582375E1,7.3946344E2,7.1337933E2],"tree_param":{"num_deleted":"0","num_feature":"7","num_nodes":"7","size_leaf_vector":"1"}},{"base_weights":[-2.066245E-2,-1.7476985E-1,2.4675831E-1,-1.5920604E-2,-2.3603241E-4,1.331956E-2,-9.1857876E-4],"categories":[],"categories_nodes":[],"categories_segments":[],"categories_sizes":[],"default_left":[0,0,0,0,0,0,0],"id":37,"left_children":[1,3,5,-1,-1,-1,-1],"loss_changes":[8.5636795E1,4.868466E1,1.9272121E1,0E0,0E0,0E0,0E0],"parents":[2147483647,0,0,1,1,2,2],"right_children":[2,4,6,-1,-1,-1,-1],"split_conditions":[3.9098653E-1,-2.0143785E-1,7.770754E-1,-1.5920604E-2,-2.3603241E-4,1.331956E-2,-9.1857876E-4],"split_indices":[2,1,4,0,0,0,0],"split_type":[0,0,0,0,0,0,0],"sum_hessian":[1.6871094E3,1.1122968E3,5.748126E2,3.6740714E2,7.4488965E2,4.016149E2,1.7319774E2],"tree_param":{"num_deleted":"0","num_feature":"7","num_nodes":"7","size_leaf_vector":"1"}},{"base_weights":[-2.0246662E-2,-3.1343457E-1,1.1683778E-1,1.8852198E-3,-1.3944456E-2,-7.630715E-3,7.4975654E-3],"categories":[],"categories_nodes":[],"categories_segments":[],"categories_sizes":[],"default_left":[0,0,0,0,0,0,0],"id":38,"left_children":[1,3,5,-1,-1,-1,-1],"loss_changes":[8.237676E1,1.1375145E1,3.7606514E1,0E0,0E0,0E0,0E0],"parents":[2147483647,0,0,1,1,2,2],"right_children":[2,4,6,-1,-1,-1,-1],"split_conditions":[-5.453777E-1,-1.1294745E0,-9.1192746E-1,1.8852198E-3,-1.3944456E-2,-7.630715E-3,7.4975654E-3],"split_indices":[2,4,1,0,0,0,0],"split_type":[0,0,0,0,0,0,0],"sum_hessian":[1.6845748E3,4.5842154E2,1.2261532E3,3.4979084E1,4.2344247E2,1.6820494E2,1.0579482E3],"tree_param":{"num_deleted":"0","num_feature":"7","num_nodes":"7","size_leaf_vector":"1"}},{"base_weights":[-2.0707764E-2,-4.057302E-1,8.139783E-2,-1.7393766E-2,1.089486E-3,-3.939033E-3,9.97775E-3],"categories":[],"categories_nodes":[],"categories_segments":[],"categories_sizes":[],"default_left":[0,0,0,0,0,0,0],"id":39,"left_children":[1,3,5,-1,-1,-1,-1],"loss_changes":[7.994839E1,7.6138077E0,5.4253155E1,0E0,0E0,0E0,0E0],"parents":[2147483647,0,0,1,1,2,2],"right_children":[2,4,6,-1,-1,-1,-1],"split_conditions":[-1.0824449E0,2.2723713E0,1E0,-1.7393766E-2,1.089486E-3,-3.939033E-3,9.97775E-3],"split_indices":[1,5,0,0,0,0,0],"split_type":[0,0,0,0,0,0,0],"sum_hessian":[1.6821874E3,2.3354938E2,1.4486381E3,2.1805856E2,1.5490809E1,7.378877E2,7.107503E2],"tree_param":{"num_deleted":"0","num_feature":"7","num_nodes":"7","size_leaf_vector":"1"}},{"base_weights":[-2.0946601E-2,-1.6256453E-1,2.489265E-1,-1.6761184E-2,-7.2766445E-4,-3.6216204E-3,1.193524E-2],"categories":[],"categories_nodes":[],"categories_segments":[],"categories_sizes":[],"default_left":[0,0,0,0,0,0,0],"id":40,"left_children":[1,3,5,-1,-1,-1,-1],"loss_changes":[7.925678E1,4.8269657E1,1.7240036E1,0E0,0E0,0E0,0E0],"parents":[2147483647,0,0,1,1,2,2],"right_children":[2,4,6,-1,-1,-1,-1],"split_conditions":[4.4363353E-1,-5.197372E-1,-1.2643303E0,-1.6761184E-2,-7.2766445E-4,-3.6216204E-3,1.193524E-2],"split_indices":[2,1,1,0,0,0,0],"split_type":[0,0,0,0,0,0,0],"sum_hessian":[1.6805272E3,1.1519694E3,5.28558E2,2.8403928E2,8.6793E2,4.7033016E1,4.8152496E2],"tree_param":{"num_deleted":"0","num_feature":"7","num_nodes":"7","size_leaf_vector":"1"}},{"base_weights":[-2.1074248E-2,-1.8691738E-1,1.977967E-1,-1.6009165E-2,-1.8932539E-3,1.1467812E-2,-1.7024265E-3],"categories":[],"categories_nodes":[],"categories_segments":[],"categories_sizes":[],"default_left":[0,0,0,0,0,0,0],"id":41,"left_children":[1,3,5,-1,-1,-1,-1],"loss_changes":[7.490685E1,3.0967953E1,2.1529987E1,0E0,0E0,0E0,0E0],"parents":[2147483647,0,0,1,1,2,2],"right_children":[2,4,6,-1,-1,-1,-1],"split_conditions":[1.5407512E-1,-5.197372E-1,7.770754E-1,-1.6009165E-2,-1.8932539E-3,1.1467812E-2,-1.7024265E-3],"split_indices":[2,1,4,0,0,0,0],"split_type":[0,0,0,0,0,0,0],"sum_hessian":[1.6781061E3,9.7056964E2,7.0753644E2,2.428327E2,7.2773694E2,4.8962225E2,2.1791417E2],"tree_param":{"num_deleted":"0","num_feature":"7","num_nodes":"7","size_leaf_vector":"1"}},{"base_weights":[-2.1092534E-2,1.7310189E-1,-2.0308375E-1,9.1461954E-4,1.3786975E-2,-1.3154491E-2,8.5616537E-4],"categories":[],"categories_nodes":[],"categories_segments":[],"categories_sizes":[],"default_left":[0,0,0,0,0,0,0],"id":42,"left_children":[1,3,5,-1,-1,-1,-1],"loss_changes":[7.2683136E1,2.442926E1,3.1033298E1,0E0,0E0,0E0,0E0],"parents":[2147483647,0,0,1,1,2,2],"right_children":[2,4,6,-1,-1,-1,-1],"split_conditions":[3.004379E-1,4.8499903E-1,1.1686151E-1,9.1461954E-4,1.3786975E-2,-1.3154491E-2,8.5616537E-4],"split_indices":[4,2,1,0,0,0,0],"split_type":[0,0,0,0,0,0,0],"sum_hessian":[1.6755973E3,8.1513446E2,8.604629E2,5.49992E2,2.6514246E2,4.9456067E2,3.659022E2],"tree_param":{"num_deleted":"0","num_feature":"7","num_nodes":"7","size_leaf_vector":"1"}},{"base_weights":[-2.0020178E-2,-3.8430074E-1,7.619184E-2,-1.653704E-2,1.1480671E-3,-3.8502875E-3,9.5175905E-3],"categories":[],"categories_nodes":[],"categories_segments":[],"categories_sizes":[],"default_left":[0,0,0,0,0,0,0],"id":43,"left_children":[1,3,5,-1,-1,-1,-1],"loss_changes":[7.095467E1,7.333496E0,4.997101E1,0E0,0E0,0E0,0E0],"parents":[2147483647,0,0,1,1,2,2],"right_children":[2,4,6,-1,-1,-1,-1],"split_conditions":[-1.0824449E0,2.2723713E0,1E0,-1.653704E-2,1.1480671E-3,-3.8502875E-3,9.5175905E-3],"split_indices":[1,5,0,0,0,0,0],"split_type":[0,0,0,0,0,0,0],"sum_hessian":[1.6739214E3,2.3024564E2,1.4436758E3,2.1489514E2,1.5350508E1,7.361536E2,7.0752216E2],"tree_param":{"num_deleted":"0","num_feature":"7","num_nodes":"7","size_leaf_vector":"1"}},{"base_weights":[-2.0235093E-2,-1.5332748E-1,2.3382273E-1,-1.578846E-2,-7.293031E-4,-3.4674231E-3,1.1242585E-2],"categories":[],"categories_nodes":[],"categories_segments":[],"categories_sizes":[],"default_left":[0,0,0,0,0,0,0],"id":44,"left_children":[1,3,5,-1,-1,-1,-1],"loss_changes":[6.984976E1,4.225937E1,1.54975395E1,0E0,0E0,0E0,0E0],"parents":[2147483647,0,0,1,1,2,2],"right_children":[2,4,6,-1,-1,-1,-1],"split_conditions":[4.4363353E-1,-5.197372E-1,-1.2643303E0,-1.578846E-2,-7.293031E-4,-3.4674231E-3,1.1242585E-2],"split_indices":[2,1,1,0,0,0,0],"split_type":[0,0,0,0,0,0,0],"sum_hessian":[1.6722429E3,1.1470636E3,5.251794E2,2.7989792E2,8.671656E2,4.697949E1,4.781999E2],"tree_param":{"num_deleted":"0","num_feature":"7","num_nodes":"7","size_leaf_vector":"1"}},{"base_weights":[-2.0349877E-2,-2.9382074E-1,1.0173974E-1,1.7191182E-3,-1.305911E-2,-7.035437E-3,6.6234074E-3],"categories":[],"categories_nodes":[],"categories_segments":[],"categories_sizes":[],"default_left":[0,0,0,0,0,0,0],"id":45,"left_children":[1,3,5,-1,-1,-1,-1],"loss_changes":[6.783927E1,9.537479E0,3.08807E1,0E0,0E0,0E0,0E0],"parents":[2147483647,0,0,1,1,2,2],"right_children":[2,4,6,-1,-1,-1,-1],"split_conditions":[-5.7922214E-1,-1.1294745E0,-9.1192746E-1,1.7191182E-3,-1.305911E-2,-7.035437E-3,6.6234074E-3],"split_indices":[2,4,1,0,0,0,0],"split_type":[0,0,0,0,0,0,0],"sum_hessian":[1.6698406E3,4.3247385E2,1.2373667E3,3.2891674E1,3.9958215E2,1.6868335E2,1.0686833E3],"tree_param":{"num_deleted":"0","num_feature":"7","num_nodes":"7","size_leaf_vector":"1"}},{"base_weights":[-2.0770624E-2,1.6461177E-1,-1.9450338E-1,8.8191836E-4,1.3110412E-2,-1.252908E-2,7.125996E-4],"categories":[],"categories_nodes":[],"categories_segments":[],"categories_sizes":[],"default_left":[0,0,0,0,0,0,0],"id":46,"left_children":[1,3,5,-1,-1,-1,-1],"loss_changes":[6.59736E1,2.1938778E1,2.7457005E1,0E0,0E0,0E0,0E0],"parents":[2147483647,0,0,1,1,2,2],"right_children":[2,4,6,-1,-1,-1,-1],"split_conditions":[3.004379E-1,4.8499903E-1,1.1686151E-1,8.8191836E-4,1.3110412E-2,-1.252908E-2,7.125996E-4],"split_indices":[4,2,1,0,0,0,0],"split_type":[0,0,0,0,0,0,0],"sum_hessian":[1.6675482E3,8.115777E2,8.5597046E2,5.488173E2,2.6276035E2,4.9076764E2,3.6520282E2],"tree_param":{"num_deleted":"0","num_feature":"7","num_nodes":"7","size_leaf_vector":"1"}},{"base_weights":[-1.9733436E-2,-2.3463471E-1,1.2528804E-1,-1.560655E-3,-1.2699003E-2,9.814617E-3,-1.4360864E-3],"categories":[],"categories_nodes":[],"categories_segments":[],"categories_sizes":[],"default_left":[0,0,0,0,0,0,0],"id":47,"left_children":[1,3,5,-1,-1,-1,-1],"loss_changes":[6.3484554E1,1.0835808E1,2.5551558E1,0E0,0E0,0E0,0E0],"parents":[2147483647,0,0,1,1,2,2],"right_children":[2,4,6,-1,-1,-1,-1],"split_conditions":[-3.0470574E-1,3.004379E-1,6.211915E-2,-1.560655E-3,-1.2699003E-2,9.814617E-3,-1.4360864E-3],"split_indices":[2,4,4,0,0,0,0],"split_type":[0,0,0,0,0,0,0],"sum_hessian":[1.6658646E3,6.236617E2,1.0422029E3,2.691207E2,3.5454095E2,5.4011E2,5.0209293E2],"tree_param":{"num_deleted":"0","num_feature":"7","num_nodes":"7","size_leaf_vector":"1"}},{"base_weights":[-1.957336E-2,-3.6129996E-1,7.038087E-2,-1.5808124E-2,9.4689906E-4,-3.7337642E-3,8.982635E-3],"categories":[],"categories_nodes":[],"categories_segments":[],"categories_sizes":[],"default_left":[0,0,0,0,0,0,0],"id":48,"left_children":[1,3,5,-1,-1,-1,-1],"loss_changes":[6.186837E1,7.2375107E0,4.510176E1,0E0,0E0,0E0,0E0],"parents":[2147483647,0,0,1,1,2,2],"right_children":[2,4,6,-1,-1,-1,-1],"split_conditions":[-1.0824449E0,1.9483668E0,1E0,-1.5808124E-2,9.4689906E-4,-3.7337642E-3,8.982635E-3],"split_indices":[1,5,0,0,0,0,0],"split_type":[0,0,0,0,0,0,0],"sum_hessian":[1.6636509E3,2.2661511E2,1.4370358E3,2.0360818E2,2.3006916E1,7.335095E2,7.0352625E2],"tree_param":{"num_deleted":"0","num_feature":"7","num_nodes":"7","size_leaf_vector":"1"}},{"base_weights":[-1.9799856E-2,-1.4443065E-1,2.1845038E-1,-1.4895253E-2,-7.052529E-4,-3.2525628E-3,1.0516696E-2],"categories":[],"categories_nodes":[],"categories_segments":[],"categories_sizes":[],"default_left":[0,0,0,0,0,0,0],"id":49,"left_children":[1,3,5,-1,-1,-1,-1],"loss_changes":[6.104754E1,3.723343E1,1.3579723E1,0E0,0E0,0E0,0E0],"parents":[2147483647,0,0,1,1,2,2],"right_children":[2,4,6,-1,-1,-1,-1],"split_conditions":[4.4363353E-1,-5.197372E-1,-1.2643303E0,-1.4895253E-2,-7.052529E-4,-3.2525628E-3,1.0516696E-2],"split_indices":[2,1,1,0,0,0,0],"split_type":[0,0,0,0,0,0,0],"sum_hessian":[1.6619863E3,1.1405616E3,5.214247E2,2.7545108E2,8.6511053E2,4.6911526E1,4.7451318E2],"tree_param":{"num_deleted":"0","num_feature":"7","num_nodes":"7","size_leaf_vector":"1"}},{"base_weights":[-1.9894196E-2,-2.977506E-1,8.352951E-2,1.6225835E-3,-1.3195452E-2,-7.712473E-3,5.886536E-3],"categories":[],"categories_nodes":[],"categories_segments":[],"categories_sizes":[],"default_left":[0,0,0,0,0,0,0],"id":50,"left_children":[1,3,5,-1,-1,-1,-1],"loss_changes":[5.7931686E1,8.46846E0,3.1757805E1,0E0,0E0,0E0,0E0],"parents":[2147483647,0,0,1,1,2,2],"right_children":[2,4,6,-1,-1,-1,-1],"split_conditions":[-6.9955814E-1,-1.3677933E0,-9.346631E-1,1.6225835E-3,-1.3195452E-2,-7.712473E-3,5.886536E-3],"split_indices":[2,4,1,0,0,0,0],"split_type":[0,0,0,0,0,0,0],"sum_hessian":[1.6596263E3,3.528332E2,1.3067932E3,2.6261604E1,3.265716E2,1.7202242E2,1.1347708E3],"tree_param":{"num_deleted":"0","num_feature":"7","num_nodes":"7","size_leaf_vector":"1"}},{"base_weights":[-2.05075E-2,-1.4059103E-1,2.0955178E-1,-1.4458206E-2,-7.185716E-4,-3.1662642E-3,1.0109141E-2],"categories":[],"categories_nodes":[],"categories_segments":[],"categories_sizes":[],"default_left":[0,0,0,0,0,0,0],"id":51,"left_children":[1,3,5,-1,-1,-1,-1],"loss_changes":[5.6695244E1,3.4750866E1,1.2679657E1,0E0,0E0,0E0,0E0],"parents":[2147483647,0,0,1,1,2,2],"right_children":[2,4,6,-1,-1,-1,-1],"split_conditions":[4.4363353E-1,-5.197372E-1,-1.2643303E0,-1.4458206E-2,-7.185716E-4,-3.1662642E-3,1.0109141E-2],"split_indices":[2,1,1,0,0,0,0],"split_type":[0,0,0,0,0,0,0],"sum_hessian":[1.6575328E3,1.1378765E3,5.196564E2,2.7342166E2,8.644548E2,4.6898514E1,4.7275787E2],"tree_param":{"num_deleted":"0","num_feature":"7","num_nodes":"7","size_leaf_vector":"1"}},{"base_weights":[-2.0565614E-2,1.5064675E-1,-1.8089755E-1,7.766217E-4,1.2077144E-2,-1.1771311E-2,7.418594E-4],"categories":[],"categories_nodes":[],"categories_segments":[],"categories_sizes":[],"default_left":[0,0,0,0,0,0,0],"id":52,"left_children":[1,3,5,-1,-1,-1,-1],"loss_changes":[5.588475E1,1.867408E1,2.456511E1,0E0,0E0,0E0,0E0],"parents":[2147483647,0,0,1,1,2,2],"right_children":[2,4,6,-1,-1,-1,-1],"split_conditions":[3.004379E-1,4.8499903E-1,1E0,7.766217E-4,1.2077144E-2,-1.1771311E-2,7.418594E-4],"split_indices":[4,2,0,0,0,0,0],"split_type":[0,0,0,0,0,0,0],"sum_hessian":[1.6552004E3,8.060201E2,8.491803E2,5.470169E2,2.5900314E2,4.8348975E2,3.6569058E2],"tree_param":{"num_deleted":"0","num_feature":"7","num_nodes":"7","size_leaf_vector":"1"}},{"base_weights":[-1.9568693E-2,-3.391069E-1,6.429843E-2,-1.4930351E-2,1.0556815E-3,-3.5903784E-3,8.400326E-3],"categories":[],"categories_nodes":[],"categories_segments":[],"categories_sizes":[],"default_left":[0,0,0,0,0,0,0],"id":53,"left_children":[1,3,5,-1,-1,-1,-1],"loss_changes":[5.360121E1,7.0488014E0,4.00056E1,0E0,0E0,0E0,0E0],"parents":[2147483647,0,0,1,1,2,2],"right_children":[2,4,6,-1,-1,-1,-1],"split_conditions":[-1.0824449E0,1.9483668E0,1E0,-1.4930351E-2,1.0556815E-3,-3.5903784E-3,8.400326E-3],"split_indices":[1,5,0,0,0,0,0],"split_type":[0,0,0,0,0,0,0],"sum_hessian":[1.6537369E3,2.2296028E2,1.4307766E3,2.0019878E2,2.2761501E1,7.3111487E2,6.9966174E2],"tree_param":{"num_deleted":"0","num_feature":"7","num_nodes":"7","size_leaf_vector":"1"}},{"base_weights":[-1.9743834E-2,-1.15061894E-1,2.512901E-1,-1.1777654E-2,1.3998739E-3,-2.0373312E-3,1.1673745E-2],"categories":[],"categories_nodes":[],"categories_segments":[],"categories_sizes":[],"default_left":[0,0,0,0,0,0,0],"id":54,"left_children":[1,3,5,-1,-1,-1,-1],"loss_changes":[5.3137558E1,4.2197876E1,9.451656E0,0E0,0E0,0E0,0E0],"parents":[2147483647,0,0,1,1,2,2],"right_children":[2,4,6,-1,-1,-1,-1],"split_conditions":[8.008809E-1,-1.3868583E-2,-1.2643303E0,-1.1777654E-2,1.3998739E-3,-2.0373312E-3,1.1673745E-2],"split_indices":[2,1,1,0,0,0,0],"split_type":[0,0,0,0,0,0,0],"sum_hessian":[1.6520829E3,1.3035583E3,3.4852457E2,5.1005994E2,7.9349835E2,3.5449745E1,3.1307483E2],"tree_param":{"num_deleted":"0","num_feature":"7","num_nodes":"7","size_leaf_vector":"1"}},{"base_weights":[-1.9051723E-2,1.453935E-1,-1.7321911E-1,7.7254523E-4,1.1634329E-2,-1.1283401E-2,7.418188E-4],"categories":[],"categories_nodes":[],"categories_segments":[],"categories_sizes":[],"default_left":[0,0,0,0,0,0,0],"id":55,"left_children":[1,3,5,-1,-1,-1,-1],"loss_changes":[5.1486584E1,1.7170122E1,2.2656933E1,0E0,0E0,0E0,0E0],"parents":[2147483647,0,0,1,1,2,2],"right_children":[2,4,6,-1,-1,-1,-1],"split_conditions":[3.004379E-1,4.8499903E-1,1.1686151E-1,7.7254523E-4,1.1634329E-2,-1.1283401E-2,7.418188E-4],"split_indices":[4,2,1,0,0,0,0],"split_type":[0,0,0,0,0,0,0],"sum_hessian":[1.6501207E3,8.0370526E2,8.464155E2,5.4644226E2,2.57263E2,4.825236E2,3.6389194E2],"tree_param":{"num_deleted":"0","num_feature":"7","num_nodes":"7","size_leaf_vector":"1"}},{"base_weights":[-1.8112056E-2,-2.784262E-1,7.841429E-2,1.633191E-3,-1.2396801E-2,-7.059684E-3,5.4732626E-3],"categories":[],"categories_nodes":[],"categories_segments":[],"categories_sizes":[],"default_left":[0,0,0,0,0,0,0],"id":56,"left_children":[1,3,5,-1,-1,-1,-1],"loss_changes":[5.0390465E1,7.8418846E0,2.6813633E1,0E0,0E0,0E0,0E0],"parents":[2147483647,0,0,1,1,2,2],"right_children":[2,4,6,-1,-1,-1,-1],"split_conditions":[-6.9955814E-1,-1.3677933E0,-9.346631E-1,1.633191E-3,-1.2396801E-2,-7.059684E-3,5.4732626E-3],"split_indices":[2,4,1,0,0,0,0],"split_type":[0,0,0,0,0,0,0],"sum_hessian":[1.6484606E3,3.4855072E2,1.2999098E3,2.6212551E1,3.2233817E2,1.7038257E2,1.1295272E3],"tree_param":{"num_deleted":"0","num_feature":"7","num_nodes":"7","size_leaf_vector":"1"}},{"base_weights":[-1.8693436E-2,-1.1030726E-1,2.4190828E-1,-1.1229559E-2,1.2832133E-3,-1.9584373E-3,1.1241078E-2],"categories":[],"categories_nodes":[],"categories_segments":[],"categories_sizes":[],"default_left":[0,0,0,0,0,0,0],"id":57,"left_children":[1,3,5,-1,-1,-1,-1],"loss_changes":[4.8964672E1,3.7895035E1,8.746727E0,0E0,0E0,0E0,0E0],"parents":[2147483647,0,0,1,1,2,2],"right_children":[2,4,6,-1,-1,-1,-1],"split_conditions":[8.008809E-1,-1.3868583E-2,-1.2643303E0,-1.1229559E-2,1.2832133E-3,-1.9584373E-3,1.1241078E-2],"split_indices":[2,1,1,0,0,0,0],"split_type":[0,0,0,0,0,0,0],"sum_hessian":[1.646424E3,1.299679E3,3.4674493E2,5.071076E2,7.925714E2,3.540839E1,3.1133655E2],"tree_param":{"num_deleted":"0","num_feature":"7","num_nodes":"7","size_leaf_vector":"1"}},{"base_weights":[-1.803419E-2,1.4018404E-1,-1.6649006E-1,7.793475E-4,1.1175379E-2,-1.1003662E-2,8.8904804E-4],"categories":[],"categories_nodes":[],"categories_segments":[],"categories_sizes":[],"default_left":[0,0,0,0,0,0,0],"id":58,"left_children":[1,3,5,-1,-1,-1,-1],"loss_changes":[4.7570465E1,1.5631132E1,2.2364954E1,0E0,0E0,0E0,0E0],"parents":[2147483647,0,0,1,1,2,2],"right_children":[2,4,6,-1,-1,-1,-1],"split_conditions":[3.004379E-1,4.8499903E-1,1E0,7.793475E-4,1.1175379E-2,-1.1003662E-2,8.8904804E-4],"split_indices":[4,2,0,0,0,0,0],"split_type":[0,0,0,0,0,0,0],"sum_hessian":[1.6444857E3,8.012202E2,8.432655E2,5.457424E2,2.5547783E2,4.7975687E2,3.6350867E2],"tree_param":{"num_deleted":"0","num_feature":"7","num_nodes":"7","size_leaf_vector":"1"}},{"base_weights":[-1.7134016E-2,-3.191064E-1,6.001287E-2,-1.3861305E-2,1.1841494E-3,-3.4482074E-3,7.952238E-3],"categories":[],"categories_nodes":[],"categories_segments":[],"categories_sizes":[],"default_left":[0,0,0,0,0,0,0],"id":59,"left_children":[1,3,5,-1,-1,-1,-1],"loss_changes":[4.638381E1,5.8178406E0,3.6182053E1,0E0,0E0,0E0,0E0],"parents":[2147483647,0,0,1,1,2,2],"right_children":[2,4,6,-1,-1,-1,-1],"split_conditions":[-1.1051806E0,2.2723713E0,1E0,-1.3861305E-2,1.1841494E-3,-3.4482074E-3,7.952238E-3],"split_indices":[1,5,0,0,0,0,0],"split_type":[0,0,0,0,0,0,0],"sum_hessian":[1.6430334E3,2.1244145E2,1.4305919E3,1.9805684E2,1.4384605E1,7.319032E2,6.986888E2],"tree_param":{"num_deleted":"0","num_feature":"7","num_nodes":"7","size_leaf_vector":"1"}},{"base_weights":[-1.7316801E-2,-2.0074667E-1,1.06052436E-1,-6.920804E-5,-1.0158696E-2,-1.4153253E-3,8.1727E-3],"categories":[],"categories_nodes":[],"categories_segments":[],"categories_sizes":[],"default_left":[0,0,0,0,0,0,0],"id":60,"left_children":[1,3,5,-1,-1,-1,-1],"loss_changes":[4.5532696E1,8.4198265E0,1.8344002E1,0E0,0E0,0E0,0E0],"parents":[2147483647,0,0,1,1,2,2],"right_children":[2,4,6,-1,-1,-1,-1],"split_conditions":[-3.0470574E-1,-4.1451833E-1,1E0,-6.920804E-5,-1.0158696E-2,-1.4153253E-3,8.1727E-3],"split_indices":[2,4,0,0,0,0,0],"split_type":[0,0,0,0,0,0,0],"sum_hessian":[1.6413949E3,6.118615E2,1.0295334E3,1.7070973E2,4.4115176E2,4.7216238E2,5.573711E2],"tree_param":{"num_deleted":"0","num_feature":"7","num_nodes":"7","size_leaf_vector":"1"}},{"base_weights":[-1.7005865E-2,-1.0458712E-1,2.3198079E-1,-1.0884917E-2,1.1786318E-3,-1.9020438E-3,1.0795802E-2],"categories":[],"categories_nodes":[],"categories_segments":[],"categories_sizes":[],"default_left":[0,0,0,0,0,0,0],"id":61,"left_children":[1,3,5,-1,-1,-1,-1],"loss_changes":[4.454769E1,3.4898445E1,8.128136E0,0E0,0E0,0E0,0E0],"parents":[2147483647,0,0,1,1,2,2],"right_children":[2,4,6,-1,-1,-1,-1],"split_conditions":[8.008809E-1,-4.228817E-2,-1.2643303E0,-1.0884917E-2,1.1786318E-3,-1.9020438E-3,1.0795802E-2],"split_indices":[2,1,1,0,0,0,0],"split_type":[0,0,0,0,0,0,0],"sum_hessian":[1.6393483E3,1.294705E3,3.446433E2,4.8804083E2,8.066642E2,3.5364304E1,3.09279E2],"tree_param":{"num_deleted":"0","num_feature":"7","num_nodes":"7","size_leaf_vector":"1"}},{"base_weights":[-1.6428033E-2,-3.0541357E-1,5.8695428E-2,-1.360078E-2,1.2204682E-3,-3.1512429E-3,7.552011E-3],"categories":[],"categories_nodes":[],"categories_segments":[],"categories_sizes":[],"default_left":[0,0,0,0,0,0,0],"id":62,"left_children":[1,3,5,-1,-1,-1,-1],"loss_changes":[4.311866E1,6.724968E0,3.1663088E1,0E0,0E0,0E0,0E0],"parents":[2147483647,0,0,1,1,2,2],"right_children":[2,4,6,-1,-1,-1,-1],"split_conditions":[-1.0824449E0,1.9483668E0,1E0,-1.360078E-2,1.2204682E-3,-3.1512429E-3,7.552011E-3],"split_indices":[1,5,0,0,0,0,0],"split_type":[0,0,0,0,0,0,0],"sum_hessian":[1.6374414E3,2.1703625E2,1.4204052E3,1.946556E2,2.2380657E1,7.2727203E2,6.931331E2],"tree_param":{"num_deleted":"0","num_feature":"7","num_nodes":"7","size_leaf_vector":"1"}},{"base_weights":[-1.6620627E-2,-2.5657198E-1,7.202331E-2,1.6452112E-3,-1.1493139E-2,-6.3303784E-3,5.033713E-3],"categories":[],"categories_nodes":[],"categories_segments":[],"categories_sizes":[],"default_left":[0,0,0,0,0,0,0],"id":63,"left_children":[1,3,5,-1,-1,-1,-1],"loss_changes":[4.2386585E1,7.152912E0,2.2185623E1,0E0,0E0,0E0,0E0],"parents":[2147483647,0,0,1,1,2,2],"right_children":[2,4,6,-1,-1,-1,-1],"split_conditions":[-6.9955814E-1,-1.3677933E0,-9.1192746E-1,1.6452112E-3,-1.1493139E-2,-6.3303784E-3,5.033713E-3],"split_indices":[2,4,1,0,0,0,0],"split_type":[0,0,0,0,0,0,0],"sum_hessian":[1.6358287E3,3.4368124E2,1.2921475E3,2.6149548E1,3.175317E2,1.7456645E2,1.1175809E3],"tree_param":{"num_deleted":"0","num_feature":"7","num_nodes":"7","size_leaf_vector":"1"}},{"base_weights":[-1.7141914E-2,-1.0203892E-1,2.2453439E-1,-1.2390594E-2,2.6277716E-5,-1.7795507E-3,1.0425218E-2],"categories":[],"categories_nodes":[],"categories_segments":[],"categories_sizes":[],"default_left":[0,0,0,0,0,0,0],"id":64,"left_children":[1,3,5,-1,-1,-1,-1],"loss_changes":[4.181802E1,3.1649368E1,7.4009304E0,0E0,0E0,0E0,0E0],"parents":[2147483647,0,0,1,1,2,2],"right_children":[2,4,6,-1,-1,-1,-1],"split_conditions":[8.008809E-1,-5.197372E-1,-1.2643303E0,-1.2390594E-2,2.6277716E-5,-1.7795507E-3,1.0425218E-2],"split_indices":[2,1,1,0,0,0,0],"split_type":[0,0,0,0,0,0,0],"sum_hessian":[1.6338715E3,1.2907937E3,3.430778E2,2.9962134E2,9.9117236E2,3.533291E1,3.077449E2],"tree_param":{"num_deleted":"0","num_feature":"7","num_nodes":"7","size_leaf_vector":"1"}},{"base_weights":[-1.6864464E-2,1.307557E-1,-1.5558653E-1,7.3439104E-4,1.0430327E-2,-1.0190129E-2,7.259162E-4],"categories":[],"categories_nodes":[],"categories_segments":[],"categories_sizes":[],"default_left":[0,0,0,0,0,0,0],"id":65,"left_children":[1,3,5,-1,-1,-1,-1],"loss_changes":[4.1216427E1,1.3506426E1,1.8577219E1,0E0,0E0,0E0,0E0],"parents":[2147483647,0,0,1,1,2,2],"right_children":[2,4,6,-1,-1,-1,-1],"split_conditions":[3.004379E-1,4.8499903E-1,1E0,7.3439104E-4,1.0430327E-2,-1.0190129E-2,7.259162E-4],"split_indices":[4,2,0,0,0,0,0],"split_type":[0,0,0,0,0,0,0],"sum_hessian":[1.6319536E3,7.959341E2,8.360195E2,5.437766E2,2.5215746E2,4.75523E2,3.6049646E2],"tree_param":{"num_deleted":"0","num_feature":"7","num_nodes":"7","size_leaf_vector":"1"}},{"base_weights":[-1.602352E-2,1.2779911E-1,-1.5121296E-1,7.126537E-4,1.0212574E-2,-9.99839E-3,7.8484777E-4],"categories":[],"categories_nodes":[],"categories_segments":[],"categories_sizes":[],"default_left":[0,0,0,0,0,0,0],"id":66,"left_children":[1,3,5,-1,-1,-1,-1],"loss_changes":[3.9107517E1,1.2960667E1,1.8251938E1,0E0,0E0,0E0,0E0],"parents":[2147483647,0,0,1,1,2,2],"right_children":[2,4,6,-1,-1,-1,-1],"split_conditions":[3.004379E-1,4.8499903E-1,1.1686151E-1,7.126537E-4,1.0212574E-2,-9.99839E-3,7.8484777E-4],"split_indices":[4,2,1,0,0,0,0],"split_type":[0,0,0,0,0,0,0],"sum_hessian":[1.6305254E3,7.9509595E2,8.3542944E2,5.437738E2,2.5132217E2,4.7335275E2,3.620767E2],"tree_param":{"num_deleted":"0","num_feature":"7","num_nodes":"7","size_leaf_vector":"1"}},{"base_weights":[-1.521604E-2,-2.5020656E-1,6.72738E-2,1.6955277E-3,-1.1268186E-2,-6.3527916E-3,4.767968E-3],"categories":[],"categories_nodes":[],"categories_segments":[],"categories_sizes":[],"default_left":[0,0,0,0,0,0,0],"id":67,"left_children":[1,3,5,-1,-1,-1,-1],"loss_changes":[3.8493313E1,7.011772E0,2.1197672E1,0E0,0E0,0E0,0E0],"parents":[2147483647,0,0,1,1,2,2],"right_children":[2,4,6,-1,-1,-1,-1],"split_conditions":[-7.183606E-1,-1.3677933E0,-9.346631E-1,1.6955277E-3,-1.1268186E-2,-6.3527916E-3,4.767968E-3],"split_indices":[2,4,1,0,0,0,0],"split_type":[0,0,0,0,0,0,0],"sum_hessian":[1.6289407E3,3.2234177E2,1.306599E3,2.4910004E1,2.9743176E2,1.7059567E2,1.1360033E3],"tree_param":{"num_deleted":"0","num_feature":"7","num_nodes":"7","size_leaf_vector":"1"}},{"base_weights":[-1.5797123E-2,-9.678657E-2,2.1482617E-1,-1.0012642E-2,1.0222078E-3,-1.7149008E-3,9.984589E-3],"categories":[],"categories_nodes":[],"categories_segments":[],"categories_sizes":[],"default_left":[0,0,0,0,0,0,0],"id":68,"left_children":[1,3,5,-1,-1,-1,-1],"loss_changes":[3.792917E1,2.8968433E1,6.8119907E0,0E0,0E0,0E0,0E0],"parents":[2147483647,0,0,1,1,2,2],"right_children":[2,4,6,-1,-1,-1,-1],"split_conditions":[8.008809E-1,-4.228817E-2,-1.2643303E0,-1.0012642E-2,1.0222078E-3,-1.7149008E-3,9.984589E-3],"split_indices":[2,1,1,0,0,0,0],"split_type":[0,0,0,0,0,0,0],"sum_hessian":[1.627061E3,1.2862151E3,3.4084604E2,4.8179984E2,8.044152E2,3.5261402E1,3.0558463E2],"tree_param":{"num_deleted":"0","num_feature":"7","num_nodes":"7","size_leaf_vector":"1"}},{"base_weights":[-1.5256768E-2,-1.4682113E-1,1.2400606E-1,-1.1806149E-2,1.3687218E-3,-2.3751215E-4,1.0241451E-2],"categories":[],"categories_nodes":[],"categories_segments":[],"categories_sizes":[],"default_left":[0,0,0,0,0,0,0],"id":69,"left_children":[1,3,5,-1,-1,-1,-1],"loss_changes":[3.675446E1,2.9357239E1,1.7204044E1,0E0,0E0,0E0,0E0],"parents":[2147483647,0,0,1,1,2,2],"right_children":[2,4,6,-1,-1,-1,-1],"split_conditions":[1E0,1.1686151E-1,3.7594455E-1,-1.1806149E-2,1.3687218E-3,-2.3751215E-4,1.0241451E-2],"split_indices":[0,1,2,0,0,0,0],"split_type":[0,0,0,0,0,0,0],"sum_hessian":[1.6252279E3,8.303827E2,7.948453E2,3.902457E2,4.4013696E2,4.9251913E2,3.0232614E2],"tree_param":{"num_deleted":"0","num_feature":"7","num_nodes":"7","size_leaf_vector":"1"}},{"base_weights":[-1.47045795E-2,-2.817966E-1,5.288196E-2,-1.2391448E-2,1.3129679E-3,-2.957102E-3,6.9400645E-3],"categories":[],"categories_nodes":[],"categories_segments":[],"categories_sizes":[],"default_left":[0,0,0,0,0,0,0],"id":70,"left_children":[1,3,5,-1,-1,-1,-1],"loss_changes":[3.5603813E1,5.4350033E0,2.706072E1,0E0,0E0,0E0,0E0],"parents":[2147483647,0,0,1,1,2,2],"right_children":[2,4,6,-1,-1,-1,-1],"split_conditions":[-1.1051806E0,2.2723713E0,1E0,-1.2391448E-2,1.3129679E-3,-2.957102E-3,6.9400645E-3],"split_indices":[1,5,0,0,0,0,0],"split_type":[0,0,0,0,0,0,0],"sum_hessian":[1.6236385E3,2.056361E2,1.4180024E3,1.9153183E2,1.4104256E1,7.2730774E2,6.9069464E2],"tree_param":{"num_deleted":"0","num_feature":"7","num_nodes":"7","size_leaf_vector":"1"}},{"base_weights":[-1.4877349E-2,-9.328575E-2,2.0840512E-1,-1.1396287E-2,2.64478E-5,-1.9539152E-3,9.559229E-3],"categories":[],"categories_nodes":[],"categories_segments":[],"categories_sizes":[],"default_left":[0,0,0,0,0,0,0],"id":71,"left_children":[1,3,5,-1,-1,-1,-1],"loss_changes":[3.5455246E1,2.6567818E1,6.4006195E0,0E0,0E0,0E0,0E0],"parents":[2147483647,0,0,1,1,2,2],"right_children":[2,4,6,-1,-1,-1,-1],"split_conditions":[8.008809E-1,-5.197372E-1,-1.4916869E0,-1.1396287E-2,2.64478E-5,-1.9539152E-3,9.559229E-3],"split_indices":[2,1,1,0,0,0,0],"split_type":[0,0,0,0,0,0,0],"sum_hessian":[1.6220789E3,1.282807E3,3.3927188E2,2.9429868E2,9.8850836E2,2.3915049E1,3.1535684E2],"tree_param":{"num_deleted":"0","num_feature":"7","num_nodes":"7","size_leaf_vector":"1"}},{"base_weights":[-1.4694735E-2,1.20860055E-1,-1.4234638E-1,7.4154587E-4,9.564918E-3,-9.3968455E-3,7.5258047E-4],"categories":[],"categories_nodes":[],"categories_segments":[],"categories_sizes":[],"default_left":[0,0,0,0,0,0,0],"id":72,"left_children":[1,3,5,-1,-1,-1,-1],"loss_changes":[3.462761E1,1.1033068E1,1.6069876E1,0E0,0E0,0E0,0E0],"parents":[2147483647,0,0,1,1,2,2],"right_children":[2,4,6,-1,-1,-1,-1],"split_conditions":[3.004379E-1,4.8499903E-1,1E0,7.4154587E-4,9.564918E-3,-9.3968455E-3,7.5258047E-4],"split_indices":[4,2,0,0,0,0,0],"split_type":[0,0,0,0,0,0,0],"sum_hessian":[1.6202587E3,7.907325E2,8.295261E2,5.423931E2,2.4833939E2,4.7135266E2,3.581735E2],"tree_param":{"num_deleted":"0","num_feature":"7","num_nodes":"7","size_leaf_vector":"1"}},{"base_weights":[-1.3941705E-2,-2.6673618E-1,5.390697E-2,1.269371E-3,-1.1727199E-2,5.283327E-3,-4.0625925E-3],"categories":[],"categories_nodes":[],"categories_segments":[],"categories_sizes":[],"default_left":[0,0,0,0,0,0,0],"id":73,"left_children":[1,3,5,-1,-1,-1,-1],"loss_changes":[3.3788967E1,5.053173E0,2.1836298E1,0E0,0E0,0E0,0E0],"parents":[2147483647,0,0,1,1,2,2],"right_children":[2,4,6,-1,-1,-1,-1],"split_conditions":[-9.02625E-1,-1.9253614E0,7.770754E-1,1.269371E-3,-1.1727199E-2,5.283327E-3,-4.0625925E-3],"split_indices":[2,3,4,0,0,0,0],"split_type":[0,0,0,0,0,0,0],"sum_hessian":[1.618877E3,2.2408446E2,1.3947925E3,1.5127581E1,2.0895686E2,9.4722876E2,4.4756372E2],"tree_param":{"num_deleted":"0","num_feature":"7","num_nodes":"7","size_leaf_vector":"1"}},{"base_weights":[-1.4371972E-2,-8.969625E-2,2.0040153E-1,-1.1920514E-2,-2.643225E-4,-1.9489033E-3,9.2252055E-3],"categories":[],"categories_nodes":[],"categories_segments":[],"categories_sizes":[],"default_left":[0,0,0,0,0,0,0],"id":74,"left_children":[1,3,5,-1,-1,-1,-1],"loss_changes":[3.2689354E1,2.5081577E1,6.127081E0,0E0,0E0,0E0,0E0],"parents":[2147483647,0,0,1,1,2,2],"right_children":[2,4,6,-1,-1,-1,-1],"split_conditions":[8.008809E-1,-7.641456E-1,-1.4916869E0,-1.1920514E-2,-2.643225E-4,-1.9489033E-3,9.2252055E-3],"split_indices":[2,1,1,0,0,0,0],"split_type":[0,0,0,0,0,0,0],"sum_hessian":[1.6174243E3,1.2798086E3,3.3761572E2,2.2404015E2,1.0557686E3,2.388846E1,3.1372726E2],"tree_param":{"num_deleted":"0","num_feature":"7","num_nodes":"7","size_leaf_vector":"1"}},{"base_weights":[-1.4330677E-2,-2.288839E-1,6.075175E-2,2.0496354E-3,-1.0338845E-2,-5.6923735E-3,4.3342253E-3],"categories":[],"categories_nodes":[],"categories_segments":[],"categories_sizes":[],"default_left":[0,0,0,0,0,0,0],"id":75,"left_children":[1,3,5,-1,-1,-1,-1],"loss_changes":[3.1759865E1,6.743393E0,1.7341187E1,0E0,0E0,0E0,0E0],"parents":[2147483647,0,0,1,1,2,2],"right_children":[2,4,6,-1,-1,-1,-1],"split_conditions":[-7.183606E-1,-1.9253614E0,-9.1192746E-1,2.0496354E-3,-1.0338845E-2,-5.6923735E-3,4.3342253E-3],"split_indices":[2,3,1,0,0,0,0],"split_type":[0,0,0,0,0,0,0],"sum_hessian":[1.6156713E3,3.174072E2,1.298264E3,1.6968487E1,3.0043872E2,1.743908E2,1.1238733E3],"tree_param":{"num_deleted":"0","num_feature":"7","num_nodes":"7","size_leaf_vector":"1"}},{"base_weights":[-1.47935E-2,-1.3588661E-1,1.13651715E-1,-1.11432E-2,1.4392933E-3,-2.8823965E-4,9.502829E-3],"categories":[],"categories_nodes":[],"categories_segments":[],"categories_sizes":[],"default_left":[0,0,0,0,0,0,0],"id":76,"left_children":[1,3,5,-1,-1,-1,-1],"loss_changes":[3.1023624E1,2.6832869E1,1.5002434E1,0E0,0E0,0E0,0E0],"parents":[2147483647,0,0,1,1,2,2],"right_children":[2,4,6,-1,-1,-1,-1],"split_conditions":[1E0,1.1686151E-1,3.7594455E-1,-1.11432E-2,1.4392933E-3,-2.8823965E-4,9.502829E-3],"split_indices":[0,1,2,0,0,0,0],"split_type":[0,0,0,0,0,0,0],"sum_hessian":[1.6139487E3,8.2505444E2,7.8889435E2,3.8599472E2,4.390597E2,4.9045184E2,2.984425E2],"tree_param":{"num_deleted":"0","num_feature":"7","num_nodes":"7","size_leaf_vector":"1"}},{"base_weights":[-1.4265493E-2,1.13083296E-1,-1.3414456E-1,-3.2569463E-3,6.2723886E-3,-8.860573E-3,7.117396E-4],"categories":[],"categories_nodes":[],"categories_segments":[],"categories_sizes":[],"default_left":[0,0,0,0,0,0,0],"id":77,"left_children":[1,3,5,-1,-1,-1,-1],"loss_changes":[3.0429016E1,1.0757482E1,1.42441635E1,0E0,0E0,0E0,0E0],"parents":[2147483647,0,0,1,1,2,2],"right_children":[2,4,6,-1,-1,-1,-1],"split_conditions":[3.004379E-1,-9.6767485E-1,1E0,-3.2569463E-3,6.2723886E-3,-8.860573E-3,7.117396E-4],"split_indices":[4,5,0,0,0,0,0],"split_type":[0,0,0,0,0,0,0],"sum_hessian":[1.6124075E3,7.870954E2,8.2531213E2,1.142438E2,6.728516E2,4.6846457E2,3.5684753E2],"tree_param":{"num_deleted":"0","num_feature":"7","num_nodes":"7","size_leaf_vector":"1"}},{"base_weights":[-1.4247225E-2,-8.673807E-2,1.9274025E-1,-1.0646502E-2,2.6193768E-5,-1.922566E-3,8.896668E-3],"categories":[],"categories_nodes":[],"categories_segments":[],"categories_sizes":[],"default_left":[0,0,0,0,0,0,0],"id":78,"left_children":[1,3,5,-1,-1,-1,-1],"loss_changes":[3.0237194E1,2.3030167E1,5.806303E0,0E0,0E0,0E0,0E0],"parents":[2147483647,0,0,1,1,2,2],"right_children":[2,4,6,-1,-1,-1,-1],"split_conditions":[8.008809E-1,-5.197372E-1,-1.4916869E0,-1.0646502E-2,2.6193768E-5,-1.922566E-3,8.896668E-3],"split_indices":[2,1,1,0,0,0,0],"split_type":[0,0,0,0,0,0,0],"sum_hessian":[1.6113737E3,1.2755973E3,3.3577637E2,2.8983557E2,9.857618E2,2.3856066E1,3.119203E2],"tree_param":{"num_deleted":"0","num_feature":"7","num_nodes":"7","size_leaf_vector":"1"}},{"base_weights":[-1.4078334E-2,-2.583592E-1,4.741662E-2,-1.1472447E-2,1.3980193E-3,-2.6646291E-3,6.245267E-3],"categories":[],"categories_nodes":[],"categories_segments":[],"categories_sizes":[],"default_left":[0,0,0,0,0,0,0],"id":79,"left_children":[1,3,5,-1,-1,-1,-1],"loss_changes":[2.9389034E1,5.183834E0,2.1820417E1,0E0,0E0,0E0,0E0],"parents":[2147483647,0,0,1,1,2,2],"right_children":[2,4,6,-1,-1,-1,-1],"split_conditions":[-1.1051806E0,2.2723713E0,1E0,-1.1472447E-2,1.3980193E-3,-2.6646291E-3,6.245267E-3],"split_indices":[1,5,0,0,0,0,0],"split_type":[0,0,0,0,0,0,0],"sum_hessian":[1.609633E3,2.007459E2,1.4088872E3,1.8685239E2,1.3893502E1,7.237267E2,6.851605E2],"tree_param":{"num_deleted":"0","num_feature":"7","num_nodes":"7","size_leaf_vector":"1"}},{"base_weights":[-1.4216918E-2,-2.4878171E-1,4.8693165E-2,1.3449393E-3,-1.1023357E-2,4.8238314E-3,-3.7579064E-3],"categories":[],"categories_nodes":[],"categories_segments":[],"categories_sizes":[],"default_left":[0,0,0,0,0,0,0],"id":80,"left_children":[1,3,5,-1,-1,-1,-1],"loss_changes":[2.8862955E1,4.8863926E0,1.835247E1,0E0,0E0,0E0,0E0],"parents":[2147483647,0,0,1,1,2,2],"right_children":[2,4,6,-1,-1,-1,-1],"split_conditions":[-9.02625E-1,-1.9253614E0,7.770754E-1,1.3449393E-3,-1.1023357E-2,4.8238314E-3,-3.7579064E-3],"split_indices":[2,3,4,0,0,0,0],"split_type":[0,0,0,0,0,0,0],"sum_hessian":[1.6081533E3,2.2074998E2,1.3874033E3,1.4921135E1,2.0582886E2,9.420514E2,4.4535193E2],"tree_param":{"num_deleted":"0","num_feature":"7","num_nodes":"7","size_leaf_vector":"1"}},{"base_weights":[-1.4575305E-2,-8.492459E-2,1.866749E-1,-8.618152E-3,8.9289283E-4,-1.8708585E-3,8.623088E-3],"categories":[],"categories_nodes":[],"categories_segments":[],"categories_sizes":[],"default_left":[0,0,0,0,0,0,0],"id":81,"left_children":[1,3,5,-1,-1,-1,-1],"loss_changes":[2.8480337E1,2.1404322E1,5.4706097E0,0E0,0E0,0E0,0E0],"parents":[2147483647,0,0,1,1,2,2],"right_children":[2,4,6,-1,-1,-1,-1],"split_conditions":[8.008809E-1,-1.3868583E-2,-1.4916869E0,-8.618152E-3,8.9289283E-4,-1.8708585E-3,8.623088E-3],"split_indices":[2,1,1,0,0,0,0],"split_type":[0,0,0,0,0,0,0],"sum_hessian":[1.6067611E3,1.2723853E3,3.3437585E2,4.8697858E2,7.854067E2,2.3827938E1,3.1054794E2],"tree_param":{"num_deleted":"0","num_feature":"7","num_nodes":"7","size_leaf_vector":"1"}},{"base_weights":[-1.4109097E-2,-2.4981102E-1,4.5148026E-2,-1.1130037E-2,1.4141012E-3,-2.576198E-3,5.99021E-3],"categories":[],"categories_nodes":[],"categories_segments":[],"categories_sizes":[],"default_left":[0,0,0,0,0,0,0],"id":82,"left_children":[1,3,5,-1,-1,-1,-1],"loss_changes":[2.7240229E1,5.0423145E0,2.0144112E1,0E0,0E0,0E0,0E0],"parents":[2147483647,0,0,1,1,2,2],"right_children":[2,4,6,-1,-1,-1,-1],"split_conditions":[-1.1051806E0,2.2723713E0,1E0,-1.1130037E-2,1.4141012E-3,-2.576198E-3,5.99021E-3],"split_indices":[1,5,0,0,0,0,0],"split_type":[0,0,0,0,0,0,0],"sum_hessian":[1.6050912E3,1.990693E2,1.4060219E3,1.8522633E2,1.3842978E1,7.2263043E2,6.833914E2],"tree_param":{"num_deleted":"0","num_feature":"7","num_nodes":"7","size_leaf_vector":"1"}},{"base_weights":[-1.4227524E-2,-8.277378E-2,1.8199176E-1,-1.0812163E-2,-3.3242113E-4,-1.8202834E-3,8.407135E-3],"categories":[],"categories_nodes":[],"categories_segments":[],"categories_sizes":[],"default_left":[0,0,0,0,0,0,0],"id":83,"left_children":[1,3,5,-1,-1,-1,-1],"loss_changes":[2.7015383E1,1.9976822E1,5.1891003E0,0E0,0E0,0E0,0E0],"parents":[2147483647,0,0,1,1,2,2],"right_children":[2,4,6,-1,-1,-1,-1],"split_conditions":[8.008809E-1,-7.641456E-1,-1.4916869E0,-1.0812163E-2,-3.3242113E-4,-1.8202834E-3,8.407135E-3],"split_indices":[2,1,1,0,0,0,0],"split_type":[0,0,0,0,0,0,0],"sum_hessian":[1.6036436E3,1.2703083E3,3.333352E2,2.1827136E2,1.052037E3,2.3808104E1,3.095271E2],"tree_param":{"num_deleted":"0","num_feature":"7","num_nodes":"7","size_leaf_vector":"1"}},{"base_weights":[-1.4157494E-2,-2.3889616E-1,4.6063717E-2,1.4028955E-3,-1.0643726E-2,4.5887358E-3,-3.598564E-3],"categories":[],"categories_nodes":[],"categories_segments":[],"categories_sizes":[],"default_left":[0,0,0,0,0,0,0],"id":84,"left_children":[1,3,5,-1,-1,-1,-1],"loss_changes":[2.6368414E1,4.835945E0,1.6672676E1,0E0,0E0,0E0,0E0],"parents":[2147483647,0,0,1,1,2,2],"right_children":[2,4,6,-1,-1,-1,-1],"split_conditions":[-9.02625E-1,-1.9253614E0,7.770754E-1,1.4028955E-3,-1.0643726E-2,4.5887358E-3,-3.598564E-3],"split_indices":[2,3,4,0,0,0,0],"split_type":[0,0,0,0,0,0,0],"sum_hessian":[1.6020033E3,2.1879453E2,1.3832087E3,1.4763849E1,2.0403067E2,9.3913727E2,4.4407144E2],"tree_param":{"num_deleted":"0","num_feature":"7","num_nodes":"7","size_leaf_vector":"1"}},{"base_weights":[-1.4482444E-2,-1.13153234E-1,1.16207E-1,-7.7218316E-3,7.996087E-5,-6.159517E-4,7.875442E-3],"categories":[],"categories_nodes":[],"categories_segments":[],"categories_sizes":[],"default_left":[0,0,0,0,0,0,0],"id":85,"left_children":[1,3,5,-1,-1,-1,-1],"loss_changes":[2.5615213E1,1.0355896E1,9.763449E0,0E0,0E0,0E0,0E0],"parents":[2147483647,0,0,1,1,2,2],"right_children":[2,4,6,-1,-1,-1,-1],"split_conditions":[1.5407512E-1,3.3853427E-1,1E0,-7.7218316E-3,7.996087E-5,-6.159517E-4,7.875442E-3],"split_indices":[2,1,0,0,0,0,0],"split_type":[0,0,0,0,0,0,0],"sum_hessian":[1.6006482E3,9.266525E2,6.7399567E2,4.70807E2,4.5584555E2,3.148875E2,3.5910815E2],"tree_param":{"num_deleted":"0","num_feature":"7","num_nodes":"7","size_leaf_vector":"1"}},{"base_weights":[-1.3957874E-2,-2.3949277E-1,4.2617265E-2,-1.0721141E-2,1.4417008E-3,-2.4404218E-3,5.669601E-3],"categories":[],"categories_nodes":[],"categories_segments":[],"categories_sizes":[],"default_left":[0,0,0,0,0,0,0],"id":86,"left_children":[1,3,5,-1,-1,-1,-1],"loss_changes":[2.4787739E1,4.89427E0,1.8015614E1,0E0,0E0,0E0,0E0],"parents":[2147483647,0,0,1,1,2,2],"right_children":[2,4,6,-1,-1,-1,-1],"split_conditions":[-1.1051806E0,2.2723713E0,1E0,-1.0721141E-2,1.4417008E-3,-2.4404218E-3,5.669601E-3],"split_indices":[1,5,0,0,0,0,0],"split_type":[0,0,0,0,0,0,0],"sum_hessian":[1.5988812E3,1.9680144E2,1.4020797E3,1.8304778E2,1.3753657E1,7.213664E2,6.807134E2],"tree_param":{"num_deleted":"0","num_feature":"7","num_nodes":"7","size_leaf_vector":"1"}},{"base_weights":[-1.40573615E-2,-7.96913E-2,1.7407627E-1,-8.136747E-3,7.1422395E-4,-1.7931352E-3,8.067237E-3],"categories":[],"categories_nodes":[],"categories_segments":[],"categories_sizes":[],"default_left":[0,0,0,0,0,0,0],"id":87,"left_children":[1,3,5,-1,-1,-1,-1],"loss_changes":[2.4733664E1,1.8277752E1,4.884491E0,0E0,0E0,0E0,0E0],"parents":[2147483647,0,0,1,1,2,2],"right_children":[2,4,6,-1,-1,-1,-1],"split_conditions":[8.008809E-1,-4.228817E-2,-1.4916869E0,-8.136747E-3,7.1422395E-4,-1.7931352E-3,8.067237E-3],"split_indices":[2,1,1,0,0,0,0],"split_type":[0,0,0,0,0,0,0],"sum_hessian":[1.5974783E3,1.2659297E3,3.315487E2,4.666877E2,7.992419E2,2.378234E1,3.0776636E2],"tree_param":{"num_deleted":"0","num_feature":"7","num_nodes":"7","size_leaf_vector":"1"}},{"base_weights":[-1.3630106E-2,-2.2914849E-1,4.4020135E-2,1.4530214E-3,-1.0266607E-2,4.378817E-3,-3.4255069E-3],"categories":[],"categories_nodes":[],"categories_segments":[],"categories_sizes":[],"default_left":[0,0,0,0,0,0,0],"id":88,"left_children":[1,3,5,-1,-1,-1,-1],"loss_changes":[2.412818E1,4.760401E0,1.511383E1,0E0,0E0,0E0,0E0],"parents":[2147483647,0,0,1,1,2,2],"right_children":[2,4,6,-1,-1,-1,-1],"split_conditions":[-9.02625E-1,-1.9253614E0,7.770754E-1,1.4530214E-3,-1.0266607E-2,4.378817E-3,-3.4255069E-3],"split_indices":[2,3,4,0,0,0,0],"split_type":[0,0,0,0,0,0,0],"sum_hessian":[1.595889E3,2.1688882E2,1.3790002E3,1.4626974E1,2.0226184E2,9.3616785E2,4.4283234E2],"tree_param":{"num_deleted":"0","num_feature":"7","num_nodes":"7","size_leaf_vector":"1"}},{"base_weights":[-1.3936718E-2,-7.751913E-2,1.685641E-1,-1.0164266E-2,-3.133022E-4,-1.7856807E-3,7.835049E-3],"categories":[],"categories_nodes":[],"categories_segments":[],"categories_sizes":[],"default_left":[0,0,0,0,0,0,0],"id":89,"left_children":[1,3,5,-1,-1,-1,-1],"loss_changes":[2.3215273E1,1.7525406E1,4.7070293E0,0E0,0E0,0E0,0E0],"parents":[2147483647,0,0,1,1,2,2],"right_children":[2,4,6,-1,-1,-1,-1],"split_conditions":[8.008809E-1,-7.641456E-1,-1.4916869E0,-1.0164266E-2,-3.133022E-4,-1.7856807E-3,7.835049E-3],"split_indices":[2,1,1,0,0,0,0],"split_type":[0,0,0,0,0,0,0],"sum_hessian":[1.594571E3,1.2640521E3,3.30519E2,2.1465198E2,1.0494001E3,2.377025E1,3.0674875E2],"tree_param":{"num_deleted":"0","num_feature":"7","num_nodes":"7","size_leaf_vector":"1"}},{"base_weights":[-1.3865992E-2,9.689552E-2,-1.1809672E-1,-1.2653444E-3,7.100438E-3,-7.891373E-3,7.425598E-4],"categories":[],"categories_nodes":[],"categories_segments":[],"categories_sizes":[],"default_left":[0,0,0,0,0,0,0],"id":90,"left_children":[1,3,5,-1,-1,-1,-1],"loss_changes":[2.278156E1,1.1121308E1,1.1577441E1,0E0,0E0,0E0,0E0],"parents":[2147483647,0,0,1,1,2,2],"right_children":[2,4,6,-1,-1,-1,-1],"split_conditions":[3.004379E-1,-1.5766327E-1,1E0,-1.2653444E-3,7.100438E-3,-7.891373E-3,7.425598E-4],"split_indices":[4,5,0,0,0,0,0],"split_type":[0,0,0,0,0,0,0],"sum_hessian":[1.5930089E3,7.7882574E2,8.141831E2,3.449332E2,4.3389255E2,4.6184158E2,3.5234152E2],"tree_param":{"num_deleted":"0","num_feature":"7","num_nodes":"7","size_leaf_vector":"1"}},{"base_weights":[-1.3459188E-2,-2.2169015E-1,4.2190008E-2,1.4721572E-3,-9.969232E-3,-5.902628E-3,3.233103E-3],"categories":[],"categories_nodes":[],"categories_segments":[],"categories_sizes":[],"default_left":[0,0,0,0,0,0,0],"id":91,"left_children":[1,3,5,-1,-1,-1,-1],"loss_changes":[2.244886E1,4.6464195E0,1.3770803E1,0E0,0E0,0E0,0E0],"parents":[2147483647,0,0,1,1,2,2],"right_children":[2,4,6,-1,-1,-1,-1],"split_conditions":[-9.02625E-1,-1.9253614E0,-1.0824449E0,1.4721572E-3,-9.969232E-3,-5.902628E-3,3.233103E-3],"split_indices":[2,3,1,0,0,0,0],"split_type":[0,0,0,0,0,0,0],"sum_hessian":[1.5921051E3,2.1557343E2,1.3765317E3,1.4570789E1,2.0100264E2,1.4177551E2,1.2347562E3],"tree_param":{"num_deleted":"0","num_feature":"7","num_nodes":"7","size_leaf_vector":"1"}},{"base_weights":[-1.4129301E-2,-7.577755E-2,1.631623E-1,-7.6339403E-3,7.303832E-4,-1.751926E-3,7.5962436E-3],"categories":[],"categories_nodes":[],"categories_segments":[],"categories_sizes":[],"default_left":[0,0,0,0,0,0,0],"id":92,"left_children":[1,3,5,-1,-1,-1,-1],"loss_changes":[2.1835812E1,1.63829E1,4.468376E0,0E0,0E0,0E0,0E0],"parents":[2147483647,0,0,1,1,2,2],"right_children":[2,4,6,-1,-1,-1,-1],"split_conditions":[8.008809E-1,-1.3868583E-2,-1.4916869E0,-7.6339403E-3,7.303832E-4,-1.751926E-3,7.5962436E-3],"split_indices":[2,1,1,0,0,0,0],"split_type":[0,0,0,0,0,0,0],"sum_hessian":[1.5907736E3,1.2614889E3,3.2928464E2,4.788711E2,7.826178E2,2.3743399E1,3.0554123E2],"tree_param":{"num_deleted":"0","num_feature":"7","num_nodes":"7","size_leaf_vector":"1"}},{"base_weights":[-1.3689681E-2,-1.1537205E-1,9.467464E-2,-9.226001E-3,2.2342994E-3,-3.580116E-4,8.107047E-3],"categories":[],"categories_nodes":[],"categories_segments":[],"categories_sizes":[],"default_left":[0,0,0,0,0,0,0],"id":93,"left_children":[1,3,5,-1,-1,-1,-1],"loss_changes":[2.1702328E1,2.2289148E1,1.1165634E1,0E0,0E0,0E0,0E0],"parents":[2147483647,0,0,1,1,2,2],"right_children":[2,4,6,-1,-1,-1,-1],"split_conditions":[1E0,2.9874685E-1,3.7594455E-1,-9.226001E-3,2.2342994E-3,-3.580116E-4,8.107047E-3],"split_indices":[0,1,2,0,0,0,0],"split_type":[0,0,0,0,0,0,0],"sum_hessian":[1.5892463E3,8.1352924E2,7.7571704E2,4.4658838E2,3.6694086E2,4.8527682E2,2.9044025E2],"tree_param":{"num_deleted":"0","num_feature":"7","num_nodes":"7","size_leaf_vector":"1"}},{"base_weights":[-1.3070717E-2,-2.14668E-1,4.0733624E-2,1.4953222E-3,-9.691989E-3,4.0583084E-3,-3.1789427E-3],"categories":[],"categories_nodes":[],"categories_segments":[],"categories_sizes":[],"default_left":[0,0,0,0,0,0,0],"id":94,"left_children":[1,3,5,-1,-1,-1,-1],"loss_changes":[2.0965172E1,4.5521755E0,1.2961255E1,0E0,0E0,0E0,0E0],"parents":[2147483647,0,0,1,1,2,2],"right_children":[2,4,6,-1,-1,-1,-1],"split_conditions":[-9.02625E-1,-1.9253614E0,7.770754E-1,1.4953222E-3,-9.691989E-3,4.0583084E-3,-3.1789427E-3],"split_indices":[2,3,4,0,0,0,0],"split_type":[0,0,0,0,0,0,0],"sum_hessian":[1.5878668E3,2.1420836E2,1.3736584E3,1.4503714E1,1.9970465E2,9.3242456E2,4.412339E2],"tree_param":{"num_deleted":"0","num_feature":"7","num_nodes":"7","size_leaf_vector":"1"}},{"base_weights":[-1.3344256E-2,-2.2051804E-1,3.8406517E-2,-1.0091754E-2,1.3717229E-3,-2.2281075E-3,5.144398E-3],"categories":[],"categories_nodes":[],"categories_segments":[],"categories_sizes":[],"default_left":[0,0,0,0,0,0,0],"id":95,"left_children":[1,3,5,-1,-1,-1,-1],"loss_changes":[2.0676086E1,4.7586136E0,1.4823241E1,0E0,0E0,0E0,0E0],"parents":[2147483647,0,0,1,1,2,2],"right_children":[2,4,6,-1,-1,-1,-1],"split_conditions":[-1.1051806E0,1.9483668E0,1E0,-1.0091754E-2,1.3717229E-3,-2.2281075E-3,5.144398E-3],"split_indices":[1,5,0,0,0,0,0],"split_type":[0,0,0,0,0,0,0],"sum_hessian":[1.5866074E3,1.9261832E2,1.3939891E3,1.7293909E2,1.9679232E1,7.1797705E2,6.76012E2],"tree_param":{"num_deleted":"0","num_feature":"7","num_nodes":"7","size_leaf_vector":"1"}},{"base_weights":[-1.3444936E-2,-7.2847374E-2,1.5741502E-1,-9.511255E-3,-3.213891E-4,-1.7176128E-3,7.343255E-3],"categories":[],"categories_nodes":[],"categories_segments":[],"categories_sizes":[],"default_left":[0,0,0,0,0,0,0],"id":96,"left_children":[1,3,5,-1,-1,-1,-1],"loss_changes":[2.0218863E1,1.5120709E1,4.224841E0,0E0,0E0,0E0,0E0],"parents":[2147483647,0,0,1,1,2,2],"right_children":[2,4,6,-1,-1,-1,-1],"split_conditions":[8.008809E-1,-7.641456E-1,-1.4916869E0,-9.511255E-3,-3.213891E-4,-1.7176128E-3,7.343255E-3],"split_indices":[2,1,1,0,0,0,0],"split_type":[0,0,0,0,0,0,0],"sum_hessian":[1.5853062E3,1.2576337E3,3.276725E2,2.1098692E2,1.0466467E3,2.3707117E1,3.0396536E2],"tree_param":{"num_deleted":"0","num_feature":"7","num_nodes":"7","size_leaf_vector":"1"}},{"base_weights":[-1.3371478E-2,-1.3597098E-1,6.872555E-2,-6.462117E-3,2.1858448E-3,4.131347E-3,-4.387782E-3],"categories":[],"categories_nodes":[],"categories_segments":[],"categories_sizes":[],"default_left":[0,0,0,0,0,0,0],"id":97,"left_children":[1,3,5,-1,-1,-1,-1],"loss_changes":[1.9648544E1,5.47001E0,9.500568E0,0E0,0E0,0E0,0E0],"parents":[2147483647,0,0,1,1,2,2],"right_children":[2,4,6,-1,-1,-1,-1],"split_conditions":[-3.0470574E-1,1.4623598E0,1.0153941E0,-6.462117E-3,2.1858448E-3,4.131347E-3,-4.387782E-3],"split_indices":[2,5,4,0,0,0,0],"split_type":[0,0,0,0,0,0,0],"sum_hessian":[1.5838252E3,5.8495087E2,9.9887427E2,5.414126E2,4.3538307E1,9.041784E2,9.46959E1],"tree_param":{"num_deleted":"0","num_feature":"7","num_nodes":"7","size_leaf_vector":"1"}},{"base_weights":[-1.3336414E-2,-2.2561333E-1,3.390192E-2,-1.00360215E-2,1.203015E-3,-9.3597634E-4,7.2857845E-3],"categories":[],"categories_nodes":[],"categories_segments":[],"categories_sizes":[],"default_left":[0,0,0,0,0,0,0],"id":98,"left_children":[1,3,5,-1,-1,-1,-1],"loss_changes":[1.9243046E1,3.6896381E0,1.4546085E1,0E0,0E0,0E0,0E0],"parents":[2147483647,0,0,1,1,2,2],"right_children":[2,4,6,-1,-1,-1,-1],"split_conditions":[-1.2643303E0,2.2723713E0,8.347254E-1,-1.00360215E-2,1.203015E-3,-9.3597634E-4,7.2857845E-3],"split_indices":[1,5,2,0,0,0,0],"split_type":[0,0,0,0,0,0,0],"sum_hessian":[1.5823182E3,1.5674011E2,1.4255781E3,1.4588875E2,1.0851376E1,1.1441666E3,2.814115E2],"tree_param":{"num_deleted":"0","num_feature":"7","num_nodes":"7","size_leaf_vector":"1"}},{"base_weights":[-1.3079847E-2,-1.085947E-1,8.8856556E-2,-7.988569E-3,3.4402749E-3,-3.3141274E-4,7.613313E-3],"categories":[],"categories_nodes":[],"categories_segments":[],"categories_sizes":[],"default_left":[0,0,0,0,0,0,0],"id":99,"left_children":[1,3,5,-1,-1,-1,-1],"loss_changes":[1.9096846E1,2.1027191E1,9.78691E0,0E0,0E0,0E0,0E0],"parents":[2147483647,0,0,1,1,2,2],"right_children":[2,4,6,-1,-1,-1,-1],"split_conditions":[1E0,5.943105E-1,3.7594455E-1,-7.988569E-3,3.4402749E-3,-3.3141274E-4,7.613313E-3],"split_indices":[0,1,2,0,0,0,0],"split_type":[0,0,0,0,0,0,0],"sum_hessian":[1.5810872E3,8.0981305E2,7.712741E2,5.481372E2,2.616758E2,4.8366928E2,2.8760483E2],"tree_param":{"num_deleted":"0","num_feature":"7","num_nodes":"7","size_leaf_vector":"1"}},{"base_weights":[-1.2269907E-2,8.84884E-2,-1.07299E-1,-1.4348977E-3,6.7265728E-3,-7.1963645E-3,8.273701E-4],"categories":[],"categories_nodes":[],"categories_segments":[],"categories_sizes":[],"default_left":[0,0,0,0,0,0,0],"id":100,"left_children":[1,3,5,-1,-1,-1,-1],"loss_changes":[1.8769535E1,1.0706051E1,9.982E0,0E0,0E0,0E0,0E0],"parents":[2147483647,0,0,1,1,2,2],"right_children":[2,4,6,-1,-1,-1,-1],"split_conditions":[3.004379E-1,-1.5766327E-1,1.6233285E-1,-1.4348977E-3,6.7265728E-3,-7.1963645E-3,8.273701E-4],"split_indices":[4,5,1,0,0,0,0],"split_type":[0,0,0,0,0,0,0],"sum_hessian":[1.5798717E3,7.732012E2,8.066706E2,3.429381E2,4.3026306E2,4.6523215E2,3.4143845E2],"tree_param":{"num_deleted":"0","num_feature":"7","num_nodes":"7","size_leaf_vector":"1"}},{"base_weights":[-1.1902103E-2,-2.0152403E-1,3.8541667E-2,1.2926986E-3,-9.354848E-3,-5.4174853E-3,2.9200183E-3],"categories":[],"categories_nodes":[],"categories_segments":[],"categories_sizes":[],"default_left":[0,0,0,0,0,0,0],"id":101,"left_children":[1,3,5,-1,-1,-1,-1],"loss_changes":[1.8413273E1,4.488682E0,1.1230906E1,0E0,0E0,0E0,0E0],"parents":[2147483647,0,0,1,1,2,2],"right_children":[2,4,6,-1,-1,-1,-1],"split_conditions":[-9.02625E-1,-1.4796488E0,-1.1051806E0,1.2926986E-3,-9.354848E-3,-5.4174853E-3,2.9200183E-3],"split_indices":[2,3,1,0,0,0,0],"split_type":[0,0,0,0,0,0,0],"sum_hessian":[1.5789246E3,2.1156947E2,1.3673551E3,2.5731167E1,1.8583832E2,1.3351979E2,1.2338353E3],"tree_param":{"num_deleted":"0","num_feature":"7","num_nodes":"7","size_leaf_vector":"1"}},{"base_weights":[-1.2575646E-2,-1.04958355E-1,8.603114E-2,-9.197707E-3,1.5747442E-3,-3.3849798E-4,7.4014734E-3],"categories":[],"categories_nodes":[],"categories_segments":[],"categories_sizes":[],"default_left":[0,0,0,0,0,0,0],"id":102,"left_children":[1,3,5,-1,-1,-1,-1],"loss_changes":[1.7836962E1,1.9753521E1,9.284999E0,0E0,0E0,0E0,0E0],"parents":[2147483647,0,0,1,1,2,2],"right_children":[2,4,6,-1,-1,-1,-1],"split_conditions":[1E0,1.1686151E-1,3.7594455E-1,-9.197707E-3,1.5747442E-3,-3.3849798E-4,7.4014734E-3],"split_indices":[0,1,2,0,0,0,0],"split_type":[0,0,0,0,0,0,0],"sum_hessian":[1.577723E3,8.0821747E2,7.695056E2,3.724128E2,4.3580463E2,4.8309842E2,2.8640717E2],"tree_param":{"num_deleted":"0","num_feature":"7","num_nodes":"7","size_leaf_vector":"1"}},{"base_weights":[-1.2142309E-2,-2.1576574E-1,3.2967675E-2,-9.645043E-3,1.2224537E-3,-8.8819896E-4,7.032125E-3],"categories":[],"categories_nodes":[],"categories_segments":[],"categories_sizes":[],"default_left":[0,0,0,0,0,0,0],"id":103,"left_children":[1,3,5,-1,-1,-1,-1],"loss_changes":[1.759289E1,3.5679893E0,1.3453413E1,0E0,0E0,0E0,0E0],"parents":[2147483647,0,0,1,1,2,2],"right_children":[2,4,6,-1,-1,-1,-1],"split_conditions":[-1.2643303E0,2.2723713E0,8.347254E-1,-9.645043E-3,1.2224537E-3,-8.8819896E-4,7.032125E-3],"split_indices":[1,5,2,0,0,0,0],"split_type":[0,0,0,0,0,0,0],"sum_hessian":[1.5763877E3,1.5484677E2,1.4215409E3,1.4404916E2,1.0797619E1,1.1418062E3,2.797348E2],"tree_param":{"num_deleted":"0","num_feature":"7","num_nodes":"7","size_leaf_vector":"1"}},{"base_weights":[-1.19112255E-2,-1.9527546E-1,3.6854718E-2,1.3225739E-3,-9.106516E-3,3.6649422E-3,-2.8613666E-3],"categories":[],"categories_nodes":[],"categories_segments":[],"categories_sizes":[],"default_left":[0,0,0,0,0,0,0],"id":104,"left_children":[1,3,5,-1,-1,-1,-1],"loss_changes":[1.7167786E1,4.406005E0,1.0487768E1,0E0,0E0,0E0,0E0],"parents":[2147483647,0,0,1,1,2,2],"right_children":[2,4,6,-1,-1,-1,-1],"split_conditions":[-9.02625E-1,-1.4796488E0,7.770754E-1,1.3225739E-3,-9.106516E-3,3.6649422E-3,-2.8613666E-3],"split_indices":[2,3,4,0,0,0,0],"split_type":[0,0,0,0,0,0,0],"sum_hessian":[1.5751952E3,2.1036713E2,1.364828E3,2.5635847E1,1.847313E2,9.263083E2,4.3851968E2],"tree_param":{"num_deleted":"0","num_feature":"7","num_nodes":"7","size_leaf_vector":"1"}},{"base_weights":[-1.2198609E-2,-2.1133459E-1,3.189788E-2,5.914061E-4,-9.8974705E-3,-2.1111863E-3,4.761492E-3],"categories":[],"categories_nodes":[],"categories_segments":[],"categories_sizes":[],"default_left":[0,0,0,0,0,0,0],"id":105,"left_children":[1,3,5,-1,-1,-1,-1],"loss_changes":[1.6786827E1,3.515462E0,1.3087257E1,0E0,0E0,0E0,0E0],"parents":[2147483647,0,0,1,1,2,2],"right_children":[2,4,6,-1,-1,-1,-1],"split_conditions":[-1.2643303E0,6.211915E-2,4.3390407E-3,5.914061E-4,-9.8974705E-3,-2.1111863E-3,4.761492E-3],"split_indices":[1,4,5,0,0,0,0],"split_type":[0,0,0,0,0,0,0],"sum_hessian":[1.5740521E3,1.5404068E2,1.4200115E3,3.6735115E1,1.17305565E2,7.58375E2,6.616365E2],"tree_param":{"num_deleted":"0","num_feature":"7","num_nodes":"7","size_leaf_vector":"1"}},{"base_weights":[-1.2436932E-2,-1.02342755E-1,8.359281E-2,-7.5659784E-3,3.2848164E-3,-2.8399515E-4,7.135737E-3],"categories":[],"categories_nodes":[],"categories_segments":[],"categories_sizes":[],"default_left":[0,0,0,0,0,0,0],"id":106,"left_children":[1,3,5,-1,-1,-1,-1],"loss_changes":[1.6866796E1,1.893303E1,8.480695E0,0E0,0E0,0E0,0E0],"parents":[2147483647,0,0,1,1,2,2],"right_children":[2,4,6,-1,-1,-1,-1],"split_conditions":[1E0,5.943105E-1,3.7594455E-1,-7.5659784E-3,3.2848164E-3,-2.8399515E-4,7.135737E-3],"split_indices":[0,1,2,0,0,0,0],"split_type":[0,0,0,0,0,0,0],"sum_hessian":[1.5733522E3,8.061008E2,7.672513E2,5.448479E2,2.6125293E2,4.8242575E2,2.8482556E2],"tree_param":{"num_deleted":"0","num_feature":"7","num_nodes":"7","size_leaf_vector":"1"}},{"base_weights":[-1.166848E-2,-5.595798E-2,1.751615E-1,-8.362491E-3,9.3443E-5,-4.323832E-4,7.6564457E-3],"categories":[],"categories_nodes":[],"categories_segments":[],"categories_sizes":[],"default_left":[0,0,0,0,0,0,0],"id":107,"left_children":[1,3,5,-1,-1,-1,-1],"loss_changes":[1.6461771E1,1.4106173E1,1.5560026E0,0E0,0E0,0E0,0E0],"parents":[2147483647,0,0,1,1,2,2],"right_children":[2,4,6,-1,-1,-1,-1],"split_conditions":[1.2295778E0,-7.1299034E-1,-1.2643303E0,-8.362491E-3,9.3443E-5,-4.323832E-4,7.6564457E-3],"split_indices":[2,1,1,0,0,0,0],"split_type":[0,0,0,0,0,0,0],"sum_hessian":[1.5721835E3,1.3790597E3,1.9312381E2,2.440618E2,1.1349979E3,2.0656895E1,1.724669E2],"tree_param":{"num_deleted":"0","num_feature":"7","num_nodes":"7","size_leaf_vector":"1"}},{"base_weights":[-1.13233235E-2,-2.0118207E-1,3.2748662E-2,1.2462481E-3,-9.387562E-3,-6.085656E-3,2.5545713E-3],"categories":[],"categories_nodes":[],"categories_segments":[],"categories_sizes":[],"default_left":[0,0,0,0,0,0,0],"id":108,"left_children":[1,3,5,-1,-1,-1,-1],"loss_changes":[1.6001919E1,4.1890354E0,1.1027863E1,0E0,0E0,0E0,0E0],"parents":[2147483647,0,0,1,1,2,2],"right_children":[2,4,6,-1,-1,-1,-1],"split_conditions":[-1.0079191E0,-1.4796488E0,-1.355273E0,1.2462481E-3,-9.387562E-3,-6.085656E-3,2.5545713E-3],"split_indices":[2,3,1,0,0,0,0],"split_type":[0,0,0,0,0,0,0],"sum_hessian":[1.5710092E3,1.6769695E2,1.4033123E3,2.2825386E1,1.4487155E2,9.513179E1,1.3081804E3],"tree_param":{"num_deleted":"0","num_feature":"7","num_nodes":"7","size_leaf_vector":"1"}},{"base_weights":[-1.214393E-2,-9.933732E-2,8.104802E-2,-8.147065E-3,2.115757E-3,-2.661816E-4,6.9109043E-3],"categories":[],"categories_nodes":[],"categories_segments":[],"categories_sizes":[],"default_left":[0,0,0,0,0,0,0],"id":109,"left_children":[1,3,5,-1,-1,-1,-1],"loss_changes":[1.5847266E1,1.7871578E1,7.913413E0,0E0,0E0,0E0,0E0],"parents":[2147483647,0,0,1,1,2,2],"right_children":[2,4,6,-1,-1,-1,-1],"split_conditions":[1E0,2.9874685E-1,3.7594455E-1,-8.147065E-3,2.115757E-3,-2.661816E-4,6.9109043E-3],"split_indices":[0,1,2,0,0,0,0],"split_type":[0,0,0,0,0,0,0],"sum_hessian":[1.5700137E3,8.046046E2,7.6540906E2,4.390991E2,3.6550552E2,4.818402E2,2.8356885E2],"tree_param":{"num_deleted":"0","num_feature":"7","num_nodes":"7","size_leaf_vector":"1"}},{"base_weights":[-1.159979E-2,-5.4797802E-2,1.7080407E-1,-8.084574E-3,5.216696E-5,-4.1638745E-4,7.463835E-3],"categories":[],"categories_nodes":[],"categories_segments":[],"categories_sizes":[],"default_left":[0,0,0,0,0,0,0],"id":110,"left_children":[1,3,5,-1,-1,-1,-1],"loss_changes":[1.5653742E1,1.3004629E1,1.4680328E0,0E0,0E0,0E0,0E0],"parents":[2147483647,0,0,1,1,2,2],"right_children":[2,4,6,-1,-1,-1,-1],"split_conditions":[1.2295778E0,-7.1299034E-1,-1.2643303E0,-8.084574E-3,5.216696E-5,-4.1638745E-4,7.463835E-3],"split_indices":[2,1,1,0,0,0,0],"split_type":[0,0,0,0,0,0,0],"sum_hessian":[1.5687651E3,1.3764141E3,1.9235115E2,2.4251077E2,1.1339032E3,2.0636795E1,1.7171436E2],"tree_param":{"num_deleted":"0","num_feature":"7","num_nodes":"7","size_leaf_vector":"1"}},{"base_weights":[-1.1250782E-2,7.978353E-2,-9.725629E-2,-1.5501068E-3,6.290381E-3,-9.393965E-3,-1.1180155E-3],"categories":[],"categories_nodes":[],"categories_segments":[],"categories_sizes":[],"default_left":[0,0,0,0,0,0,0],"id":111,"left_children":[1,3,5,-1,-1,-1,-1],"loss_changes":[1.5251107E1,9.973563E0,8.19035E0,0E0,0E0,0E0,0E0],"parents":[2147483647,0,0,1,1,2,2],"right_children":[2,4,6,-1,-1,-1,-1],"split_conditions":[3.004379E-1,-1.5766327E-1,-1.2643303E0,-1.5501068E-3,6.290381E-3,-9.393965E-3,-1.1180155E-3],"split_indices":[4,5,1,0,0,0,0],"split_type":[0,0,0,0,0,0,0],"sum_hessian":[1.5676228E3,7.682599E2,7.993629E2,3.4139642E2,4.268635E2,1.149442E2,6.844187E2],"tree_param":{"num_deleted":"0","num_feature":"7","num_nodes":"7","size_leaf_vector":"1"}},{"base_weights":[-1.1433775E-2,-9.657765E-2,7.951068E-2,-7.1592513E-3,3.1146132E-3,-2.1073998E-4,6.7134383E-3],"categories":[],"categories_nodes":[],"categories_segments":[],"categories_sizes":[],"default_left":[0,0,0,0,0,0,0],"id":112,"left_children":[1,3,5,-1,-1,-1,-1],"loss_changes":[1.5077763E1,1.6951534E1,7.317759E0,0E0,0E0,0E0,0E0],"parents":[2147483647,0,0,1,1,2,2],"right_children":[2,4,6,-1,-1,-1,-1],"split_conditions":[1E0,5.943105E-1,3.7594455E-1,-7.1592513E-3,3.1146132E-3,-2.1073998E-4,6.7134383E-3],"split_indices":[0,1,2,0,0,0,0],"split_type":[0,0,0,0,0,0,0],"sum_hessian":[1.5667738E3,8.0308246E2,7.6369135E2,5.420561E2,2.6102637E2,4.813111E2,2.8238022E2],"tree_param":{"num_deleted":"0","num_feature":"7","num_nodes":"7","size_leaf_vector":"1"}},{"base_weights":[-1.0715818E-2,-1.9413662E-1,3.177384E-2,1.3002532E-3,-9.1213565E-3,-5.824115E-3,2.4612455E-3],"categories":[],"categories_nodes":[],"categories_segments":[],"categories_sizes":[],"default_left":[0,0,0,0,0,0,0],"id":113,"left_children":[1,3,5,-1,-1,-1,-1],"loss_changes":[1.48686075E1,4.1604586E0,1.010568E1,0E0,0E0,0E0,0E0],"parents":[2147483647,0,0,1,1,2,2],"right_children":[2,4,6,-1,-1,-1,-1],"split_conditions":[-1.0079191E0,-1.4796488E0,-1.355273E0,1.3002532E-3,-9.1213565E-3,-5.824115E-3,2.4612455E-3],"split_indices":[2,3,1,0,0,0,0],"split_type":[0,0,0,0,0,0,0],"sum_hessian":[1.5656501E3,1.6625775E2,1.3993923E3,2.2650475E1,1.4360728E2,9.42174E1,1.3051749E3],"tree_param":{"num_deleted":"0","num_feature":"7","num_nodes":"7","size_leaf_vector":"1"}},{"base_weights":[-1.1510889E-2,-5.355973E-2,1.6621771E-1,-7.761089E-3,-1.172518E-6,-3.8625606E-4,7.2529563E-3],"categories":[],"categories_nodes":[],"categories_segments":[],"categories_sizes":[],"default_left":[0,0,0,0,0,0,0],"id":114,"left_children":[1,3,5,-1,-1,-1,-1],"loss_changes":[1.4821115E1,1.1760818E1,1.3505249E0,0E0,0E0,0E0,0E0],"parents":[2147483647,0,0,1,1,2,2],"right_children":[2,4,6,-1,-1,-1,-1],"split_conditions":[1.2295778E0,-7.1299034E-1,-1.2643303E0,-7.761089E-3,-1.172518E-6,-3.8625606E-4,7.2529563E-3],"split_indices":[2,1,1,0,0,0,0],"split_type":[0,0,0,0,0,0,0],"sum_hessian":[1.5646841E3,1.3732317E3,1.914523E2,2.4059424E2,1.1326375E3,2.0593887E1,1.7085841E2],"tree_param":{"num_deleted":"0","num_feature":"7","num_nodes":"7","size_leaf_vector":"1"}},{"base_weights":[-1.1155578E-2,-5.239013E-2,1.6317676E-1,-6.8398057E-3,2.9492332E-4,-3.8475357E-4,7.1241795E-3],"categories":[],"categories_nodes":[],"categories_segments":[],"categories_sizes":[],"default_left":[0,0,0,0,0,0,0],"id":115,"left_children":[1,3,5,-1,-1,-1,-1],"loss_changes":[1.4245658E1,1.1323498E1,1.3126726E0,0E0,0E0,0E0,0E0],"parents":[2147483647,0,0,1,1,2,2],"right_children":[2,4,6,-1,-1,-1,-1],"split_conditions":[1.2295778E0,-4.231106E-1,-1.2643303E0,-6.8398057E-3,2.9492332E-4,-3.8475357E-4,7.1241795E-3],"split_indices":[2,1,1,0,0,0,0],"split_type":[0,0,0,0,0,0,0],"sum_hessian":[1.5635803E3,1.3725372E3,1.910431E2,3.4076657E2,1.0317706E3,2.059327E1,1.7044983E2],"tree_param":{"num_deleted":"0","num_feature":"7","num_nodes":"7","size_leaf_vector":"1"}},{"base_weights":[-1.0695199E-2,-9.344492E-2,7.764915E-2,-6.934317E-3,3.015263E-3,-2.5995653E-3,4.7508827E-3],"categories":[],"categories_nodes":[],"categories_segments":[],"categories_sizes":[],"default_left":[0,0,0,0,0,0,0],"id":116,"left_children":[1,3,5,-1,-1,-1,-1],"loss_changes":[1.4204807E1,1.5880881E1,7.0607996E0,0E0,0E0,0E0,0E0],"parents":[2147483647,0,0,1,1,2,2],"right_children":[2,4,6,-1,-1,-1,-1],"split_conditions":[1E0,5.943105E-1,-9.6767485E-1,-6.934317E-3,3.015263E-3,-2.5995653E-3,4.7508827E-3],"split_indices":[0,1,5,0,0,0,0],"split_type":[0,0,0,0,0,0,0],"sum_hessian":[1.5625026E3,8.011035E2,7.6139905E2,5.4025195E2,2.6085153E2,1.4558301E2,6.1581604E2],"tree_param":{"num_deleted":"0","num_feature":"7","num_nodes":"7","size_leaf_vector":"1"}},{"base_weights":[-1.046495E-2,-1.8828559E-1,3.0679854E-2,1.3399094E-3,-8.897655E-3,3.3149307E-3,-2.8402149E-3],"categories":[],"categories_nodes":[],"categories_segments":[],"categories_sizes":[],"default_left":[0,0,0,0,0,0,0],"id":117,"left_children":[1,3,5,-1,-1,-1,-1],"loss_changes":[1.3926896E1,4.1207666E0,9.549852E0,0E0,0E0,0E0,0E0],"parents":[2147483647,0,0,1,1,2,2],"right_children":[2,4,6,-1,-1,-1,-1],"split_conditions":[-1.0079191E0,-1.4796488E0,7.770754E-1,1.3399094E-3,-8.897655E-3,3.3149307E-3,-2.8402149E-3],"split_indices":[2,3,4,0,0,0,0],"split_type":[0,0,0,0,0,0,0],"sum_hessian":[1.5617169E3,1.6510661E2,1.3966102E3,2.2525011E1,1.425816E2,9.4625037E2,4.5035992E2],"tree_param":{"num_deleted":"0","num_feature":"7","num_nodes":"7","size_leaf_vector":"1"}},{"base_weights":[-1.0825188E-2,-5.1216617E-2,1.5994175E-1,-7.4100927E-3,-1.03889115E-5,-3.830533E-4,6.9870385E-3],"categories":[],"categories_nodes":[],"categories_segments":[],"categories_sizes":[],"default_left":[0,0,0,0,0,0,0],"id":118,"left_children":[1,3,5,-1,-1,-1,-1],"loss_changes":[1.36472E1,1.0654713E1,1.2721424E0,0E0,0E0,0E0,0E0],"parents":[2147483647,0,0,1,1,2,2],"right_children":[2,4,6,-1,-1,-1,-1],"split_conditions":[1.2295778E0,-7.1299034E-1,-1.2643303E0,-7.4100927E-3,-1.03889115E-5,-3.830533E-4,6.9870385E-3],"split_indices":[2,1,1,0,0,0,0],"split_type":[0,0,0,0,0,0,0],"sum_hessian":[1.5607294E3,1.3703226E3,1.9040675E2,2.3880392E2,1.1315187E3,2.0573153E1,1.698336E2],"tree_param":{"num_deleted":"0","num_feature":"7","num_nodes":"7","size_leaf_vector":"1"}},{"base_weights":[-1.04882E-2,-1.8404183E-1,2.9658329E-2,1.3527346E-3,-8.726226E-3,-5.5200774E-3,2.3114413E-3],"categories":[],"categories_nodes":[],"categories_segments":[],"categories_sizes":[],"default_left":[0,0,0,0,0,0,0],"id":119,"left_children":[1,3,5,-1,-1,-1,-1],"loss_changes":[1.3240438E1,4.0504417E0,9.003836E0,0E0,0E0,0E0,0E0],"parents":[2147483647,0,0,1,1,2,2],"right_children":[2,4,6,-1,-1,-1,-1],"split_conditions":[-1.0079191E0,-1.4796488E0,-1.355273E0,1.3527346E-3,-8.726226E-3,-5.5200774E-3,2.3114413E-3],"split_indices":[2,3,1,0,0,0,0],"split_type":[0,0,0,0,0,0,0],"sum_hessian":[1.5596648E3,1.643945E2,1.3952704E3,2.2480719E1,1.4191379E2,9.326303E1,1.3020073E3],"tree_param":{"num_deleted":"0","num_feature":"7","num_nodes":"7","size_leaf_vector":"1"}},{"base_weights":[-1.1230396E-2,-5.9252188E-2,1.2755726E-1,-5.9412E-3,4.0634116E-4,-1.4445479E-3,5.9838644E-3],"categories":[],"categories_nodes":[],"categories_segments":[],"categories_sizes":[],"default_left":[0,0,0,0,0,0,0],"id":120,"left_children":[1,3,5,-1,-1,-1,-1],"loss_changes":[1.3105303E1,9.151924E0,2.872899E0,0E0,0E0,0E0,0E0],"parents":[2147483647,0,0,1,1,2,2],"right_children":[2,4,6,-1,-1,-1,-1],"split_conditions":[8.008809E-1,-4.228817E-2,-1.4916869E0,-5.9412E-3,4.0634116E-4,-1.4445479E-3,5.9838644E-3],"split_indices":[2,1,1,0,0,0,0],"split_type":[0,0,0,0,0,0,0],"sum_hessian":[1.5587388E3,1.2393644E3,3.193744E2,4.4687155E2,7.9249286E2,2.3426825E1,2.9594757E2],"tree_param":{"num_deleted":"0","num_feature":"7","num_nodes":"7","size_leaf_vector":"1"}},{"base_weights":[-1.0897622E-2,-9.030524E-2,7.4012555E-2,-8.002314E-3,1.3915381E-3,-2.5823065E-3,4.574636E-3],"categories":[],"categories_nodes":[],"categories_segments":[],"categories_sizes":[],"default_left":[0,0,0,0,0,0,0],"id":121,"left_children":[1,3,5,-1,-1,-1,-1],"loss_changes":[1.30659485E1,1.4915364E1,6.722085E0,0E0,0E0,0E0,0E0],"parents":[2147483647,0,0,1,1,2,2],"right_children":[2,4,6,-1,-1,-1,-1],"split_conditions":[1E0,