{"learner":{"attributes":{"best_iteration":"939","best_score":"0.5986663748958575","scikit_learn":"{\"_estimator_type\": \"classifier\"}"},"feature_names":["Sex","Age","Weight","Height","InitialO2","InitialHR","InititalRR"],"feature_types":["float","float","float","float","float","float","float"],"gradient_booster":{"model":{"gbtree_model_param":{"num_parallel_tree":"1","num_trees":"1000"},"iteration_indptr":[0,1,2,3,4,5,6,7,8,9,10,11,12,13,14,15,16,17,18,19,20,21,22,23,24,25,26,27,28,29,30,31,32,33,34,35,36,37,38,39,40,41,42,43,44,45,46,47,48,49,50,51,52,53,54,55,56,57,58,59,60,61,62,63,64,65,66,67,68,69,70,71,72,73,74,75,76,77,78,79,80,81,82,83,84,85,86,87,88,89,90,91,92,93,94,95,96,97,98,99,100,101,102,103,104,105,106,107,108,109,110,111,112,113,114,115,116,117,118,119,120,121,122,123,124,125,126,127,128,129,130,131,132,133,134,135,136,137,138,139,140,141,142,143,144,145,146,147,148,149,150,151,152,153,154,155,156,157,158,159,160,161,162,163,164,165,166,167,168,169,170,171,172,173,174,175,176,177,178,179,180,181,182,183,184,185,186,187,188,189,190,191,192,193,194,195,196,197,198,199,200,201,202,203,204,205,206,207,208,209,210,211,212,213,214,215,216,217,218,219,220,221,222,223,224,225,226,227,228,229,230,231,232,233,234,235,236,237,238,239,240,241,242,243,244,245,246,247,248,249,250,251,252,253,254,255,256,257,258,259,260,261,262,263,264,265,266,267,268,269,270,271,272,273,274,275,276,277,278,279,280,281,282,283,284,285,286,287,288,289,290,291,292,293,294,295,296,297,298,299,300,301,302,303,304,305,306,307,308,309,310,311,312,313,314,315,316,317,318,319,320,321,322,323,324,325,326,327,328,329,330,331,332,333,334,335,336,337,338,339,340,341,342,343,344,345,346,347,348,349,350,351,352,353,354,355,356,357,358,359,360,361,362,363,364,365,366,367,368,369,370,371,372,373,374,375,376,377,378,379,380,381,382,383,384,385,386,387,388,389,390,391,392,393,394,395,396,397,398,399,400,401,402,403,404,405,406,407,408,409,410,411,412,413,414,415,416,417,418,419,420,421,422,423,424,425,426,427,428,429,430,431,432,433,434,435,436,437,438,439,440,441,442,443,444,445,446,447,448,449,450,451,452,453,454,455,456,457,458,459,460,461,462,463,464,465,466,467,468,469,470,471,472,473,474,475,476,477,478,479,480,481,482,483,484,485,486,487,488,489,490,491,492,493,494,495,496,497,498,499,500,501,502,503,504,505,506,507,508,509,510,511,512,513,514,515,516,517,518,519,520,521,522,523,524,525,526,527,528,529,530,531,532,533,534,535,536,537,538,539,540,541,542,543,544,545,546,547,548,549,550,551,552,553,554,555,556,557,558,559,560,561,562,563,564,565,566,567,568,569,570,571,572,573,574,575,576,577,578,579,580,581,582,583,584,585,586,587,588,589,590,591,592,593,594,595,596,597,598,599,600,601,602,603,604,605,606,607,608,609,610,611,612,613,614,615,616,617,618,619,620,621,622,623,624,625,626,627,628,629,630,631,632,633,634,635,636,637,638,639,640,641,642,643,644,645,646,647,648,649,650,651,652,653,654,655,656,657,658,659,660,661,662,663,664,665,666,667,668,669,670,671,672,673,674,675,676,677,678,679,680,681,682,683,684,685,686,687,688,689,690,691,692,693,694,695,696,697,698,699,700,701,702,703,704,705,706,707,708,709,710,711,712,713,714,715,716,717,718,719,720,721,722,723,724,725,726,727,728,729,730,731,732,733,734,735,736,737,738,739,740,741,742,743,744,745,746,747,748,749,750,751,752,753,754,755,756,757,758,759,760,761,762,763,764,765,766,767,768,769,770,771,772,773,774,775,776,777,778,779,780,781,782,783,784,785,786,787,788,789,790,791,792,793,794,795,796,797,798,799,800,801,802,803,804,805,806,807,808,809,810,811,812,813,814,815,816,817,818,819,820,821,822,823,824,825,826,827,828,829,830,831,832,833,834,835,836,837,838,839,840,841,842,843,844,845,846,847,848,849,850,851,852,853,854,855,856,857,858,859,860,861,862,863,864,865,866,867,868,869,870,871,872,873,874,875,876,877,878,879,880,881,882,883,884,885,886,887,888,889,890,891,892,893,894,895,896,897,898,899,900,901,902,903,904,905,906,907,908,909,910,911,912,913,914,915,916,917,918,919,920,921,922,923,924,925,926,927,928,929,930,931,932,933,934,935,936,937,938,939,940,941,942,943,944,945,946,947,948,949,950,951,952,953,954,955,956,957,958,959,960,961,962,963,964,965,966,967,968,969,970,971,972,973,974,975,976,977,978,979,980,981,982,983,984,985,986,987,988,989,990,991,992,993,994,995,996,997,998,999,1000],"tree_info":[0,0,0,0,0,0,0,0,0,0,0,0,0,0,0,0,0,0,0,0,0,0,0,0,0,0,0,0,0,0,0,0,0,0,0,0,0,0,0,0,0,0,0,0,0,0,0,0,0,0,0,0,0,0,0,0,0,0,0,0,0,0,0,0,0,0,0,0,0,0,0,0,0,0,0,0,0,0,0,0,0,0,0,0,0,0,0,0,0,0,0,0,0,0,0,0,0,0,0,0,0,0,0,0,0,0,0,0,0,0,0,0,0,0,0,0,0,0,0,0,0,0,0,0,0,0,0,0,0,0,0,0,0,0,0,0,0,0,0,0,0,0,0,0,0,0,0,0,0,0,0,0,0,0,0,0,0,0,0,0,0,0,0,0,0,0,0,0,0,0,0,0,0,0,0,0,0,0,0,0,0,0,0,0,0,0,0,0,0,0,0,0,0,0,0,0,0,0,0,0,0,0,0,0,0,0,0,0,0,0,0,0,0,0,0,0,0,0,0,0,0,0,0,0,0,0,0,0,0,0,0,0,0,0,0,0,0,0,0,0,0,0,0,0,0,0,0,0,0,0,0,0,0,0,0,0,0,0,0,0,0,0,0,0,0,0,0,0,0,0,0,0,0,0,0,0,0,0,0,0,0,0,0,0,0,0,0,0,0,0,0,0,0,0,0,0,0,0,0,0,0,0,0,0,0,0,0,0,0,0,0,0,0,0,0,0,0,0,0,0,0,0,0,0,0,0,0,0,0,0,0,0,0,0,0,0,0,0,0,0,0,0,0,0,0,0,0,0,0,0,0,0,0,0,0,0,0,0,0,0,0,0,0,0,0,0,0,0,0,0,0,0,0,0,0,0,0,0,0,0,0,0,0,0,0,0,0,0,0,0,0,0,0,0,0,0,0,0,0,0,0,0,0,0,0,0,0,0,0,0,0,0,0,0,0,0,0,0,0,0,0,0,0,0,0,0,0,0,0,0,0,0,0,0,0,0,0,0,0,0,0,0,0,0,0,0,0,0,0,0,0,0,0,0,0,0,0,0,0,0,0,0,0,0,0,0,0,0,0,0,0,0,0,0,0,0,0,0,0,0,0,0,0,0,0,0,0,0,0,0,0,0,0,0,0,0,0,0,0,0,0,0,0,0,0,0,0,0,0,0,0,0,0,0,0,0,0,0,0,0,0,0,0,0,0,0,0,0,0,0,0,0,0,0,0,0,0,0,0,0,0,0,0,0,0,0,0,0,0,0,0,0,0,0,0,0,0,0,0,0,0,0,0,0,0,0,0,0,0,0,0,0,0,0,0,0,0,0,0,0,0,0,0,0,0,0,0,0,0,0,0,0,0,0,0,0,0,0,0,0,0,0,0,0,0,0,0,0,0,0,0,0,0,0,0,0,0,0,0,0,0,0,0,0,0,0,0,0,0,0,0,0,0,0,0,0,0,0,0,0,0,0,0,0,0,0,0,0,0,0,0,0,0,0,0,0,0,0,0,0,0,0,0,0,0,0,0,0,0,0,0,0,0,0,0,0,0,0,0,0,0,0,0,0,0,0,0,0,0,0,0,0,0,0,0,0,0,0,0,0,0,0,0,0,0,0,0,0,0,0,0,0,0,0,0,0,0,0,0,0,0,0,0,0,0,0,0,0,0,0,0,0,0,0,0,0,0,0,0,0,0,0,0,0,0,0,0,0,0,0,0,0,0,0,0,0,0,0,0,0,0,0,0,0,0,0,0,0,0,0,0,0,0,0,0,0,0,0,0,0,0,0,0,0,0,0,0,0,0,0,0,0,0,0,0,0,0,0,0,0,0,0,0,0,0,0,0,0,0,0,0,0,0,0,0,0,0,0,0,0,0,0,0,0,0,0,0,0,0,0,0,0,0,0,0,0,0,0,0,0,0,0,0,0,0,0,0,0,0,0,0,0,0,0,0,0,0,0,0,0,0,0,0,0,0,0,0,0,0,0,0,0,0,0,0,0,0,0,0,0,0,0,0,0,0,0,0,0,0,0,0,0,0,0,0,0,0,0,0,0,0,0,0,0,0,0,0,0,0,0,0,0,0,0,0,0,0,0,0,0,0,0,0,0,0,0,0,0,0,0,0,0,0,0,0,0,0,0,0,0,0,0,0,0,0,0,0,0,0,0,0,0,0,0,0,0,0,0,0,0,0,0,0,0,0,0,0,0,0,0,0,0,0,0,0,0,0,0,0,0,0,0,0,0,0,0,0,0,0,0,0,0,0,0,0,0,0,0,0,0],"trees":[{"base_weights":[-0E0,-5.424625E-1,3.574056E-1,-2.7786009E-2,-3.638457E-3,-6.7469873E-3,1.8450642E-2],"categories":[],"categories_nodes":[],"categories_segments":[],"categories_sizes":[],"default_left":[0,0,0,0,0,0,0],"id":0,"left_children":[1,3,5,-1,-1,-1,-1],"loss_changes":[4.1528915E2,4.6388916E1,8.541307E1,0E0,0E0,0E0,0E0],"parents":[2147483647,0,0,1,1,2,2],"right_children":[2,4,6,-1,-1,-1,-1],"split_conditions":[-2.8966373E-1,5.6589097E-1,-8.4372044E-1,-2.7786009E-2,-3.638457E-3,-6.7469873E-3,1.8450642E-2],"split_indices":[2,1,1,0,0,0,0],"split_type":[0,0,0,0,0,0,0],"sum_hessian":[1.76E3,6.5975E2,1.10025E3,4.165E2,2.4325E2,1.6175E2,9.385E2],"tree_param":{"num_deleted":"0","num_feature":"7","num_nodes":"7","size_leaf_vector":"1"}},{"base_weights":[-1.9309166E-3,-5.2787036E-1,3.4486282E-1,-2.702763E-2,-3.5569433E-3,-6.7546493E-3,1.779821E-2],"categories":[],"categories_nodes":[],"categories_segments":[],"categories_sizes":[],"default_left":[0,0,0,0,0,0,0],"id":1,"left_children":[1,3,5,-1,-1,-1,-1],"loss_changes":[3.9058826E2,4.3719727E1,8.074371E1,0E0,0E0,0E0,0E0],"parents":[2147483647,0,0,1,1,2,2],"right_children":[2,4,6,-1,-1,-1,-1],"split_conditions":[-2.8966373E-1,5.6589097E-1,-8.6645615E-1,-2.702763E-2,-3.5569433E-3,-6.7546493E-3,1.779821E-2],"split_indices":[2,1,1,0,0,0,0],"split_type":[0,0,0,0,0,0,0],"sum_hessian":[1.7598372E3,6.596688E2,1.1001683E3,4.1641965E2,2.4324919E2,1.579982E2,9.421701E2],"tree_param":{"num_deleted":"0","num_feature":"7","num_nodes":"7","size_leaf_vector":"1"}},{"base_weights":[-3.7683004E-3,-5.1376766E-1,3.3276358E-1,-2.6296714E-2,-3.4772626E-3,-6.509926E-3,1.7250717E-2],"categories":[],"categories_nodes":[],"categories_segments":[],"categories_sizes":[],"default_left":[0,0,0,0,0,0,0],"id":2,"left_children":[1,3,5,-1,-1,-1,-1],"loss_changes":[3.6739774E2,4.122873E1,7.6416504E1,0E0,0E0,0E0,0E0],"parents":[2147483647,0,0,1,1,2,2],"right_children":[2,4,6,-1,-1,-1,-1],"split_conditions":[-2.8966373E-1,5.6589097E-1,-8.4372044E-1,-2.6296714E-2,-3.4772626E-3,-6.509926E-3,1.7250717E-2],"split_indices":[2,1,1,0,0,0,0],"split_type":[0,0,0,0,0,0,0],"sum_hessian":[1.7593687E3,6.5943414E2,1.0999344E3,4.161873E2,2.4324686E2,1.6174268E2,9.381918E2],"tree_param":{"num_deleted":"0","num_feature":"7","num_nodes":"7","size_leaf_vector":"1"}},{"base_weights":[-5.4844734E-3,-5.0013006E-1,3.2113683E-1,-2.7580826E-2,-5.6185424E-3,-6.5147113E-3,1.664469E-2],"categories":[],"categories_nodes":[],"categories_segments":[],"categories_sizes":[],"default_left":[0,0,0,0,0,0,0],"id":3,"left_children":[1,3,5,-1,-1,-1,-1],"loss_changes":[3.456609E2,3.9405E1,7.227292E1,0E0,0E0,0E0,0E0],"parents":[2147483647,0,0,1,1,2,2],"right_children":[2,4,6,-1,-1,-1,-1],"split_conditions":[-2.8966373E-1,1.50965E-1,-8.6645615E-1,-2.7580826E-2,-5.6185424E-3,-6.5147113E-3,1.664469E-2],"split_indices":[2,1,1,0,0,0,0],"split_type":[0,0,0,0,0,0,0],"sum_hessian":[1.7586217E3,6.590588E2,1.099563E3,3.1697836E2,3.420804E2,1.5798419E2,9.415788E2],"tree_param":{"num_deleted":"0","num_feature":"7","num_nodes":"7","size_leaf_vector":"1"}},{"base_weights":[-7.529668E-3,-4.1441774E-1,3.6785585E-1,-2.6443383E-2,-3.4376904E-3,-5.1869513E-3,1.8412804E-2],"categories":[],"categories_nodes":[],"categories_segments":[],"categories_sizes":[],"default_left":[0,0,0,0,0,0,0],"id":4,"left_children":[1,3,5,-1,-1,-1,-1],"loss_changes":[3.2675842E2,7.2191345E1,6.268425E1,0E0,0E0,0E0,0E0],"parents":[2147483647,0,0,1,1,2,2],"right_children":[2,4,6,-1,-1,-1,-1],"split_conditions":[-6.7794316E-2,6.0022335E-2,-8.8350785E-1,-2.6443383E-2,-3.4376904E-3,-5.1869513E-3,1.8412804E-2],"split_indices":[2,1,1,0,0,0,0],"split_type":[0,0,0,0,0,0,0],"sum_hessian":[1.7576804E3,8.3391876E2,9.237616E2,3.6581122E2,4.6810754E2,1.3272664E2,7.91035E2],"tree_param":{"num_deleted":"0","num_feature":"7","num_nodes":"7","size_leaf_vector":"1"}},{"base_weights":[-8.866108E-3,-4.774538E-1,3.009967E-1,-2.447399E-2,-3.196594E-3,-6.15606E-3,1.5691234E-2],"categories":[],"categories_nodes":[],"categories_segments":[],"categories_sizes":[],"default_left":[0,0,0,0,0,0,0],"id":5,"left_children":[1,3,5,-1,-1,-1,-1],"loss_changes":[3.1024127E2,3.6026764E1,6.5078636E1,0E0,0E0,0E0,0E0],"parents":[2147483647,0,0,1,1,2,2],"right_children":[2,4,6,-1,-1,-1,-1],"split_conditions":[-2.8966373E-1,5.6589097E-1,-8.4372044E-1,-2.447399E-2,-3.196594E-3,-6.15606E-3,1.5691234E-2],"split_indices":[2,1,1,0,0,0,0],"split_type":[0,0,0,0,0,0,0],"sum_hessian":[1.7566334E3,6.581093E2,1.0985242E3,4.1488293E2,2.4322635E2,1.6170045E2,9.368237E2],"tree_param":{"num_deleted":"0","num_feature":"7","num_nodes":"7","size_leaf_vector":"1"}},{"base_weights":[-1.0298771E-2,-3.95469E-1,3.455427E-1,-2.532053E-2,-3.21759E-3,1.895504E-2,-1.2469143E-3],"categories":[],"categories_nodes":[],"categories_segments":[],"categories_sizes":[],"default_left":[0,0,0,0,0,0,0],"id":6,"left_children":[1,3,5,-1,-1,-1,-1],"loss_changes":[2.9285236E2,6.687938E1,5.6657394E1,0E0,0E0,0E0,0E0],"parents":[2147483647,0,0,1,1,2,2],"right_children":[2,4,6,-1,-1,-1,-1],"split_conditions":[-6.7794316E-2,6.0022335E-2,7.770754E-1,-2.532053E-2,-3.21759E-3,1.895504E-2,-1.2469143E-3],"split_indices":[2,1,4,0,0,0,0],"split_type":[0,0,0,0,0,0,0],"sum_hessian":[1.7552485E3,8.3267426E2,9.2257434E2,3.648054E2,4.6786884E2,6.5140314E2,2.7117117E2],"tree_param":{"num_deleted":"0","num_feature":"7","num_nodes":"7","size_leaf_vector":"1"}},{"base_weights":[-1.0957862E-2,-4.4051978E-1,2.9295647E-1,-2.4996853E-2,-4.571727E-3,-5.946553E-3,1.5300526E-2],"categories":[],"categories_nodes":[],"categories_segments":[],"categories_sizes":[],"default_left":[0,0,0,0,0,0,0],"id":7,"left_children":[1,3,5,-1,-1,-1,-1],"loss_changes":[2.7856964E2,3.9427948E1,6.0449593E1,0E0,0E0,0E0,0E0],"parents":[2147483647,0,0,1,1,2,2],"right_children":[2,4,6,-1,-1,-1,-1],"split_conditions":[-2.5581926E-1,1.5664892E-1,-8.4372044E-1,-2.4996853E-2,-4.571727E-3,-5.946553E-3,1.5300526E-2],"split_indices":[2,1,1,0,0,0,0],"split_type":[0,0,0,0,0,0,0],"sum_hessian":[1.7540052E3,6.911958E2,1.0628094E3,3.2985992E2,3.6133588E2,1.5793648E2,9.04873E2],"tree_param":{"num_deleted":"0","num_feature":"7","num_nodes":"7","size_leaf_vector":"1"}},{"base_weights":[-1.2516917E-2,-4.444525E-1,2.7348772E-1,-2.4589248E-2,-4.948265E-3,9.290014E-5,1.7777905E-2],"categories":[],"categories_nodes":[],"categories_segments":[],"categories_sizes":[],"default_left":[0,0,0,0,0,0,0],"id":8,"left_children":[1,3,5,-1,-1,-1,-1],"loss_changes":[2.6329172E2,3.1731506E1,5.9486214E1,0E0,0E0,0E0,0E0],"parents":[2147483647,0,0,1,1,2,2],"right_children":[2,4,6,-1,-1,-1,-1],"split_conditions":[-2.8966373E-1,1.50965E-1,1E0,-2.4589248E-2,-4.948265E-3,9.290014E-5,1.7777905E-2],"split_indices":[2,1,0,0,0,0,0],"split_type":[0,0,0,0,0,0,0],"sum_hessian":[1.7523693E3,6.559351E2,1.0964342E3,3.141132E2,3.418219E2,4.9882544E2,5.9760876E2],"tree_param":{"num_deleted":"0","num_feature":"7","num_nodes":"7","size_leaf_vector":"1"}},{"base_weights":[-1.3175553E-2,-3.1797278E-1,3.7375516E-1,-2.3991419E-2,-1.040281E-3,-3.666996E-3,1.8379262E-2],"categories":[],"categories_nodes":[],"categories_segments":[],"categories_sizes":[],"default_left":[0,0,0,0,0,0,0],"id":9,"left_children":[1,3,5,-1,-1,-1,-1],"loss_changes":[2.5171652E2,9.488673E1,4.568904E1,0E0,0E0,0E0,0E0],"parents":[2147483647,0,0,1,1,2,2],"right_children":[2,4,6,-1,-1,-1,-1],"split_conditions":[1.5407512E-1,-1.3868583E-2,-8.8350785E-1,-2.3991419E-2,-1.040281E-3,-3.666996E-3,1.8379262E-2],"split_indices":[2,1,1,0,0,0,0],"split_type":[0,0,0,0,0,0,0],"sum_hessian":[1.7508878E3,9.984319E2,7.5245593E2,4.0558215E2,5.9284973E2,1.1497491E2,6.37481E2],"tree_param":{"num_deleted":"0","num_feature":"7","num_nodes":"7","size_leaf_vector":"1"}},{"base_weights":[-1.3675735E-2,-3.6211115E-1,3.0872756E-1,-2.356181E-2,-3.2151127E-3,1.7333271E-2,-1.8284332E-3],"categories":[],"categories_nodes":[],"categories_segments":[],"categories_sizes":[],"default_left":[0,0,0,0,0,0,0],"id":10,"left_children":[1,3,5,-1,-1,-1,-1],"loss_changes":[2.39311E2,5.619394E1,5.284381E1,0E0,0E0,0E0,0E0],"parents":[2147483647,0,0,1,1,2,2],"right_children":[2,4,6,-1,-1,-1,-1],"split_conditions":[-6.7794316E-2,-1.3868583E-2,7.770754E-1,-2.356181E-2,-3.2151127E-3,1.7333271E-2,-1.8284332E-3],"split_indices":[2,1,4,0,0,0,0],"split_type":[0,0,0,0,0,0,0],"sum_hessian":[1.749224E3,8.293669E2,9.198572E2,3.4396484E2,4.85402E2,6.491365E2,2.7072067E2],"tree_param":{"num_deleted":"0","num_feature":"7","num_nodes":"7","size_leaf_vector":"1"}},{"base_weights":[-1.4253013E-2,-4.170323E-1,2.5245863E-1,-2.1446537E-2,-2.7447569E-3,-3.0747437E-4,1.6759813E-2],"categories":[],"categories_nodes":[],"categories_segments":[],"categories_sizes":[],"default_left":[0,0,0,0,0,0,0],"id":11,"left_children":[1,3,5,-1,-1,-1,-1],"loss_changes":[2.2835022E2,2.80159E1,5.629461E1,0E0,0E0,0E0,0E0],"parents":[2147483647,0,0,1,1,2,2],"right_children":[2,4,6,-1,-1,-1,-1],"split_conditions":[-2.8966373E-1,5.6589097E-1,1E0,-2.1446537E-2,-2.7447569E-3,-3.0747437E-4,1.6759813E-2],"split_indices":[2,1,0,0,0,0,0],"split_type":[0,0,0,0,0,0,0],"sum_hessian":[1.7474623E3,6.532685E2,1.0941938E3,4.1011536E2,2.4315312E2,4.981781E2,5.960157E2],"tree_param":{"num_deleted":"0","num_feature":"7","num_nodes":"7","size_leaf_vector":"1"}},{"base_weights":[-1.4462057E-2,-2.9827586E-1,3.461524E-1,-2.2609603E-2,-9.2455826E-4,-3.8574957E-3,1.7200826E-2],"categories":[],"categories_nodes":[],"categories_segments":[],"categories_sizes":[],"default_left":[0,0,0,0,0,0,0],"id":12,"left_children":[1,3,5,-1,-1,-1,-1],"loss_changes":[2.1793062E2,8.4649475E1,4.2862022E1,0E0,0E0,0E0,0E0],"parents":[2147483647,0,0,1,1,2,2],"right_children":[2,4,6,-1,-1,-1,-1],"split_conditions":[1.5407512E-1,-1.3868583E-2,-8.8350785E-1,-2.2609603E-2,-9.2455826E-4,-3.8574957E-3,1.7200826E-2],"split_indices":[2,1,1,0,0,0,0],"split_type":[0,0,0,0,0,0,0],"sum_hessian":[1.7456406E3,9.953162E2,7.503244E2,4.0298407E2,5.9233215E2,1.1497151E2,6.3535284E2],"tree_param":{"num_deleted":"0","num_feature":"7","num_nodes":"7","size_leaf_vector":"1"}},{"base_weights":[-1.4905012E-2,-3.9897168E-1,2.393211E-1,-2.0506568E-2,-2.6626696E-3,-4.893578E-4,1.6066717E-2],"categories":[],"categories_nodes":[],"categories_segments":[],"categories_sizes":[],"default_left":[0,0,0,0,0,0,0],"id":13,"left_children":[1,3,5,-1,-1,-1,-1],"loss_changes":[2.0713464E2,2.5308777E1,5.3354637E1,0E0,0E0,0E0,0E0],"parents":[2147483647,0,0,1,1,2,2],"right_children":[2,4,6,-1,-1,-1,-1],"split_conditions":[-2.8966373E-1,5.6589097E-1,1E0,-2.0506568E-2,-2.6626696E-3,-4.893578E-4,1.6066717E-2],"split_indices":[2,1,0,0,0,0,0],"split_type":[0,0,0,0,0,0,0],"sum_hessian":[1.743637E3,6.5116144E2,1.0924756E3,4.0802692E2,2.431345E2,4.9777863E2,5.9469696E2],"tree_param":{"num_deleted":"0","num_feature":"7","num_nodes":"7","size_leaf_vector":"1"}},{"base_weights":[-1.5076858E-2,-2.8556338E-1,3.2880536E-1,-2.1754932E-2,-8.224189E-4,-3.918884E-3,1.6439524E-2],"categories":[],"categories_nodes":[],"categories_segments":[],"categories_sizes":[],"default_left":[0,0,0,0,0,0,0],"id":14,"left_children":[1,3,5,-1,-1,-1,-1],"loss_changes":[1.976999E2,7.8911446E1,4.0648033E1,0E0,0E0,0E0,0E0],"parents":[2147483647,0,0,1,1,2,2],"right_children":[2,4,6,-1,-1,-1,-1],"split_conditions":[1.5407512E-1,-1.3868583E-2,-8.8350785E-1,-2.1754932E-2,-8.224189E-4,-3.918884E-3,1.6439524E-2],"split_indices":[2,1,1,0,0,0,0],"split_type":[0,0,0,0,0,0,0],"sum_hessian":[1.7416456E3,9.929865E2,7.486591E2,4.0106042E2,5.919261E2,1.1496202E2,6.3369714E2],"tree_param":{"num_deleted":"0","num_feature":"7","num_nodes":"7","size_leaf_vector":"1"}},{"base_weights":[-1.5486396E-2,-3.8181528E-1,2.2689293E-1,-2.1178706E-2,-4.2623878E-3,1.5720146E-2,-4.4898546E-4],"categories":[],"categories_nodes":[],"categories_segments":[],"categories_sizes":[],"default_left":[0,0,0,0,0,0,0],"id":15,"left_children":[1,3,5,-1,-1,-1,-1],"loss_changes":[1.8795312E2,2.33582E1,5.153414E1,0E0,0E0,0E0,0E0],"parents":[2147483647,0,0,1,1,2,2],"right_children":[2,4,6,-1,-1,-1,-1],"split_conditions":[-2.8966373E-1,1.50965E-1,3.004379E-1,-2.1178706E-2,-4.2623878E-3,1.5720146E-2,-4.4898546E-4],"split_indices":[2,1,4,0,0,0,0],"split_type":[0,0,0,0,0,0,0],"sum_hessian":[1.7394597E3,6.488771E2,1.0905826E3,3.0751968E2,3.413574E2,5.6924176E2,5.213409E2],"tree_param":{"num_deleted":"0","num_feature":"7","num_nodes":"7","size_leaf_vector":"1"}},{"base_weights":[-1.5893346E-2,-2.739335E-1,3.1241956E-1,-2.0897128E-2,-7.911242E-4,-3.9363015E-3,1.5705952E-2],"categories":[],"categories_nodes":[],"categories_segments":[],"categories_sizes":[],"default_left":[0,0,0,0,0,0,0],"id":16,"left_children":[1,3,5,-1,-1,-1,-1],"loss_changes":[1.7971434E2,7.2646385E1,3.8292534E1,0E0,0E0,0E0,0E0],"parents":[2147483647,0,0,1,1,2,2],"right_children":[2,4,6,-1,-1,-1,-1],"split_conditions":[1.5407512E-1,-1.3868583E-2,-8.8350785E-1,-2.0897128E-2,-7.911242E-4,-3.9363015E-3,1.5705952E-2],"split_indices":[2,1,1,0,0,0,0],"split_type":[0,0,0,0,0,0,0],"sum_hessian":[1.7373777E3,9.9051245E2,7.468653E2,3.988937E2,5.916187E2,1.14953E2,6.319123E2],"tree_param":{"num_deleted":"0","num_feature":"7","num_nodes":"7","size_leaf_vector":"1"}},{"base_weights":[-1.626111E-2,-3.662125E-1,2.1521606E-1,-2.0870296E-2,-4.6030125E-3,-1.0201092E-3,1.4964858E-2],"categories":[],"categories_nodes":[],"categories_segments":[],"categories_sizes":[],"default_left":[0,0,0,0,0,0,0],"id":17,"left_children":[1,3,5,-1,-1,-1,-1],"loss_changes":[1.7107372E2,2.1247002E1,5.0767017E1,0E0,0E0,0E0,0E0],"parents":[2147483647,0,0,1,1,2,2],"right_children":[2,4,6,-1,-1,-1,-1],"split_conditions":[-2.8966373E-1,-1.9552499E-2,1E0,-2.0870296E-2,-4.6030125E-3,-1.0201092E-3,1.4964858E-2],"split_indices":[2,1,0,0,0,0,0],"split_type":[0,0,0,0,0,0,0],"sum_hessian":[1.7350371E3,6.464888E2,1.0885483E3,2.7212628E2,3.743625E2,4.9660687E2,5.9194147E2],"tree_param":{"num_deleted":"0","num_feature":"7","num_nodes":"7","size_leaf_vector":"1"}},{"base_weights":[-1.67755E-2,-2.630227E-1,2.9681936E-1,-2.009147E-2,-7.649297E-4,1.6366495E-2,-1.3389427E-3],"categories":[],"categories_nodes":[],"categories_segments":[],"categories_sizes":[],"default_left":[0,0,0,0,0,0,0],"id":18,"left_children":[1,3,5,-1,-1,-1,-1],"loss_changes":[1.6347845E2,6.696373E1,3.7345932E1,0E0,0E0,0E0,0E0],"parents":[2147483647,0,0,1,1,2,2],"right_children":[2,4,6,-1,-1,-1,-1],"split_conditions":[1.5407512E-1,-1.3868583E-2,7.770754E-1,-2.009147E-2,-7.649297E-4,1.6366495E-2,-1.3389427E-3],"split_indices":[2,1,4,0,0,0,0],"split_type":[0,0,0,0,0,0,0],"sum_hessian":[1.7328987E3,9.8793475E2,7.44964E2,3.9656296E2,5.9137177E2,5.218561E2,2.2310791E2],"tree_param":{"num_deleted":"0","num_feature":"7","num_nodes":"7","size_leaf_vector":"1"}},{"base_weights":[-1.6704705E-2,-3.4041014E-1,2.1222821E-1,-1.9371023E-2,-3.594458E-3,1.5062125E-2,-8.9508126E-4],"categories":[],"categories_nodes":[],"categories_segments":[],"categories_sizes":[],"default_left":[0,0,0,0,0,0,0],"id":19,"left_children":[1,3,5,-1,-1,-1,-1],"loss_changes":[1.5620404E2,2.3025536E1,4.9537853E1,0E0,0E0,0E0,0E0],"parents":[2147483647,0,0,1,1,2,2],"right_children":[2,4,6,-1,-1,-1,-1],"split_conditions":[-2.5581926E-1,1.5664892E-1,3.004379E-1,-1.9371023E-2,-3.594458E-3,1.5062125E-2,-8.9508126E-4],"split_indices":[2,1,4,0,0,0,0],"split_type":[0,0,0,0,0,0,0],"sum_hessian":[1.7306221E3,6.783898E2,1.0522323E3,3.17757E2,3.6063278E2,5.508412E2,5.013911E2],"tree_param":{"num_deleted":"0","num_feature":"7","num_nodes":"7","size_leaf_vector":"1"}},{"base_weights":[-1.6933879E-2,-2.521145E-1,2.8265524E-1,-1.9301878E-2,-7.2549505E-4,4.9029506E-4,1.7298391E-2],"categories":[],"categories_nodes":[],"categories_segments":[],"categories_sizes":[],"default_left":[0,0,0,0,0,0,0],"id":20,"left_children":[1,3,5,-1,-1,-1,-1],"loss_changes":[1.4884267E2,6.1744583E1,3.6826195E1,0E0,0E0,0E0,0E0],"parents":[2147483647,0,0,1,1,2,2],"right_children":[2,4,6,-1,-1,-1,-1],"split_conditions":[1.5407512E-1,-1.3868583E-2,1E0,-1.9301878E-2,-7.2549505E-4,4.9029506E-4,1.7298391E-2],"split_indices":[2,1,0,0,0,0,0],"split_type":[0,0,0,0,0,0,0],"sum_hessian":[1.7283359E3,9.852059E2,7.4313007E2,3.9413226E2,5.910736E2,3.3859418E2,4.045359E2],"tree_param":{"num_deleted":"0","num_feature":"7","num_nodes":"7","size_leaf_vector":"1"}},{"base_weights":[-1.6500877E-2,-3.375661E-1,1.9549093E-1,-2.0433769E-2,-5.0018076E-3,-1.2084054E-3,1.3857804E-2],"categories":[],"categories_nodes":[],"categories_segments":[],"categories_sizes":[],"default_left":[0,0,0,0,0,0,0],"id":21,"left_children":[1,3,5,-1,-1,-1,-1],"loss_changes":[1.4308543E2,1.8454056E1,4.5459915E1,0E0,0E0,0E0,0E0],"parents":[2147483647,0,0,1,1,2,2],"right_children":[2,4,6,-1,-1,-1,-1],"split_conditions":[-2.8966373E-1,-3.833232E-1,1E0,-2.0433769E-2,-5.0018076E-3,-1.2084054E-3,1.3857804E-2],"split_indices":[2,1,0,0,0,0,0],"split_type":[0,0,0,0,0,0,0],"sum_hessian":[1.7260582E3,6.414426E2,1.0846156E3,2.0565172E2,4.3579092E2,4.9591602E2,5.886996E2],"tree_param":{"num_deleted":"0","num_feature":"7","num_nodes":"7","size_leaf_vector":"1"}},{"base_weights":[-1.7136153E-2,-3.864256E-1,1.5934655E-1,-1.691985E-2,1.2497874E-3,-2.7880298E-3,1.2972282E-2],"categories":[],"categories_nodes":[],"categories_segments":[],"categories_sizes":[],"default_left":[0,0,0,0,0,0,0],"id":22,"left_children":[1,3,5,-1,-1,-1,-1],"loss_changes":[1.365614E2,1.2834213E1,5.8383343E1,0E0,0E0,0E0,0E0],"parents":[2147483647,0,0,1,1,2,2],"right_children":[2,4,6,-1,-1,-1,-1],"split_conditions":[-5.3033566E-1,1.6003639E0,1E0,-1.691985E-2,1.2497874E-3,-2.7880298E-3,1.2972282E-2],"split_indices":[2,1,0,0,0,0,0],"split_type":[0,0,0,0,0,0,0],"sum_hessian":[1.7239045E3,4.8397528E2,1.2399293E3,4.4277127E2,4.1203995E1,5.6530347E2,6.7462585E2],"tree_param":{"num_deleted":"0","num_feature":"7","num_nodes":"7","size_leaf_vector":"1"}},{"base_weights":[-1.7017255E-2,-2.3882033E-1,2.6558873E-1,-1.846281E-2,-5.824924E-4,-3.6875939E-3,1.4190037E-2],"categories":[],"categories_nodes":[],"categories_segments":[],"categories_sizes":[],"default_left":[0,0,0,0,0,0,0],"id":23,"left_children":[1,3,5,-1,-1,-1,-1],"loss_changes":[1.320259E2,5.7279472E1,3.596566E1,0E0,0E0,0E0,0E0],"parents":[2147483647,0,0,1,1,2,2],"right_children":[2,4,6,-1,-1,-1,-1],"split_conditions":[1.5407512E-1,-1.3868583E-2,-7.1299034E-1,-1.846281E-2,-5.824924E-4,-3.6875939E-3,1.4190037E-2],"split_indices":[2,1,1,0,0,0,0],"split_type":[0,0,0,0,0,0,0],"sum_hessian":[1.7219811E3,9.8135675E2,7.406243E2,3.9093365E2,5.904231E2,1.4645656E2,5.941678E2],"tree_param":{"num_deleted":"0","num_feature":"7","num_nodes":"7","size_leaf_vector":"1"}},{"base_weights":[-1.7214468E-2,-3.7065718E-1,1.5153901E-1,-1.8288463E-2,-2.4758256E-3,-2.807838E-3,1.24810105E-2],"categories":[],"categories_nodes":[],"categories_segments":[],"categories_sizes":[],"default_left":[0,0,0,0,0,0,0],"id":24,"left_children":[1,3,5,-1,-1,-1,-1],"loss_changes":[1.2467296E2,1.2574951E1,5.5020775E1,0E0,0E0,0E0,0E0],"parents":[2147483647,0,0,1,1,2,2],"right_children":[2,4,6,-1,-1,-1,-1],"split_conditions":[-5.3033566E-1,5.7725877E-1,1E0,-1.8288463E-2,-2.4758256E-3,-2.807838E-3,1.24810105E-2],"split_indices":[2,1,0,0,0,0,0],"split_type":[0,0,0,0,0,0,0],"sum_hessian":[1.7193911E3,4.8179138E2,1.2375997E3,3.0457834E2,1.7721303E2,5.647599E2,6.7283984E2],"tree_param":{"num_deleted":"0","num_feature":"7","num_nodes":"7","size_leaf_vector":"1"}},{"base_weights":[-1.7656744E-2,-2.3013233E-1,2.533235E-1,-1.7844215E-2,-5.430105E-4,-3.7105973E-3,1.3625666E-2],"categories":[],"categories_nodes":[],"categories_segments":[],"categories_sizes":[],"default_left":[0,0,0,0,0,0,0],"id":25,"left_children":[1,3,5,-1,-1,-1,-1],"loss_changes":[1.2101115E2,5.3551792E1,3.4128586E1,0E0,0E0,0E0,0E0],"parents":[2147483647,0,0,1,1,2,2],"right_children":[2,4,6,-1,-1,-1,-1],"split_conditions":[1.5407512E-1,-1.3868583E-2,-7.1299034E-1,-1.7844215E-2,-5.430105E-4,-3.7105973E-3,1.3625666E-2],"split_indices":[2,1,1,0,0,0,0],"split_type":[0,0,0,0,0,0,0],"sum_hessian":[1.7173462E3,9.78722E2,7.386242E2,3.8865598E2,5.90066E2,1.4640976E2,5.922145E2],"tree_param":{"num_deleted":"0","num_feature":"7","num_nodes":"7","size_leaf_vector":"1"}},{"base_weights":[-1.782474E-2,-1.970728E-1,2.8614682E-1,-1.8306693E-2,-8.595082E-6,1.5553415E-2,-1.3202872E-3],"categories":[],"categories_nodes":[],"categories_segments":[],"categories_sizes":[],"default_left":[0,0,0,0,0,0,0],"id":26,"left_children":[1,3,5,-1,-1,-1,-1],"loss_changes":[1.1460586E2,6.728175E1,2.8172295E1,0E0,0E0,0E0,0E0],"parents":[2147483647,0,0,1,1,2,2],"right_children":[2,4,6,-1,-1,-1,-1],"split_conditions":[3.9098653E-1,-1.9007E-1,7.770754E-1,-1.8306693E-2,-8.595082E-6,1.5553415E-2,-1.3202872E-3],"split_indices":[2,1,4,0,0,0,0],"split_type":[0,0,0,0,0,0,0],"sum_hessian":[1.7147085E3,1.1208987E3,5.938097E2,3.7346655E2,7.474322E2,4.177094E2,1.7610031E2],"tree_param":{"num_deleted":"0","num_feature":"7","num_nodes":"7","size_leaf_vector":"1"}},{"base_weights":[-1.7542763E-2,-3.5277465E-1,1.4232673E-1,-1.5504299E-2,1.2665561E-3,-2.8688258E-3,1.1934163E-2],"categories":[],"categories_nodes":[],"categories_segments":[],"categories_sizes":[],"default_left":[0,0,0,0,0,0,0],"id":27,"left_children":[1,3,5,-1,-1,-1,-1],"loss_changes":[1.1160344E2,1.13100815E1,5.1675766E1,0E0,0E0,0E0,0E0],"parents":[2147483647,0,0,1,1,2,2],"right_children":[2,4,6,-1,-1,-1,-1],"split_conditions":[-5.3033566E-1,1.6003639E0,1E0,-1.5504299E-2,1.2665561E-3,-2.8688258E-3,1.1934163E-2],"split_indices":[2,1,0,0,0,0,0],"split_type":[0,0,0,0,0,0,0],"sum_hessian":[1.7124727E3,4.7854285E2,1.2339297E3,4.3734216E2,4.1200687E1,5.637493E2,6.701804E2],"tree_param":{"num_deleted":"0","num_feature":"7","num_nodes":"7","size_leaf_vector":"1"}},{"base_weights":[-1.7380819E-2,-3.709071E-1,1.2675907E-1,-1.9359497E-2,2.5926675E-3,-2.2473836E-3,1.2892638E-2],"categories":[],"categories_nodes":[],"categories_segments":[],"categories_sizes":[],"default_left":[0,0,0,0,0,0,0],"id":28,"left_children":[1,3,5,-1,-1,-1,-1],"loss_changes":[1.0587195E2,3.552356E1,5.6874786E1,0E0,0E0,0E0,0E0],"parents":[2147483647,0,0,1,1,2,2],"right_children":[2,4,6,-1,-1,-1,-1],"split_conditions":[-5.8226025E-1,8.535279E-1,1.5407512E-1,-1.9359497E-2,2.5926675E-3,-2.2473836E-3,1.2892638E-2],"split_indices":[1,2,2,0,0,0,0],"split_type":[0,0,0,0,0,0,0],"sum_hessian":[1.7104359E3,4.0836514E2,1.3020708E3,3.0742487E2,1.0094026E2,7.4306104E2,5.5900977E2],"tree_param":{"num_deleted":"0","num_feature":"7","num_nodes":"7","size_leaf_vector":"1"}},{"base_weights":[-1.7322568E-2,-3.3857557E-1,1.35703E-1,-1.6818602E-2,-2.151833E-3,-2.865518E-3,1.1500692E-2],"categories":[],"categories_nodes":[],"categories_segments":[],"categories_sizes":[],"default_left":[0,0,0,0,0,0,0],"id":29,"left_children":[1,3,5,-1,-1,-1,-1],"loss_changes":[1.02135345E2,1.1243637E1,4.8717102E1,0E0,0E0,0E0,0E0],"parents":[2147483647,0,0,1,1,2,2],"right_children":[2,4,6,-1,-1,-1,-1],"split_conditions":[-5.3033566E-1,5.7725877E-1,1E0,-1.6818602E-2,-2.151833E-3,-2.865518E-3,1.1500692E-2],"split_indices":[2,1,0,0,0,0,0],"split_type":[0,0,0,0,0,0,0],"sum_hessian":[1.7081018E3,4.763934E2,1.2317084E3,2.9931964E2,1.7707375E2,5.632791E2,6.684293E2],"tree_param":{"num_deleted":"0","num_feature":"7","num_nodes":"7","size_leaf_vector":"1"}},{"base_weights":[-1.7691705E-2,-3.6067766E-1,1.2209207E-1,-1.8822167E-2,2.494027E-3,-2.133569E-3,1.239156E-2],"categories":[],"categories_nodes":[],"categories_segments":[],"categories_sizes":[],"default_left":[0,0,0,0,0,0,0],"id":30,"left_children":[1,3,5,-1,-1,-1,-1],"loss_changes":[9.935941E1,3.337921E1,5.2232307E1,0E0,0E0,0E0,0E0],"parents":[2147483647,0,0,1,1,2,2],"right_children":[2,4,6,-1,-1,-1,-1],"split_conditions":[-5.8226025E-1,8.535279E-1,1.5407512E-1,-1.8822167E-2,2.494027E-3,-2.133569E-3,1.239156E-2],"split_indices":[1,2,2,0,0,0,0],"split_type":[0,0,0,0,0,0,0],"sum_hessian":[1.70598E3,4.0656567E2,1.2994144E3,3.0570438E2,1.0086128E2,7.4232294E2,5.5709143E2],"tree_param":{"num_deleted":"0","num_feature":"7","num_nodes":"7","size_leaf_vector":"1"}},{"base_weights":[-1.7618107E-2,-1.8089056E-1,2.5964534E-1,-1.6081063E-2,7.1863836E-4,1.4728388E-4,1.5745196E-2],"categories":[],"categories_nodes":[],"categories_segments":[],"categories_sizes":[],"default_left":[0,0,0,0,0,0,0],"id":31,"left_children":[1,3,5,-1,-1,-1,-1],"loss_changes":[9.473902E1,5.8766113E1,2.649443E1,0E0,0E0,0E0,0E0],"parents":[2147483647,0,0,1,1,2,2],"right_children":[2,4,6,-1,-1,-1,-1],"split_conditions":[3.9098653E-1,-1.3868583E-2,1E0,-1.6081063E-2,7.1863836E-4,1.4728388E-4,1.5745196E-2],"split_indices":[2,1,0,0,0,0,0],"split_type":[0,0,0,0,0,0,0],"sum_hessian":[1.7036152E3,1.114001E3,5.896142E2,4.3505746E2,6.7894354E2,2.700196E2,3.1959457E2],"tree_param":{"num_deleted":"0","num_feature":"7","num_nodes":"7","size_leaf_vector":"1"}},{"base_weights":[-1.6881926E-2,-3.4804752E-1,1.17821604E-1,-1.8141104E-2,2.346685E-3,-2.584185E-3,1.1330188E-2],"categories":[],"categories_nodes":[],"categories_segments":[],"categories_sizes":[],"default_left":[0,0,0,0,0,0,0],"id":32,"left_children":[1,3,5,-1,-1,-1,-1],"loss_changes":[9.2246376E1,3.0627098E1,4.8397438E1,0E0,0E0,0E0,0E0],"parents":[2147483647,0,0,1,1,2,2],"right_children":[2,4,6,-1,-1,-1,-1],"split_conditions":[-5.8226025E-1,8.535279E-1,1E0,-1.8141104E-2,2.346685E-3,-2.584185E-3,1.1330188E-2],"split_indices":[1,2,0,0,0,0,0],"split_type":[0,0,0,0,0,0,0],"sum_hessian":[1.7012998E3,4.044535E2,1.2968463E3,3.0370456E2,1.0074892E2,6.7210944E2,6.247369E2],"tree_param":{"num_deleted":"0","num_feature":"7","num_nodes":"7","size_leaf_vector":"1"}},{"base_weights":[-1.693716E-2,-3.1983292E-1,1.27031E-1,-1.4116207E-2,1.2746837E-3,-2.650559E-3,1.0756966E-2],"categories":[],"categories_nodes":[],"categories_segments":[],"categories_sizes":[],"default_left":[0,0,0,0,0,0,0],"id":33,"left_children":[1,3,5,-1,-1,-1,-1],"loss_changes":[9.0198265E1,9.863831E0,4.2298447E1,0E0,0E0,0E0,0E0],"parents":[2147483647,0,0,1,1,2,2],"right_children":[2,4,6,-1,-1,-1,-1],"split_conditions":[-5.3033566E-1,1.6003639E0,1E0,-1.4116207E-2,1.2746837E-3,-2.650559E-3,1.0756966E-2],"split_indices":[2,1,0,0,0,0,0],"split_type":[0,0,0,0,0,0,0],"sum_hessian":[1.6994656E3,4.723558E2,1.2271097E3,4.3115723E2,4.119856E1,5.6256067E2,6.6454913E2],"tree_param":{"num_deleted":"0","num_feature":"7","num_nodes":"7","size_leaf_vector":"1"}},{"base_weights":[-1.6758638E-2,-3.3895266E-1,1.14143245E-1,-1.7660892E-2,2.255609E-3,-1.9963807E-3,1.1608346E-2],"categories":[],"categories_nodes":[],"categories_segments":[],"categories_sizes":[],"default_left":[0,0,0,0,0,0,0],"id":34,"left_children":[1,3,5,-1,-1,-1,-1],"loss_changes":[8.7032875E1,2.8829048E1,4.567913E1,0E0,0E0,0E0,0E0],"parents":[2147483647,0,0,1,1,2,2],"right_children":[2,4,6,-1,-1,-1,-1],"split_conditions":[-5.8226025E-1,8.535279E-1,1.5407512E-1,-1.7660892E-2,2.255609E-3,-1.9963807E-3,1.1608346E-2],"split_indices":[1,2,2,0,0,0,0],"split_type":[0,0,0,0,0,0,0],"sum_hessian":[1.6973633E3,4.026749E2,1.2946884E3,3.0200967E2,1.0066523E2,7.4105304E2,5.5363525E2],"tree_param":{"num_deleted":"0","num_feature":"7","num_nodes":"7","size_leaf_vector":"1"}},{"base_weights":[-1.6696604E-2,-1.6971505E-1,2.43175E-1,-1.50979655E-2,6.473091E-4,1.3727844E-2,-1.9310007E-3],"categories":[],"categories_nodes":[],"categories_segments":[],"categories_sizes":[],"default_left":[0,0,0,0,0,0,0],"id":35,"left_children":[1,3,5,-1,-1,-1,-1],"loss_changes":[8.287809E1,5.135013E1,2.5828064E1,0E0,0E0,0E0,0E0],"parents":[2147483647,0,0,1,1,2,2],"right_children":[2,4,6,-1,-1,-1,-1],"split_conditions":[3.9098653E-1,-1.3868583E-2,7.770754E-1,-1.50979655E-2,6.473091E-4,1.3727844E-2,-1.9310007E-3],"split_indices":[2,1,4,0,0,0,0],"split_type":[0,0,0,0,0,0,0],"sum_hessian":[1.694959E3,1.1085072E3,5.864517E2,4.3056143E2,6.7794574E2,4.113659E2,1.7508583E2],"tree_param":{"num_deleted":"0","num_feature":"7","num_nodes":"7","size_leaf_vector":"1"}},{"base_weights":[-1.6319519E-2,-3.269167E-1,1.0966612E-1,-1.702512E-2,2.1382174E-3,-2.434072E-3,1.0591244E-2],"categories":[],"categories_nodes":[],"categories_segments":[],"categories_sizes":[],"default_left":[0,0,0,0,0,0,0],"id":36,"left_children":[1,3,5,-1,-1,-1,-1],"loss_changes":[8.055274E1,2.6555481E1,4.2303642E1,0E0,0E0,0E0,0E0],"parents":[2147483647,0,0,1,1,2,2],"right_children":[2,4,6,-1,-1,-1,-1],"split_conditions":[-5.8226025E-1,8.535279E-1,1E0,-1.702512E-2,2.1382174E-3,-2.434072E-3,1.0591244E-2],"split_indices":[1,2,0,0,0,0,0],"split_type":[0,0,0,0,0,0,0],"sum_hessian":[1.6925573E3,4.0051984E2,1.2920375E3,2.9995337E2,1.0056647E2,6.707512E2,6.2128625E2],"tree_param":{"num_deleted":"0","num_feature":"7","num_nodes":"7","size_leaf_vector":"1"}},{"base_weights":[-1.6368164E-2,-3.0091006E-1,1.1859677E-1,-1.3309179E-2,1.2526767E-3,1.0486659E-2,-2.4187048E-3],"categories":[],"categories_nodes":[],"categories_segments":[],"categories_sizes":[],"default_left":[0,0,0,0,0,0,0],"id":37,"left_children":[1,3,5,-1,-1,-1,-1],"loss_changes":[7.907817E1,8.960625E0,3.9361122E1,0E0,0E0,0E0,0E0],"parents":[2147483647,0,0,1,1,2,2],"right_children":[2,4,6,-1,-1,-1,-1],"split_conditions":[-5.3033566E-1,1.6003639E0,3.004379E-1,-1.3309179E-2,1.2526767E-3,1.0486659E-2,-2.4187048E-3],"split_indices":[2,1,4,0,0,0,0],"split_type":[0,0,0,0,0,0,0],"sum_hessian":[1.6906661E3,4.6837167E2,1.2222944E3,4.2717004E2,4.1201607E1,6.291862E2,5.931082E2],"tree_param":{"num_deleted":"0","num_feature":"7","num_nodes":"7","size_leaf_vector":"1"}},{"base_weights":[-1.6137727E-2,-1.425332E-1,2.741572E-1,-1.4004705E-2,1.3646564E-3,-3.120982E-3,1.3167378E-2],"categories":[],"categories_nodes":[],"categories_segments":[],"categories_sizes":[],"default_left":[0,0,0,0,0,0,0],"id":38,"left_children":[1,3,5,-1,-1,-1,-1],"loss_changes":[7.6430435E1,5.4907448E1,1.7221092E1,0E0,0E0,0E0,0E0],"parents":[2147483647,0,0,1,1,2,2],"right_children":[2,4,6,-1,-1,-1,-1],"split_conditions":[6.316585E-1,-1.3868583E-2,-1.1563358E0,-1.4004705E-2,1.3646564E-3,-3.120982E-3,1.3167378E-2],"split_indices":[2,1,1,0,0,0,0],"split_type":[0,0,0,0,0,0,0],"sum_hessian":[1.6886165E3,1.2441354E3,4.4448102E2,4.8575507E2,7.583804E2,4.9277084E1,3.9520395E2],"tree_param":{"num_deleted":"0","num_feature":"7","num_nodes":"7","size_leaf_vector":"1"}},{"base_weights":[-1.5775286E-2,-3.1298557E-1,1.04499534E-1,-1.628249E-2,1.9904082E-3,-2.352363E-3,1.0134313E-2],"categories":[],"categories_nodes":[],"categories_segments":[],"categories_sizes":[],"default_left":[0,0,0,0,0,0,0],"id":39,"left_children":[1,3,5,-1,-1,-1,-1],"loss_changes":[7.335801E1,2.3957832E1,3.881759E1,0E0,0E0,0E0,0E0],"parents":[2147483647,0,0,1,1,2,2],"right_children":[2,4,6,-1,-1,-1,-1],"split_conditions":[-5.8226025E-1,8.535279E-1,1E0,-1.628249E-2,1.9904082E-3,-2.352363E-3,1.0134313E-2],"split_indices":[1,2,0,0,0,0,0],"split_type":[0,0,0,0,0,0,0],"sum_hessian":[1.6863928E3,3.976737E2,1.2887191E3,2.9724896E2,1.00424736E2,6.696287E2,6.190904E2],"tree_param":{"num_deleted":"0","num_feature":"7","num_nodes":"7","size_leaf_vector":"1"}},{"base_weights":[-1.5825253E-2,-2.3901844E-1,1.4101556E-1,-1.5181293E-2,-3.4054E-3,1.146441E-2,-2.1055818E-3],"categories":[],"categories_nodes":[],"categories_segments":[],"categories_sizes":[],"default_left":[0,0,0,0,0,0,0],"id":40,"left_children":[1,3,5,-1,-1,-1,-1],"loss_changes":[7.209044E1,1.2097309E1,3.732466E1,0E0,0E0,0E0,0E0],"parents":[2147483647,0,0,1,1,2,2],"right_children":[2,4,6,-1,-1,-1,-1],"split_conditions":[-2.5581926E-1,-3.833232E-1,3.004379E-1,-1.5181293E-2,-3.4054E-3,1.146441E-2,-2.1055818E-3],"split_indices":[2,1,4,0,0,0,0],"split_type":[0,0,0,0,0,0,0],"sum_hessian":[1.6844814E3,6.538876E2,1.0305939E3,1.953942E2,4.5849335E2,5.359629E2,4.9463098E2],"tree_param":{"num_deleted":"0","num_feature":"7","num_nodes":"7","size_leaf_vector":"1"}},{"base_weights":[-1.615237E-2,-1.3701342E-1,2.6166824E-1,-1.43812895E-2,5.092975E-4,-3.1047654E-3,1.2626054E-2],"categories":[],"categories_nodes":[],"categories_segments":[],"categories_sizes":[],"default_left":[0,0,0,0,0,0,0],"id":41,"left_children":[1,3,5,-1,-1,-1,-1],"loss_changes":[6.9747086E1,4.8548065E1,1.6283009E1,0E0,0E0,0E0,0E0],"parents":[2147483647,0,0,1,1,2,2],"right_children":[2,4,6,-1,-1,-1,-1],"split_conditions":[6.316585E-1,-2.4122526E-1,-1.1563358E0,-1.43812895E-2,5.092975E-4,-3.1047654E-3,1.2626054E-2],"split_indices":[2,1,1,0,0,0,0],"split_type":[0,0,0,0,0,0,0],"sum_hessian":[1.682248E3,1.2397294E3,4.4251868E2,3.910528E2,8.486766E2,4.9263966E1,3.932547E2],"tree_param":{"num_deleted":"0","num_feature":"7","num_nodes":"7","size_leaf_vector":"1"}},{"base_weights":[-1.5969338E-2,-3.8083345E-1,7.499285E-2,-1.6375864E-2,1.4463359E-3,-3.854064E-3,9.603174E-3],"categories":[],"categories_nodes":[],"categories_segments":[],"categories_sizes":[],"default_left":[0,0,0,0,0,0,0],"id":42,"left_children":[1,3,5,-1,-1,-1,-1],"loss_changes":[6.755401E1,7.6488953E0,5.1297047E1,0E0,0E0,0E0,0E0],"parents":[2147483647,0,0,1,1,2,2],"right_children":[2,4,6,-1,-1,-1,-1],"split_conditions":[-1.0994967E0,2.1847446E0,1E0,-1.6375864E-2,1.4463359E-3,-3.854064E-3,9.603174E-3],"split_indices":[1,2,0,0,0,0,0],"split_type":[0,0,0,0,0,0,0],"sum_hessian":[1.6800837E3,2.1380664E2,1.4662771E3,2.0335605E2,1.0450593E1,7.58524E2,7.077532E2],"tree_param":{"num_deleted":"0","num_feature":"7","num_nodes":"7","size_leaf_vector":"1"}},{"base_weights":[-1.628321E-2,-2.778581E-1,1.07516386E-1,1.4076212E-3,-1.2332407E-2,-2.5585634E-3,9.413126E-3],"categories":[],"categories_nodes":[],"categories_segments":[],"categories_sizes":[],"default_left":[0,0,0,0,0,0,0],"id":43,"left_children":[1,3,5,-1,-1,-1,-1],"loss_changes":[6.624468E1,8.305359E0,3.3704292E1,0E0,0E0,0E0,0E0],"parents":[2147483647,0,0,1,1,2,2],"right_children":[2,4,6,-1,-1,-1,-1],"split_conditions":[-5.3033566E-1,-1.3677933E0,1E0,1.4076212E-3,-1.2332407E-2,-2.5585634E-3,9.413126E-3],"split_indices":[2,4,0,0,0,0,0],"split_type":[0,0,0,0,0,0,0],"sum_hessian":[1.6784666E3,4.628441E2,1.2156224E3,3.8397343E1,4.2444672E2,5.598734E2,6.557491E2],"tree_param":{"num_deleted":"0","num_feature":"7","num_nodes":"7","size_leaf_vector":"1"}},{"base_weights":[-1.6066648E-2,-1.3226336E-1,2.512821E-1,-1.2854642E-2,1.128037E-3,-3.0011055E-3,1.2139706E-2],"categories":[],"categories_nodes":[],"categories_segments":[],"categories_sizes":[],"default_left":[0,0,0,0,0,0,0],"id":44,"left_children":[1,3,5,-1,-1,-1,-1],"loss_changes":[6.436005E1,4.5026913E1,1.5109829E1,0E0,0E0,0E0,0E0],"parents":[2147483647,0,0,1,1,2,2],"right_children":[2,4,6,-1,-1,-1,-1],"split_conditions":[6.316585E-1,-1.3868583E-2,-1.1563358E0,-1.2854642E-2,1.128037E-3,-3.0011055E-3,1.2139706E-2],"split_indices":[2,1,1,0,0,0,0],"split_type":[0,0,0,0,0,0,0],"sum_hessian":[1.6764388E3,1.2358251E3,4.4061368E2,4.793747E2,7.5645044E2,4.9261906E1,3.9135178E2],"tree_param":{"num_deleted":"0","num_feature":"7","num_nodes":"7","size_leaf_vector":"1"}},{"base_weights":[-1.5708087E-2,-3.675427E-1,7.185211E-2,-1.5830627E-2,1.4371437E-3,-3.5800606E-3,9.092613E-3],"categories":[],"categories_nodes":[],"categories_segments":[],"categories_sizes":[],"default_left":[0,0,0,0,0,0,0],"id":45,"left_children":[1,3,5,-1,-1,-1,-1],"loss_changes":[6.2505447E1,7.3040504E0,4.5358147E1,0E0,0E0,0E0,0E0],"parents":[2147483647,0,0,1,1,2,2],"right_children":[2,4,6,-1,-1,-1,-1],"split_conditions":[-1.0994967E0,2.1847446E0,1E0,-1.5830627E-2,1.4371437E-3,-3.5800606E-3,9.092613E-3],"split_indices":[1,2,0,0,0,0,0],"split_type":[0,0,0,0,0,0,0],"sum_hessian":[1.6742228E3,2.119247E2,1.462298E3,2.0147896E2,1.044574E1,7.573216E2,7.0497644E2],"tree_param":{"num_deleted":"0","num_feature":"7","num_nodes":"7","size_leaf_vector":"1"}},{"base_weights":[-1.6004626E-2,1.6133688E-1,-1.839873E-1,-1.9217514E-3,1.1581955E-2,-1.3969146E-2,2.6363533E-4],"categories":[],"categories_nodes":[],"categories_segments":[],"categories_sizes":[],"default_left":[0,0,0,0,0,0,0],"id":46,"left_children":[1,3,5,-1,-1,-1,-1],"loss_changes":[6.1186577E1,2.9725103E1,3.3388596E1,0E0,0E0,0E0,0E0],"parents":[2147483647,0,0,1,1,2,2],"right_children":[2,4,6,-1,-1,-1,-1],"split_conditions":[3.004379E-1,-6.7794316E-2,-2.525931E-1,-1.9217514E-3,1.1581955E-2,-1.3969146E-2,2.6363533E-4],"split_indices":[4,2,1,0,0,0,0],"split_type":[0,0,0,0,0,0,0],"sum_hessian":[1.6725912E3,8.1730646E2,8.5528467E2,3.55756E2,4.6155048E2,3.7293164E2,4.8235303E2],"tree_param":{"num_deleted":"0","num_feature":"7","num_nodes":"7","size_leaf_vector":"1"}},{"base_weights":[-1.5795616E-2,-1.2779856E-1,2.4210726E-1,-1.2260422E-2,9.586735E-4,-2.8198322E-3,1.1673425E-2],"categories":[],"categories_nodes":[],"categories_segments":[],"categories_sizes":[],"default_left":[0,0,0,0,0,0,0],"id":47,"left_children":[1,3,5,-1,-1,-1,-1],"loss_changes":[5.968338E1,3.999636E1,1.3717617E1,0E0,0E0,0E0,0E0],"parents":[2147483647,0,0,1,1,2,2],"right_children":[2,4,6,-1,-1,-1,-1],"split_conditions":[6.316585E-1,-1.3868583E-2,-1.1563358E0,-1.2260422E-2,9.586735E-4,-2.8198322E-3,1.1673425E-2],"split_indices":[2,1,1,0,0,0,0],"split_type":[0,0,0,0,0,0,0],"sum_hessian":[1.6705897E3,1.2319347E3,4.3865503E2,4.7630713E2,7.5562756E2,4.9256065E1,3.89399E2],"tree_param":{"num_deleted":"0","num_feature":"7","num_nodes":"7","size_leaf_vector":"1"}},{"base_weights":[-1.5433892E-2,-2.6007167E-1,1.0008263E-1,1.4303434E-3,-1.159184E-2,-2.4230443E-3,8.8128615E-3],"categories":[],"categories_nodes":[],"categories_segments":[],"categories_sizes":[],"default_left":[0,0,0,0,0,0,0],"id":48,"left_children":[1,3,5,-1,-1,-1,-1],"loss_changes":[5.751732E1,7.690216E0,2.9611498E1,0E0,0E0,0E0,0E0],"parents":[2147483647,0,0,1,1,2,2],"right_children":[2,4,6,-1,-1,-1,-1],"split_conditions":[-5.3033566E-1,-1.3677933E0,1E0,1.4303434E-3,-1.159184E-2,-2.4230443E-3,8.8128615E-3],"split_indices":[2,4,0,0,0,0,0],"split_type":[0,0,0,0,0,0,0],"sum_hessian":[1.6683911E3,4.5846103E2,1.2099302E3,3.8318935E1,4.201421E2,5.58482E2,6.514482E2],"tree_param":{"num_deleted":"0","num_feature":"7","num_nodes":"7","size_leaf_vector":"1"}},{"base_weights":[-1.5221626E-2,1.553079E-1,-1.7677411E-1,-1.7347801E-3,1.1061238E-2,-1.34322E-2,2.480994E-4],"categories":[],"categories_nodes":[],"categories_segments":[],"categories_sizes":[],"default_left":[0,0,0,0,0,0,0],"id":49,"left_children":[1,3,5,-1,-1,-1,-1],"loss_changes":[5.641412E1,2.6501799E1,3.0751816E1,0E0,0E0,0E0,0E0],"parents":[2147483647,0,0,1,1,2,2],"right_children":[2,4,6,-1,-1,-1,-1],"split_conditions":[3.004379E-1,-6.7794316E-2,-2.525931E-1,-1.7347801E-3,1.1061238E-2,-1.34322E-2,2.480994E-4],"split_indices":[4,2,1,0,0,0,0],"split_type":[0,0,0,0,0,0,0],"sum_hessian":[1.6663981E3,8.142671E2,8.521309E2,3.5504156E2,4.5922552E2,3.7054684E2,4.8158408E2],"tree_param":{"num_deleted":"0","num_feature":"7","num_nodes":"7","size_leaf_vector":"1"}},{"base_weights":[-1.5025226E-2,-3.4639543E-1,6.718863E-2,-1.5092982E-2,1.3569376E-3,-3.314603E-3,8.480702E-3],"categories":[],"categories_nodes":[],"categories_segments":[],"categories_sizes":[],"default_left":[0,0,0,0,0,0,0],"id":50,"left_children":[1,3,5,-1,-1,-1,-1],"loss_changes":[5.4992584E1,7.148281E0,3.9138744E1,0E0,0E0,0E0,0E0],"parents":[2147483647,0,0,1,1,2,2],"right_children":[2,4,6,-1,-1,-1,-1],"split_conditions":[-1.0994967E0,2.2723713E0,1E0,-1.5092982E-2,1.3569376E-3,-3.314603E-3,8.480702E-3],"split_indices":[1,5,0,0,0,0,0],"split_type":[0,0,0,0,0,0,0],"sum_hessian":[1.6644077E3,2.0885402E2,1.4555537E3,1.9453722E2,1.4316807E1,7.5501685E2,7.005368E2],"tree_param":{"num_deleted":"0","num_feature":"7","num_nodes":"7","size_leaf_vector":"1"}},{"base_weights":[-1.532071E-2,-1.2235721E-1,2.3126318E-1,-1.2595006E-2,2.6796403E-4,-3.2549475E-3,1.0939706E-2],"categories":[],"categories_nodes":[],"categories_segments":[],"categories_sizes":[],"default_left":[0,0,0,0,0,0,0],"id":51,"left_children":[1,3,5,-1,-1,-1,-1],"loss_changes":[5.4333683E1,3.5624344E1,1.2531593E1,0E0,0E0,0E0,0E0],"parents":[2147483647,0,0,1,1,2,2],"right_children":[2,4,6,-1,-1,-1,-1],"split_conditions":[6.316585E-1,-2.4122526E-1,-1.4462156E0,-1.2595006E-2,2.6796403E-4,-3.2549475E-3,1.0939706E-2],"split_indices":[2,1,1,0,0,0,0],"split_type":[0,0,0,0,0,0,0],"sum_hessian":[1.6628298E3,1.2266101E3,4.3621976E2,3.8190366E2,8.447065E2,3.0842033E1,4.0537772E2],"tree_param":{"num_deleted":"0","num_feature":"7","num_nodes":"7","size_leaf_vector":"1"}},{"base_weights":[-1.5204324E-2,1.4853172E-1,-1.7022324E-1,-1.6648216E-3,1.0594259E-2,-1.1652888E-2,1.6323447E-3],"categories":[],"categories_nodes":[],"categories_segments":[],"categories_sizes":[],"default_left":[0,0,0,0,0,0,0],"id":52,"left_children":[1,3,5,-1,-1,-1,-1],"loss_changes":[5.1830196E1,2.4281199E1,2.8853462E1,0E0,0E0,0E0,0E0],"parents":[2147483647,0,0,1,1,2,2],"right_children":[2,4,6,-1,-1,-1,-1],"split_conditions":[3.004379E-1,-6.7794316E-2,1E0,-1.6648216E-3,1.0594259E-2,-1.1652888E-2,1.6323447E-3],"split_indices":[4,2,0,0,0,0,0],"split_type":[0,0,0,0,0,0,0],"sum_hessian":[1.6607334E3,8.115454E2,8.491879E2,3.545823E2,4.5696313E2,4.933907E2,3.5579724E2],"tree_param":{"num_deleted":"0","num_feature":"7","num_nodes":"7","size_leaf_vector":"1"}},{"base_weights":[-1.4721445E-2,-3.347336E-1,6.454554E-2,-1.4624571E-2,1.3799196E-3,-1.7317764E-3,1.010768E-2],"categories":[],"categories_nodes":[],"categories_segments":[],"categories_sizes":[],"default_left":[0,0,0,0,0,0,0],"id":53,"left_children":[1,3,5,-1,-1,-1,-1],"loss_changes":[5.1053825E1,6.9487457E0,3.5422123E1,0E0,0E0,0E0,0E0],"parents":[2147483647,0,0,1,1,2,2],"right_children":[2,4,6,-1,-1,-1,-1],"split_conditions":[-1.0994967E0,2.2723713E0,4.9252E-1,-1.4624571E-2,1.3799196E-3,-1.7317764E-3,1.010768E-2],"split_indices":[1,5,2,0,0,0,0],"split_type":[0,0,0,0,0,0,0],"sum_hessian":[1.6589731E3,2.0714249E2,1.4518307E3,1.92882E2,1.4260494E1,1.01634247E3,4.3548825E2],"tree_param":{"num_deleted":"0","num_feature":"7","num_nodes":"7","size_leaf_vector":"1"}},{"base_weights":[-1.4649718E-2,-3.2831785E-1,6.2981784E-2,-1.4358875E-2,1.3760537E-3,-3.14505E-3,7.998277E-3],"categories":[],"categories_nodes":[],"categories_segments":[],"categories_sizes":[],"default_left":[0,0,0,0,0,0,0],"id":54,"left_children":[1,3,5,-1,-1,-1,-1],"loss_changes":[4.89533E1,6.777378E0,3.4847694E1,0E0,0E0,0E0,0E0],"parents":[2147483647,0,0,1,1,2,2],"right_children":[2,4,6,-1,-1,-1,-1],"split_conditions":[-1.0994967E0,2.2723713E0,1E0,-1.4358875E-2,1.3760537E-3,-3.14505E-3,7.998277E-3],"split_indices":[1,5,0,0,0,0,0],"split_type":[0,0,0,0,0,0,0],"sum_hessian":[1.657165E3,2.0640735E2,1.4507577E3,1.921423E2,1.4265052E1,7.533204E2,6.9743726E2],"tree_param":{"num_deleted":"0","num_feature":"7","num_nodes":"7","size_leaf_vector":"1"}},{"base_weights":[-1.4917786E-2,-1.1584373E-1,2.1809293E-1,-1.11204265E-2,8.3792344E-4,-3.0932822E-3,1.0332811E-2],"categories":[],"categories_nodes":[],"categories_segments":[],"categories_sizes":[],"default_left":[0,0,0,0,0,0,0],"id":55,"left_children":[1,3,5,-1,-1,-1,-1],"loss_changes":[4.8251656E1,3.2462402E1,1.1235466E1,0E0,0E0,0E0,0E0],"parents":[2147483647,0,0,1,1,2,2],"right_children":[2,4,6,-1,-1,-1,-1],"split_conditions":[6.316585E-1,-1.3868583E-2,-1.4462156E0,-1.11204265E-2,8.3792344E-4,-3.0932822E-3,1.0332811E-2],"split_indices":[2,1,1,0,0,0,0],"split_type":[0,0,0,0,0,0,0],"sum_hessian":[1.6555969E3,1.22224E3,4.3335696E2,4.6902664E2,7.532133E2,3.0822966E1,4.02534E2],"tree_param":{"num_deleted":"0","num_feature":"7","num_nodes":"7","size_leaf_vector":"1"}},{"base_weights":[-1.4653279E-2,1.014665E-1,-2.1524914E-1,-7.954012E-4,1.1290175E-2,-1.2426057E-2,-8.034674E-4],"categories":[],"categories_nodes":[],"categories_segments":[],"categories_sizes":[],"default_left":[0,0,0,0,0,0,0],"id":56,"left_children":[1,3,5,-1,-1,-1,-1],"loss_changes":[4.7135437E1,2.9549511E1,1.2538677E1,0E0,0E0,0E0,0E0],"parents":[2147483647,0,0,1,1,2,2],"right_children":[2,4,6,-1,-1,-1,-1],"split_conditions":[5.387566E-1,4.9252E-1,-7.639167E-2,-7.954012E-4,1.1290175E-2,-1.2426057E-2,-8.034674E-4],"split_indices":[4,2,1,0,0,0,0],"split_type":[0,0,0,0,0,0,0],"sum_hessian":[1.6534861E3,1.1070377E3,5.464483E2,7.6412225E2,3.429155E2,2.9111517E2,2.5533315E2],"tree_param":{"num_deleted":"0","num_feature":"7","num_nodes":"7","size_leaf_vector":"1"}},{"base_weights":[-1.4362606E-2,-2.3434025E-1,8.928273E-2,1.4865475E-3,-1.0529156E-2,-2.1363453E-3,7.86023E-3],"categories":[],"categories_nodes":[],"categories_segments":[],"categories_sizes":[],"default_left":[0,0,0,0,0,0,0],"id":57,"left_children":[1,3,5,-1,-1,-1,-1],"loss_changes":[4.601173E1,6.9108543E0,2.3285519E1,0E0,0E0,0E0,0E0],"parents":[2147483647,0,0,1,1,2,2],"right_children":[2,4,6,-1,-1,-1,-1],"split_conditions":[-5.3033566E-1,-1.3677933E0,1E0,1.4865475E-3,-1.0529156E-2,-2.1363453E-3,7.86023E-3],"split_indices":[2,4,0,0,0,0,0],"split_type":[0,0,0,0,0,0,0],"sum_hessian":[1.6518141E3,4.5188416E2,1.1999299E3,3.8195957E1,4.1368817E2,5.5594507E2,6.4398486E2],"tree_param":{"num_deleted":"0","num_feature":"7","num_nodes":"7","size_leaf_vector":"1"}},{"base_weights":[-1.4147979E-2,-3.15181E-1,6.018415E-2,-1.3836482E-2,1.4113786E-3,-2.9023641E-3,7.542712E-3],"categories":[],"categories_nodes":[],"categories_segments":[],"categories_sizes":[],"default_left":[0,0,0,0,0,0,0],"id":58,"left_children":[1,3,5,-1,-1,-1,-1],"loss_changes":[4.4815876E1,6.5872803E0,3.0506605E1,0E0,0E0,0E0,0E0],"parents":[2147483647,0,0,1,1,2,2],"right_children":[2,4,6,-1,-1,-1,-1],"split_conditions":[-1.0994967E0,2.2723713E0,1E0,-1.3836482E-2,1.4113786E-3,-2.9023641E-3,7.542712E-3],"split_indices":[1,5,0,0,0,0,0],"split_type":[0,0,0,0,0,0,0],"sum_hessian":[1.6499025E3,2.0417087E2,1.4457316E3,1.8999266E2,1.4178208E1,7.516299E2,6.941017E2],"tree_param":{"num_deleted":"0","num_feature":"7","num_nodes":"7","size_leaf_vector":"1"}},{"base_weights":[-1.4403132E-2,1.3699752E-1,-1.5772684E-1,-1.4642878E-3,9.729994E-3,-1.0778041E-2,1.4944269E-3],"categories":[],"categories_nodes":[],"categories_segments":[],"categories_sizes":[],"default_left":[0,0,0,0,0,0,0],"id":59,"left_children":[1,3,5,-1,-1,-1,-1],"loss_changes":[4.403986E1,2.0085648E1,2.4452494E1,0E0,0E0,0E0,0E0],"parents":[2147483647,0,0,1,1,2,2],"right_children":[2,4,6,-1,-1,-1,-1],"split_conditions":[3.004379E-1,-6.7794316E-2,1E0,-1.4642878E-3,9.729994E-3,-1.0778041E-2,1.4944269E-3],"split_indices":[4,2,0,0,0,0,0],"split_type":[0,0,0,0,0,0,0],"sum_hessian":[1.6483536E3,8.0569E2,8.426637E2,3.534257E2,4.522643E2,4.8951767E2,3.5314603E2],"tree_param":{"num_deleted":"0","num_feature":"7","num_nodes":"7","size_leaf_vector":"1"}},{"base_weights":[-1.3944834E-2,-2.451057E-1,7.84473E-2,-1.25396205E-2,2.6820584E-3,-3.9252217E-4,1.0083672E-2],"categories":[],"categories_nodes":[],"categories_segments":[],"categories_sizes":[],"default_left":[0,0,0,0,0,0,0],"id":60,"left_children":[1,3,5,-1,-1,-1,-1],"loss_changes":[4.291941E1,1.620493E1,2.2811108E1,0E0,0E0,0E0,0E0],"parents":[2147483647,0,0,1,1,2,2],"right_children":[2,4,6,-1,-1,-1,-1],"split_conditions":[-5.8226025E-1,1.2446197E0,6.316585E-1,-1.25396205E-2,2.6820584E-3,-3.9252217E-4,1.0083672E-2],"split_indices":[1,2,2,0,0,0,0],"split_type":[0,0,0,0,0,0,0],"sum_hessian":[1.6466207E3,3.800506E2,1.2665702E3,3.1108484E2,6.8965744E1,9.5922144E2,3.073487E2],"tree_param":{"num_deleted":"0","num_feature":"7","num_nodes":"7","size_leaf_vector":"1"}},{"base_weights":[-1.3418717E-2,9.5703915E-2,-2.0201986E-1,-7.22311E-4,1.0619272E-2,-1.1755442E-2,-6.6853134E-4],"categories":[],"categories_nodes":[],"categories_segments":[],"categories_sizes":[],"default_left":[0,0,0,0,0,0,0],"id":61,"left_children":[1,3,5,-1,-1,-1,-1],"loss_changes":[4.147444E1,2.5879848E1,1.1561363E1,0E0,0E0,0E0,0E0],"parents":[2147483647,0,0,1,1,2,2],"right_children":[2,4,6,-1,-1,-1,-1],"split_conditions":[5.387566E-1,4.9252E-1,-7.639167E-2,-7.22311E-4,1.0619272E-2,-1.1755442E-2,-6.6853134E-4],"split_indices":[4,2,1,0,0,0,0],"split_type":[0,0,0,0,0,0,0],"sum_hessian":[1.6447839E3,1.1015294E3,5.432545E2,7.6177686E2,3.3975262E2,2.8837592E2,2.548786E2],"tree_param":{"num_deleted":"0","num_feature":"7","num_nodes":"7","size_leaf_vector":"1"}},{"base_weights":[-1.3156003E-2,-3.010276E-1,5.7692632E-2,-1.3273053E-2,1.4478868E-3,-2.6885925E-3,7.137165E-3],"categories":[],"categories_nodes":[],"categories_segments":[],"categories_sizes":[],"default_left":[0,0,0,0,0,0,0],"id":62,"left_children":[1,3,5,-1,-1,-1,-1],"loss_changes":[4.072498E1,6.3755455E0,2.690529E1,0E0,0E0,0E0,0E0],"parents":[2147483647,0,0,1,1,2,2],"right_children":[2,4,6,-1,-1,-1,-1],"split_conditions":[-1.0994967E0,2.2723713E0,1E0,-1.3273053E-2,1.4478868E-3,-2.6885925E-3,7.137165E-3],"split_indices":[1,5,0,0,0,0,0],"split_type":[0,0,0,0,0,0,0],"sum_hessian":[1.6431409E3,2.0196826E2,1.4411726E3,1.878679E2,1.4100365E1,7.499667E2,6.9120593E2],"tree_param":{"num_deleted":"0","num_feature":"7","num_nodes":"7","size_leaf_vector":"1"}},{"base_weights":[-1.3410307E-2,-2.252575E-1,8.009369E-2,1.2618304E-3,-1.0053438E-2,7.3533063E-3,-1.8690432E-3],"categories":[],"categories_nodes":[],"categories_segments":[],"categories_sizes":[],"default_left":[0,0,0,0,0,0,0],"id":63,"left_children":[1,3,5,-1,-1,-1,-1],"loss_changes":[3.974747E1,5.608116E0,2.0221575E1,0E0,0E0,0E0,0E0],"parents":[2147483647,0,0,1,1,2,2],"right_children":[2,4,6,-1,-1,-1,-1],"split_conditions":[-5.6418014E-1,-1.3677933E0,3.004379E-1,1.2618304E-3,-1.0053438E-2,7.3533063E-3,-1.8690432E-3],"split_indices":[2,4,4,0,0,0,0],"split_type":[0,0,0,0,0,0,0],"sum_hessian":[1.641617E3,4.2027945E2,1.2213375E3,3.5053455E1,3.8522598E2,6.245709E2,5.967666E2],"tree_param":{"num_deleted":"0","num_feature":"7","num_nodes":"7","size_leaf_vector":"1"}},{"base_weights":[-1.3232442E-2,-1.00738235E-1,2.035746E-1,-1.1551468E-2,3.3919694E-4,-2.5840076E-3,9.567933E-3],"categories":[],"categories_nodes":[],"categories_segments":[],"categories_sizes":[],"default_left":[0,0,0,0,0,0,0],"id":64,"left_children":[1,3,5,-1,-1,-1,-1],"loss_changes":[3.865182E1,2.9881973E1,8.584969E0,0E0,0E0,0E0,0E0],"parents":[2147483647,0,0,1,1,2,2],"right_children":[2,4,6,-1,-1,-1,-1],"split_conditions":[6.9934744E-1,-3.4921968E-1,-1.4462156E0,-1.1551468E-2,3.3919694E-4,-2.5840076E-3,9.567933E-3],"split_indices":[2,1,1,0,0,0,0],"split_type":[0,0,0,0,0,0,0],"sum_hessian":[1.6398601E3,1.2411647E3,3.9869534E2,3.4063742E2,9.005273E2,2.853376E1,3.701616E2],"tree_param":{"num_deleted":"0","num_feature":"7","num_nodes":"7","size_leaf_vector":"1"}},{"base_weights":[-1.315918E-2,-2.902544E-1,5.493031E-2,-1.2842371E-2,1.4717E-3,-1.198063E-3,9.047218E-3],"categories":[],"categories_nodes":[],"categories_segments":[],"categories_sizes":[],"default_left":[0,0,0,0,0,0,0],"id":65,"left_children":[1,3,5,-1,-1,-1,-1],"loss_changes":[3.755219E1,6.1970024E0,2.4969776E1,0E0,0E0,0E0,0E0],"parents":[2147483647,0,0,1,1,2,2],"right_children":[2,4,6,-1,-1,-1,-1],"split_conditions":[-1.0994967E0,2.2723713E0,6.316585E-1,-1.2842371E-2,1.4717E-3,-1.198063E-3,9.047218E-3],"split_indices":[1,5,2,0,0,0,0],"split_type":[0,0,0,0,0,0,0],"sum_hessian":[1.6379303E3,2.0016046E2,1.4377698E3,1.8612595E2,1.4034515E1,1.066662E3,3.711078E2],"tree_param":{"num_deleted":"0","num_feature":"7","num_nodes":"7","size_leaf_vector":"1"}},{"base_weights":[-1.3012442E-2,9.007769E-2,-1.9114536E-1,-6.198143E-4,9.911162E-3,-1.1132629E-2,-6.392466E-4],"categories":[],"categories_nodes":[],"categories_segments":[],"categories_sizes":[],"default_left":[0,0,0,0,0,0,0],"id":66,"left_children":[1,3,5,-1,-1,-1,-1],"loss_changes":[3.6844784E1,2.2165218E1,1.0312628E1,0E0,0E0,0E0,0E0],"parents":[2147483647,0,0,1,1,2,2],"right_children":[2,4,6,-1,-1,-1,-1],"split_conditions":[5.387566E-1,4.9252E-1,-7.639167E-2,-6.198143E-4,9.911162E-3,-1.1132629E-2,-6.392466E-4],"split_indices":[4,2,1,0,0,0,0],"split_type":[0,0,0,0,0,0,0],"sum_hessian":[1.6363046E3,1.0962766E3,5.4002795E2,7.598371E2,3.3643954E2,2.8548132E2,2.5454665E2],"tree_param":{"num_deleted":"0","num_feature":"7","num_nodes":"7","size_leaf_vector":"1"}},{"base_weights":[-1.2761828E-2,-2.1346207E-1,7.568973E-2,1.2769923E-3,-9.563178E-3,-1.9556857E-3,6.829727E-3],"categories":[],"categories_nodes":[],"categories_segments":[],"categories_sizes":[],"default_left":[0,0,0,0,0,0,0],"id":67,"left_children":[1,3,5,-1,-1,-1,-1],"loss_changes":[3.549633E1,5.2828274E0,1.827057E1,0E0,0E0,0E0,0E0],"parents":[2147483647,0,0,1,1,2,2],"right_children":[2,4,6,-1,-1,-1,-1],"split_conditions":[-5.6418014E-1,-1.3677933E0,1E0,1.2769923E-3,-9.563178E-3,-1.9556857E-3,6.829727E-3],"split_indices":[2,4,0,0,0,0,0],"split_type":[0,0,0,0,0,0,0],"sum_hessian":[1.6347045E3,4.1748022E2,1.2172242E3,3.5018013E1,3.8246222E2,5.6693146E2,6.502928E2],"tree_param":{"num_deleted":"0","num_feature":"7","num_nodes":"7","size_leaf_vector":"1"}},{"base_weights":[-1.2621371E-2,-2.8168368E-1,5.3363543E-2,-1.2498052E-2,1.4863296E-3,-2.4960476E-3,6.6206283E-3],"categories":[],"categories_nodes":[],"categories_segments":[],"categories_sizes":[],"default_left":[0,0,0,0,0,0,0],"id":68,"left_children":[1,3,5,-1,-1,-1,-1],"loss_changes":[3.525403E1,6.039894E0,2.3074917E1,0E0,0E0,0E0,0E0],"parents":[2147483647,0,0,1,1,2,2],"right_children":[2,4,6,-1,-1,-1,-1],"split_conditions":[-1.0994967E0,2.2723713E0,1E0,-1.2498052E-2,1.4863296E-3,-2.4960476E-3,6.6206283E-3],"split_indices":[1,5,0,0,0,0,0],"split_type":[0,0,0,0,0,0,0],"sum_hessian":[1.6329769E3,1.9863878E2,1.4343381E3,1.846488E2,1.3989977E1,7.474942E2,6.8684393E2],"tree_param":{"num_deleted":"0","num_feature":"7","num_nodes":"7","size_leaf_vector":"1"}},{"base_weights":[-1.2849292E-2,8.6569495E-2,-1.8459542E-1,-6.1452383E-4,9.56938E-3,-9.082874E-3,2.4238531E-3],"categories":[],"categories_nodes":[],"categories_segments":[],"categories_sizes":[],"default_left":[0,0,0,0,0,0,0],"id":69,"left_children":[1,3,5,-1,-1,-1,-1],"loss_changes":[3.4171036E1,2.068813E1,1.0222319E1,0E0,0E0,0E0,0E0],"parents":[2147483647,0,0,1,1,2,2],"right_children":[2,4,6,-1,-1,-1,-1],"split_conditions":[5.387566E-1,4.9252E-1,1.2446197E0,-6.1452383E-4,9.56938E-3,-9.082874E-3,2.4238531E-3],"split_indices":[4,2,2,0,0,0,0],"split_type":[0,0,0,0,0,0,0],"sum_hessian":[1.631499E3,1.0933287E3,5.3817035E2,7.5859985E2,3.3472885E2,4.707362E2,6.7434166E1],"tree_param":{"num_deleted":"0","num_feature":"7","num_nodes":"7","size_leaf_vector":"1"}},{"base_weights":[-1.2103547E-2,-2.1920021E-1,7.006408E-2,-1.1295031E-2,2.6486865E-3,-4.445257E-3,4.959858E-3],"categories":[],"categories_nodes":[],"categories_segments":[],"categories_sizes":[],"default_left":[0,0,0,0,0,0,0],"id":70,"left_children":[1,3,5,-1,-1,-1,-1],"loss_changes":[3.3920837E1,1.3732649E1,1.6786898E1,0E0,0E0,0E0,0E0],"parents":[2147483647,0,0,1,1,2,2],"right_children":[2,4,6,-1,-1,-1,-1],"split_conditions":[-5.8226025E-1,1.2784643E0,-6.807556E-1,-1.1295031E-2,2.6486865E-3,-4.445257E-3,4.959858E-3],"split_indices":[1,2,2,0,0,0,0],"split_type":[0,0,0,0,0,0,0],"sum_hessian":[1.6300085E3,3.7253375E2,1.2574747E3,3.066859E2,6.584783E1,2.4196869E2,1.01550604E3],"tree_param":{"num_deleted":"0","num_feature":"7","num_nodes":"7","size_leaf_vector":"1"}},{"base_weights":[-1.248682E-2,-2.709939E-1,5.0792508E-2,-1.2069174E-2,1.5061415E-3,-2.4108845E-3,6.3434225E-3],"categories":[],"categories_nodes":[],"categories_segments":[],"categories_sizes":[],"default_left":[0,0,0,0,0,0,0],"id":71,"left_children":[1,3,5,-1,-1,-1,-1],"loss_changes":[3.238782E1,5.84972E0,2.1247902E1,0E0,0E0,0E0,0E0],"parents":[2147483647,0,0,1,1,2,2],"right_children":[2,4,6,-1,-1,-1,-1],"split_conditions":[-1.0994967E0,2.2723713E0,1E0,-1.2069174E-2,1.5061415E-3,-2.4108845E-3,6.3434225E-3],"split_indices":[1,5,0,0,0,0,0],"split_type":[0,0,0,0,0,0,0],"sum_hessian":[1.6282035E3,1.9689502E2,1.4313085E3,1.8295706E2,1.39379425E1,7.464285E2,6.8487994E2],"tree_param":{"num_deleted":"0","num_feature":"7","num_nodes":"7","size_leaf_vector":"1"}},{"base_weights":[-1.269474E-2,1.16513364E-1,-1.350275E-1,-2.0545067E-3,7.97746E-3,-9.50572E-3,1.6343871E-3],"categories":[],"categories_nodes":[],"categories_segments":[],"categories_sizes":[],"default_left":[0,0,0,0,0,0,0],"id":72,"left_children":[1,3,5,-1,-1,-1,-1],"loss_changes":[3.1737019E1,1.5690286E1,2.0303867E1,0E0,0E0,0E0,0E0],"parents":[2147483647,0,0,1,1,2,2],"right_children":[2,4,6,-1,-1,-1,-1],"split_conditions":[3.004379E-1,-4.0066674E-1,1E0,-2.0545067E-3,7.97746E-3,-9.50572E-3,1.6343871E-3],"split_indices":[4,5,0,0,0,0,0],"split_type":[0,0,0,0,0,0,0],"sum_hessian":[1.6267537E3,7.955636E2,8.3119E2,2.8707697E2,5.0848663E2,4.825817E2,3.4860834E2],"tree_param":{"num_deleted":"0","num_feature":"7","num_nodes":"7","size_leaf_vector":"1"}},{"base_weights":[-1.2398952E-2,-9.128951E-2,1.8367024E-1,-9.361212E-3,1.0373687E-3,-2.3969172E-3,8.668316E-3],"categories":[],"categories_nodes":[],"categories_segments":[],"categories_sizes":[],"default_left":[0,0,0,0,0,0,0],"id":73,"left_children":[1,3,5,-1,-1,-1,-1],"loss_changes":[3.1304506E1,2.4971458E1,7.185629E0,0E0,0E0,0E0,0E0],"parents":[2147483647,0,0,1,1,2,2],"right_children":[2,4,6,-1,-1,-1,-1],"split_conditions":[6.9934744E-1,-1.3868583E-2,-1.4462156E0,-9.361212E-3,1.0373687E-3,-2.3969172E-3,8.668316E-3],"split_indices":[2,1,1,0,0,0,0],"split_type":[0,0,0,0,0,0,0],"sum_hessian":[1.6257804E3,1.2321017E3,3.9367874E2,4.6976218E2,7.623395E2,2.8453564E1,3.6522516E2],"tree_param":{"num_deleted":"0","num_feature":"7","num_nodes":"7","size_leaf_vector":"1"}},{"base_weights":[-1.2131888E-2,-2.6238704E-1,4.901779E-2,-1.1721283E-2,1.5165675E-3,-1.0641811E-3,8.094531E-3],"categories":[],"categories_nodes":[],"categories_segments":[],"categories_sizes":[],"default_left":[0,0,0,0,0,0,0],"id":74,"left_children":[1,3,5,-1,-1,-1,-1],"loss_changes":[3.0230133E1,5.6784534E0,1.9808043E1,0E0,0E0,0E0,0E0],"parents":[2147483647,0,0,1,1,2,2],"right_children":[2,4,6,-1,-1,-1,-1],"split_conditions":[-1.0994967E0,2.2723713E0,6.316585E-1,-1.1721283E-2,1.5165675E-3,-1.0641811E-3,8.094531E-3],"split_indices":[1,5,2,0,0,0,0],"split_type":[0,0,0,0,0,0,0],"sum_hessian":[1.623907E3,1.9545317E2,1.4284539E3,1.815498E2,1.390337E1,1.062396E3,3.660579E2],"tree_param":{"num_deleted":"0","num_feature":"7","num_nodes":"7","size_leaf_vector":"1"}},{"base_weights":[-1.19911665E-2,-2.1519604E-1,6.1210457E-2,-9.770673E-3,1.3801839E-3,5.0840876E-3,-3.1213402E-3],"categories":[],"categories_nodes":[],"categories_segments":[],"categories_sizes":[],"default_left":[0,0,0,0,0,0,0],"id":75,"left_children":[1,3,5,-1,-1,-1,-1],"loss_changes":[2.9489677E1,5.40291E0,1.5490249E1,0E0,0E0,0E0,0E0],"parents":[2147483647,0,0,1,1,2,2],"right_children":[2,4,6,-1,-1,-1,-1],"split_conditions":[-6.9955814E-1,1.6003639E0,5.387566E-1,-9.770673E-3,1.3801839E-3,5.0840876E-3,-3.1213402E-3],"split_indices":[2,1,4,0,0,0,0],"split_type":[0,0,0,0,0,0,0],"sum_hessian":[1.6223721E3,3.3153827E2,1.2908337E3,3.0068784E2,3.085041E1,8.875095E2,4.0332428E2],"tree_param":{"num_deleted":"0","num_feature":"7","num_nodes":"7","size_leaf_vector":"1"}},{"base_weights":[-1.2200416E-2,-2.0367272E-1,6.3597575E-2,-1.0582538E-2,2.6033889E-3,-2.8262447E-4,8.159784E-3],"categories":[],"categories_nodes":[],"categories_segments":[],"categories_sizes":[],"default_left":[0,0,0,0,0,0,0],"id":76,"left_children":[1,3,5,-1,-1,-1,-1],"loss_changes":[2.8769567E1,1.2441458E1,1.459659E1,0E0,0E0,0E0,0E0],"parents":[2147483647,0,0,1,1,2,2],"right_children":[2,4,6,-1,-1,-1,-1],"split_conditions":[-5.8226025E-1,1.2784643E0,6.316585E-1,-1.0582538E-2,2.6033889E-3,-2.8262447E-4,8.159784E-3],"split_indices":[1,2,2,0,0,0,0],"split_type":[0,0,0,0,0,0,0],"sum_hessian":[1.6208333E3,3.6828574E2,1.2525476E3,3.0268805E2,6.5597664E1,9.5385223E2,2.9869534E2],"tree_param":{"num_deleted":"0","num_feature":"7","num_nodes":"7","size_leaf_vector":"1"}},{"base_weights":[-1.173469E-2,1.0962295E-1,-1.2677349E-1,-2.1030288E-3,7.6258737E-3,-9.093297E-3,1.7435071E-3],"categories":[],"categories_nodes":[],"categories_segments":[],"categories_sizes":[],"default_left":[0,0,0,0,0,0,0],"id":77,"left_children":[1,3,5,-1,-1,-1,-1],"loss_changes":[2.7926056E1,1.4837321E1,1.9329832E1,0E0,0E0,0E0,0E0],"parents":[2147483647,0,0,1,1,2,2],"right_children":[2,4,6,-1,-1,-1,-1],"split_conditions":[3.004379E-1,-4.0066674E-1,1E0,-2.1030288E-3,7.6258737E-3,-9.093297E-3,1.7435071E-3],"split_indices":[4,5,0,0,0,0,0],"split_type":[0,0,0,0,0,0,0],"sum_hessian":[1.6191832E3,7.9232715E2,8.26856E2,2.8628525E2,5.060419E2,4.7978223E2,3.470738E2],"tree_param":{"num_deleted":"0","num_feature":"7","num_nodes":"7","size_leaf_vector":"1"}},{"base_weights":[-1.1464768E-2,-2.5155163E-1,4.7032423E-2,-1.1289424E-2,1.541473E-3,-2.1985804E-3,5.8422973E-3],"categories":[],"categories_nodes":[],"categories_segments":[],"categories_sizes":[],"default_left":[0,0,0,0,0,0,0],"id":78,"left_children":[1,3,5,-1,-1,-1,-1],"loss_changes":[2.7669146E1,5.5002193E0,1.7852106E1,0E0,0E0,0E0,0E0],"parents":[2147483647,0,0,1,1,2,2],"right_children":[2,4,6,-1,-1,-1,-1],"split_conditions":[-1.0994967E0,2.2723713E0,1E0,-1.1289424E-2,1.541473E-3,-2.1985804E-3,5.8422973E-3],"split_indices":[1,5,0,0,0,0,0],"split_type":[0,0,0,0,0,0,0],"sum_hessian":[1.6182192E3,1.9353972E2,1.4246794E3,1.7970227E2,1.3837459E1,7.4367236E2,6.810071E2],"tree_param":{"num_deleted":"0","num_feature":"7","num_nodes":"7","size_leaf_vector":"1"}},{"base_weights":[-1.1660619E-2,-1.5058102E-1,8.551521E-2,-1.0296963E-2,-2.1497065E-3,7.0627755E-3,-1.3266607E-3],"categories":[],"categories_nodes":[],"categories_segments":[],"categories_sizes":[],"default_left":[0,0,0,0,0,0,0],"id":79,"left_children":[1,3,5,-1,-1,-1,-1],"loss_changes":[2.6864674E1,5.7721195E0,1.3930213E1,0E0,0E0,0E0,0E0],"parents":[2147483647,0,0,1,1,2,2],"right_children":[2,4,6,-1,-1,-1,-1],"split_conditions":[-2.5581926E-1,-5.7089245E-1,3.004379E-1,-1.0296963E-2,-2.1497065E-3,7.0627755E-3,-1.3266607E-3],"split_indices":[2,1,4,0,0,0,0],"split_type":[0,0,0,0,0,0,0],"sum_hessian":[1.6168302E3,6.222735E2,9.9455676E2,1.452664E2,4.7700708E2,5.1006607E2,4.844907E2],"tree_param":{"num_deleted":"0","num_feature":"7","num_nodes":"7","size_leaf_vector":"1"}},{"base_weights":[-1.1914961E-2,-8.419517E-2,1.6822171E-1,-8.681472E-3,9.670957E-4,-2.266319E-3,7.97456E-3],"categories":[],"categories_nodes":[],"categories_segments":[],"categories_sizes":[],"default_left":[0,0,0,0,0,0,0],"id":80,"left_children":[1,3,5,-1,-1,-1,-1],"loss_changes":[2.6221376E1,2.1390684E1,6.2256145E0,0E0,0E0,0E0,0E0],"parents":[2147483647,0,0,1,1,2,2],"right_children":[2,4,6,-1,-1,-1,-1],"split_conditions":[6.9934744E-1,-1.3868583E-2,-1.4462156E0,-8.681472E-3,9.670957E-4,-2.266319E-3,7.97456E-3],"split_indices":[2,1,1,0,0,0,0],"split_type":[0,0,0,0,0,0,0],"sum_hessian":[1.6151125E3,1.2252184E3,3.8989407E2,4.64422E2,7.6079645E2,2.8390984E1,3.6150308E2],"tree_param":{"num_deleted":"0","num_feature":"7","num_nodes":"7","size_leaf_vector":"1"}},{"base_weights":[-1.1662557E-2,-2.01576E-1,5.665226E-2,1.4885111E-3,-9.223695E-3,4.6629175E-3,-2.806035E-3],"categories":[],"categories_nodes":[],"categories_segments":[],"categories_sizes":[],"default_left":[0,0,0,0,0,0,0],"id":81,"left_children":[1,3,5,-1,-1,-1,-1],"loss_changes":[2.5590418E1,5.2366943E0,1.2777468E1,0E0,0E0,0E0,0E0],"parents":[2147483647,0,0,1,1,2,2],"right_children":[2,4,6,-1,-1,-1,-1],"split_conditions":[-6.9955814E-1,-1.4796488E0,5.387566E-1,1.4885111E-3,-9.223695E-3,4.6629175E-3,-2.806035E-3],"split_indices":[2,3,4,0,0,0,0],"split_type":[0,0,0,0,0,0,0],"sum_hessian":[1.6133339E3,3.282434E2,1.2850905E3,2.9719091E1,2.9852432E2,8.831625E2,4.0192792E2],"tree_param":{"num_deleted":"0","num_feature":"7","num_nodes":"7","size_leaf_vector":"1"}},{"base_weights":[-1.1828547E-2,-2.4138145E-1,4.4062708E-2,-1.0884891E-2,1.5656115E-3,-2.128462E-3,5.551145E-3],"categories":[],"categories_nodes":[],"categories_segments":[],"categories_sizes":[],"default_left":[0,0,0,0,0,0,0],"id":82,"left_children":[1,3,5,-1,-1,-1,-1],"loss_changes":[2.5163399E1,5.332903E0,1.6257395E1,0E0,0E0,0E0,0E0],"parents":[2147483647,0,0,1,1,2,2],"right_children":[2,4,6,-1,-1,-1,-1],"split_conditions":[-1.0994967E0,2.2723713E0,1E0,-1.0884891E-2,1.5656115E-3,-2.128462E-3,5.551145E-3],"split_indices":[1,5,0,0,0,0,0],"split_type":[0,0,0,0,0,0,0],"sum_hessian":[1.6119569E3,1.915109E2,1.420446E3,1.7775108E2,1.375981E1,7.420494E2,6.7839667E2],"tree_param":{"num_deleted":"0","num_feature":"7","num_nodes":"7","size_leaf_vector":"1"}},{"base_weights":[-1.199006E-2,-8.172077E-2,1.620412E-1,-9.095012E-3,4.6898256E-4,-2.2054373E-3,7.6932763E-3],"categories":[],"categories_nodes":[],"categories_segments":[],"categories_sizes":[],"default_left":[0,0,0,0,0,0,0],"id":83,"left_children":[1,3,5,-1,-1,-1,-1],"loss_changes":[2.439234E1,1.9743961E1,5.8370037E0,0E0,0E0,0E0,0E0],"parents":[2147483647,0,0,1,1,2,2],"right_children":[2,4,6,-1,-1,-1,-1],"split_conditions":[6.9934744E-1,-2.4122526E-1,-1.4462156E0,-9.095012E-3,4.6898256E-4,-2.2054373E-3,7.6932763E-3],"split_indices":[2,1,1,0,0,0,0],"split_type":[0,0,0,0,0,0,0],"sum_hessian":[1.6106077E3,1.2222062E3,3.884015E2,3.7067706E2,8.515291E2,2.836537E1,3.6003613E2],"tree_param":{"num_deleted":"0","num_feature":"7","num_nodes":"7","size_leaf_vector":"1"}},{"base_weights":[-1.1855037E-2,7.122267E-2,-1.552258E-1,-1.9474905E-3,7.01205E-3,-7.7623534E-3,2.3212712E-3],"categories":[],"categories_nodes":[],"categories_segments":[],"categories_sizes":[],"default_left":[0,0,0,0,0,0,0],"id":84,"left_children":[1,3,5,-1,-1,-1,-1],"loss_changes":[2.3550152E1,1.7486046E1,8.116989E0,0E0,0E0,0E0,0E0],"parents":[2147483647,0,0,1,1,2,2],"right_children":[2,4,6,-1,-1,-1,-1],"split_conditions":[5.387566E-1,4.3390407E-3,1.2446197E0,-1.9474905E-3,7.01205E-3,-7.7623534E-3,2.3212712E-3],"split_indices":[4,5,2,0,0,0,0],"split_type":[0,0,0,0,0,0,0],"sum_hessian":[1.6089065E3,1.079497E3,5.2940955E2,5.488328E2,5.306641E2,4.6240338E2,6.700615E1],"tree_param":{"num_deleted":"0","num_feature":"7","num_nodes":"7","size_leaf_vector":"1"}},{"base_weights":[-1.1425993E-2,-2.3338303E-1,4.2494655E-2,-1.055999E-2,1.5713333E-3,-2.0674823E-3,5.3718197E-3],"categories":[],"categories_nodes":[],"categories_segments":[],"categories_sizes":[],"default_left":[0,0,0,0,0,0,0],"id":85,"left_children":[1,3,5,-1,-1,-1,-1],"loss_changes":[2.3426744E1,5.1620445E0,1.5237953E1,0E0,0E0,0E0,0E0],"parents":[2147483647,0,0,1,1,2,2],"right_children":[2,4,6,-1,-1,-1,-1],"split_conditions":[-1.0994967E0,2.2723713E0,1E0,-1.055999E-2,1.5713333E-3,-2.0674823E-3,5.3718197E-3],"split_indices":[1,5,0,0,0,0,0],"split_type":[0,0,0,0,0,0,0],"sum_hessian":[1.6081622E3,1.9006917E2,1.4180931E3,1.7633948E2,1.3729681E1,7.411656E2,6.769275E2],"tree_param":{"num_deleted":"0","num_feature":"7","num_nodes":"7","size_leaf_vector":"1"}},{"base_weights":[-1.1581861E-2,-1.9165848E-1,5.315809E-2,1.561444E-3,-8.836904E-3,-1.6176229E-3,5.402821E-3],"categories":[],"categories_nodes":[],"categories_segments":[],"categories_sizes":[],"default_left":[0,0,0,0,0,0,0],"id":86,"left_children":[1,3,5,-1,-1,-1,-1],"loss_changes":[2.2905449E1,5.136799E0,1.2328533E1,0E0,0E0,0E0,0E0],"parents":[2147483647,0,0,1,1,2,2],"right_children":[2,4,6,-1,-1,-1,-1],"split_conditions":[-6.9955814E-1,-1.4796488E0,4.3390407E-3,1.561444E-3,-8.836904E-3,-1.6176229E-3,5.402821E-3],"split_indices":[2,3,5,0,0,0,0],"split_type":[0,0,0,0,0,0,0],"sum_hessian":[1.606841E3,3.2589856E2,1.2809424E3,2.950735E1,2.963912E2,6.429579E2,6.379845E2],"tree_param":{"num_deleted":"0","num_feature":"7","num_nodes":"7","size_leaf_vector":"1"}},{"base_weights":[-1.1496632E-2,-1.820717E-1,5.5661157E-2,-9.491433E-3,2.6303336E-3,-1.3293986E-3,5.7921335E-3],"categories":[],"categories_nodes":[],"categories_segments":[],"categories_sizes":[],"default_left":[0,0,0,0,0,0,0],"id":87,"left_children":[1,3,5,-1,-1,-1,-1],"loss_changes":[2.2520142E1,1.0538275E1,1.2295311E1,0E0,0E0,0E0,0E0],"parents":[2147483647,0,0,1,1,2,2],"right_children":[2,4,6,-1,-1,-1,-1],"split_conditions":[-5.8226025E-1,1.3649558E0,4.3390407E-3,-9.491433E-3,2.6303336E-3,-1.3293986E-3,5.7921335E-3],"split_indices":[1,2,5,0,0,0,0],"split_type":[0,0,0,0,0,0,0],"sum_hessian":[1.6059171E3,3.6133536E2,1.2445818E3,3.021464E2,5.918897E1,6.8312836E2,5.614534E2],"tree_param":{"num_deleted":"0","num_feature":"7","num_nodes":"7","size_leaf_vector":"1"}},{"base_weights":[-1.1299934E-2,-7.755917E-2,1.5409434E-1,-7.977685E-3,8.5675914E-4,-2.153972E-3,7.341855E-3],"categories":[],"categories_nodes":[],"categories_segments":[],"categories_sizes":[],"default_left":[0,0,0,0,0,0,0],"id":88,"left_children":[1,3,5,-1,-1,-1,-1],"loss_changes":[2.1963367E1,1.7816723E1,5.4253283E0,0E0,0E0,0E0,0E0],"parents":[2147483647,0,0,1,1,2,2],"right_children":[2,4,6,-1,-1,-1,-1],"split_conditions":[6.9934744E-1,-1.3868583E-2,-1.4462156E0,-7.977685E-3,8.5675914E-4,-2.153972E-3,7.341855E-3],"split_indices":[2,1,1,0,0,0,0],"split_type":[0,0,0,0,0,0,0],"sum_hessian":[1.6048599E3,1.2182467E3,3.866131E2,4.5907217E2,7.5917456E2,2.8335264E1,3.5827783E2],"tree_param":{"num_deleted":"0","num_feature":"7","num_nodes":"7","size_leaf_vector":"1"}},{"base_weights":[-1.1064316E-2,6.791011E-2,-1.4754437E-1,-1.790733E-3,6.6246395E-3,-8.55547E-3,3.391083E-4],"categories":[],"categories_nodes":[],"categories_segments":[],"categories_sizes":[],"default_left":[0,0,0,0,0,0,0],"id":89,"left_children":[1,3,5,-1,-1,-1,-1],"loss_changes":[2.1252274E1,1.5368588E1,7.776785E0,0E0,0E0,0E0,0E0],"parents":[2147483647,0,0,1,1,2,2],"right_children":[2,4,6,-1,-1,-1,-1],"split_conditions":[5.387566E-1,4.3390407E-3,1E0,-1.790733E-3,6.6246395E-3,-8.55547E-3,3.391083E-4],"split_indices":[4,5,0,0,0,0,0],"split_type":[0,0,0,0,0,0,0],"sum_hessian":[1.6031846E3,1.0763275E3,5.268571E2,5.479239E2,5.2840356E2,3.1996655E2,2.0689055E2],"tree_param":{"num_deleted":"0","num_feature":"7","num_nodes":"7","size_leaf_vector":"1"}},{"base_weights":[-1.0986673E-2,-2.2261631E-1,4.0275875E-2,-1.0129044E-2,1.591116E-3,-2.0052006E-3,5.142328E-3],"categories":[],"categories_nodes":[],"categories_segments":[],"categories_sizes":[],"default_left":[0,0,0,0,0,0,0],"id":90,"left_children":[1,3,5,-1,-1,-1,-1],"loss_changes":[2.116944E1,4.967819E0,1.4044826E1,0E0,0E0,0E0,0E0],"parents":[2147483647,0,0,1,1,2,2],"right_children":[2,4,6,-1,-1,-1,-1],"split_conditions":[-1.0994967E0,2.2723713E0,1E0,-1.0129044E-2,1.591116E-3,-2.0052006E-3,5.142328E-3],"split_indices":[1,5,0,0,0,0,0],"split_type":[0,0,0,0,0,0,0],"sum_hessian":[1.6024836E3,1.8798134E2,1.4145023E3,1.7431955E2,1.3661788E1,7.396271E2,6.7487524E2],"tree_param":{"num_deleted":"0","num_feature":"7","num_nodes":"7","size_leaf_vector":"1"}},{"base_weights":[-1.1131233E-2,-1.6799755E-1,5.6259338E-2,6.811564E-4,-8.985383E-3,-1.5889801E-3,5.237606E-3],"categories":[],"categories_nodes":[],"categories_segments":[],"categories_sizes":[],"default_left":[0,0,0,0,0,0,0],"id":91,"left_children":[1,3,5,-1,-1,-1,-1],"loss_changes":[2.0751146E1,6.8765965E0,1.1005379E1,0E0,0E0,0E0,0E0],"parents":[2147483647,0,0,1,1,2,2],"right_children":[2,4,6,-1,-1,-1,-1],"split_conditions":[-5.7922214E-1,-8.154498E-1,1E0,6.811564E-4,-8.985383E-3,-1.5889801E-3,5.237606E-3],"split_indices":[2,3,0,0,0,0,0],"split_type":[0,0,0,0,0,0,0],"sum_hessian":[1.6012018E3,3.954838E2,1.205718E3,1.2399132E2,2.714925E2,5.667293E2,6.389888E2],"tree_param":{"num_deleted":"0","num_feature":"7","num_nodes":"7","size_leaf_vector":"1"}},{"base_weights":[-1.1190642E-2,-7.496629E-2,1.4819784E-1,-7.697598E-3,8.119044E-4,-2.1124026E-3,7.0801186E-3],"categories":[],"categories_nodes":[],"categories_segments":[],"categories_sizes":[],"default_left":[0,0,0,0,0,0,0],"id":92,"left_children":[1,3,5,-1,-1,-1,-1],"loss_changes":[2.0327127E1,1.6480263E1,5.1203165E0,0E0,0E0,0E0,0E0],"parents":[2147483647,0,0,1,1,2,2],"right_children":[2,4,6,-1,-1,-1,-1],"split_conditions":[6.9934744E-1,-1.3868583E-2,-1.4462156E0,-7.697598E-3,8.119044E-4,-2.1124026E-3,7.0801186E-3],"split_indices":[2,1,1,0,0,0,0],"split_type":[0,0,0,0,0,0,0],"sum_hessian":[1.5999457E3,1.2149692E3,3.8497644E2,4.568167E2,7.581525E2,2.8302795E1,3.5667365E2],"tree_param":{"num_deleted":"0","num_feature":"7","num_nodes":"7","size_leaf_vector":"1"}},{"base_weights":[-1.0957968E-2,-1.9501214E-1,4.4202514E-2,1.9100287E-3,-9.276366E-3,5.8859596E-3,-9.965268E-4],"categories":[],"categories_nodes":[],"categories_segments":[],"categories_sizes":[],"default_left":[0,0,0,0,0,0,0],"id":93,"left_children":[1,3,5,-1,-1,-1,-1],"loss_changes":[1.981249E1,6.1269684E0,1.1603731E1,0E0,0E0,0E0,0E0],"parents":[2147483647,0,0,1,1,2,2],"right_children":[2,4,6,-1,-1,-1,-1],"split_conditions":[-8.010916E-1,-1.4796488E0,-4.1451833E-1,1.9100287E-3,-9.276366E-3,5.8859596E-3,-9.965268E-4],"split_indices":[2,3,4,0,0,0,0],"split_type":[0,0,0,0,0,0,0],"sum_hessian":[1.5983167E3,2.5689166E2,1.3414249E3,2.6480324E1,2.3041135E2,4.5221527E2,8.8920966E2],"tree_param":{"num_deleted":"0","num_feature":"7","num_nodes":"7","size_leaf_vector":"1"}},{"base_weights":[-1.0791368E-2,-2.1497427E-1,3.8607594E-2,-9.823278E-3,1.6048189E-3,-1.908818E-3,5.0335024E-3],"categories":[],"categories_nodes":[],"categories_segments":[],"categories_sizes":[],"default_left":[0,0,0,0,0,0,0],"id":94,"left_children":[1,3,5,-1,-1,-1,-1],"loss_changes":[1.9622246E1,4.828882E0,1.3209204E1,0E0,0E0,0E0,0E0],"parents":[2147483647,0,0,1,1,2,2],"right_children":[2,4,6,-1,-1,-1,-1],"split_conditions":[-1.0994967E0,2.2723713E0,4.3390407E-3,-9.823278E-3,1.6048189E-3,-1.908818E-3,5.0335024E-3],"split_indices":[1,5,5,0,0,0,0],"split_type":[0,0,0,0,0,0,0],"sum_hessian":[1.5972467E3,1.8643858E2,1.4108082E3,1.7282474E2,1.3613848E1,7.525499E2,6.5825824E2],"tree_param":{"num_deleted":"0","num_feature":"7","num_nodes":"7","size_leaf_vector":"1"}},{"base_weights":[-1.0909749E-2,-7.238557E-2,1.4285178E-1,-9.116194E-3,-8.347321E-5,-2.0553372E-3,6.8344357E-3],"categories":[],"categories_nodes":[],"categories_segments":[],"categories_sizes":[],"default_left":[0,0,0,0,0,0,0],"id":95,"left_children":[1,3,5,-1,-1,-1,-1],"loss_changes":[1.8871332E1,1.525559E1,4.8038254E0,0E0,0E0,0E0,0E0],"parents":[2147483647,0,0,1,1,2,2],"right_children":[2,4,6,-1,-1,-1,-1],"split_conditions":[6.9934744E-1,-5.8226025E-1,-1.4462156E0,-9.116194E-3,-8.347321E-5,-2.0553372E-3,6.8344357E-3],"split_indices":[2,1,1,0,0,0,0],"split_type":[0,0,0,0,0,0,0],"sum_hessian":[1.5964747E3,1.2127041E3,3.8377066E2,2.4421785E2,9.6848627E2,2.8277786E1,3.5549286E2],"tree_param":{"num_deleted":"0","num_feature":"7","num_nodes":"7","size_leaf_vector":"1"}},{"base_weights":[-1.0955861E-2,6.314056E-2,-1.3894962E-1,-1.7677216E-3,6.2682834E-3,-8.543828E-3,-5.2520205E-5],"categories":[],"categories_nodes":[],"categories_segments":[],"categories_sizes":[],"default_left":[0,0,0,0,0,0,0],"id":96,"left_children":[1,3,5,-1,-1,-1,-1],"loss_changes":[1.8613388E1,1.4001331E1,7.2871513E0,0E0,0E0,0E0,0E0],"parents":[2147483647,0,0,1,1,2,2],"right_children":[2,4,6,-1,-1,-1,-1],"split_conditions":[5.387566E-1,4.3390407E-3,-7.639167E-2,-1.7677216E-3,6.2682834E-3,-8.543828E-3,-5.2520205E-5],"split_indices":[4,5,1,0,0,0,0],"split_type":[0,0,0,0,0,0,0],"sum_hessian":[1.5949437E3,1.0714514E3,5.234924E2,5.4595447E2,5.2549695E2,2.710703E2,2.5242206E2],"tree_param":{"num_deleted":"0","num_feature":"7","num_nodes":"7","size_leaf_vector":"1"}},{"base_weights":[-1.0961274E-2,-1.0364473E-1,8.9489475E-2,-1.0844277E-2,2.406184E-3,-6.9249165E-4,8.691885E-3],"categories":[],"categories_nodes":[],"categories_segments":[],"categories_sizes":[],"default_left":[0,0,0,0,0,0,0],"id":97,"left_children":[1,3,5,-1,-1,-1,-1],"loss_changes":[1.8391563E1,3.1010721E1,1.3811417E1,0E0,0E0,0E0,0E0],"parents":[2147483647,0,0,1,1,2,2],"right_children":[2,4,6,-1,-1,-1,-1],"split_conditions":[1E0,2.5918836E-2,4.2859152E-1,-1.0844277E-2,2.406184E-3,-6.9249165E-4,8.691885E-3],"split_indices":[0,1,2,0,0,0,0],"split_type":[0,0,0,0,0,0,0],"sum_hessian":[1.5941556E3,8.259753E2,7.681804E2,3.465493E2,4.79426E2,5.084363E2,2.5974408E2],"tree_param":{"num_deleted":"0","num_feature":"7","num_nodes":"7","size_leaf_vector":"1"}},{"base_weights":[-1.057903E-2,-1.8717162E-1,4.227124E-2,1.9504374E-3,-8.966246E-3,5.560862E-3,-9.1202545E-4],"categories":[],"categories_nodes":[],"categories_segments":[],"categories_sizes":[],"default_left":[0,0,0,0,0,0,0],"id":98,"left_children":[1,3,5,-1,-1,-1,-1],"loss_changes":[1.8157892E1,5.9796963E0,1.0229127E1,0E0,0E0,0E0,0E0],"parents":[2147483647,0,0,1,1,2,2],"right_children":[2,4,6,-1,-1,-1,-1],"split_conditions":[-8.010916E-1,-1.4796488E0,-4.1451833E-1,1.9504374E-3,-8.966246E-3,5.560862E-3,-9.1202545E-4],"split_indices":[2,3,4,0,0,0,0],"split_type":[0,0,0,0,0,0,0],"sum_hessian":[1.5926455E3,2.5503679E2,1.3376088E3,2.6319807E1,2.2871698E2,4.505954E2,8.870133E2],"tree_param":{"num_deleted":"0","num_feature":"7","num_nodes":"7","size_leaf_vector":"1"}},{"base_weights":[-1.0416259E-2,-2.0415643E-1,3.632195E-2,-9.395884E-3,1.6342807E-3,-2.5722936E-3,4.1271644E-3],"categories":[],"categories_nodes":[],"categories_segments":[],"categories_sizes":[],"default_left":[0,0,0,0,0,0,0],"id":99,"left_children":[1,3,5,-1,-1,-1,-1],"loss_changes":[1.7557964E1,4.6598387E0,1.2020342E1,0E0,0E0,0E0,0E0],"parents":[2147483647,0,0,1,1,2,2],"right_children":[2,4,6,-1,-1,-1,-1],"split_conditions":[-1.0994967E0,2.2723713E0,-3.1966558E-1,-9.395884E-3,1.6342807E-3,-2.5722936E-3,4.1271644E-3],"split_indices":[1,5,5,0,0,0,0],"split_type":[0,0,0,0,0,0,0],"sum_hessian":[1.5916074E3,1.8430765E2,1.4072998E3,1.7076831E2,1.3539333E1,5.6467303E2,8.426268E2],"tree_param":{"num_deleted":"0","num_feature":"7","num_nodes":"7","size_leaf_vector":"1"}},{"base_weights":[-1.0670433E-2,-1.01039276E-1,8.729064E-2,-1.0549113E-2,2.3174214E-3,-6.623699E-4,8.465622E-3],"categories":[],"categories_nodes":[],"categories_segments":[],"categories_sizes":[],"default_left":[0,0,0,0,0,0,0],"id":100,"left_children":[1,3,5,-1,-1,-1,-1],"loss_changes":[1.7458517E1,2.9179043E1,1.303394E1,0E0,0E0,0E0,0E0],"parents":[2147483647,0,0,1,1,2,2],"right_children":[2,4,6,-1,-1,-1,-1],"split_conditions":[1E0,2.5918836E-2,4.2859152E-1,-1.0549113E-2,2.3174214E-3,-6.623699E-4,8.465622E-3],"split_indices":[0,1,2,0,0,0,0],"split_type":[0,0,0,0,0,0,0],"sum_hessian":[1.5908368E3,8.2436255E2,7.664742E2,3.452213E2,4.7914124E2,5.0788397E2,2.585902E2],"tree_param":{"num_deleted":"0","num_feature":"7","num_nodes":"7","size_leaf_vector":"1"}},{"base_weights":[-1.0298459E-2,-1.8142875E-1,4.0856898E-2,1.9647046E-3,-8.731933E-3,-3.5993087E-3,3.310607E-3],"categories":[],"categories_nodes":[],"categories_segments":[],"categories_sizes":[],"default_left":[0,0,0,0,0,0,0],"id":101,"left_children":[1,3,5,-1,-1,-1,-1],"loss_changes":[1.7001396E1,5.829031E0,9.792797E0,0E0,0E0,0E0,0E0],"parents":[2147483647,0,0,1,1,2,2],"right_children":[2,4,6,-1,-1,-1,-1],"split_conditions":[-8.010916E-1,-1.4796488E0,-8.056725E-1,1.9647046E-3,-8.731933E-3,-3.5993087E-3,3.310607E-3],"split_indices":[2,3,5,0,0,0,0],"split_type":[0,0,0,0,0,0,0],"sum_hessian":[1.5893489E3,2.5382425E2,1.3355247E3,2.624756E1,2.2757669E2,2.7084167E2,1.064683E3],"tree_param":{"num_deleted":"0","num_feature":"7","num_nodes":"7","size_leaf_vector":"1"}},{"base_weights":[-1.0649469E-2,-9.877168E-2,8.493039E-2,-1.0313355E-2,2.2594938E-3,-6.4153364E-4,8.24081E-3],"categories":[],"categories_nodes":[],"categories_segments":[],"categories_sizes":[],"default_left":[0,0,0,0,0,0,0],"id":102,"left_children":[1,3,5,-1,-1,-1,-1],"loss_changes":[1.6590824E1,2.7828268E1,1.232367E1,0E0,0E0,0E0,0E0],"parents":[2147483647,0,0,1,1,2,2],"right_children":[2,4,6,-1,-1,-1,-1],"split_conditions":[1E0,2.5918836E-2,4.2859152E-1,-1.0313355E-2,2.2594938E-3,-6.4153364E-4,8.24081E-3],"split_indices":[0,1,2,0,0,0,0],"split_type":[0,0,0,0,0,0,0],"sum_hessian":[1.588544E3,8.23198E2,7.65346E2,3.4428827E2,4.7890973E2,5.0770596E2,2.5764E2],"tree_param":{"num_deleted":"0","num_feature":"7","num_nodes":"7","size_leaf_vector":"1"}},{"base_weights":[-1.02810925E-2,-6.308266E-2,1.4471546E-1,-8.579117E-3,1.2187427E-4,-1.6968783E-3,6.8490487E-3],"categories":[],"categories_nodes":[],"categories_segments":[],"categories_sizes":[],"default_left":[0,0,0,0,0,0,0],"id":103,"left_children":[1,3,5,-1,-1,-1,-1],"loss_changes":[1.6295534E1,1.473472E1,3.9165392E0,0E0,0E0,0E0,0E0],"parents":[2147483647,0,0,1,1,2,2],"right_children":[2,4,6,-1,-1,-1,-1],"split_conditions":[8.535279E-1,-5.8226025E-1,-1.4462156E0,-8.579117E-3,1.2187427E-4,-1.6968783E-3,6.8490487E-3],"split_indices":[2,1,1,0,0,0,0],"split_type":[0,0,0,0,0,0,0],"sum_hessian":[1.5870767E3,1.2682837E3,3.1879297E2,2.5531084E2,1.01297284E3,2.5333258E1,2.9345972E2],"tree_param":{"num_deleted":"0","num_feature":"7","num_nodes":"7","size_leaf_vector":"1"}},{"base_weights":[-1.0233477E-2,5.836353E-2,-1.2885039E-1,-1.7678447E-3,5.9363586E-3,-6.337916E-3,3.1436007E-3],"categories":[],"categories_nodes":[],"categories_segments":[],"categories_sizes":[],"default_left":[0,0,0,0,0,0,0],"id":104,"left_children":[1,3,5,-1,-1,-1,-1],"loss_changes":[1.5893E1,1.2862699E1,6.7409725E0,0E0,0E0,0E0,0E0],"parents":[2147483647,0,0,1,1,2,2],"right_children":[2,4,6,-1,-1,-1,-1],"split_conditions":[5.387566E-1,4.3390407E-3,1.9779171E0,-1.7678447E-3,5.9363586E-3,-6.337916E-3,3.1436007E-3],"split_indices":[4,5,2,0,0,0,0],"split_type":[0,0,0,0,0,0,0],"sum_hessian":[1.585707E3,1.0661604E3,5.1954663E2,5.439114E2,5.22249E2,4.94151E2,2.5395613E1],"tree_param":{"num_deleted":"0","num_feature":"7","num_nodes":"7","size_leaf_vector":"1"}},{"base_weights":[-9.723174E-3,-9.598835E-2,8.371335E-2,-1.001322E-2,2.176403E-3,-5.436122E-4,7.993698E-3],"categories":[],"categories_nodes":[],"categories_segments":[],"categories_sizes":[],"default_left":[0,0,0,0,0,0,0],"id":105,"left_children":[1,3,5,-1,-1,-1,-1],"loss_changes":[1.5850387E1,2.6103218E1,1.1305683E1,0E0,0E0,0E0,0E0],"parents":[2147483647,0,0,1,1,2,2],"right_children":[2,4,6,-1,-1,-1,-1],"split_conditions":[1E0,2.5918836E-2,4.2859152E-1,-1.001322E-2,2.176403E-3,-5.436122E-4,7.993698E-3],"split_indices":[0,1,2,0,0,0,0],"split_type":[0,0,0,0,0,0,0],"sum_hessian":[1.5850594E3,8.2144495E2,7.636145E2,3.427735E2,4.7867145E2,5.0724542E2,2.563691E2],"tree_param":{"num_deleted":"0","num_feature":"7","num_nodes":"7","size_leaf_vector":"1"}},{"base_weights":[-9.38377E-3,-1.73499E-1,3.9539784E-2,2.0016336E-3,-8.416966E-3,-3.4721142E-3,3.2024737E-3],"categories":[],"categories_nodes":[],"categories_segments":[],"categories_sizes":[],"default_left":[0,0,0,0,0,0,0],"id":106,"left_children":[1,3,5,-1,-1,-1,-1],"loss_changes":[1.5558872E1,5.6676884E0,9.122752E0,0E0,0E0,0E0,0E0],"parents":[2147483647,0,0,1,1,2,2],"right_children":[2,4,6,-1,-1,-1,-1],"split_conditions":[-8.010916E-1,-1.4796488E0,-8.056725E-1,2.0016336E-3,-8.416966E-3,-3.4721142E-3,3.2024737E-3],"split_indices":[2,3,5,0,0,0,0],"split_type":[0,0,0,0,0,0,0],"sum_hessian":[1.5836185E3,2.5198386E2,1.3316346E3,2.610502E1,2.2587883E2,2.7040442E2,1.0612302E3],"tree_param":{"num_deleted":"0","num_feature":"7","num_nodes":"7","size_leaf_vector":"1"}},{"base_weights":[-9.733323E-3,-1.964879E-1,3.3183634E-2,-8.992576E-3,1.4449456E-3,-9.075146E-4,5.9358357E-3],"categories":[],"categories_nodes":[],"categories_segments":[],"categories_sizes":[],"default_left":[0,0,0,0,0,0,0],"id":107,"left_children":[1,3,5,-1,-1,-1,-1],"loss_changes":[1.5462523E1,3.916996E0,1.0979561E1,0E0,0E0,0E0,0E0],"parents":[2147483647,0,0,1,1,2,2],"right_children":[2,4,6,-1,-1,-1,-1],"split_conditions":[-1.1563358E0,2.2723713E0,6.316585E-1,-8.992576E-3,1.4449456E-3,-9.075146E-4,5.9358357E-3],"split_indices":[1,5,2,0,0,0,0],"split_type":[0,0,0,0,0,0,0],"sum_hessian":[1.5828339E3,1.6805894E2,1.4147749E3,1.555224E2,1.2536554E1,1.0560416E3,3.5873322E2],"tree_param":{"num_deleted":"0","num_feature":"7","num_nodes":"7","size_leaf_vector":"1"}},{"base_weights":[-9.622079E-3,-9.380806E-2,8.1608094E-2,-7.86905E-3,4.3199817E-3,-4.75114E-4,7.7175456E-3],"categories":[],"categories_nodes":[],"categories_segments":[],"categories_sizes":[],"default_left":[0,0,0,0,0,0,0],"id":108,"left_children":[1,3,5,-1,-1,-1,-1],"loss_changes":[1.5076437E1,2.5051174E1,1.0354921E1,0E0,0E0,0E0,0E0],"parents":[2147483647,0,0,1,1,2,2],"right_children":[2,4,6,-1,-1,-1,-1],"split_conditions":[1E0,5.6589097E-1,4.2859152E-1,-7.86905E-3,4.3199817E-3,-4.75114E-4,7.7175456E-3],"split_indices":[0,1,2,0,0,0,0],"split_type":[0,0,0,0,0,0,0],"sum_hessian":[1.5816173E3,8.197583E2,7.618591E2,5.4607776E2,2.736805E2,5.0686176E2,2.5499728E2],"tree_param":{"num_deleted":"0","num_feature":"7","num_nodes":"7","size_leaf_vector":"1"}},{"base_weights":[-8.845088E-3,-1.9192502E-1,3.3096004E-2,-8.808392E-3,1.4495293E-3,-1.7898561E-3,4.48446E-3],"categories":[],"categories_nodes":[],"categories_segments":[],"categories_sizes":[],"default_left":[0,0,0,0,0,0,0],"id":109,"left_children":[1,3,5,-1,-1,-1,-1],"loss_changes":[1.4814816E1,3.8361874E0,1.0824699E1,0E0,0E0,0E0,0E0],"parents":[2147483647,0,0,1,1,2,2],"right_children":[2,4,6,-1,-1,-1,-1],"split_conditions":[-1.1563358E0,2.2723713E0,4.3390407E-3,-8.808392E-3,1.4495293E-3,-1.7898561E-3,4.48446E-3],"split_indices":[1,5,5,0,0,0,0],"split_type":[0,0,0,0,0,0,0],"sum_hessian":[1.5803701E3,1.6725334E2,1.4131167E3,1.5472989E2,1.2523449E1,7.5357074E2,6.59546E2],"tree_param":{"num_deleted":"0","num_feature":"7","num_nodes":"7","size_leaf_vector":"1"}},{"base_weights":[-8.9986855E-3,-9.132314E-2,8.016274E-2,-9.590705E-3,2.1066472E-3,-4.4379837E-4,7.5512454E-3],"categories":[],"categories_nodes":[],"categories_segments":[],"categories_sizes":[],"default_left":[0,0,0,0,0,0,0],"id":110,"left_children":[1,3,5,-1,-1,-1,-1],"loss_changes":[1.4395361E1,2.399842E1,9.834141E0,0E0,0E0,0E0,0E0],"parents":[2147483647,0,0,1,1,2,2],"right_children":[2,4,6,-1,-1,-1,-1],"split_conditions":[1E0,2.5918836E-2,4.2859152E-1,-9.590705E-3,2.1066472E-3,-4.4379837E-4,7.5512454E-3],"split_indices":[0,1,2,0,0,0,0],"split_type":[0,0,0,0,0,0,0],"sum_hessian":[1.5796829E3,8.1892395E2,7.60759E2,3.4066733E2,4.7825662E2,5.066108E2,2.5414815E2],"tree_param":{"num_deleted":"0","num_feature":"7","num_nodes":"7","size_leaf_vector":"1"}},{"base_weights":[-8.686554E-3,-1.6594645E-1,3.80828E-2,2.0439415E-3,-8.120435E-3,-1.4905584E-3,4.2738593E-3],"categories":[],"categories_nodes":[],"categories_segments":[],"categories_sizes":[],"default_left":[0,0,0,0,0,0,0],"id":111,"left_children":[1,3,5,-1,-1,-1,-1],"loss_changes":[1.4220088E1,5.5308323E0,8.630939E0,0E0,0E0,0E0,0E0],"parents":[2147483647,0,0,1,1,2,2],"right_children":[2,4,6,-1,-1,-1,-1],"split_conditions":[-8.010916E-1,-1.4796488E0,4.3390407E-3,2.0439415E-3,-8.120435E-3,-1.4905584E-3,4.2738593E-3],"split_indices":[2,3,5,0,0,0,0],"split_type":[0,0,0,0,0,0,0],"sum_hessian":[1.5782894E3,2.5022267E2,1.3280667E3,2.5948841E1,2.2427383E2,6.7544867E2,6.5261804E2],"tree_param":{"num_deleted":"0","num_feature":"7","num_nodes":"7","size_leaf_vector":"1"}},{"base_weights":[-8.699108E-3,1.0571514E-1,-7.090039E-2,-7.5512443E-4,6.3236803E-3,-6.580485E-3,2.3882133E-3],"categories":[],"categories_nodes":[],"categories_segments":[],"categories_sizes":[],"default_left":[0,0,0,0,0,0,0],"id":112,"left_children":[1,3,5,-1,-1,-1,-1],"loss_changes":[1.4018049E1,5.135101E0,1.7281544E1,0E0,0E0,0E0,0E0],"parents":[2147483647,0,0,1,1,2,2],"right_children":[2,4,6,-1,-1,-1,-1],"split_conditions":[-4.1451833E-1,-4.0066674E-1,1E0,-7.5512443E-4,6.3236803E-3,-6.580485E-3,2.3882133E-3],"split_indices":[4,5,0,0,0,0,0],"split_type":[0,0,0,0,0,0,0],"sum_hessian":[1.5775773E3,5.0854068E2,1.0690366E3,1.8666444E2,3.2187625E2,5.938261E2,4.7521048E2],"tree_param":{"num_deleted":"0","num_feature":"7","num_nodes":"7","size_leaf_vector":"1"}},{"base_weights":[-8.206853E-3,-1.8653671E-1,3.25364E-2,-8.5915355E-3,1.4556164E-3,-2.5066722E-3,3.594507E-3],"categories":[],"categories_nodes":[],"categories_segments":[],"categories_sizes":[],"default_left":[0,0,0,0,0,0,0],"id":113,"left_children":[1,3,5,-1,-1,-1,-1],"loss_changes":[1.400297E1,3.7421093E0,9.816492E0,0E0,0E0,0E0,0E0],"parents":[2147483647,0,0,1,1,2,2],"right_children":[2,4,6,-1,-1,-1,-1],"split_conditions":[-1.1563358E0,2.2723713E0,-4.0066674E-1,-8.5915355E-3,1.4556164E-3,-2.5066722E-3,3.594507E-3],"split_indices":[1,5,5,0,0,0,0],"split_type":[0,0,0,0,0,0,0],"sum_hessian":[1.5767139E3,1.6612672E2,1.4105872E3,1.536302E2,1.249652E1,5.2346387E2,8.871233E2],"tree_param":{"num_deleted":"0","num_feature":"7","num_nodes":"7","size_leaf_vector":"1"}},{"base_weights":[-8.536376E-3,-4.969727E-2,1.6054444E-1,-7.6296013E-3,3.7356644E-4,-9.934157E-4,7.0363483E-3],"categories":[],"categories_nodes":[],"categories_segments":[],"categories_sizes":[],"default_left":[0,0,0,0,0,0,0],"id":114,"left_children":[1,3,5,-1,-1,-1,-1],"loss_changes":[1.3821536E1,1.338751E1,1.9483585E0,0E0,0E0,0E0,0E0],"parents":[2147483647,0,0,1,1,2,2],"right_children":[2,4,6,-1,-1,-1,-1],"split_conditions":[1.2446197E0,-5.8226025E-1,-1.827038E0,-7.6296013E-3,3.7356644E-4,-9.934157E-4,7.0363483E-3],"split_indices":[2,1,1,0,0,0,0],"split_type":[0,0,0,0,0,0,0],"sum_hessian":[1.5760217E3,1.3759272E3,2.0009445E2,2.8026126E2,1.095666E3,6.3031373E0,1.9379132E2],"tree_param":{"num_deleted":"0","num_feature":"7","num_nodes":"7","size_leaf_vector":"1"}},{"base_weights":[-8.3318725E-3,-4.298928E-2,1.8481347E-1,-6.713138E-3,6.8260264E-4,-4.169812E-4,7.7385497E-3],"categories":[],"categories_nodes":[],"categories_segments":[],"categories_sizes":[],"default_left":[0,0,0,0,0,0,0],"id":115,"left_children":[1,3,5,-1,-1,-1,-1],"loss_changes":[1.333848E1,1.2933945E1,8.9981365E-1,0E0,0E0,0E0,0E0],"parents":[2147483647,0,0,1,1,2,2],"right_children":[2,4,6,-1,-1,-1,-1],"split_conditions":[1.6206697E0,-4.3447843E-1,-1.827038E0,-6.713138E-3,6.8260264E-4,-4.169812E-4,7.7385497E-3],"split_indices":[2,1,1,0,0,0,0],"split_type":[0,0,0,0,0,0,0],"sum_hessian":[1.5749293E3,1.4612206E3,1.1370872E2,3.6327823E2,1.0979424E3,3.162159E0,1.1054656E2],"tree_param":{"num_deleted":"0","num_feature":"7","num_nodes":"7","size_leaf_vector":"1"}},{"base_weights":[-7.863545E-3,-1.7804965E-1,3.2126125E-2,1.7817607E-3,-8.706063E-3,4.8852274E-3,-1.0523035E-3],"categories":[],"categories_nodes":[],"categories_segments":[],"categories_sizes":[],"default_left":[0,0,0,0,0,0,0],"id":116,"left_children":[1,3,5,-1,-1,-1,-1],"loss_changes":[1.3104775E1,5.0694923E0,8.981262E0,0E0,0E0,0E0,0E0],"parents":[2147483647,0,0,1,1,2,2],"right_children":[2,4,6,-1,-1,-1,-1],"split_conditions":[-9.8911655E-1,-1.5932618E0,-4.1451833E-1,1.7817607E-3,-8.706063E-3,4.8852274E-3,-1.0523035E-3],"split_indices":[2,3,4,0,0,0,0],"split_type":[0,0,0,0,0,0,0],"sum_hessian":[1.5740309E3,1.7402345E2,1.4000074E3,2.2684317E1,1.5133914E2,4.6916144E2,9.30846E2],"tree_param":{"num_deleted":"0","num_feature":"7","num_nodes":"7","size_leaf_vector":"1"}},{"base_weights":[-7.887764E-3,-8.59695E-2,7.6555826E-2,-7.3730084E-3,4.189343E-3,5.5056307E-3,-2.4480692E-3],"categories":[],"categories_nodes":[],"categories_segments":[],"categories_sizes":[],"default_left":[0,0,0,0,0,0,0],"id":117,"left_children":[1,3,5,-1,-1,-1,-1],"loss_changes":[1.2889363E1,2.2567812E1,9.591394E0,0E0,0E0,0E0,0E0],"parents":[2147483647,0,0,1,1,2,2],"right_children":[2,4,6,-1,-1,-1,-1],"split_conditions":[1E0,5.6589097E-1,1.1858869E0,-7.3730084E-3,4.189343E-3,5.5056307E-3,-2.4480692E-3],"split_indices":[0,1,3,0,0,0,0],"split_type":[0,0,0,0,0,0,0],"sum_hessian":[1.573207E3,8.156009E2,7.5760614E2,5.422972E2,2.733037E2,5.249797E2,2.3262642E2],"tree_param":{"num_deleted":"0","num_feature":"7","num_nodes":"7","size_leaf_vector":"1"}},{"base_weights":[-7.589211E-3,-4.7537893E-2,1.5619391E-1,-7.243251E-3,3.315417E-4,-9.858002E-4,6.8565137E-3],"categories":[],"categories_nodes":[],"categories_segments":[],"categories_sizes":[],"default_left":[0,0,0,0,0,0,0],"id":118,"left_children":[1,3,5,-1,-1,-1,-1],"loss_changes":[1.2957171E1,1.1948198E1,1.8812628E0,0E0,0E0,0E0,0E0],"parents":[2147483647,0,0,1,1,2,2],"right_children":[2,4,6,-1,-1,-1,-1],"split_conditions":[1.2446197E0,-5.8226025E-1,-1.827038E0,-7.243251E-3,3.315417E-4,-9.858002E-4,6.8565137E-3],"split_indices":[2,1,1,0,0,0,0],"split_type":[0,0,0,0,0,0,0],"sum_hessian":[1.5725814E3,1.3732031E3,1.9937837E2,2.784887E2,1.0947144E3,6.2937684E0,1.930846E2],"tree_param":{"num_deleted":"0","num_feature":"7","num_nodes":"7","size_leaf_vector":"1"}},{"base_weights":[-7.4033975E-3,-1.03965685E-1,5.964913E-2,1.744744E-3,-6.0713235E-3,-1.3084806E-3,5.195431E-3],"categories":[],"categories_nodes":[],"categories_segments":[],"categories_sizes":[],"default_left":[0,0,0,0,0,0,0],"id":119,"left_children":[1,3,5,-1,-1,-1,-1],"loss_changes":[1.2596387E1,6.8534E0,8.346826E0,0E0,0E0,0E0,0E0],"parents":[2147483647,0,0,1,1,2,2],"right_children":[2,4,6,-1,-1,-1,-1],"split_conditions":[-2.5581926E-1,-8.154498E-1,4.3390407E-3,1.744744E-3,-6.0713235E-3,-1.3084806E-3,5.195431E-3],"split_indices":[2,3,5,0,0,0,0],"split_type":[0,0,0,0,0,0,0],"sum_hessian":[1.5715261E3,6.009504E2,9.705757E2,1.5116481E2,4.4978555E2,4.6333463E2,5.0724106E2],"tree_param":{"num_deleted":"0","num_feature":"7","num_nodes":"7","size_leaf_vector":"1"}},{"base_weights":[-7.158643E-3,-4.0694613E-2,1.7914455E-1,-8.120702E-3,1.1496433E-4,-4.1764602E-4,7.5104707E-3],"categories":[],"categories_nodes":[],"categories_segments":[],"categories_sizes":[],"default_left":[0,0,0,0,0,0,0],"id":120,"left_children":[1,3,5,-1,-1,-1,-1],"loss_changes":[1.2399234E1,1.1770636E1,8.7125206E-1,0E0,0E0,0E0,0E0],"parents":[2147483647,0,0,1,1,2,2],"right_children":[2,4,6,-1,-1,-1,-1],"split_conditions":[1.6206697E0,-1.076761E0,-1.827038E0,-8.120702E-3,1.1496433E-4,-4.1764602E-4,7.5104707E-3],"split_indices":[2,1,1,0,0,0,0],"split_type":[0,0,0,0,0,0,0],"sum_hessian":[1.570692E3,1.4575936E3,1.1309833E2,1.6052504E2,1.2970686E3,3.1595106E0,1.0993882E2],"tree_param":{"num_deleted":"0","num_feature":"7","num_nodes":"7","size_leaf_vector":"1"}},{"base_weights":[-6.975121E-3,-8.312879E-2,7.523449E-2,-7.1625737E-3,4.092411E-3,5.4216622E-3,-2.4215956E-3],"categories":[],"categories_nodes":[],"categories_segments":[],"categories_sizes":[],"default_left":[0,0,0,0,0,0,0],"id":121,"left_children":[1,3,5,-1,-1,-1,-1],"loss_changes":[1.22188E1,2.1375826E1,9.321825E0,0E0,0E0,0E0,0E0],"parents":[2147483647,0,0,1,1,2,2],"right_children":[2,4,6,-1,-1,-1,-1],"split_conditions":[1E0,5.6589097E-1,1.1858869E0,-7.1625737E-3,4.092411E-3,5.4216622E-3,-2.4215956E-3],"split_indices":[0,1,3,0,0,0,0],