{"learner":{"attributes":{"best_iteration":"999","best_score":"0.5998091338869668","scikit_learn":"{\"_estimator_type\": \"classifier\"}"},"feature_names":["Sex","Age","Weight","Height","InitialO2","InitialHR","InititalRR"],"feature_types":["float","float","float","float","float","float","float"],"gradient_booster":{"model":{"gbtree_model_param":{"num_parallel_tree":"1","num_trees":"1000"},"iteration_indptr":[0,1,2,3,4,5,6,7,8,9,10,11,12,13,14,15,16,17,18,19,20,21,22,23,24,25,26,27,28,29,30,31,32,33,34,35,36,37,38,39,40,41,42,43,44,45,46,47,48,49,50,51,52,53,54,55,56,57,58,59,60,61,62,63,64,65,66,67,68,69,70,71,72,73,74,75,76,77,78,79,80,81,82,83,84,85,86,87,88,89,90,91,92,93,94,95,96,97,98,99,100,101,102,103,104,105,106,107,108,109,110,111,112,113,114,115,116,117,118,119,120,121,122,123,124,125,126,127,128,129,130,131,132,133,134,135,136,137,138,139,140,141,142,143,144,145,146,147,148,149,150,151,152,153,154,155,156,157,158,159,160,161,162,163,164,165,166,167,168,169,170,171,172,173,174,175,176,177,178,179,180,181,182,183,184,185,186,187,188,189,190,191,192,193,194,195,196,197,198,199,200,201,202,203,204,205,206,207,208,209,210,211,212,213,214,215,216,217,218,219,220,221,222,223,224,225,226,227,228,229,230,231,232,233,234,235,236,237,238,239,240,241,242,243,244,245,246,247,248,249,250,251,252,253,254,255,256,257,258,259,260,261,262,263,264,265,266,267,268,269,270,271,272,273,274,275,276,277,278,279,280,281,282,283,284,285,286,287,288,289,290,291,292,293,294,295,296,297,298,299,300,301,302,303,304,305,306,307,308,309,310,311,312,313,314,315,316,317,318,319,320,321,322,323,324,325,326,327,328,329,330,331,332,333,334,335,336,337,338,339,340,341,342,343,344,345,346,347,348,349,350,351,352,353,354,355,356,357,358,359,360,361,362,363,364,365,366,367,368,369,370,371,372,373,374,375,376,377,378,379,380,381,382,383,384,385,386,387,388,389,390,391,392,393,394,395,396,397,398,399,400,401,402,403,404,405,406,407,408,409,410,411,412,413,414,415,416,417,418,419,420,421,422,423,424,425,426,427,428,429,430,431,432,433,434,435,436,437,438,439,440,441,442,443,444,445,446,447,448,449,450,451,452,453,454,455,456,457,458,459,460,461,462,463,464,465,466,467,468,469,470,471,472,473,474,475,476,477,478,479,480,481,482,483,484,485,486,487,488,489,490,491,492,493,494,495,496,497,498,499,500,501,502,503,504,505,506,507,508,509,510,511,512,513,514,515,516,517,518,519,520,521,522,523,524,525,526,527,528,529,530,531,532,533,534,535,536,537,538,539,540,541,542,543,544,545,546,547,548,549,550,551,552,553,554,555,556,557,558,559,560,561,562,563,564,565,566,567,568,569,570,571,572,573,574,575,576,577,578,579,580,581,582,583,584,585,586,587,588,589,590,591,592,593,594,595,596,597,598,599,600,601,602,603,604,605,606,607,608,609,610,611,612,613,614,615,616,617,618,619,620,621,622,623,624,625,626,627,628,629,630,631,632,633,634,635,636,637,638,639,640,641,642,643,644,645,646,647,648,649,650,651,652,653,654,655,656,657,658,659,660,661,662,663,664,665,666,667,668,669,670,671,672,673,674,675,676,677,678,679,680,681,682,683,684,685,686,687,688,689,690,691,692,693,694,695,696,697,698,699,700,701,702,703,704,705,706,707,708,709,710,711,712,713,714,715,716,717,718,719,720,721,722,723,724,725,726,727,728,729,730,731,732,733,734,735,736,737,738,739,740,741,742,743,744,745,746,747,748,749,750,751,752,753,754,755,756,757,758,759,760,761,762,763,764,765,766,767,768,769,770,771,772,773,774,775,776,777,778,779,780,781,782,783,784,785,786,787,788,789,790,791,792,793,794,795,796,797,798,799,800,801,802,803,804,805,806,807,808,809,810,811,812,813,814,815,816,817,818,819,820,821,822,823,824,825,826,827,828,829,830,831,832,833,834,835,836,837,838,839,840,841,842,843,844,845,846,847,848,849,850,851,852,853,854,855,856,857,858,859,860,861,862,863,864,865,866,867,868,869,870,871,872,873,874,875,876,877,878,879,880,881,882,883,884,885,886,887,888,889,890,891,892,893,894,895,896,897,898,899,900,901,902,903,904,905,906,907,908,909,910,911,912,913,914,915,916,917,918,919,920,921,922,923,924,925,926,927,928,929,930,931,932,933,934,935,936,937,938,939,940,941,942,943,944,945,946,947,948,949,950,951,952,953,954,955,956,957,958,959,960,961,962,963,964,965,966,967,968,969,970,971,972,973,974,975,976,977,978,979,980,981,982,983,984,985,986,987,988,989,990,991,992,993,994,995,996,997,998,999,1000],"tree_info":[0,0,0,0,0,0,0,0,0,0,0,0,0,0,0,0,0,0,0,0,0,0,0,0,0,0,0,0,0,0,0,0,0,0,0,0,0,0,0,0,0,0,0,0,0,0,0,0,0,0,0,0,0,0,0,0,0,0,0,0,0,0,0,0,0,0,0,0,0,0,0,0,0,0,0,0,0,0,0,0,0,0,0,0,0,0,0,0,0,0,0,0,0,0,0,0,0,0,0,0,0,0,0,0,0,0,0,0,0,0,0,0,0,0,0,0,0,0,0,0,0,0,0,0,0,0,0,0,0,0,0,0,0,0,0,0,0,0,0,0,0,0,0,0,0,0,0,0,0,0,0,0,0,0,0,0,0,0,0,0,0,0,0,0,0,0,0,0,0,0,0,0,0,0,0,0,0,0,0,0,0,0,0,0,0,0,0,0,0,0,0,0,0,0,0,0,0,0,0,0,0,0,0,0,0,0,0,0,0,0,0,0,0,0,0,0,0,0,0,0,0,0,0,0,0,0,0,0,0,0,0,0,0,0,0,0,0,0,0,0,0,0,0,0,0,0,0,0,0,0,0,0,0,0,0,0,0,0,0,0,0,0,0,0,0,0,0,0,0,0,0,0,0,0,0,0,0,0,0,0,0,0,0,0,0,0,0,0,0,0,0,0,0,0,0,0,0,0,0,0,0,0,0,0,0,0,0,0,0,0,0,0,0,0,0,0,0,0,0,0,0,0,0,0,0,0,0,0,0,0,0,0,0,0,0,0,0,0,0,0,0,0,0,0,0,0,0,0,0,0,0,0,0,0,0,0,0,0,0,0,0,0,0,0,0,0,0,0,0,0,0,0,0,0,0,0,0,0,0,0,0,0,0,0,0,0,0,0,0,0,0,0,0,0,0,0,0,0,0,0,0,0,0,0,0,0,0,0,0,0,0,0,0,0,0,0,0,0,0,0,0,0,0,0,0,0,0,0,0,0,0,0,0,0,0,0,0,0,0,0,0,0,0,0,0,0,0,0,0,0,0,0,0,0,0,0,0,0,0,0,0,0,0,0,0,0,0,0,0,0,0,0,0,0,0,0,0,0,0,0,0,0,0,0,0,0,0,0,0,0,0,0,0,0,0,0,0,0,0,0,0,0,0,0,0,0,0,0,0,0,0,0,0,0,0,0,0,0,0,0,0,0,0,0,0,0,0,0,0,0,0,0,0,0,0,0,0,0,0,0,0,0,0,0,0,0,0,0,0,0,0,0,0,0,0,0,0,0,0,0,0,0,0,0,0,0,0,0,0,0,0,0,0,0,0,0,0,0,0,0,0,0,0,0,0,0,0,0,0,0,0,0,0,0,0,0,0,0,0,0,0,0,0,0,0,0,0,0,0,0,0,0,0,0,0,0,0,0,0,0,0,0,0,0,0,0,0,0,0,0,0,0,0,0,0,0,0,0,0,0,0,0,0,0,0,0,0,0,0,0,0,0,0,0,0,0,0,0,0,0,0,0,0,0,0,0,0,0,0,0,0,0,0,0,0,0,0,0,0,0,0,0,0,0,0,0,0,0,0,0,0,0,0,0,0,0,0,0,0,0,0,0,0,0,0,0,0,0,0,0,0,0,0,0,0,0,0,0,0,0,0,0,0,0,0,0,0,0,0,0,0,0,0,0,0,0,0,0,0,0,0,0,0,0,0,0,0,0,0,0,0,0,0,0,0,0,0,0,0,0,0,0,0,0,0,0,0,0,0,0,0,0,0,0,0,0,0,0,0,0,0,0,0,0,0,0,0,0,0,0,0,0,0,0,0,0,0,0,0,0,0,0,0,0,0,0,0,0,0,0,0,0,0,0,0,0,0,0,0,0,0,0,0,0,0,0,0,0,0,0,0,0,0,0,0,0,0,0,0,0,0,0,0,0,0,0,0,0,0,0,0,0,0,0,0,0,0,0,0,0,0,0,0,0,0,0,0,0,0,0,0,0,0,0,0,0,0,0,0,0,0,0,0,0,0,0,0,0,0,0,0,0,0,0,0,0,0,0,0,0,0,0,0,0,0,0,0,0,0,0,0,0,0,0,0,0,0,0,0,0,0,0,0,0,0,0,0,0,0,0,0,0,0,0,0,0,0,0,0,0,0,0,0,0,0,0,0,0,0,0,0,0,0,0,0,0,0,0,0,0,0,0,0,0,0,0,0,0,0,0,0,0,0,0,0,0,0,0,0,0,0,0,0,0,0,0,0,0,0,0,0,0,0,0,0,0,0,0,0,0],"trees":[{"base_weights":[-0E0,-4.7086006E-1,3.9246738E-1,-2.7148131E-2,-3.2403239E-3,-7.1863397E-3,2.0303177E-2],"categories":[],"categories_nodes":[],"categories_segments":[],"categories_sizes":[],"default_left":[0,0,0,0,0,0,0],"id":0,"left_children":[1,3,5,-1,-1,-1,-1],"loss_changes":[3.9583563E2,6.839984E1,9.435681E1,0E0,0E0,0E0,0E0],"parents":[2147483647,0,0,1,1,2,2],"right_children":[2,4,6,-1,-1,-1,-1],"split_conditions":[-1.354833E-1,3.214825E-1,-8.3803654E-1,-2.7148131E-2,-3.2403239E-3,-7.1863397E-3,2.0303177E-2],"split_indices":[2,1,1,0,0,0,0],"split_type":[0,0,0,0,0,0,0],"sum_hessian":[1.76E3,7.8275E2,9.7725E2,4.1825E2,3.645E2,1.4575E2,8.315E2],"tree_param":{"num_deleted":"0","num_feature":"7","num_nodes":"7","size_leaf_vector":"1"}},{"base_weights":[-1.6910958E-3,-5.1286864E-1,3.386495E-1,-2.7525952E-2,-5.0347424E-3,-8.416426E-3,1.8164484E-2],"categories":[],"categories_nodes":[],"categories_segments":[],"categories_sizes":[],"default_left":[0,0,0,0,0,0,0],"id":1,"left_children":[1,3,5,-1,-1,-1,-1],"loss_changes":[3.725688E2,4.150026E1,9.978674E1,0E0,0E0,0E0,0E0],"parents":[2147483647,0,0,1,1,2,2],"right_children":[2,4,6,-1,-1,-1,-1],"split_conditions":[-2.8966373E-1,3.214825E-1,-8.3803654E-1,-2.7525952E-2,-5.0347424E-3,-8.416426E-3,1.8164484E-2],"split_indices":[2,1,1,0,0,0,0],"split_type":[0,0,0,0,0,0,0],"sum_hessian":[1.7598344E3,6.646837E2,1.0951506E3,3.5518454E2,3.0949918E2,1.6299495E2,9.3215576E2],"tree_param":{"num_deleted":"0","num_feature":"7","num_nodes":"7","size_leaf_vector":"1"}},{"base_weights":[-3.8581823E-3,-4.482082E-1,3.6713746E-1,-2.5817506E-2,-3.1150568E-3,-6.9164024E-3,1.9057784E-2],"categories":[],"categories_nodes":[],"categories_segments":[],"categories_sizes":[],"default_left":[0,0,0,0,0,0,0],"id":2,"left_children":[1,3,5,-1,-1,-1,-1],"loss_changes":[3.529576E2,6.150206E1,8.467935E1,0E0,0E0,0E0,0E0],"parents":[2147483647,0,0,1,1,2,2],"right_children":[2,4,6,-1,-1,-1,-1],"split_conditions":[-1.354833E-1,3.214825E-1,-8.3803654E-1,-2.5817506E-2,-3.1150568E-3,-6.9164024E-3,1.9057784E-2],"split_indices":[2,1,1,0,0,0,0],"split_type":[0,0,0,0,0,0,0],"sum_hessian":[1.7594036E3,7.824699E2,9.769336E2,4.1797827E2,3.6449164E2,1.4574113E2,8.3119244E2],"tree_param":{"num_deleted":"0","num_feature":"7","num_nodes":"7","size_leaf_vector":"1"}},{"base_weights":[-5.350509E-3,-4.880876E-1,3.1657717E-1,-2.6091132E-2,-4.7523817E-3,-8.097908E-3,1.7054906E-2],"categories":[],"categories_nodes":[],"categories_segments":[],"categories_sizes":[],"default_left":[0,0,0,0,0,0,0],"id":3,"left_children":[1,3,5,-1,-1,-1,-1],"loss_changes":[3.325052E2,3.7048508E1,8.97437E1,0E0,0E0,0E0,0E0],"parents":[2147483647,0,0,1,1,2,2],"right_children":[2,4,6,-1,-1,-1,-1],"split_conditions":[-2.8966373E-1,3.442182E-1,-8.3803654E-1,-2.6091132E-2,-4.7523817E-3,-8.097908E-3,1.7054906E-2],"split_indices":[2,1,1,0,0,0,0],"split_type":[0,0,0,0,0,0,0],"sum_hessian":[1.7586771E3,6.6416516E2,1.094512E3,3.5842508E2,3.057401E2,1.6296527E2,9.315467E2],"tree_param":{"num_deleted":"0","num_feature":"7","num_nodes":"7","size_leaf_vector":"1"}},{"base_weights":[-7.284967E-3,-4.2683232E-1,3.4357873E-1,-2.4574215E-2,-2.9892966E-3,-6.656994E-3,1.7898563E-2],"categories":[],"categories_nodes":[],"categories_segments":[],"categories_sizes":[],"default_left":[0,0,0,0,0,0,0],"id":4,"left_children":[1,3,5,-1,-1,-1,-1],"loss_changes":[3.1487338E2,5.5454147E1,7.605669E1,0E0,0E0,0E0,0E0],"parents":[2147483647,0,0,1,1,2,2],"right_children":[2,4,6,-1,-1,-1,-1],"split_conditions":[-1.354833E-1,3.214825E-1,-8.3803654E-1,-2.4574215E-2,-2.9892966E-3,-6.656994E-3,1.7898563E-2],"split_indices":[2,1,1,0,0,0,0],"split_type":[0,0,0,0,0,0,0],"sum_hessian":[1.7577466E3,7.816859E2,9.7606067E2,4.1721863E2,3.6446732E2,1.4571585E2,8.3034485E2],"tree_param":{"num_deleted":"0","num_feature":"7","num_nodes":"7","size_leaf_vector":"1"}},{"base_weights":[-8.599244E-3,-4.6473122E-1,2.960429E-1,-2.489125E-2,-4.6355496E-3,-6.7273765E-3,1.6400209E-2],"categories":[],"categories_nodes":[],"categories_segments":[],"categories_sizes":[],"default_left":[0,0,0,0,0,0,0],"id":5,"left_children":[1,3,5,-1,-1,-1,-1],"loss_changes":[2.9690408E2,3.317276E1,8.111883E1,0E0,0E0,0E0,0E0],"parents":[2147483647,0,0,1,1,2,2],"right_children":[2,4,6,-1,-1,-1,-1],"split_conditions":[-2.8966373E-1,3.214825E-1,-7.1299034E-1,-2.489125E-2,-4.6355496E-3,-6.7273765E-3,1.6400209E-2],"split_indices":[2,1,1,0,0,0,0],"split_type":[0,0,0,0,0,0,0],"sum_hessian":[1.7565533E3,6.631971E2,1.0933563E3,3.537266E2,3.094705E2,1.975909E2,8.9576544E2],"tree_param":{"num_deleted":"0","num_feature":"7","num_nodes":"7","size_leaf_vector":"1"}},{"base_weights":[-1.0210495E-2,-4.0669173E-1,3.2186693E-1,-2.482287E-2,-4.0985853E-3,-6.4260312E-3,1.683427E-2],"categories":[],"categories_nodes":[],"categories_segments":[],"categories_sizes":[],"default_left":[0,0,0,0,0,0,0],"id":6,"left_children":[1,3,5,-1,-1,-1,-1],"loss_changes":[2.8124753E2,5.1066925E1,6.859528E1,0E0,0E0,0E0,0E0],"parents":[2147483647,0,0,1,1,2,2],"right_children":[2,4,6,-1,-1,-1,-1],"split_conditions":[-1.354833E-1,6.0022335E-2,-8.3803654E-1,-2.482287E-2,-4.0985853E-3,-6.4260312E-3,1.683427E-2],"split_indices":[2,1,1,0,0,0,0],"split_type":[0,0,0,0,0,0,0],"sum_hessian":[1.7552306E3,7.8047406E2,9.7475653E2,3.4166586E2,4.388082E2,1.4567949E2,8.29077E2],"tree_param":{"num_deleted":"0","num_feature":"7","num_nodes":"7","size_leaf_vector":"1"}},{"base_weights":[-1.1628607E-2,-4.431573E-1,2.770144E-1,-2.3823451E-2,-4.4928966E-3,-6.5022097E-3,1.54245375E-2],"categories":[],"categories_nodes":[],"categories_segments":[],"categories_sizes":[],"default_left":[0,0,0,0,0,0,0],"id":7,"left_children":[1,3,5,-1,-1,-1,-1],"loss_changes":[2.6567673E2,3.0233566E1,7.320987E1,0E0,0E0,0E0,0E0],"parents":[2147483647,0,0,1,1,2,2],"right_children":[2,4,6,-1,-1,-1,-1],"split_conditions":[-2.8966373E-1,2.9874685E-1,-7.1299034E-1,-2.3823451E-2,-4.4928966E-3,-6.5022097E-3,1.54245375E-2],"split_indices":[2,1,1,0,0,0,0],"split_type":[0,0,0,0,0,0,0],"sum_hessian":[1.7537157E3,6.6190546E2,1.0918103E3,3.484926E2,3.1341284E2,1.9750111E2,8.943092E2],"tree_param":{"num_deleted":"0","num_feature":"7","num_nodes":"7","size_leaf_vector":"1"}},{"base_weights":[-1.3080985E-2,-3.8816583E-1,3.0160236E-1,-2.57683E-2,-5.2654585E-3,-6.203182E-3,1.5839512E-2],"categories":[],"categories_nodes":[],"categories_segments":[],"categories_sizes":[],"default_left":[0,0,0,0,0,0,0],"id":8,"left_children":[1,3,5,-1,-1,-1,-1],"loss_changes":[2.5170618E2,4.7512848E1,6.190635E1,0E0,0E0,0E0,0E0],"parents":[2147483647,0,0,1,1,2,2],"right_children":[2,4,6,-1,-1,-1,-1],"split_conditions":[-1.354833E-1,-3.9469102E-1,-8.3803654E-1,-2.57683E-2,-5.2654585E-3,-6.203182E-3,1.5839512E-2],"split_indices":[2,1,1,0,0,0,0],"split_type":[0,0,0,0,0,0,0],"sum_hessian":[1.752063E3,7.789717E2,9.7309125E2,2.453954E2,5.335763E2,1.4563197E2,8.274593E2],"tree_param":{"num_deleted":"0","num_feature":"7","num_nodes":"7","size_leaf_vector":"1"}},{"base_weights":[-1.4674631E-2,-4.2326108E-1,2.590879E-1,-2.2674292E-2,-4.107406E-3,-6.280169E-3,1.4502522E-2],"categories":[],"categories_nodes":[],"categories_segments":[],"categories_sizes":[],"default_left":[0,0,0,0,0,0,0],"id":9,"left_children":[1,3,5,-1,-1,-1,-1],"loss_changes":[2.3809471E2,2.807515E1,6.602347E1,0E0,0E0,0E0,0E0],"parents":[2147483647,0,0,1,1,2,2],"right_children":[2,4,6,-1,-1,-1,-1],"split_conditions":[-2.8966373E-1,3.442182E-1,-7.1299034E-1,-2.2674292E-2,-4.107406E-3,-6.280169E-3,1.4502522E-2],"split_indices":[2,1,1,0,0,0,0],"split_type":[0,0,0,0,0,0,0],"sum_hessian":[1.7503351E3,6.60398E2,1.089937E3,3.547562E2,3.056418E2,1.9738992E2,8.925471E2],"tree_param":{"num_deleted":"0","num_feature":"7","num_nodes":"7","size_leaf_vector":"1"}},{"base_weights":[-1.593124E-2,-3.711782E-1,2.8267267E-1,-2.4814019E-2,-4.941273E-3,-5.9882235E-3,1.4908726E-2],"categories":[],"categories_nodes":[],"categories_segments":[],"categories_sizes":[],"default_left":[0,0,0,0,0,0,0],"id":10,"left_children":[1,3,5,-1,-1,-1,-1],"loss_changes":[2.257694E2,4.5112E1,5.59038E1,0E0,0E0,0E0,0E0],"parents":[2147483647,0,0,1,1,2,2],"right_children":[2,4,6,-1,-1,-1,-1],"split_conditions":[-1.354833E-1,-3.9469102E-1,-8.3803654E-1,-2.4814019E-2,-4.941273E-3,-5.9882235E-3,1.4908726E-2],"split_indices":[2,1,1,0,0,0,0],"split_type":[0,0,0,0,0,0,0],"sum_hessian":[1.748413E3,7.772739E2,9.7113904E2,2.441587E2,5.3311523E2,1.4557457E2,8.2556445E2],"tree_param":{"num_deleted":"0","num_feature":"7","num_nodes":"7","size_leaf_vector":"1"}},{"base_weights":[-1.7364234E-2,-4.043459E-1,2.4234411E-1,-2.309218E-2,-5.165454E-3,1.7008176E-2,-7.301887E-4],"categories":[],"categories_nodes":[],"categories_segments":[],"categories_sizes":[],"default_left":[0,0,0,0,0,0,0],"id":11,"left_children":[1,3,5,-1,-1,-1,-1],"loss_changes":[2.1343417E2,2.6203873E1,6.242135E1,0E0,0E0,0E0,0E0],"parents":[2147483647,0,0,1,1,2,2],"right_children":[2,4,6,-1,-1,-1,-1],"split_conditions":[-2.8966373E-1,-8.184666E-3,6.211915E-2,-2.309218E-2,-5.165454E-3,1.7008176E-2,-7.301887E-4],"split_indices":[2,1,4,0,0,0,0],"split_type":[0,0,0,0,0,0,0],"sum_hessian":[1.746446E3,6.586476E2,1.0877985E3,2.757134E2,3.8293417E2,5.683485E2,5.1944995E2],"tree_param":{"num_deleted":"0","num_feature":"7","num_nodes":"7","size_leaf_vector":"1"}},{"base_weights":[-1.7868433E-2,-3.55196E-1,2.6604038E-1,-2.3894602E-2,-4.6534347E-3,-5.9658713E-3,1.4146905E-2],"categories":[],"categories_nodes":[],"categories_segments":[],"categories_sizes":[],"default_left":[0,0,0,0,0,0,0],"id":12,"left_children":[1,3,5,-1,-1,-1,-1],"loss_changes":[2.0343607E2,4.262995E1,5.229139E1,0E0,0E0,0E0,0E0],"parents":[2147483647,0,0,1,1,2,2],"right_children":[2,4,6,-1,-1,-1,-1],"split_conditions":[-1.354833E-1,-3.9469102E-1,-8.3803654E-1,-2.3894602E-2,-4.6534347E-3,-5.9658713E-3,1.4146905E-2],"split_indices":[2,1,1,0,0,0,0],"split_type":[0,0,0,0,0,0,0],"sum_hessian":[1.7447493E3,7.754437E2,9.693056E2,2.4270486E2,5.3273883E2,1.455655E2,8.2374005E2],"tree_param":{"num_deleted":"0","num_feature":"7","num_nodes":"7","size_leaf_vector":"1"}},{"base_weights":[-1.918573E-2,-3.8696137E-1,2.278756E-1,-2.0989697E-2,-3.7718522E-3,1.6217392E-2,-9.1948686E-4],"categories":[],"categories_nodes":[],"categories_segments":[],"categories_sizes":[],"default_left":[0,0,0,0,0,0,0],"id":13,"left_children":[1,3,5,-1,-1,-1,-1],"loss_changes":[1.9253545E2,2.4734474E1,5.8653877E1,0E0,0E0,0E0,0E0],"parents":[2147483647,0,0,1,1,2,2],"right_children":[2,4,6,-1,-1,-1,-1],"split_conditions":[-2.8966373E-1,2.9874685E-1,6.211915E-2,-2.0989697E-2,-3.7718522E-3,1.6217392E-2,-9.1948686E-4],"split_indices":[2,1,4,0,0,0,0],"split_type":[0,0,0,0,0,0,0],"sum_hessian":[1.7426031E3,6.5677405E2,1.0858292E3,3.4356924E2,3.132048E2,5.6689636E2,5.189328E2],"tree_param":{"num_deleted":"0","num_feature":"7","num_nodes":"7","size_leaf_vector":"1"}},{"base_weights":[-1.9374916E-2,-3.3725315E-1,2.5250039E-1,-2.2860494E-2,-4.3776147E-3,-4.202389E-3,1.4258648E-2],"categories":[],"categories_nodes":[],"categories_segments":[],"categories_sizes":[],"default_left":[0,0,0,0,0,0,0],"id":14,"left_children":[1,3,5,-1,-1,-1,-1],"loss_changes":[1.8320584E2,3.994101E1,4.9917854E1,0E0,0E0,0E0,0E0],"parents":[2147483647,0,0,1,1,2,2],"right_children":[2,4,6,-1,-1,-1,-1],"split_conditions":[-1.20441295E-1,-3.9469102E-1,-5.879442E-1,-2.2860494E-2,-4.3776147E-3,-4.202389E-3,1.4258648E-2],"split_indices":[2,1,1,0,0,0,0],"split_type":[0,0,0,0,0,0,0],"sum_hessian":[1.7406671E3,7.812708E2,9.593963E2,2.4311554E2,5.381553E2,2.1566603E2,7.437303E2],"tree_param":{"num_deleted":"0","num_feature":"7","num_nodes":"7","size_leaf_vector":"1"}},{"base_weights":[-2.0323174E-2,-3.699955E-1,2.1468815E-1,-2.1317579E-2,-4.606416E-3,-1.2673754E-3,1.5309753E-2],"categories":[],"categories_nodes":[],"categories_segments":[],"categories_sizes":[],"default_left":[0,0,0,0,0,0,0],"id":15,"left_children":[1,3,5,-1,-1,-1,-1],"loss_changes":[1.7372865E2,2.3393135E1,5.5097897E1,0E0,0E0,0E0,0E0],"parents":[2147483647,0,0,1,1,2,2],"right_children":[2,4,6,-1,-1,-1,-1],"split_conditions":[-2.8966373E-1,-8.184666E-3,1E0,-2.1317579E-2,-4.606416E-3,-1.2673754E-3,1.5309753E-2],"split_indices":[2,1,0,0,0,0,0],"split_type":[0,0,0,0,0,0,0],"sum_hessian":[1.738456E3,6.5467004E2,1.083786E3,2.7218924E2,3.824808E2,5.0233865E2,5.814473E2],"tree_param":{"num_deleted":"0","num_feature":"7","num_nodes":"7","size_leaf_vector":"1"}},{"base_weights":[-2.0708952E-2,-3.1187713E-1,2.4907368E-1,-2.0375952E-2,-2.3288082E-3,1.4621273E-2,-2.5715688E-3],"categories":[],"categories_nodes":[],"categories_segments":[],"categories_sizes":[],"default_left":[0,0,0,0,0,0,0],"id":16,"left_children":[1,3,5,-1,-1,-1,-1],"loss_changes":[1.6625575E2,4.5033173E1,4.4877716E1,0E0,0E0,0E0,0E0],"parents":[2147483647,0,0,1,1,2,2],"right_children":[2,4,6,-1,-1,-1,-1],"split_conditions":[-8.659681E-2,6.0022335E-2,7.770754E-1,-2.0375952E-2,-2.3288082E-3,1.4621273E-2,-2.5715688E-3],"split_indices":[2,1,4,0,0,0,0],"split_type":[0,0,0,0,0,0,0],"sum_hessian":[1.7366221E3,8.2087494E2,9.157472E2,3.5323904E2,4.6763586E2,6.444471E2,2.713001E2],"tree_param":{"num_deleted":"0","num_feature":"7","num_nodes":"7","size_leaf_vector":"1"}},{"base_weights":[-2.0961586E-2,-3.5415098E-1,2.0292372E-1,-2.1597456E-2,-5.1192967E-3,-4.2027044E-3,1.2895352E-2],"categories":[],"categories_nodes":[],"categories_segments":[],"categories_sizes":[],"default_left":[0,0,0,0,0,0,0],"id":17,"left_children":[1,3,5,-1,-1,-1,-1],"loss_changes":[1.5736047E2,2.2240906E1,5.3309223E1,0E0,0E0,0E0,0E0],"parents":[2147483647,0,0,1,1,2,2],"right_children":[2,4,6,-1,-1,-1,-1],"split_conditions":[-2.8966373E-1,-3.7195534E-1,-3.9469102E-1,-2.1597456E-2,-5.1192967E-3,-4.2027044E-3,1.2895352E-2],"split_indices":[2,1,1,0,0,0,0],"split_type":[0,0,0,0,0,0,0],"sum_hessian":[1.7344885E3,6.5241833E2,1.0820702E3,2.1271024E2,4.3970807E2,3.0883786E2,7.7323236E2],"tree_param":{"num_deleted":"0","num_feature":"7","num_nodes":"7","size_leaf_vector":"1"}},{"base_weights":[-2.1938056E-2,-2.9904675E-1,2.3508099E-1,-2.141858E-2,-3.4279933E-3,-5.4423325E-4,1.5773851E-2],"categories":[],"categories_nodes":[],"categories_segments":[],"categories_sizes":[],"default_left":[0,0,0,0,0,0,0],"id":18,"left_children":[1,3,5,-1,-1,-1,-1],"loss_changes":[1.504061E2,4.2154526E1,4.478024E1,0E0,0E0,0E0,0E0],"parents":[2147483647,0,0,1,1,2,2],"right_children":[2,4,6,-1,-1,-1,-1],"split_conditions":[-8.659681E-2,-3.9469102E-1,1E0,-2.141858E-2,-3.4279933E-3,-5.4423325E-4,1.5773851E-2],"split_indices":[2,1,0,0,0,0,0],"split_type":[0,0,0,0,0,0,0],"sum_hessian":[1.732259E3,8.1852374E2,9.137352E2,2.514761E2,5.6704767E2,4.249207E2,4.8881454E2],"tree_param":{"num_deleted":"0","num_feature":"7","num_nodes":"7","size_leaf_vector":"1"}},{"base_weights":[-2.204043E-2,-3.3984476E-1,1.9160596E-1,-2.0799547E-2,-4.8830733E-3,1.4416589E-2,-1.586497E-3],"categories":[],"categories_nodes":[],"categories_segments":[],"categories_sizes":[],"default_left":[0,0,0,0,0,0,0],"id":19,"left_children":[1,3,5,-1,-1,-1,-1],"loss_changes":[1.428882E2,2.0876724E1,5.235251E1,0E0,0E0,0E0,0E0],"parents":[2147483647,0,0,1,1,2,2],"right_children":[2,4,6,-1,-1,-1,-1],"split_conditions":[-2.8966373E-1,-3.7195534E-1,6.211915E-2,-2.0799547E-2,-4.8830733E-3,1.4416589E-2,-1.586497E-3],"split_indices":[2,1,4,0,0,0,0],"split_type":[0,0,0,0,0,0,0],"sum_hessian":[1.730286E3,6.502305E2,1.0800555E3,2.1078835E2,4.3944217E2,5.626808E2,5.1737476E2],"tree_param":{"num_deleted":"0","num_feature":"7","num_nodes":"7","size_leaf_vector":"1"}},{"base_weights":[-2.2462774E-2,-2.8695083E-1,2.2293954E-1,-2.0646691E-2,-3.2551007E-3,-6.80267E-4,1.5116887E-2],"categories":[],"categories_nodes":[],"categories_segments":[],"categories_sizes":[],"default_left":[0,0,0,0,0,0,0],"id":20,"left_children":[1,3,5,-1,-1,-1,-1],"loss_changes":[1.3678664E2,3.943695E1,4.2245785E1,0E0,0E0,0E0,0E0],"parents":[2147483647,0,0,1,1,2,2],"right_children":[2,4,6,-1,-1,-1,-1],"split_conditions":[-8.659681E-2,-3.9469102E-1,1E0,-2.0646691E-2,-3.2551007E-3,-6.80267E-4,1.5116887E-2],"split_indices":[2,1,0,0,0,0,0],"split_type":[0,0,0,0,0,0,0],"sum_hessian":[1.7282048E3,8.1619446E2,9.120104E2,2.4946387E2,5.667306E2,4.246314E2,4.8737897E2],"tree_param":{"num_deleted":"0","num_feature":"7","num_nodes":"7","size_leaf_vector":"1"}},{"base_weights":[-2.2532698E-2,-2.3061474E-1,2.759634E-1,-1.9328425E-2,3.5190716E-4,-1.1344601E-4,1.738728E-2],"categories":[],"categories_nodes":[],"categories_segments":[],"categories_sizes":[],"default_left":[0,0,0,0,0,0,0],"id":21,"left_children":[1,3,5,-1,-1,-1,-1],"loss_changes":[1.3123259E2,7.541994E1,3.8929924E1,0E0,0E0,0E0,0E0],"parents":[2147483647,0,0,1,1,2,2],"right_children":[2,4,6,-1,-1,-1,-1],"split_conditions":[2.368061E-1,-2.5236417E-2,1E0,-1.9328425E-2,3.5190716E-4,-1.1344601E-4,1.738728E-2],"split_indices":[2,1,0,0,0,0,0],"split_type":[0,0,0,0,0,0,0],"sum_hessian":[1.7261454E3,1.0427079E3,6.834375E2,4.1274048E2,6.2996735E2,3.1598184E2,3.6745563E2],"tree_param":{"num_deleted":"0","num_feature":"7","num_nodes":"7","size_leaf_vector":"1"}},{"base_weights":[-2.1825166E-2,-4.240547E-1,1.3019584E-1,9.2261407E-4,-1.8335221E-2,-8.464259E-3,9.681165E-3],"categories":[],"categories_nodes":[],"categories_segments":[],"categories_sizes":[],"default_left":[0,0,0,0,0,0,0],"id":22,"left_children":[1,3,5,-1,-1,-1,-1],"loss_changes":[1.2765352E2,1.077018E1,6.849609E1,0E0,0E0,0E0,0E0],"parents":[2147483647,0,0,1,1,2,2],"right_children":[2,4,6,-1,-1,-1,-1],"split_conditions":[-6.807556E-1,-1.415457E0,-5.879442E-1,9.2261407E-4,-1.8335221E-2,-8.464259E-3,9.681165E-3],"split_indices":[2,4,1,0,0,0,0],"split_type":[0,0,0,0,0,0,0],"sum_hessian":[1.7241836E3,3.7916727E2,1.3450162E3,3.1500893E1,3.4766638E2,2.8957364E2,1.0554426E3],"tree_param":{"num_deleted":"0","num_feature":"7","num_nodes":"7","size_leaf_vector":"1"}},{"base_weights":[-2.259298E-2,-2.1727401E-1,2.7394006E-1,-1.861301E-2,5.000354E-4,1.0326714E-4,1.6949324E-2],"categories":[],"categories_nodes":[],"categories_segments":[],"categories_sizes":[],"default_left":[0,0,0,0,0,0,0],"id":23,"left_children":[1,3,5,-1,-1,-1,-1],"loss_changes":[1.2181789E2,7.301053E1,3.404667E1,0E0,0E0,0E0,0E0],"parents":[2147483647,0,0,1,1,2,2],"right_children":[2,4,6,-1,-1,-1,-1],"split_conditions":[3.0825558E-1,-2.5236417E-2,1E0,-1.861301E-2,5.000354E-4,1.0326714E-4,1.6949324E-2],"split_indices":[2,1,0,0,0,0,0],"split_type":[0,0,0,0,0,0,0],"sum_hessian":[1.7222302E3,1.0704836E3,6.517465E2,4.2061356E2,6.498701E2,3.0091467E2,3.5083185E2],"tree_param":{"num_deleted":"0","num_feature":"7","num_nodes":"7","size_leaf_vector":"1"}},{"base_weights":[-2.1819808E-2,-4.127792E-1,1.2291651E-1,8.198535E-4,-1.7813211E-2,1.2155865E-2,-3.677144E-3],"categories":[],"categories_nodes":[],"categories_segments":[],"categories_sizes":[],"default_left":[0,0,0,0,0,0,0],"id":24,"left_children":[1,3,5,-1,-1,-1,-1],"loss_changes":[1.178396E2,9.644333E0,6.529379E1,0E0,0E0,0E0,0E0],"parents":[2147483647,0,0,1,1,2,2],"right_children":[2,4,6,-1,-1,-1,-1],"split_conditions":[-6.9955814E-1,-1.415457E0,6.211915E-2,8.198535E-4,-1.7813211E-2,1.2155865E-2,-3.677144E-3],"split_indices":[2,4,4,0,0,0,0],"split_type":[0,0,0,0,0,0,0],"sum_hessian":[1.7202274E3,3.692081E2,1.3510193E3,3.0742302E1,3.384658E2,6.903326E2,6.6068677E2],"tree_param":{"num_deleted":"0","num_feature":"7","num_nodes":"7","size_leaf_vector":"1"}},{"base_weights":[-2.1819655E-2,-2.2070557E-1,2.4748997E-1,-1.8051518E-2,-1.8087276E-5,-5.420429E-5,1.5622515E-2],"categories":[],"categories_nodes":[],"categories_segments":[],"categories_sizes":[],"default_left":[0,0,0,0,0,0,0],"id":25,"left_children":[1,3,5,-1,-1,-1,-1],"loss_changes":[1.1270938E2,6.087049E1,3.2185722E1,0E0,0E0,0E0,0E0],"parents":[2147483647,0,0,1,1,2,2],"right_children":[2,4,6,-1,-1,-1,-1],"split_conditions":[2.217641E-1,-2.5236417E-2,1E0,-1.8051518E-2,-1.8087276E-5,-5.420429E-5,1.5622515E-2],"split_indices":[2,1,0,0,0,0,0],"split_type":[0,0,0,0,0,0,0],"sum_hessian":[1.7185012E3,1.00832294E3,7.101782E2,3.9473117E2,6.1359174E2,3.2832217E2,3.8185608E2],"tree_param":{"num_deleted":"0","num_feature":"7","num_nodes":"7","size_leaf_vector":"1"}},{"base_weights":[-2.122271E-2,-3.7787426E-1,1.2670787E-1,-2.0064315E-2,3.2202909E-3,-8.360616E-3,9.032777E-3],"categories":[],"categories_nodes":[],"categories_segments":[],"categories_sizes":[],"default_left":[0,0,0,0,0,0,0],"id":26,"left_children":[1,3,5,-1,-1,-1,-1],"loss_changes":[1.0977756E2,4.214939E1,5.8634064E1,0E0,0E0,0E0,0E0],"parents":[2147483647,0,0,1,1,2,2],"right_children":[2,4,6,-1,-1,-1,-1],"split_conditions":[-5.879442E-1,8.008809E-1,-6.807556E-1,-2.0064315E-2,3.2202909E-3,-8.360616E-3,9.032777E-3],"split_indices":[1,2,2,0,0,0,0],"split_type":[0,0,0,0,0,0,0],"sum_hessian":[1.7163762E3,4.161568E2,1.3002195E3,3.1351593E2,1.02640884E2,2.4808295E2,1.0521365E3],"tree_param":{"num_deleted":"0","num_feature":"7","num_nodes":"7","size_leaf_vector":"1"}},{"base_weights":[-2.2022877E-2,2.102268E-1,-2.393753E-1,-1.3385544E-3,1.3412293E-2,-1.6819844E-2,1.2334088E-3],"categories":[],"categories_nodes":[],"categories_segments":[],"categories_sizes":[],"default_left":[0,0,0,0,0,0,0],"id":27,"left_children":[1,3,5,-1,-1,-1,-1],"loss_changes":[1.0578392E2,3.3316185E1,5.5011883E1,0E0,0E0,0E0,0E0],"parents":[2147483647,0,0,1,1,2,2],"right_children":[2,4,6,-1,-1,-1,-1],"split_conditions":[6.211915E-2,-1.354833E-1,-2.5236417E-2,-1.3385544E-3,1.3412293E-2,-1.6819844E-2,1.2334088E-3],"split_indices":[4,2,1,0,0,0,0],"split_type":[0,0,0,0,0,0,0],"sum_hessian":[1.7141534E3,8.3170514E2,8.824483E2,3.2955096E2,5.021542E2,4.6471906E2,4.1772925E2],"tree_param":{"num_deleted":"0","num_feature":"7","num_nodes":"7","size_leaf_vector":"1"}},{"base_weights":[-2.151539E-2,-1.6715759E-1,3.131309E-1,-1.6682198E-2,1.8698404E-3,2.0092176E-3,1.6872061E-2],"categories":[],"categories_nodes":[],"categories_segments":[],"categories_sizes":[],"default_left":[0,0,0,0,0,0,0],"id":28,"left_children":[1,3,5,-1,-1,-1,-1],"loss_changes":[1.0275792E2,8.126494E1,1.4340805E1,0E0,0E0,0E0,0E0],"parents":[2147483647,0,0,1,1,2,2],"right_children":[2,4,6,-1,-1,-1,-1],"split_conditions":[6.316585E-1,-1.9552499E-2,1E0,-1.6682198E-2,1.8698404E-3,2.0092176E-3,1.6872061E-2],"split_indices":[2,1,0,0,0,0,0],"split_type":[0,0,0,0,0,0,0],"sum_hessian":[1.7122252E3,1.2596182E3,4.52607E2,4.9727142E2,7.6234674E2,2.1405116E2,2.3855583E2],"tree_param":{"num_deleted":"0","num_feature":"7","num_nodes":"7","size_leaf_vector":"1"}},{"base_weights":[-2.0267854E-2,-3.8327497E-1,1.1364439E-1,9.1120315E-4,-1.6609633E-2,-9.397833E-3,7.959091E-3],"categories":[],"categories_nodes":[],"categories_segments":[],"categories_sizes":[],"default_left":[0,0,0,0,0,0,0],"id":29,"left_children":[1,3,5,-1,-1,-1,-1],"loss_changes":[1.0074772E2,9.024506E0,5.462837E1,0E0,0E0,0E0,0E0],"parents":[2147483647,0,0,1,1,2,2],"right_children":[2,4,6,-1,-1,-1,-1],"split_conditions":[-6.9955814E-1,-1.415457E0,-8.3803654E-1,9.1120315E-4,-1.6609633E-2,-9.397833E-3,7.959091E-3],"split_indices":[2,4,1,0,0,0,0],"split_type":[0,0,0,0,0,0,0],"sum_hessian":[1.7103829E3,3.650752E2,1.3453077E3,3.0647924E1,3.3442728E2,1.9870552E2,1.1466022E3],"tree_param":{"num_deleted":"0","num_feature":"7","num_nodes":"7","size_leaf_vector":"1"}},{"base_weights":[-2.1205062E-2,2.0124796E-1,-2.293953E-1,-1.1912232E-3,1.277908E-2,-1.6019903E-2,1.0544087E-3],"categories":[],"categories_nodes":[],"categories_segments":[],"categories_sizes":[],"default_left":[0,0,0,0,0,0,0],"id":30,"left_children":[1,3,5,-1,-1,-1,-1],"loss_changes":[9.6778824E1,2.9676094E1,4.8855675E1,0E0,0E0,0E0,0E0],"parents":[2147483647,0,0,1,1,2,2],"right_children":[2,4,6,-1,-1,-1,-1],"split_conditions":[6.211915E-2,-1.354833E-1,-2.5236417E-2,-1.1912232E-3,1.277908E-2,-1.6019903E-2,1.0544087E-3],"split_indices":[4,2,1,0,0,0,0],"split_type":[0,0,0,0,0,0,0],"sum_hessian":[1.7082961E3,8.28938E2,8.793582E2,3.2897842E2,4.9995956E2,4.6210934E2,4.1724887E2],"tree_param":{"num_deleted":"0","num_feature":"7","num_nodes":"7","size_leaf_vector":"1"}},{"base_weights":[-2.0717978E-2,-1.6117968E-1,3.0193177E-1,-1.5900118E-2,1.6475767E-3,1.8684431E-3,1.6337097E-2],"categories":[],"categories_nodes":[],"categories_segments":[],"categories_sizes":[],"default_left":[0,0,0,0,0,0,0],"id":31,"left_children":[1,3,5,-1,-1,-1,-1],"loss_changes":[9.528071E1,7.229949E1,1.3803593E1,0E0,0E0,0E0,0E0],"parents":[2147483647,0,0,1,1,2,2],"right_children":[2,4,6,-1,-1,-1,-1],"split_conditions":[6.316585E-1,-1.9552499E-2,1E0,-1.5900118E-2,1.6475767E-3,1.8684431E-3,1.6337097E-2],"split_indices":[2,1,0,0,0,0,0],"split_type":[0,0,0,0,0,0,0],"sum_hessian":[1.706303E3,1.2553761E3,4.5092694E2,4.9414746E2,7.612286E2,2.1365984E2,2.3726712E2],"tree_param":{"num_deleted":"0","num_feature":"7","num_nodes":"7","size_leaf_vector":"1"}},{"base_weights":[-1.9512618E-2,-3.2278794E-1,1.2696823E-1,-1.6156465E-2,-1.9326952E-3,-3.1811863E-3,1.1281192E-2],"categories":[],"categories_nodes":[],"categories_segments":[],"categories_sizes":[],"default_left":[0,0,0,0,0,0,0],"id":32,"left_children":[1,3,5,-1,-1,-1,-1],"loss_changes":[9.20292E1,1.1218147E1,4.95976E1,0E0,0E0,0E0,0E0],"parents":[2147483647,0,0,1,1,2,2],"right_children":[2,4,6,-1,-1,-1,-1],"split_conditions":[-5.3033566E-1,5.943105E-1,1E0,-1.6156465E-2,-1.9326952E-3,-3.1811863E-3,1.1281192E-2],"split_indices":[2,1,0,0,0,0,0],"split_type":[0,0,0,0,0,0,0],"sum_hessian":[1.7043998E3,4.802319E2,1.2241678E3,3.011474E2,1.790845E2,5.6490845E2,6.592594E2],"tree_param":{"num_deleted":"0","num_feature":"7","num_nodes":"7","size_leaf_vector":"1"}},{"base_weights":[-1.9761069E-2,-1.4321929E-1,3.267167E-1,-1.7530823E-2,9.956445E-4,-1.929711E-3,1.4383795E-2],"categories":[],"categories_nodes":[],"categories_segments":[],"categories_sizes":[],"default_left":[0,0,0,0,0,0,0],"id":33,"left_children":[1,3,5,-1,-1,-1,-1],"loss_changes":[8.993315E1,7.791641E1,1.0163601E1,0E0,0E0,0E0,0E0],"parents":[2147483647,0,0,1,1,2,2],"right_children":[2,4,6,-1,-1,-1,-1],"split_conditions":[8.008809E-1,-3.9469102E-1,-1.4405317E0,-1.7530823E-2,9.956445E-4,-1.929711E-3,1.4383795E-2],"split_indices":[2,1,1,0,0,0,0],"split_type":[0,0,0,0,0,0,0],"sum_hessian":[1.7025089E3,1.33785E3,3.6465894E2,3.741801E2,9.636699E2,2.2201706E1,3.4245724E2],"tree_param":{"num_deleted":"0","num_feature":"7","num_nodes":"7","size_leaf_vector":"1"}},{"base_weights":[-1.9405205E-2,1.923285E-1,-2.177937E-1,-4.784734E-3,1.0186521E-2,-1.5110955E-2,8.645483E-4],"categories":[],"categories_nodes":[],"categories_segments":[],"categories_sizes":[],"default_left":[0,0,0,0,0,0,0],"id":34,"left_children":[1,3,5,-1,-1,-1,-1],"loss_changes":[8.745489E1,2.5582565E1,4.239181E1,0E0,0E0,0E0,0E0],"parents":[2147483647,0,0,1,1,2,2],"right_children":[2,4,6,-1,-1,-1,-1],"split_conditions":[6.211915E-2,-8.010916E-1,-2.5236417E-2,-4.784734E-3,1.0186521E-2,-1.5110955E-2,8.645483E-4],"split_indices":[4,2,1,0,0,0,0],"split_type":[0,0,0,0,0,0,0],"sum_hessian":[1.7005197E3,8.254149E2,8.751047E2,1.0823582E2,7.1717914E2,4.5839816E2,4.167065E2],"tree_param":{"num_deleted":"0","num_feature":"7","num_nodes":"7","size_leaf_vector":"1"}},{"base_weights":[-1.9541666E-2,-1.8343787E-1,2.2968186E-1,-1.6137186E-2,-4.208578E-4,-3.2010625E-4,1.4619323E-2],"categories":[],"categories_nodes":[],"categories_segments":[],"categories_sizes":[],"default_left":[0,0,0,0,0,0,0],"id":35,"left_children":[1,3,5,-1,-1,-1,-1],"loss_changes":[8.5238045E1,4.6596153E1,2.7495548E1,0E0,0E0,0E0,0E0],"parents":[2147483647,0,0,1,1,2,2],"right_children":[2,4,6,-1,-1,-1,-1],"split_conditions":[3.0825558E-1,-2.0143785E-1,1E0,-1.6137186E-2,-4.208578E-4,-3.2010625E-4,1.4619323E-2],"split_indices":[2,1,0,0,0,0,0],"split_type":[0,0,0,0,0,0,0],"sum_hessian":[1.6987633E3,1.0552312E3,6.4353204E2,3.5234378E2,7.0288745E2,2.993474E2,3.4418466E2],"tree_param":{"num_deleted":"0","num_feature":"7","num_nodes":"7","size_leaf_vector":"1"}},{"base_weights":[-1.9012235E-2,-3.5038346E-1,1.02723315E-1,9.959409E-4,-1.5262753E-2,-8.61558E-3,7.2268494E-3],"categories":[],"categories_nodes":[],"categories_segments":[],"categories_sizes":[],"default_left":[0,0,0,0,0,0,0],"id":36,"left_children":[1,3,5,-1,-1,-1,-1],"loss_changes":[8.3018105E1,8.256447E0,4.53246E1,0E0,0E0,0E0,0E0],"parents":[2147483647,0,0,1,1,2,2],"right_children":[2,4,6,-1,-1,-1,-1],"split_conditions":[-6.9955814E-1,-1.415457E0,-8.3803654E-1,9.959409E-4,-1.5262753E-2,-8.61558E-3,7.2268494E-3],"split_indices":[2,4,1,0,0,0,0],"split_type":[0,0,0,0,0,0,0],"sum_hessian":[1.6965602E3,3.594295E2,1.3371307E3,3.0530687E1,3.288988E2,1.9687695E2,1.1402538E3],"tree_param":{"num_deleted":"0","num_feature":"7","num_nodes":"7","size_leaf_vector":"1"}},{"base_weights":[-1.9861354E-2,-1.376202E-1,3.1089017E-1,-1.6514076E-2,7.648887E-4,-1.8937101E-3,1.371439E-2],"categories":[],"categories_nodes":[],"categories_segments":[],"categories_sizes":[],"default_left":[0,0,0,0,0,0,0],"id":37,"left_children":[1,3,5,-1,-1,-1,-1],"loss_changes":[8.160755E1,6.720213E1,9.440865E0,0E0,0E0,0E0,0E0],"parents":[2147483647,0,0,1,1,2,2],"right_children":[2,4,6,-1,-1,-1,-1],"split_conditions":[8.008809E-1,-3.9469102E-1,-1.4405317E0,-1.6514076E-2,7.648887E-4,-1.8937101E-3,1.371439E-2],"split_indices":[2,1,1,0,0,0,0],"split_type":[0,0,0,0,0,0,0],"sum_hessian":[1.6944355E3,1.331798E3,3.626375E2,3.7000436E2,9.6179364E2,2.2186169E1,3.4045135E2],"tree_param":{"num_deleted":"0","num_feature":"7","num_nodes":"7","size_leaf_vector":"1"}},{"base_weights":[-1.9488296E-2,1.8162604E-1,-2.0789696E-1,6.826183E-4,1.2997187E-2,-1.4301862E-2,6.656456E-4],"categories":[],"categories_nodes":[],"categories_segments":[],"categories_sizes":[],"default_left":[0,0,0,0,0,0,0],"id":38,"left_children":[1,3,5,-1,-1,-1,-1],"loss_changes":[7.857739E1,2.2827839E1,3.6804264E1,0E0,0E0,0E0,0E0],"parents":[2147483647,0,0,1,1,2,2],"right_children":[2,4,6,-1,-1,-1,-1],"split_conditions":[6.211915E-2,3.0825558E-1,-2.5236417E-2,6.826183E-4,1.2997187E-2,-1.4301862E-2,6.656456E-4],"split_indices":[4,2,1,0,0,0,0],"split_type":[0,0,0,0,0,0,0],"sum_hessian":[1.6924034E3,8.219257E2,8.704777E2,4.8208087E2,3.3984485E2,4.5445325E2,4.1602448E2],"tree_param":{"num_deleted":"0","num_feature":"7","num_nodes":"7","size_leaf_vector":"1"}},{"base_weights":[-1.8722847E-2,-2.0526907E-1,1.8129195E-1,-1.5608849E-2,1.7256413E-3,-7.8087524E-3,1.0788504E-2],"categories":[],"categories_nodes":[],"categories_segments":[],"categories_sizes":[],"default_left":[0,0,0,0,0,0,0],"id":39,"left_children":[1,3,5,-1,-1,-1,-1],"loss_changes":[7.7312614E1,5.206008E1,4.3661823E1,0E0,0E0,0E0,0E0],"parents":[2147483647,0,0,1,1,2,2],"right_children":[2,4,6,-1,-1,-1,-1],"split_conditions":[1E0,1.50965E-1,-1.1108645E0,-1.5608849E-2,1.7256413E-3,-7.8087524E-3,1.0788504E-2],"split_indices":[0,1,1,0,0,0,0],"split_type":[0,0,0,0,0,0,0],"sum_hessian":[1.6905607E3,8.721355E2,8.184252E2,4.3742E2,4.3471548E2,1.11773994E2,7.066512E2],"tree_param":{"num_deleted":"0","num_feature":"7","num_nodes":"7","size_leaf_vector":"1"}},{"base_weights":[-1.9098343E-2,-1.3342242E-1,3.0201104E-1,-1.5753662E-2,5.9494213E-4,-1.8162545E-3,1.3316331E-2],"categories":[],"categories_nodes":[],"categories_segments":[],"categories_sizes":[],"default_left":[0,0,0,0,0,0,0],"id":40,"left_children":[1,3,5,-1,-1,-1,-1],"loss_changes":[7.670945E1,5.9774414E1,8.813606E0,0E0,0E0,0E0,0E0],"parents":[2147483647,0,0,1,1,2,2],"right_children":[2,4,6,-1,-1,-1,-1],"split_conditions":[8.008809E-1,-3.9469102E-1,-1.4405317E0,-1.5753662E-2,5.9494213E-4,-1.8162545E-3,1.3316331E-2],"split_indices":[2,1,1,0,0,0,0],"split_type":[0,0,0,0,0,0,0],"sum_hessian":[1.6889263E3,1.3278224E3,3.611039E2,3.6703192E2,9.6079047E2,2.2166435E1,3.3893747E2],"tree_param":{"num_deleted":"0","num_feature":"7","num_nodes":"7","size_leaf_vector":"1"}},{"base_weights":[-1.87288E-2,-3.318116E-1,9.605567E-2,9.964893E-4,-1.4483965E-2,9.473667E-3,-2.8212937E-3],"categories":[],"categories_nodes":[],"categories_segments":[],"categories_sizes":[],"default_left":[0,0,0,0,0,0,0],"id":41,"left_children":[1,3,5,-1,-1,-1,-1],"loss_changes":[7.3573074E1,7.629223E0,3.889167E1,0E0,0E0,0E0,0E0],"parents":[2147483647,0,0,1,1,2,2],"right_children":[2,4,6,-1,-1,-1,-1],"split_conditions":[-6.9955814E-1,-1.415457E0,6.211915E-2,9.964893E-4,-1.4483965E-2,9.473667E-3,-2.8212937E-3],"split_indices":[2,4,4,0,0,0,0],"split_type":[0,0,0,0,0,0,0],"sum_hessian":[1.6868798E3,3.556603E2,1.3312194E3,3.048682E1,3.251735E2,6.7782806E2,6.533913E2],"tree_param":{"num_deleted":"0","num_feature":"7","num_nodes":"7","size_leaf_vector":"1"}},{"base_weights":[-1.8695775E-2,-1.2932067E-1,2.9218933E-1,-1.528921E-2,5.731481E-4,-1.8119524E-3,1.2907805E-2],"categories":[],"categories_nodes":[],"categories_segments":[],"categories_sizes":[],"default_left":[0,0,0,0,0,0,0],"id":42,"left_children":[1,3,5,-1,-1,-1,-1],"loss_changes":[7.173468E1,5.6123573E1,8.464149E0,0E0,0E0,0E0,0E0],"parents":[2147483647,0,0,1,1,2,2],"right_children":[2,4,6,-1,-1,-1,-1],"split_conditions":[8.008809E-1,-3.9469102E-1,-1.4405317E0,-1.528921E-2,5.731481E-4,-1.8119524E-3,1.2907805E-2],"split_indices":[2,1,1,0,0,0,0],"split_type":[0,0,0,0,0,0,0],"sum_hessian":[1.6849657E3,1.3250209E3,3.5994482E2,3.650642E2,9.599567E2,2.2160519E1,3.377843E2],"tree_param":{"num_deleted":"0","num_feature":"7","num_nodes":"7","size_leaf_vector":"1"}},{"base_weights":[-1.8338853E-2,-1.9814695E-1,1.7458595E-1,-1.5004823E-2,1.5783252E-3,-7.331233E-3,1.0317725E-2],"categories":[],"categories_nodes":[],"categories_segments":[],"categories_sizes":[],"default_left":[0,0,0,0,0,0,0],"id":43,"left_children":[1,3,5,-1,-1,-1,-1],"loss_changes":[7.161234E1,4.7374317E1,3.9025166E1,0E0,0E0,0E0,0E0],"parents":[2147483647,0,0,1,1,2,2],"right_children":[2,4,6,-1,-1,-1,-1],"split_conditions":[1E0,1.50965E-1,-1.1108645E0,-1.5004823E-2,1.5783252E-3,-7.331233E-3,1.0317725E-2],"split_indices":[0,1,1,0,0,0,0],"split_type":[0,0,0,0,0,0,0],"sum_hessian":[1.6829115E3,8.683911E2,8.145204E2,4.3434137E2,4.3404974E2,1.10625694E2,7.0389465E2],"tree_param":{"num_deleted":"0","num_feature":"7","num_nodes":"7","size_leaf_vector":"1"}},{"base_weights":[-1.8687166E-2,-2.422759E-1,1.3037455E-1,-1.3551704E-3,-1.33816525E-2,-1.8158718E-3,1.031631E-2],"categories":[],"categories_nodes":[],"categories_segments":[],"categories_sizes":[],"default_left":[0,0,0,0,0,0,0],"id":44,"left_children":[1,3,5,-1,-1,-1,-1],"loss_changes":[6.8431854E1,1.3519794E1,3.0201313E1,0E0,0E0,0E0,0E0],"parents":[2147483647,0,0,1,1,2,2],"right_children":[2,4,6,-1,-1,-1,-1],"split_conditions":[-2.8966373E-1,6.211915E-2,1E0,-1.3551704E-3,-1.33816525E-2,-1.8158718E-3,1.031631E-2],"split_indices":[2,4,0,0,0,0,0],"split_type":[0,0,0,0,0,0,0],"sum_hessian":[1.6812346E3,6.247244E2,1.0565103E3,2.7184708E2,3.5287732E2,4.9596423E2,5.60546E2],"tree_param":{"num_deleted":"0","num_feature":"7","num_nodes":"7","size_leaf_vector":"1"}},{"base_weights":[-1.8596949E-2,-1.2572068E-1,2.826161E-1,-1.47257205E-2,4.7344636E-4,-1.7892793E-3,1.2502791E-2],"categories":[],"categories_nodes":[],"categories_segments":[],"categories_sizes":[],"default_left":[0,0,0,0,0,0,0],"id":45,"left_children":[1,3,5,-1,-1,-1,-1],"loss_changes":[6.713312E1,5.124547E1,8.057999E0,0E0,0E0,0E0,0E0],"parents":[2147483647,0,0,1,1,2,2],"right_children":[2,4,6,-1,-1,-1,-1],"split_conditions":[8.008809E-1,-3.9469102E-1,-1.4405317E0,-1.47257205E-2,4.7344636E-4,-1.7892793E-3,1.2502791E-2],"split_indices":[2,1,1,0,0,0,0],"split_type":[0,0,0,0,0,0,0],"sum_hessian":[1.6792275E3,1.3207831E3,3.5844452E2,3.6223242E2,9.585506E2,2.2149576E1,3.3629492E2],"tree_param":{"num_deleted":"0","num_feature":"7","num_nodes":"7","size_leaf_vector":"1"}},{"base_weights":[-1.8236574E-2,-1.890039E-1,1.6534428E-1,-1.464694E-2,1.3824962E-3,-7.095163E-3,9.821097E-3],"categories":[],"categories_nodes":[],"categories_segments":[],"categories_sizes":[],"default_left":[0,0,0,0,0,0,0],"id":46,"left_children":[1,3,5,-1,-1,-1,-1],"loss_changes":[6.453553E1,4.4283733E1,3.585909E1,0E0,0E0,0E0,0E0],"parents":[2147483647,0,0,1,1,2,2],"right_children":[2,4,6,-1,-1,-1,-1],"split_conditions":[1E0,1.1686151E-1,-1.1108645E0,-1.464694E-2,1.3824962E-3,-7.095163E-3,9.821097E-3],"split_indices":[0,1,1,0,0,0,0],"split_type":[0,0,0,0,0,0,0],"sum_hessian":[1.6771777E3,8.659898E2,8.1118787E2,4.1515665E2,4.508332E2,1.0990416E2,7.0128375E2],"tree_param":{"num_deleted":"0","num_feature":"7","num_nodes":"7","size_leaf_vector":"1"}},{"base_weights":[-1.8602924E-2,-1.23257495E-1,2.7591404E-1,-1.4233203E-2,3.5185285E-4,-1.7419119E-3,1.2206531E-2],"categories":[],"categories_nodes":[],"categories_segments":[],"categories_sizes":[],"default_left":[0,0,0,0,0,0,0],"id":47,"left_children":[1,3,5,-1,-1,-1,-1],"loss_changes":[6.402453E1,4.694642E1,7.6617813E0,0E0,0E0,0E0,0E0],"parents":[2147483647,0,0,1,1,2,2],"right_children":[2,4,6,-1,-1,-1,-1],"split_conditions":[8.008809E-1,-3.9469102E-1,-1.4405317E0,-1.4233203E-2,3.5185285E-4,-1.7419119E-3,1.2206531E-2],"split_indices":[2,1,1,0,0,0,0],"split_type":[0,0,0,0,0,0,0],"sum_hessian":[1.6754552E3,1.3181315E3,3.5732382E2,3.6015778E2,9.579737E2,2.213993E1,3.351839E2],"tree_param":{"num_deleted":"0","num_feature":"7","num_nodes":"7","size_leaf_vector":"1"}},{"base_weights":[-1.8230382E-2,-3.075492E-1,8.753236E-2,1.0093923E-3,-1.3471325E-2,8.698499E-3,-2.634867E-3],"categories":[],"categories_nodes":[],"categories_segments":[],"categories_sizes":[],"default_left":[0,0,0,0,0,0,0],"id":48,"left_children":[1,3,5,-1,-1,-1,-1],"loss_changes":[6.2191296E1,6.890476E0,3.2912674E1,0E0,0E0,0E0,0E0],"parents":[2147483647,0,0,1,1,2,2],"right_children":[2,4,6,-1,-1,-1,-1],"split_conditions":[-6.9955814E-1,-1.415457E0,6.211915E-2,1.0093923E-3,-1.3471325E-2,8.698499E-3,-2.634867E-3],"split_indices":[2,4,4,0,0,0,0],"split_type":[0,0,0,0,0,0,0],"sum_hessian":[1.6734138E3,3.5041785E2,1.322996E3,3.0407158E1,3.2001068E2,6.7311957E2,6.4987646E2],"tree_param":{"num_deleted":"0","num_feature":"7","num_nodes":"7","size_leaf_vector":"1"}},{"base_weights":[-1.817683E-2,-1.19452655E-1,2.6698992E-1,-1.3703036E-2,3.9700352E-4,-1.7375449E-3,1.1835192E-2],"categories":[],"categories_nodes":[],"categories_segments":[],"categories_sizes":[],"default_left":[0,0,0,0,0,0,0],"id":49,"left_children":[1,3,5,-1,-1,-1,-1],"loss_changes":[5.9882034E1,4.4133987E1,7.361862E0,0E0,0E0,0E0,0E0],"parents":[2147483647,0,0,1,1,2,2],"right_children":[2,4,6,-1,-1,-1,-1],"split_conditions":[8.008809E-1,-3.7195534E-1,-1.4405317E0,-1.3703036E-2,3.9700352E-4,-1.7375449E-3,1.1835192E-2],"split_indices":[2,1,1,0,0,0,0],"split_type":[0,0,0,0,0,0,0],"sum_hessian":[1.671521E3,1.3153665E3,3.5615454E2,3.6725656E2,9.481099E2,2.2133947E1,3.340206E2],"tree_param":{"num_deleted":"0","num_feature":"7","num_nodes":"7","size_leaf_vector":"1"}},{"base_weights":[-1.7800014E-2,-1.8252103E-1,1.5938817E-1,-1.3883729E-2,1.4726352E-3,-6.669998E-3,9.403178E-3],"categories":[],"categories_nodes":[],"categories_segments":[],"categories_sizes":[],"default_left":[0,0,0,0,0,0,0],"id":50,"left_children":[1,3,5,-1,-1,-1,-1],"loss_changes":[5.9858006E1,4.0457993E1,3.213064E1,0E0,0E0,0E0,0E0],"parents":[2147483647,0,0,1,1,2,2],"right_children":[2,4,6,-1,-1,-1,-1],"split_conditions":[1E0,1.50965E-1,-1.1108645E0,-1.3883729E-2,1.4726352E-3,-6.669998E-3,9.403178E-3],"split_indices":[0,1,1,0,0,0,0],"split_type":[0,0,0,0,0,0,0],"sum_hessian":[1.6694927E3,8.6220496E2,8.072878E2,4.290388E2,4.3316614E2,1.0878355E2,6.985042E2],"tree_param":{"num_deleted":"0","num_feature":"7","num_nodes":"7","size_leaf_vector":"1"}},{"base_weights":[-1.80994E-2,-2.2371468E-1,1.1875575E-1,-1.2581543E-3,-1.2370986E-2,-1.6214456E-3,9.388467E-3],"categories":[],"categories_nodes":[],"categories_segments":[],"categories_sizes":[],"default_left":[0,0,0,0,0,0,0],"id":51,"left_children":[1,3,5,-1,-1,-1,-1],"loss_changes":[5.737921E1,1.1450165E1,2.4734957E1,0E0,0E0,0E0,0E0],"parents":[2147483647,0,0,1,1,2,2],"right_children":[2,4,6,-1,-1,-1,-1],"split_conditions":[-2.8966373E-1,6.211915E-2,1E0,-1.2581543E-3,-1.2370986E-2,-1.6214456E-3,9.388467E-3],"split_indices":[2,4,0,0,0,0,0],"split_type":[0,0,0,0,0,0,0],"sum_hessian":[1.6677687E3,6.180171E2,1.0497516E3,2.7077588E2,3.4724118E2,4.9457288E2,5.551788E2],"tree_param":{"num_deleted":"0","num_feature":"7","num_nodes":"7","size_leaf_vector":"1"}},{"base_weights":[-1.7997906E-2,-1.1610423E-1,2.5839332E-1,-1.3312657E-2,2.5996755E-4,-1.7163632E-3,1.1471207E-2],"categories":[],"categories_nodes":[],"categories_segments":[],"categories_sizes":[],"default_left":[0,0,0,0,0,0,0],"id":52,"left_children":[1,3,5,-1,-1,-1,-1],"loss_changes":[5.607863E1,4.0325127E1,7.017193E0,0E0,0E0,0E0,0E0],"parents":[2147483647,0,0,1,1,2,2],"right_children":[2,4,6,-1,-1,-1,-1],"split_conditions":[8.008809E-1,-3.9469102E-1,-1.4405317E0,-1.3312657E-2,2.5996755E-4,-1.7163632E-3,1.1471207E-2],"split_indices":[2,1,1,0,0,0,0],"split_type":[0,0,0,0,0,0,0],"sum_hessian":[1.6658015E3,1.3111642E3,3.5463742E2,3.554287E2,9.557354E2,2.2121712E1,3.3251572E2],"tree_param":{"num_deleted":"0","num_feature":"7","num_nodes":"7","size_leaf_vector":"1"}},{"base_weights":[-1.7638115E-2,-2.8915673E-1,8.1380315E-2,1.486154E-3,-1.2541857E-2,8.140682E-3,-2.501006E-3],"categories":[],"categories_nodes":[],"categories_segments":[],"categories_sizes":[],"default_left":[0,0,0,0,0,0,0],"id":53,"left_children":[1,3,5,-1,-1,-1,-1],"loss_changes":[5.436121E1,6.503628E0,2.893857E1,0E0,0E0,0E0,0E0],"parents":[2147483647,0,0,1,1,2,2],"right_children":[2,4,6,-1,-1,-1,-1],"split_conditions":[-6.9955814E-1,-1.9253614E0,6.211915E-2,1.486154E-3,-1.2541857E-2,8.140682E-3,-2.501006E-3],"split_indices":[2,3,4,0,0,0,0],"split_type":[0,0,0,0,0,0,0],"sum_hessian":[1.6637898E3,3.466035E2,1.3171863E3,1.7153118E1,3.2945038E2,6.69685E2,6.475013E2],"tree_param":{"num_deleted":"0","num_feature":"7","num_nodes":"7","size_leaf_vector":"1"}},{"base_weights":[-1.7508753E-2,-1.7287709E-1,1.4992431E-1,-1.3302495E-2,1.5251535E-3,-6.4244694E-3,8.894205E-3],"categories":[],"categories_nodes":[],"categories_segments":[],"categories_sizes":[],"default_left":[0,0,0,0,0,0,0],"id":54,"left_children":[1,3,5,-1,-1,-1,-1],"loss_changes":[5.315364E1,3.779548E1,2.9182095E1,0E0,0E0,0E0,0E0],"parents":[2147483647,0,0,1,1,2,2],"right_children":[2,4,6,-1,-1,-1,-1],"split_conditions":[1E0,1.50965E-1,-1.1108645E0,-1.3302495E-2,1.5251535E-3,-6.4244694E-3,8.894205E-3],"split_indices":[0,1,1,0,0,0,0],"split_type":[0,0,0,0,0,0,0],"sum_hessian":[1.6619865E3,8.5883044E2,8.0315607E2,4.2623358E2,4.3259686E2,1.07922424E2,6.9523364E2],"tree_param":{"num_deleted":"0","num_feature":"7","num_nodes":"7","size_leaf_vector":"1"}},{"base_weights":[-1.7785553E-2,-1.1302428E-1,2.5064665E-1,-1.2810401E-2,1.6845367E-4,-1.6756902E-3,1.1134406E-2],"categories":[],"categories_nodes":[],"categories_segments":[],"categories_sizes":[],"default_left":[0,0,0,0,0,0,0],"id":55,"left_children":[1,3,5,-1,-1,-1,-1],"loss_changes":[5.2738445E1,3.6654182E1,6.6390114E0,0E0,0E0,0E0,0E0],"parents":[2147483647,0,0,1,1,2,2],"right_children":[2,4,6,-1,-1,-1,-1],"split_conditions":[8.008809E-1,-3.9469102E-1,-1.4405317E0,-1.2810401E-2,1.6845367E-4,-1.6756902E-3,1.1134406E-2],"split_indices":[2,1,1,0,0,0,0],"split_type":[0,0,0,0,0,0,0],"sum_hessian":[1.660254E3,1.3070842E3,3.5316974E2,3.5275586E2,9.543284E2,2.2105787E1,3.3106396E2],"tree_param":{"num_deleted":"0","num_feature":"7","num_nodes":"7","size_leaf_vector":"1"}},{"base_weights":[-1.7422894E-2,-1.0285249E-1,2.6714665E-1,-1.3199825E-2,8.777507E-5,-8.538553E-4,1.1666559E-2],"categories":[],"categories_nodes":[],"categories_segments":[],"categories_sizes":[],"default_left":[0,0,0,0,0,0,0],"id":56,"left_children":[1,3,5,-1,-1,-1,-1],"loss_changes":[5.0204983E1,3.736559E1,4.5847626E0,0E0,0E0,0E0,0E0],"parents":[2147483647,0,0,1,1,2,2],"right_children":[2,4,6,-1,-1,-1,-1],"split_conditions":[9.8890585E-1,-5.879442E-1,-1.2756982E0,-1.3199825E-2,8.777507E-5,-8.538553E-4,1.1666559E-2],"split_indices":[2,1,1,0,0,0,0],"split_type":[0,0,0,0,0,0,0],"sum_hessian":[1.6582681E3,1.3691938E3,2.8907422E2,3.036344E2,1.0655594E3,2.4577354E1,2.6449686E2],"tree_param":{"num_deleted":"0","num_feature":"7","num_nodes":"7","size_leaf_vector":"1"}},{"base_weights":[-1.6982045E-2,-1.6794589E-1,1.4577077E-1,-1.218613E-2,2.1429583E-3,-6.2207542E-3,8.536213E-3],"categories":[],"categories_nodes":[],"categories_segments":[],"categories_sizes":[],"default_left":[0,0,0,0,0,0,0],"id":57,"left_children":[1,3,5,-1,-1,-1,-1],"loss_changes":[5.006727E1,3.482967E1,2.65385E1,0E0,0E0,0E0,0E0],"parents":[2147483647,0,0,1,1,2,2],"right_children":[2,4,6,-1,-1,-1,-1],"split_conditions":[1E0,2.9874685E-1,-1.1563358E0,-1.218613E-2,2.1429583E-3,-6.2207542E-3,8.536213E-3],"split_indices":[0,1,1,0,0,0,0],"split_type":[0,0,0,0,0,0,0],"sum_hessian":[1.656443E3,8.5618304E2,8.0025995E2,4.8511963E2,3.7106345E2,1.01211365E2,6.990486E2],"tree_param":{"num_deleted":"0","num_feature":"7","num_nodes":"7","size_leaf_vector":"1"}},{"base_weights":[-1.71178E-2,-2.7492815E-1,7.6706275E-2,1.5918976E-3,-1.1996351E-2,7.6483665E-3,-2.329109E-3],"categories":[],"categories_nodes":[],"categories_segments":[],"categories_sizes":[],"default_left":[0,0,0,0,0,0,0],"id":58,"left_children":[1,3,5,-1,-1,-1,-1],"loss_changes":[4.867532E1,6.479309E0,2.5342554E1,0E0,0E0,0E0,0E0],"parents":[2147483647,0,0,1,1,2,2],"right_children":[2,4,6,-1,-1,-1,-1],"split_conditions":[-6.9955814E-1,-1.9253614E0,6.211915E-2,1.5918976E-3,-1.1996351E-2,7.6483665E-3,-2.329109E-3],"split_indices":[2,3,4,0,0,0,0],"split_type":[0,0,0,0,0,0,0],"sum_hessian":[1.6547856E3,3.4316278E2,1.3116228E3,1.6904064E1,3.2625873E2,6.6643695E2,6.451859E2],"tree_param":{"num_deleted":"0","num_feature":"7","num_nodes":"7","size_leaf_vector":"1"}},{"base_weights":[-1.697693E-2,-1.0748728E-1,2.3830007E-1,-1.0632567E-2,9.669736E-4,-1.6239652E-3,1.06024165E-2],"categories":[],"categories_nodes":[],"categories_segments":[],"categories_sizes":[],"default_left":[0,0,0,0,0,0,0],"id":59,"left_children":[1,3,5,-1,-1,-1,-1],"loss_changes":[4.7498753E1,3.2349205E1,6.1009274E0,0E0,0E0,0E0,0E0],"parents":[2147483647,0,0,1,1,2,2],"right_children":[2,4,6,-1,-1,-1,-1],"split_conditions":[8.008809E-1,-1.9552499E-2,-1.4405317E0,-1.0632567E-2,9.669736E-4,-1.6239652E-3,1.06024165E-2],"split_indices":[2,1,1,0,0,0,0],"split_type":[0,0,0,0,0,0,0],"sum_hessian":[1.6530183E3,1.3019718E3,3.5104648E2,5.0276672E2,7.992051E2,2.2086418E1,3.2896008E2],"tree_param":{"num_deleted":"0","num_feature":"7","num_nodes":"7","size_leaf_vector":"1"}},{"base_weights":[-1.6386693E-2,-1.6159329E-1,1.402049E-1,-1.2609248E-2,1.1902268E-3,-6.001462E-3,8.214299E-3],"categories":[],"categories_nodes":[],"categories_segments":[],"categories_sizes":[],"default_left":[0,0,0,0,0,0,0],"id":60,"left_children":[1,3,5,-1,-1,-1,-1],"loss_changes":[4.6213604E1,3.249931E1,2.4578957E1,0E0,0E0,0E0,0E0],"parents":[2147483647,0,0,1,1,2,2],"right_children":[2,4,6,-1,-1,-1,-1],"split_conditions":[1E0,1.1686151E-1,-1.1563358E0,-1.2609248E-2,1.1902268E-3,-6.001462E-3,8.214299E-3],"split_indices":[0,1,1,0,0,0,0],"split_type":[0,0,0,0,0,0,0],"sum_hessian":[1.6511158E3,8.5353577E2,7.975801E2,4.0483182E2,4.4870395E2,1.00596954E2,6.9698315E2],"tree_param":{"num_deleted":"0","num_feature":"7","num_nodes":"7","size_leaf_vector":"1"}},{"base_weights":[-1.6702604E-2,-9.823764E-2,2.5498694E-1,-1.2389607E-2,-2.0836824E-5,-1.3354295E-3,1.0917098E-2],"categories":[],"categories_nodes":[],"categories_segments":[],"categories_sizes":[],"default_left":[0,0,0,0,0,0,0],"id":61,"left_children":[1,3,5,-1,-1,-1,-1],"loss_changes":[4.5553215E1,3.2074944E1,4.2130127E0,0E0,0E0,0E0,0E0],"parents":[2147483647,0,0,1,1,2,2],"right_children":[2,4,6,-1,-1,-1,-1],"split_conditions":[9.8890585E-1,-5.879442E-1,-1.8213542E0,-1.2389607E-2,-2.0836824E-5,-1.3354295E-3,1.0917098E-2],"split_indices":[2,1,1,0,0,0,0],"split_type":[0,0,0,0,0,0,0],"sum_hessian":[1.6493933E3,1.362454E3,2.8693933E2,2.995869E2,1.0628671E3,7.1750145E0,2.797643E2],"tree_param":{"num_deleted":"0","num_feature":"7","num_nodes":"7","size_leaf_vector":"1"}},{"base_weights":[-1.6345406E-2,-1.9831519E-1,1.0438166E-1,-1.0496053E-3,-1.1046479E-2,-1.3783765E-3,8.233383E-3],"categories":[],"categories_nodes":[],"categories_segments":[],"categories_sizes":[],"default_left":[0,0,0,0,0,0,0],"id":62,"left_children":[1,3,5,-1,-1,-1,-1],"loss_changes":[4.4345985E1,9.321306E0,1.8686638E1,0E0,0E0,0E0,0E0],"parents":[2147483647,0,0,1,1,2,2],"right_children":[2,4,6,-1,-1,-1,-1],"split_conditions":[-2.8966373E-1,6.211915E-2,1E0,-1.0496053E-3,-1.1046479E-2,-1.3783765E-3,8.233383E-3],"split_indices":[2,4,0,0,0,0,0],"split_type":[0,0,0,0,0,0,0],"sum_hessian":[1.6476266E3,6.081788E2,1.0394479E3,2.6898563E2,3.3919315E2,4.9210886E2,5.47339E2],"tree_param":{"num_deleted":"0","num_feature":"7","num_nodes":"7","size_leaf_vector":"1"}},{"base_weights":[-1.6253458E-2,-2.5864518E-1,7.1738526E-2,1.6916428E-3,-1.136472E-2,-1.20984405E-4,1.10531E-2],"categories":[],"categories_nodes":[],"categories_segments":[],"categories_sizes":[],"default_left":[0,0,0,0,0,0,0],"id":63,"left_children":[1,3,5,-1,-1,-1,-1],"loss_changes":[4.2719425E1,6.362892E0,2.3058847E1,0E0,0E0,0E0,0E0],"parents":[2147483647,0,0,1,1,2,2],"right_children":[2,4,6,-1,-1,-1,-1],"split_conditions":[-6.9955814E-1,-1.9253614E0,1.2295778E0,1.6916428E-3,-1.136472E-2,-1.20984405E-4,1.10531E-2],"split_indices":[2,3,2,0,0,0,0],"split_type":[0,0,0,0,0,0,0],"sum_hessian":[1.6457631E3,3.396632E2,1.3060999E3,1.6665888E1,3.229973E2,1.0943623E3,2.117375E2],"tree_param":{"num_deleted":"0","num_feature":"7","num_nodes":"7","size_leaf_vector":"1"}},{"base_weights":[-1.5485705E-2,1.33843E-1,-1.5595022E-1,6.947183E-4,1.0466824E-2,-1.0659007E-2,3.022306E-4],"categories":[],"categories_nodes":[],"categories_segments":[],"categories_sizes":[],"default_left":[0,0,0,0,0,0,0],"id":64,"left_children":[1,3,5,-1,-1,-1,-1],"loss_changes":[4.2483727E1,1.3907341E1,1.9069685E1,0E0,0E0,0E0,0E0],"parents":[2147483647,0,0,1,1,2,2],"right_children":[2,4,6,-1,-1,-1,-1],"split_conditions":[6.211915E-2,4.7747803E-1,-2.5236417E-2,6.947183E-4,1.0466824E-2,-1.0659007E-2,3.022306E-4],"split_indices":[4,2,1,0,0,0,0],"split_type":[0,0,0,0,0,0,0],"sum_hessian":[1.6443423E3,8.013867E2,8.429555E2,5.328297E2,2.6855704E2,4.3119635E2,4.1175912E2],"tree_param":{"num_deleted":"0","num_feature":"7","num_nodes":"7","size_leaf_vector":"1"}},{"base_weights":[-1.4796329E-2,-1.5183213E-1,1.3297938E-1,-1.1207509E-2,2.1284632E-3,-5.586341E-3,7.840973E-3],"categories":[],"categories_nodes":[],"categories_segments":[],"categories_sizes":[],"default_left":[0,0,0,0,0,0,0],"id":65,"left_children":[1,3,5,-1,-1,-1,-1],"loss_changes":[4.0989212E1,3.0234325E1,2.2143768E1,0E0,0E0,0E0,0E0],"parents":[2147483647,0,0,1,1,2,2],"right_children":[2,4,6,-1,-1,-1,-1],"split_conditions":[1E0,2.9874685E-1,-1.1108645E0,-1.1207509E-2,2.1284632E-3,-5.586341E-3,7.840973E-3],"split_indices":[0,1,1,0,0,0,0],"split_type":[0,0,0,0,0,0,0],"sum_hessian":[1.6426687E3,8.495856E2,7.930831E2,4.794541E2,3.7013144E2,1.05357475E2,6.8772565E2],"tree_param":{"num_deleted":"0","num_feature":"7","num_nodes":"7","size_leaf_vector":"1"}},{"base_weights":[-1.4929461E-2,-9.208105E-2,2.419517E-1,-1.1742827E-2,1.5258684E-5,-1.3321491E-3,1.0389383E-2],"categories":[],"categories_nodes":[],"categories_segments":[],"categories_sizes":[],"default_left":[0,0,0,0,0,0,0],"id":66,"left_children":[1,3,5,-1,-1,-1,-1],"loss_changes":[4.0563747E1,2.8846584E1,3.9811077E0,0E0,0E0,0E0,0E0],"parents":[2147483647,0,0,1,1,2,2],"right_children":[2,4,6,-1,-1,-1,-1],"split_conditions":[9.8890585E-1,-5.879442E-1,-1.8213542E0,-1.1742827E-2,1.5258684E-5,-1.3321491E-3,1.0389383E-2],"split_indices":[2,1,1,0,0,0,0],"split_type":[0,0,0,0,0,0,0],"sum_hessian":[1.6410205E3,1.3562266E3,2.8479395E2,2.9592728E2,1.0602993E3,7.1661906E0,2.7762775E2],"tree_param":{"num_deleted":"0","num_feature":"7","num_nodes":"7","size_leaf_vector":"1"}},{"base_weights":[-1.4625939E-2,-2.4759506E-1,6.96382E-2,1.7551217E-3,-1.0935235E-2,-8.287891E-5,1.0630161E-2],"categories":[],"categories_nodes":[],"categories_segments":[],"categories_sizes":[],"default_left":[0,0,0,0,0,0,0],"id":67,"left_children":[1,3,5,-1,-1,-1,-1],"loss_changes":[3.922365E1,6.2602158E0,2.1104794E1,0E0,0E0,0E0,0E0],"parents":[2147483647,0,0,1,1,2,2],"right_children":[2,4,6,-1,-1,-1,-1],"split_conditions":[-6.9955814E-1,-1.9253614E0,1.2295778E0,1.7551217E-3,-1.0935235E-2,-8.287891E-5,1.0630161E-2],"split_indices":[2,3,2,0,0,0,0],"split_type":[0,0,0,0,0,0,0],"sum_hessian":[1.6392948E3,3.3709442E2,1.3022003E3,1.6505903E1,3.2058853E2,1.0919196E3,2.1028075E2],"tree_param":{"num_deleted":"0","num_feature":"7","num_nodes":"7","size_leaf_vector":"1"}},{"base_weights":[-1.3910153E-2,1.2911879E-1,-1.4872411E-1,7.35464E-4,1.0006598E-2,-1.0139248E-2,2.4494587E-4],"categories":[],"categories_nodes":[],"categories_segments":[],"categories_sizes":[],"default_left":[0,0,0,0,0,0,0],"id":68,"left_children":[1,3,5,-1,-1,-1,-1],"loss_changes":[3.893308E1,1.2386421E1,1.7008509E1,0E0,0E0,0E0,0E0],"parents":[2147483647,0,0,1,1,2,2],"right_children":[2,4,6,-1,-1,-1,-1],"split_conditions":[6.211915E-2,4.7747803E-1,-2.5236417E-2,7.35464E-4,1.0006598E-2,-1.0139248E-2,2.4494587E-4],"split_indices":[4,2,1,0,0,0,0],"split_type":[0,0,0,0,0,0,0],"sum_hessian":[1.6378945E3,7.9864856E2,8.39246E2,5.3199536E2,2.666532E2,4.280212E2,4.112248E2],"tree_param":{"num_deleted":"0","num_feature":"7","num_nodes":"7","size_leaf_vector":"1"}},{"base_weights":[-1.3277371E-2,-1.4514971E-1,1.2877803E-1,-9.970531E-3,3.2220697E-3,-5.441227E-3,7.5146323E-3],"categories":[],"categories_nodes":[],"categories_segments":[],"categories_sizes":[],"default_left":[0,0,0,0,0,0,0],"id":69,"left_children":[1,3,5,-1,-1,-1,-1],"loss_changes":[3.780051E1,2.8212065E1,2.0228775E1,0E0,0E0,0E0,0E0],"parents":[2147483647,0,0,1,1,2,2],"right_children":[2,4,6,-1,-1,-1,-1],"split_conditions":[1E0,5.488392E-1,-1.1563358E0,-9.970531E-3,3.2220697E-3,-5.441227E-3,7.5146323E-3],"split_indices":[0,1,1,0,0,0,0],"split_type":[0,0,0,0,0,0,0],"sum_hessian":[1.6362565E3,8.4638403E2,7.898725E2,5.6555884E2,2.8082516E2,9.8722015E1,6.911505E2],"tree_param":{"num_deleted":"0","num_feature":"7","num_nodes":"7","size_leaf_vector":"1"}},{"base_weights":[-1.3246066E-2,-7.946587E-2,2.6044446E-1,-1.1748949E-2,1.7005013E-4,-6.855185E-4,1.0901932E-2],"categories":[],"categories_nodes":[],"categories_segments":[],"categories_sizes":[],"default_left":[0,0,0,0,0,0,0],"id":70,"left_children":[1,3,5,-1,-1,-1,-1],"loss_changes":[3.7042515E1,2.923225E1,2.2372036E0,0E0,0E0,0E0,0E0],"parents":[2147483647,0,0,1,1,2,2],"right_children":[2,4,6,-1,-1,-1,-1],"split_conditions":[1.2295778E0,-7.1299034E-1,-1.8213542E0,-1.1748949E-2,1.7005013E-4,-6.855185E-4,1.0901932E-2],"split_indices":[2,1,1,0,0,0,0],"split_type":[0,0,0,0,0,0,0],"sum_hessian":[1.6347546E3,1.4254164E3,2.0933823E2,2.658629E2,1.1595535E3,5.427498E0,2.0391072E2],"tree_param":{"num_deleted":"0","num_feature":"7","num_nodes":"7","size_leaf_vector":"1"}},{"base_weights":[-1.2871232E-2,-2.3710643E-1,6.790821E-2,1.8169151E-3,-1.0528466E-2,-5.8260267E-3,4.7256644E-3],"categories":[],"categories_nodes":[],"categories_segments":[],"categories_sizes":[],"default_left":[0,0,0,0,0,0,0],"id":71,"left_children":[1,3,5,-1,-1,-1,-1],"loss_changes":[3.6118523E1,6.1604595E0,1.9266426E1,0E0,0E0,0E0,0E0],"parents":[2147483647,0,0,1,1,2,2],"right_children":[2,4,6,-1,-1,-1,-1],"split_conditions":[-6.9955814E-1,-1.9253614E0,-8.7782395E-1,1.8169151E-3,-1.0528466E-2,-5.8260267E-3,4.7256644E-3],"split_indices":[2,3,1,0,0,0,0],"split_type":[0,0,0,0,0,0,0],"sum_hessian":[1.6332179E3,3.3464618E2,1.2985718E3,1.6350506E1,3.1829565E2,1.7819691E2,1.1203748E3],"tree_param":{"num_deleted":"0","num_feature":"7","num_nodes":"7","size_leaf_vector":"1"}},{"base_weights":[-1.3398721E-2,1.2331265E-1,-1.4232817E-1,-1.0490648E-3,7.845631E-3,-7.611527E-3,4.090338E-3],"categories":[],"categories_nodes":[],"categories_segments":[],"categories_sizes":[],"default_left":[0,0,0,0,0,0,0],"id":72,"left_children":[1,3,5,-1,-1,-1,-1],"loss_changes":[3.5474743E1,1.1730099E1,1.575873E1,0E0,0E0,0E0,0E0],"parents":[2147483647,0,0,1,1,2,2],"right_children":[2,4,6,-1,-1,-1,-1],"split_conditions":[6.211915E-2,-3.1966558E-1,1.2295778E0,-1.0490648E-3,7.845631E-3,-7.611527E-3,4.090338E-3],"split_indices":[4,5,2,0,0,0,0],"split_type":[0,0,0,0,0,0,0],"sum_hessian":[1.6314386E3,7.9586145E2,8.3557715E2,3.0068243E2,4.9517902E2,7.3404364E2,1.0153353E2],"tree_param":{"num_deleted":"0","num_feature":"7","num_nodes":"7","size_leaf_vector":"1"}},{"base_weights":[-1.2527069E-2,-1.3941145E-1,1.2415431E-1,-1.1025755E-2,1.4400581E-3,-5.1321243E-3,7.2035138E-3],"categories":[],"categories_nodes":[],"categories_segments":[],"categories_sizes":[],"default_left":[0,0,0,0,0,0,0],"id":73,"left_children":[1,3,5,-1,-1,-1,-1],"loss_changes":[3.489341E1,2.6616924E1,1.8221428E1,0E0,0E0,0E0,0E0],"parents":[2147483647,0,0,1,1,2,2],"right_children":[2,4,6,-1,-1,-1,-1],"split_conditions":[1E0,1.50965E-1,-1.1563358E0,-1.1025755E-2,1.4400581E-3,-5.1321243E-3,7.2035138E-3],"split_indices":[0,1,1,0,0,0,0],"split_type":[0,0,0,0,0,0,0],"sum_hessian":[1.6303672E3,8.4350635E2,7.8686084E2,4.1334732E2,4.30159E2,9.789304E1,6.889678E2],"tree_param":{"num_deleted":"0","num_feature":"7","num_nodes":"7","size_leaf_vector":"1"}},{"base_weights":[-1.282661E-2,-7.6945834E-2,2.5218353E-1,-1.1193808E-2,9.16369E-5,-6.758087E-4,1.0563405E-2],"categories":[],"categories_nodes":[],"categories_segments":[],"categories_sizes":[],"default_left":[0,0,0,0,0,0,0],"id":74,"left_children":[1,3,5,-1,-1,-1,-1],"loss_changes":[3.4627342E1,2.6031595E1,2.130499E0,0E0,0E0,0E0,0E0],"parents":[2147483647,0,0,1,1,2,2],"right_children":[2,4,6,-1,-1,-1,-1],"split_conditions":[1.2295778E0,-7.1299034E-1,-1.8213542E0,-1.1193808E-2,9.16369E-5,-6.758087E-4,1.0563405E-2],"split_indices":[2,1,1,0,0,0,0],"split_type":[0,0,0,0,0,0,0],"sum_hessian":[1.628718E3,1.4205571E3,2.0816083E2,2.6315E2,1.1574071E3,5.4226804E0,2.0273814E2],"tree_param":{"num_deleted":"0","num_feature":"7","num_nodes":"7","size_leaf_vector":"1"}},{"base_weights":[-1.2452739E-2,-1.23968035E-1,1.3754708E-1,9.042707E-5,-8.186013E-3,-4.932552E-4,9.213546E-3],"categories":[],"categories_nodes":[],"categories_segments":[],"categories_sizes":[],"default_left":[0,0,0,0,0,0,0],"id":75,"left_children":[1,3,5,-1,-1,-1,-1],"loss_changes":[3.367067E1,1.1732754E1,1.2584517E1,0E0,0E0,0E0,0E0],"parents":[2147483647,0,0,1,1,2,2],"right_children":[2,4,6,-1,-1,-1,-1],"split_conditions":[2.217641E-1,6.211915E-2,1E0,9.042707E-5,-8.186013E-3,-4.932552E-4,9.213546E-3],"split_indices":[2,4,0,0,0,0,0],"split_type":[0,0,0,0,0,0,0],"sum_hessian":[1.6272188E3,9.523526E2,6.748662E2,4.437489E2,5.086037E2,3.2138205E2,3.5348413E2],"tree_param":{"num_deleted":"0","num_feature":"7","num_nodes":"7","size_leaf_vector":"1"}},{"base_weights":[-1.1899369E-2,-7.410134E-2,2.4510361E-1,-1.0907736E-2,1.2441627E-4,-6.8140676E-4,1.0280094E-2],"categories":[],"categories_nodes":[],"categories_segments":[],"categories_sizes":[],"default_left":[0,0,0,0,0,0,0],"id":76,"left_children":[1,3,5,-1,-1,-1,-1],"loss_changes":[3.2508938E1,2.4837612E1,2.078642E0,0E0,0E0,0E0,0E0],"parents":[2147483647,0,0,1,1,2,2],"right_children":[2,4,6,-1,-1,-1,-1],"split_conditions":[1.2295778E0,-7.1299034E-1,-1.8213542E0,-1.0907736E-2,1.2441627E-4,-6.8140676E-4,1.0280094E-2],"split_indices":[2,1,1,0,0,0,0],"split_type":[0,0,0,0,0,0,0],"sum_hessian":[1.6255729E3,1.4182465E3,2.073264E2,2.6166528E2,1.1565812E3,5.4221416E0,2.0190427E2],"tree_param":{"num_deleted":"0","num_feature":"7","num_nodes":"7","size_leaf_vector":"1"}},{"base_weights":[-1.1558743E-2,-1.3300793E-1,1.1930743E-1,-9.277192E-3,3.1442079E-3,-4.8448322E-3,6.8894904E-3],"categories":[],"categories_nodes":[],"categories_segments":[],"categories_sizes":[],"default_left":[0,0,0,0,0,0,0],"id":77,"left_children":[1,3,5,-1,-1,-1,-1],"loss_changes":[3.1879272E1,2.5079514E1,1.6384083E1,0E0,0E0,0E0,0E0],"parents":[2147483647,0,0,1,1,2,2],"right_children":[2,4,6,-1,-1,-1,-1],"split_conditions":[1E0,5.488392E-1,-1.1563358E0,-9.277192E-3,3.1442079E-3,-4.8448322E-3,6.8894904E-3],"split_indices":[0,1,1,0,0,0,0],"split_type":[0,0,0,0,0,0,0],"sum_hessian":[1.6240917E3,8.4073193E2,7.8335974E2,5.6041815E2,2.803138E2,9.694169E1,6.86418E2],"tree_param":{"num_deleted":"0","num_feature":"7","num_nodes":"7","size_leaf_vector":"1"}},{"base_weights":[-1.153613E-2,-1.6657501E-1,9.050182E-2,-8.545432E-4,-9.336455E-3,5.696904E-4,9.63544E-3],"categories":[],"categories_nodes":[],"categories_segments":[],"categories_sizes":[],"default_left":[0,0,0,0,0,0,0],"id":78,"left_children":[1,3,5,-1,-1,-1,-1],"loss_changes":[3.1570784E1,6.686701E0,1.3307668E1,0E0,0E0,0E0,0E0],"parents":[2147483647,0,0,1,1,2,2],"right_children":[2,4,6,-1,-1,-1,-1],"split_conditions":[-2.8966373E-1,6.211915E-2,1.2295778E0,-8.545432E-4,-9.336455E-3,5.696904E-4,9.63544E-3],"split_indices":[2,4,2,0,0,0,0],"split_type":[0,0,0,0,0,0,0],"sum_hessian":[1.6226324E3,5.9610004E2,1.0265323E3,2.6733286E2,3.2876718E2,8.1986774E2,2.0666467E2],"tree_param":{"num_deleted":"0","num_feature":"7","num_nodes":"7","size_leaf_vector":"1"}},{"base_weights":[-1.1083036E-2,-2.1836439E-1,6.324286E-2,1.947003E-3,-9.809375E-3,-2.4422293E-6,9.447043E-3],"categories":[],"categories_nodes":[],"categories_segments":[],"categories_sizes":[],"default_left":[0,0,0,0,0,0,0],"id":79,"left_children":[1,3,5,-1,-1,-1,-1],"loss_changes":[3.0556768E1,6.0196533E0,1.6226568E1,0E0,0E0,0E0,0E0],"parents":[2147483647,0,0,1,1,2,2],"right_children":[2,4,6,-1,-1,-1,-1],"split_conditions":[-6.9955814E-1,-1.9253614E0,1.2295778E0,1.947003E-3,-9.809375E-3,-2.4422293E-6,9.447043E-3],"split_indices":[2,3,2,0,0,0,0],"split_type":[0,0,0,0,0,0,0],"sum_hessian":[1.6211761E3,3.3019043E2,1.2909857E3,1.601666E1,3.1417377E2,1.0848121E3,2.0617365E2],"tree_param":{"num_deleted":"0","num_feature":"7","num_nodes":"7","size_leaf_vector":"1"}},{"base_weights":[-1.0481663E-2,-1.2722945E-1,1.1520748E-1,-1.0512081E-2,1.4007052E-3,-4.750475E-3,6.6757477E-3],"categories":[],"categories_nodes":[],"categories_segments":[],"categories_sizes":[],"default_left":[0,0,0,0,0,0,0],"id":80,"left_children":[1,3,5,-1,-1,-1,-1],"loss_changes":[2.9371935E1,2.4404684E1,1.5543361E1,0E0,0E0,0E0,0E0],"parents":[2147483647,0,0,1,1,2,2],"right_children":[2,4,6,-1,-1,-1,-1],"split_conditions":[1E0,1.1686151E-1,-1.1563358E0,-1.0512081E-2,1.4007052E-3,-4.750475E-3,6.6757477E-3],"split_indices":[0,1,1,0,0,0,0],"split_type":[0,0,0,0,0,0,0],"sum_hessian":[1.6198507E3,8.385828E2,7.812679E2,3.9235696E2,4.4622586E2,9.6512474E1,6.8475543E2],"tree_param":{"num_deleted":"0","num_feature":"7","num_nodes":"7","size_leaf_vector":"1"}},{"base_weights":[-1.0830965E-2,-8.265533E-2,1.9123206E-1,-9.45555E-3,8.0768965E-5,-1.5367493E-3,8.620203E-3],"categories":[],"categories_nodes":[],"categories_segments":[],"categories_sizes":[],"default_left":[0,0,0,0,0,0,0],"id":81,"left_children":[1,3,5,-1,-1,-1,-1],"loss_changes":[2.9276676E1,1.9202492E1,4.5474567E0,0E0,0E0,0E0,0E0],"parents":[2147483647,0,0,1,1,2,2],"right_children":[2,4,6,-1,-1,-1,-1],"split_conditions":[8.008809E-1,-3.9469102E-1,-1.4405317E0,-9.45555E-3,8.0768965E-5,-1.5367493E-3,8.620203E-3],"split_indices":[2,1,1,0,0,0,0],"split_type":[0,0,0,0,0,0,0],"sum_hessian":[1.6182454E3,1.2771469E3,3.4109848E2,3.3205444E2,9.450924E2,2.1965836E1,3.1913266E2],"tree_param":{"num_deleted":"0","num_feature":"7","num_nodes":"7","size_leaf_vector":"1"}},{"base_weights":[-1.0650429E-2,1.1166725E-1,-1.265981E-1,-1.3483567E-3,7.393095E-3,-8.759856E-3,2.9311734E-4],"categories":[],"categories_nodes":[],"categories_segments":[],"categories_sizes":[],"default_left":[0,0,0,0,0,0,0],"id":82,"left_children":[1,3,5,-1,-1,-1,-1],"loss_changes":[2.8335634E1,1.162469E1,1.289703E1,0E0,0E0,0E0,0E0],"parents":[2147483647,0,0,1,1,2,2],"right_children":[2,4,6,-1,-1,-1,-1],"split_conditions":[6.211915E-2,-3.1966558E-1,-2.5236417E-2,-1.3483567E-3,7.393095E-3,-8.759856E-3,2.9311734E-4],"split_indices":[4,5,1,0,0,0,0],"split_type":[0,0,0,0,0,0,0],"sum_hessian":[1.6165504E3,7.9009735E2,8.264531E2,2.989838E2,4.9111356E2,4.1725583E2,4.091973E2],"tree_param":{"num_deleted":"0","num_feature":"7","num_nodes":"7","size_leaf_vector":"1"}},{"base_weights":[-1.0488202E-2,-2.1007061E-1,6.0935613E-2,1.990295E-3,-9.486678E-3,-1.10548135E-5,9.136604E-3],"categories":[],"categories_nodes":[],"categories_segments":[],"categories_sizes":[],"default_left":[0,0,0,0,0,0,0],"id":83,"left_children":[1,3,5,-1,-1,-1,-1],"loss_changes":[2.8194527E1,5.9080143E0,1.5167716E1,0E0,0E0,0E0,0E0],"parents":[2147483647,0,0,1,1,2,2],"right_children":[2,4,6,-1,-1,-1,-1],"split_conditions":[-6.9955814E-1,-1.9253614E0,1.2295778E0,1.990295E-3,-9.486678E-3,-1.10548135E-5,9.136604E-3],"split_indices":[2,3,2,0,0,0,0],"split_type":[0,0,0,0,0,0,0],"sum_hessian":[1.6153622E3,3.2801382E2,1.2873483E3,1.5891725E1,3.121221E2,1.08242E3,2.0492825E2],"tree_param":{"num_deleted":"0","num_feature":"7","num_nodes":"7","size_leaf_vector":"1"}},{"base_weights":[-9.904486E-3,-1.2269722E-1,1.1148446E-1,-8.717706E-3,3.1288133E-3,-6.005121E-4,8.981361E-3],"categories":[],"categories_nodes":[],"categories_segments":[],"categories_sizes":[],"default_left":[0,0,0,0,0,0,0],"id":84,"left_children":[1,3,5,-1,-1,-1,-1],"loss_changes":[2.7327251E1,2.2901411E1,1.4507796E1,0E0,0E0,0E0,0E0],"parents":[2147483647,0,0,1,1,2,2],"right_children":[2,4,6,-1,-1,-1,-1],"split_conditions":[1E0,5.488392E-1,2.368061E-1,-8.717706E-3,3.1288133E-3,-6.005121E-4,8.981361E-3],"split_indices":[0,1,2,0,0,0,0],"split_type":[0,0,0,0,0,0,0],"sum_hessian":[1.6140664E3,8.3559033E2,7.7847614E2,5.5588635E2,2.7970398E2,4.455555E2,3.3292062E2],"tree_param":{"num_deleted":"0","num_feature":"7","num_nodes":"7","size_leaf_vector":"1"}},{"base_weights":[-9.2195375E-3,-2.0321698E-1,5.9981868E-2,1.5894483E-3,-9.398479E-3,-5.122322E-3,4.1635064E-3],"categories":[],"categories_nodes":[],"categories_segments":[],"categories_sizes":[],"default_left":[0,0,0,0,0,0,0],"id":85,"left_children":[1,3,5,-1,-1,-1,-1],"loss_changes":[2.6541317E1,5.7763557E0,1.4794469E1,0E0,0E0,0E0,0E0],"parents":[2147483647,0,0,1,1,2,2],"right_children":[2,4,6,-1,-1,-1,-1],"split_conditions":[-6.9955814E-1,-1.4796488E0,-8.7782395E-1,1.5894483E-3,-9.398479E-3,-5.122322E-3,4.1635064E-3],"split_indices":[2,3,1,0,0,0,0],"split_type":[0,0,0,0,0,0,0],"sum_hessian":[1.6126011E3,3.2673883E2,1.2858622E3,3.2202595E1,2.9453622E2,1.7523087E2,1.1106313E3],"tree_param":{"num_deleted":"0","num_feature":"7","num_nodes":"7","size_leaf_vector":"1"}},{"base_weights":[-9.789445E-3,-6.606166E-2,2.2259566E-1,-9.894226E-3,1.4782553E-4,-6.8720366E-4,9.374014E-3],"categories":[],"categories_nodes":[],"categories_segments":[],"categories_sizes":[],"default_left":[0,0,0,0,0,0,0],"id":86,"left_children":[1,3,5,-1,-1,-1,-1],"loss_changes":[2.6373245E1,2.0383913E1,1.8823128E0,0E0,0E0,0E0,0E0],"parents":[2147483647,0,0,1,1,2,2],"right_children":[2,4,6,-1,-1,-1,-1],"split_conditions":[1.2295778E0,-7.1299034E-1,-1.8213542E0,-9.894226E-3,1.4782553E-4,-6.8720366E-4,9.374014E-3],"split_indices":[2,1,1,0,0,0,0],"split_type":[0,0,0,0,0,0,0],"sum_hessian":[1.611011E3,1.4070065E3,2.0400446E2,2.5583496E2,1.1511715E3,5.4139166E0,1.9859055E2],"tree_param":{"num_deleted":"0","num_feature":"7","num_nodes":"7","size_leaf_vector":"1"}},{"base_weights":[-9.518658E-3,1.0704972E-1,-1.20248914E-1,-1.3665914E-3,7.1430895E-3,-8.339781E-3,2.8525508E-4],"categories":[],"categories_nodes":[],"categories_segments":[],"categories_sizes":[],"default_left":[0,0,0,0,0,0,0],"id":87,"left_children":[1,3,5,-1,-1,-1,-1],"loss_changes":[2.5700373E1,1.10461235E1,1.1675211E1,0E0,0E0,0E0,0E0],"parents":[2147483647,0,0,1,1,2,2],"right_children":[2,4,6,-1,-1,-1,-1],"split_conditions":[6.211915E-2,-3.1966558E-1,-2.5236417E-2,-1.3665914E-3,7.1430895E-3,-8.339781E-3,2.8525508E-4],"split_indices":[4,5,1,0,0,0,0],"split_type":[0,0,0,0,0,0,0],"sum_hessian":[1.6096152E3,7.8722906E2,8.2238617E2,2.982242E2,4.8900482E2,4.139714E2,4.0841476E2],"tree_param":{"num_deleted":"0","num_feature":"7","num_nodes":"7","size_leaf_vector":"1"}},{"base_weights":[-9.386432E-3,-1.1863526E-1,1.0819729E-1,-8.416681E-3,2.9930912E-3,-5.3456996E-4,8.6631235E-3],"categories":[],"categories_nodes":[],"categories_segments":[],"categories_sizes":[],"default_left":[0,0,0,0,0,0,0],"id":88,"left_children":[1,3,5,-1,-1,-1,-1],"loss_changes":[2.5567324E1,2.1187908E1,1.32872505E1,0E0,0E0,0E0,0E0],"parents":[2147483647,0,0,1,1,2,2],"right_children":[2,4,6,-1,-1,-1,-1],"split_conditions":[1E0,5.488392E-1,2.368061E-1,-8.416681E-3,2.9930912E-3,-5.3456996E-4,8.6631235E-3],"split_indices":[0,1,2,0,0,0,0],"split_type":[0,0,0,0,0,0,0],"sum_hessian":[1.6084592E3,8.328954E2,7.755639E2,5.5354565E2,2.7934967E2,4.4447836E2,3.310855E2],"tree_param":{"num_deleted":"0","num_feature":"7","num_nodes":"7","size_leaf_vector":"1"}},{"base_weights":[-8.730091E-3,-6.373362E-2,2.1807335E-1,-9.539503E-3,1.3326004E-4,-6.8401144E-4,9.189823E-3],"categories":[],"categories_nodes":[],"categories_segments":[],"categories_sizes":[],"default_left":[0,0,0,0,0,0,0],"id":89,"left_children":[1,3,5,-1,-1,-1,-1],"loss_changes":[2.5084934E1,1.884363E1,1.8322926E0,0E0,0E0,0E0,0E0],"parents":[2147483647,0,0,1,1,2,2],"right_children":[2,4,6,-1,-1,-1,-1],"split_conditions":[1.2295778E0,-7.1299034E-1,-1.8213542E0,-9.539503E-3,1.3326004E-4,-6.8401144E-4,9.189823E-3],"split_indices":[2,1,1,0,0,0,0],"split_type":[0,0,0,0,0,0,0],"sum_hessian":[1.6070216E3,1.4038843E3,2.0313734E2,2.5395012E2,1.1499341E3,5.4054213E0,1.9773193E2],"tree_param":{"num_deleted":"0","num_feature":"7","num_nodes":"7","size_leaf_vector":"1"}},{"base_weights":[-8.483992E-3,-1.14915E-1,1.05982795E-1,-9.394867E-3,1.423864E-3,-4.287708E-3,6.1098402E-3],"categories":[],"categories_nodes":[],"categories_segments":[],"categories_sizes":[],"default_left":[0,0,0,0,0,0,0],"id":90,"left_children":[1,3,5,-1,-1,-1,-1],"loss_changes":[2.4214527E1,2.0060625E1,1.2747263E1,0E0,0E0,0E0,0E0],"parents":[2147483647,0,0,1,1,2,2],"right_children":[2,4,6,-1,-1,-1,-1],"split_conditions":[1E0,1.50965E-1,-1.1563358E0,-9.394867E-3,1.423864E-3,-4.287708E-3,6.1098402E-3],"split_indices":[0,1,1,0,0,0,0],"split_type":[0,0,0,0,0,0,0],"sum_hessian":[1.6056565E3,8.316458E2,7.740107E2,4.0322495E2,4.284209E2,9.484235E1,6.7916833E2],"tree_param":{"num_deleted":"0","num_feature":"7","num_nodes":"7","size_leaf_vector":"1"}},{"base_weights":[-8.806556E-3,-6.504958E-2,2.0621364E-1,-6.025251E-3,1.5934121E-3,-6.283106E-4,9.115183E-3],"categories":[],"categories_nodes":[],"categories_segments":[],"categories_sizes":[],"default_left":[0,0,0,0,0,0,0],"id":91,"left_children":[1,3,5,-1,-1,-1,-1],"loss_changes":[2.4271418E1,1.5222046E1,2.693489E0,0E0,0E0,0E0,0E0],"parents":[2147483647,0,0,1,1,2,2],"right_children":[2,4,6,-1,-1,-1,-1],"split_conditions":[1.1318048E0,1E0,-1.213175E0,-6.025251E-3,1.5934121E-3,-6.283106E-4,9.115183E-3],"split_indices":[2,0,1,0,0,0,0],"split_type":[0,0,0,0,0,0,0],"sum_hessian":[1.60414E3,1.377138E3,2.2700201E2,7.124788E2,6.646592E2,2.4862612E1,2.021394E2],"tree_param":{"num_deleted":"0","num_feature":"7","num_nodes":"7","size_leaf_vector":"1"}},{"base_weights":[-8.02682E-3,-1.4294787E-1,8.018137E-2,5.850225E-4,-7.3490175E-3,-2.025986E-3,5.782581E-3],"categories":[],"categories_nodes":[],"categories_segments":[],"categories_sizes":[],"default_left":[0,0,0,0,0,0,0],"id":92,"left_children":[1,3,5,-1,-1,-1,-1],"loss_changes":[2.354105E1,5.511512E0,1.1567286E1,0E0,0E0,0E0,0E0],"parents":[2147483647,0,0,1,1,2,2],"right_children":[2,4,6,-1,-1,-1,-1],"split_conditions":[-2.8966373E-1,-9.028444E-1,-3.1966558E-1,5.850225E-4,-7.3490175E-3,-2.025986E-3,5.782581E-3],"split_indices":[2,3,5,0,0,0,0],"split_type":[0,0,0,0,0,0,0],"sum_hessian":[1.6031014E3,5.8688586E2,1.0162156E3,1.4583655E2,4.4104935E2,3.4859283E2,6.6762274E2],"tree_param":{"num_deleted":"0","num_feature":"7","num_nodes":"7","size_leaf_vector":"1"}},{"base_weights":[-8.031058E-3,1.0213296E-1,-1.12973355E-1,-1.347612E-3,6.8516126E-3,-7.85803E-3,2.7709335E-4],"categories":[],"categories_nodes":[],"categories_segments":[],"categories_sizes":[],"default_left":[0,0,0,0,0,0,0],"id":93,"left_children":[1,3,5,-1,-1,-1,-1],"loss_changes":[2.2932917E1,1.0261234E1,1.035871E1,0E0,0E0,0E0,0E0],"parents":[2147483647,0,0,1,1,2,2],"right_children":[2,4,6,-1,-1,-1,-1],"split_conditions":[6.211915E-2,-3.1966558E-1,-2.5236417E-2,-1.347612E-3,6.8516126E-3,-7.85803E-3,2.7709335E-4],"split_indices":[4,5,1,0,0,0,0],"split_type":[0,0,0,0,0,0,0],"sum_hessian":[1.6020406E3,7.8407E2,8.1797064E2,2.975814E2,4.8648862E2,4.1034015E2,4.0763052E2],"tree_param":{"num_deleted":"0","num_feature":"7","num_nodes":"7","size_leaf_vector":"1"}},{"base_weights":[-7.93673E-3,-6.0434457E-2,2.0854296E-1,-9.11899E-3,1.4269317E-4,-6.765021E-4,8.801096E-3],"categories":[],"categories_nodes":[],"categories_segments":[],"categories_sizes":[],"default_left":[0,0,0,0,0,0,0],"id":94,"left_children":[1,3,5,-1,-1,-1,-1],"loss_changes":[2.277186E1,1.72076E1,1.7274227E0,0E0,0E0,0E0,0E0],"parents":[2147483647,0,0,1,1,2,2],"right_children":[2,4,6,-1,-1,-1,-1],"split_conditions":[1.2295778E0,-7.1299034E-1,-1.8213542E0,-9.11899E-3,1.4269317E-4,-6.765021E-4,8.801096E-3],"split_indices":[2,1,1,0,0,0,0],"split_type":[0,0,0,0,0,0,0],"sum_hessian":[1.600923E3,1.3992697E3,2.0165326E2,2.5151764E2,1.1477521E3,5.3984375E0,1.9625482E2],"tree_param":{"num_deleted":"0","num_feature":"7","num_nodes":"7","size_leaf_vector":"1"}},{"base_weights":[-7.7166515E-3,-1.8644191E-1,5.5771943E-2,1.7440493E-3,-8.755539E-3,5.444775E-5,8.176473E-3],"categories":[],"categories_nodes":[],"categories_segments":[],"categories_sizes":[],"default_left":[0,0,0,0,0,0,0],"id":95,"left_children":[1,3,5,-1,-1,-1,-1],"loss_changes":[2.2304024E1,5.654402E0,1.1821663E1,0E0,0E0,0E0,0E0],"parents":[2147483647,0,0,1,1,2,2],"right_children":[2,4,6,-1,-1,-1,-1],"split_conditions":[-6.9955814E-1,-1.4796488E0,1.2295778E0,1.7440493E-3,-8.755539E-3,5.444775E-5,8.176473E-3],"split_indices":[2,3,2,0,0,0,0],"split_type":[0,0,0,0,0,0,0],"sum_hessian":[1.5995997E3,3.223278E2,1.2772719E3,3.1726522E1,2.9060126E2,1.0761047E3,2.0116714E2],"tree_param":{"num_deleted":"0","num_feature":"7","num_nodes":"7","size_leaf_vector":"1"}},{"base_weights":[-7.2834757E-3,-1.0803408E-1,1.00926146E-1,-7.862537E-3,3.0125894E-3,-1.949218E-3,6.842118E-3],"categories":[],"categories_nodes":[],"categories_segments":[],"categories_sizes":[],"default_left":[0,0,0,0,0,0,0],"id":96,"left_children":[1,3,5,-1,-1,-1,-1],"loss_changes":[2.1591192E1,1.936613E1,1.1683204E1,0E0,0E0,0E0,0E0],"parents":[2147483647,0,0,1,1,2,2],"right_children":[2,4,6,-1,-1,-1,-1],"split_conditions":[1E0,5.488392E-1,-5.6266904E-1,-7.862537E-3,3.0125894E-3,-1.949218E-3,6.842118E-3],"split_indices":[0,1,5,0,0,0,0],"split_type":[0,0,0,0,0,0,0],"sum_hessian":[1.5984238E3,8.279009E2,7.705229E2,5.4903516E2,2.7886575E2,2.6444684E2,5.0607608E2],"tree_param":{"num_deleted":"0","num_feature":"7","num_nodes":"7","size_leaf_vector":"1"}},{"base_weights":[-6.9915215E-3,-2.3762071E-1,4.074391E-2,-1.0127851E-2,7.0071867E-4,-2.320018E-3,5.5600978E-3],"categories":[],"categories_nodes":[],"categories_segments":[],"categories_sizes":[],"default_left":[0,0,0,0,0,0,0],"id":97,"left_children":[1,3,5,-1,-1,-1,-1],"loss_changes":[2.1539114E1,2.1770859E0,1.7498926E1,0E0,0E0,0E0,0E0],"parents":[2147483647,0,0,1,1,2,2],"right_children":[2,4,6,-1,-1,-1,-1],"split_conditions":[-1.3041177E0,2.4343736E0,1E0,-1.0127851E-2,7.0071867E-4,-2.320018E-3,5.5600978E-3],"split_indices":[1,5,0,0,0,0,0],"split_type":[0,0,0,0,0,0,0],"sum_hessian":[1.5975006E3,1.4365794E2,1.4538427E3,1.3676303E2,6.8949227E0,7.6416003E2,6.896826E2],"tree_param":{"num_deleted":"0","num_feature":"7","num_nodes":"7","size_leaf_vector":"1"}},{"base_weights":[-7.3781917E-3,-6.88402E-2,1.652044E-1,-8.539939E-3,-1.2890146E-4,-1.4806618E-3,7.5203525E-3],"categories":[],"categories_nodes":[],"categories_segments":[],"categories_sizes":[],"default_left":[0,0,0,0,0,0,0],"id":98,"left_children":[1,3,5,-1,-1,-1,-1],"loss_changes":[2.1130547E1,1.3658389E1,3.7527876E0,0E0,0E0,0E0,0E0],"parents":[2147483647,0,0,1,1,2,2],"right_children":[2,4,6,-1,-1,-1,-1],"split_conditions":[8.008809E-1,-5.879442E-1,-1.4405317E0,-8.539939E-3,-1.2890146E-4,-1.4806618E-3,7.5203525E-3],"split_indices":[2,1,1,0,0,0,0],"split_type":[0,0,0,0,0,0,0],"sum_hessian":[1.5962982E3,1.2617599E3,3.345383E2,2.5941382E2,1.002346E3,2.1839445E1,3.1269888E2],"tree_param":{"num_deleted":"0","num_feature":"7","num_nodes":"7","size_leaf_vector":"1"}},{"base_weights":[-7.370783E-3,9.697528E-2,-1.06939875E-1,-1.3530292E-3,6.5629277E-3,-7.4192113E-3,2.2892926E-4],"categories":[],"categories_nodes":[],"categories_segments":[],"categories_sizes":[],"default_left":[0,0,0,0,0,0,0],"id":99,"left_children":[1,3,5,-1,-1,-1,-1],"loss_changes":[2.0534739E1,9.592137E0,9.092576E0,0E0,0E0,0E0,0E0],"parents":[2147483647,0,0,1,1,2,2],"right_children":[2,4,6,-1,-1,-1,-1],"split_conditions":[6.211915E-2,-3.1966558E-1,-2.5236417E-2,-1.3530292E-3,6.5629277E-3,-7.4192113E-3,2.2892926E-4],"split_indices":[4,5,1,0,0,0,0],"split_type":[0,0,0,0,0,0,0],"sum_hessian":[1.594814E3,7.8115625E2,8.136577E2,2.9696445E2,4.841918E2,4.06693E2,4.0696472E2],"tree_param":{"num_deleted":"0","num_feature":"7","num_nodes":"7","size_leaf_vector":"1"}},{"base_weights":[-7.292792E-3,-1.7858033E-1,5.3449478E-2,1.8046635E-3,-8.449885E-3,3.3902143E-5,7.90045E-3],"categories":[],"categories_nodes":[],"categories_segments":[],"categories_sizes":[],"default_left":[0,0,0,0,0,0,0],"id":100,"left_children":[1,3,5,-1,-1,-1,-1],"loss_changes":[2.0392216E1,5.556082E0,1.1066051E1,0E0,0E0,0E0,0E0],"parents":[2147483647,0,0,1,1,2,2],"right_children":[2,4,6,-1,-1,-1,-1],"split_conditions":[-6.9955814E-1,-1.4796488E0,1.2295778E0,1.8046635E-3,-8.449885E-3,3.3902143E-5,7.90045E-3],"split_indices":[2,3,2,0,0,0,0],"split_type":[0,0,0,0,0,0,0],"sum_hessian":[1.5937378E3,3.2021823E2,1.2735195E3,3.152784E1,2.886904E2,1.0736256E3,1.9989397E2],"tree_param":{"num_deleted":"0","num_feature":"7","num_nodes":"7","size_leaf_vector":"1"}},{"base_weights":[-6.868248E-3,-2.2904284E-1,3.901629E-2,6.098485E-4,-9.8641915E-3,-2.2495731E-3,5.356784E-3],"categories":[],"categories_nodes":[],"categories_segments":[],"categories_sizes":[],"default_left":[0,0,0,0,0,0,0],"id":101,"left_children":[1,3,5,-1,-1,-1,-1],"loss_changes":[1.9889507E1,2.1471996E0,1.6277733E1,0E0,0E0,0E0,0E0],"parents":[2147483647,0,0,1,1,2,2],"right_children":[2,4,6,-1,-1,-1,-1],"split_conditions":[-1.3041177E0,-1.9253614E0,1E0,6.098485E-4,-9.8641915E-3,-2.2495731E-3,5.356784E-3],"split_indices":[1,3,0,0,0,0,0],"split_type":[0,0,0,0,0,0,0],"sum_hessian":[1.592596E3,1.421041E2,1.450492E3,1.1219856E1,1.3088423E2,7.6273724E2,6.8775464E2],"tree_param":{"num_deleted":"0","num_feature":"7","num_nodes":"7","size_leaf_vector":"1"}},{"base_weights":[-7.256982E-3,-5.5893403E-2,1.9358112E-1,-8.4379995E-3,1.2013393E-4,-6.6817715E-4,8.192581E-3],"categories":[],"categories_nodes":[],"categories_segments":[],"categories_sizes":[],"default_left":[0,0,0,0,0,0,0],"id":102,"left_children":[1,3,5,-1,-1,-1,-1],"loss_changes":[1.9477697E1,1.4578973E1,1.575427E0,0E0,0E0,0E0,0E0],"parents":[2147483647,0,0,1,1,2,2],"right_children":[2,4,6,-1,-1,-1,-1],"split_conditions":[1.2295778E0,-7.1299034E-1,-1.8213542E0,-8.4379995E-3,1.2013393E-4,-6.6817715E-4,8.192581E-3],"split_indices":[2,1,1,0,0,0,0],"split_type":[0,0,0,0,0,0,0],"sum_hessian":[1.5914541E3,1.3921625E3,1.9929166E2,2.4749168E2,1.1446708E3,5.388982E0,1.9390268E2],"tree_param":{"num_deleted":"0","num_feature":"7","num_nodes":"7","size_leaf_vector":"1"}},{"base_weights":[-7.0574367E-3,9.311046E-2,-1.0271834E-1,-1.3574815E-3,6.3460604E-3,-7.122129E-3,2.0705117E-4],"categories":[],"categories_nodes":[],"categories_segments":[],"categories_sizes":[],"default_left":[0,0,0,0,0,0,0],"id":103,"left_children":[1,3,5,-1,-1,-1,-1],"loss_changes":[1.8894537E1,9.107822E0,8.319827E0,0E0,0E0,0E0,0E0],"parents":[2147483647,0,0,1,1,2,2],"right_children":[2,4,6,-1,-1,-1,-1],"split_conditions":[6.211915E-2,-3.1966558E-1,-2.5236417E-2,-1.3574815E-3,6.3460604E-3,-7.122129E-3,2.0705117E-4],"split_indices":[4,5,1,0,0,0,0],"split_type":[0,0,0,0,0,0,0],"sum_hessian":[1.5902057E3,7.7929114E2,8.109146E2,2.9654892E2,4.8274222E2,4.0437274E2,4.0654184E2],"tree_param":{"num_deleted":"0","num_feature":"7","num_nodes":"7","size_leaf_vector":"1"}},{"base_weights":[-6.986386E-3,-1.7184485E-1,5.139574E-2,5.247159E-4,-8.974582E-3,3.543003E-5,7.5959065E-3],"categories":[],"categories_nodes":[],"categories_segments":[],"categories_sizes":[],"default_left":[0,0,0,0,0,0,0],"id":104,"left_children":[1,3,5,-1,-1,-1,-1],"loss_changes":[1.8820581E1,5.5117474E0,1.019309E1,0E0,0E0,0E0,0E0],"parents":[2147483647,0,0,1,1,2,2],"right_children":[2,4,6,-1,-1,-1,-1],"split_conditions":[-6.9955814E-1,-9.028444E-1,1.2295778E0,5.247159E-4,-8.974582E-3,3.543003E-5,7.5959065E-3],"split_indices":[2,3,2,0,0,0,0],"split_type":[0,0,0,0,0,0,0],"sum_hessian":[1.589159E3,3.185223E2,1.2706368E3,1.0213154E2,2.1639076E2,1.071936E3,1.9870073E2],"tree_param":{"num_deleted":"0","num_feature":"7","num_nodes":"7","size_leaf_vector":"1"}},{"base_weights":[-6.799037E-3,-2.2091746E-1,3.733244E-2,6.3333777E-4,-9.5435865E-3,-3.0253618E-3,4.4993297E-3],"categories":[],"categories_nodes":[],"categories_segments":[],"categories_sizes":[],"default_left":[0,0,0,0,0,0,0],"id":105,"left_children":[1,3,5,-1,-1,-1,-1],"loss_changes":[1.838731E1,2.1091251E0,1.5535244E1,0E0,0E0,0E0,0E0],"parents":[2147483647,0,0,1,1,2,2],"right_children":[2,4,6,-1,-1,-1,-1],"split_conditions":[-1.3041177E0,-1.9253614E0,-3.1966558E-1,6.3333777E-4,-9.5435865E-3,-3.0253618E-3,4.4993297E-3],"split_indices":[1,3,5,0,0,0,0],"split_type":[0,0,0,0,0,0,0],"sum_hessian":[1.5881737E3,1.40648E2,1.4475256E3,1.11497755E1,1.2949821E2,5.7778E2,8.697456E2],"tree_param":{"num_deleted":"0","num_feature":"7","num_nodes":"7","size_leaf_vector":"1"}},{"base_weights":[-7.3290435E-3,-9.994004E-2,9.237467E-2,-7.4181682E-3,2.9885417E-3,-3.328898E-3,5.704633E-3],"categories":[],"categories_nodes":[],"categories_segments":[],"categories_sizes":[],"default_left":[0,0,0,0,0,0,0],"id":106,"left_children":[1,3,5,-1,-1,-1,-1],"loss_changes":[1.8185371E1,1.7787798E1,1.0698424E1,0E0,0E0,0E0,0E0],"parents":[2147483647,0,0,1,1,2,2],"right_children":[2,4,6,-1,-1,-1,-1],"split_conditions":[1E0,5.488392E-1,-9.6767485E-1,-7.4181682E-3,2.9885417E-3,-3.328898E-3,5.704633E-3],"split_indices":[0,1,5,0,0,0,0],"split_type":[0,0,0,0,0,0,0],"sum_hessian":[1.587501E3,8.227899E2,7.6471106E2,5.4441907E2,2.7837082E2,1.4222806E2,6.2248303E2],"tree_param":{"num_deleted":"0","num_feature":"7","num_nodes":"7","size_leaf_vector":"1"}},{"base_weights":[-7.260583E-3,-7.5062096E-2,1.2694268E-1,2.7354374E-3,-4.6068965E-3,7.389768E-3,-1.38426E-3],"categories":[],"categories_nodes":[],"categories_segments":[],"categories_sizes":[],"default_left":[0,0,0,0,0,0,0],"id":107,"left_children":[1,3,5,-1,-1,-1,-1],"loss_changes":[1.7994463E1,8.989815E0,7.455079E0,0E0,0E0,0E0,0E0],"parents":[2147483647,0,0,1,1,2,2],"right_children":[2,4,6,-1,-1,-1,-1],"split_conditions":[4.9252E-1,-9.028444E-1,7.770754E-1,2.7354374E-3,-4.6068965E-3,7.389768E-3,-1.38426E-3],"split_indices":[2,3,4,0,0,0,0],"split_type":[0,0,0,0,0,0,0],"sum_hessian":[1.586577E3,1.1099727E3,4.7660437E2,2.1312413E2,8.968486E2,3.3081635E2,1.4578804E2],"tree_param":{"num_deleted":"0","num_feature":"7","num_nodes":"7","size_leaf_vector":"1"}},{"base_weights":[-6.527657E-3,-2.1319407E-1,3.763505E-2,-9.139433E-3,6.533481E-4,-2.122177E-3,5.1225065E-3],"categories":[],"categories_nodes":[],"categories_segments":[],"categories_sizes":[],"default_left":[0,0,0,0,0,0,0],"id":108,"left_children":[1,3,5,-1,-1,-1,-1],"loss_changes":[1.774925E1,1.911417E0,1.4634766E1,0E0,0E0,0E0,0E0],"parents":[2147483647,0,0,1,1,2,2],"right_children":[2,4,6,-1,-1,-1,-1],"split_conditions":[-1.2529625E0,2.2723713E0,1E0,-9.139433E-3,6.533481E-4,-2.122177E-3,5.1225065E-3],"split_indices":[1,5,0,0,0,0,0],"split_type":[0,0,0,0,0,0,0],"sum_hessian":[1.5857986E3,1.5049356E2,1.435305E3,1.4190645E2,8.587121E0,7.560274E2,6.7927765E2],"tree_param":{"num_deleted":"0","num_feature":"7","num_nodes":"7","size_leaf_vector":"1"}},{"base_weights":[-6.8611866E-3,-5.291894E-2,1.8359062E-1,-7.958528E-3,9.467197E-5,7.967564E-3,-3.929532E-4],"categories":[],"categories_nodes":[],"categories_segments":[],"categories_sizes":[],"default_left":[0,0,0,0,0,0,0],"id":109,"left_children":[1,3,5,-1,-1,-1,-1],"loss_changes":[1.743134E1,1.2832038E1,1.5459242E0,0E0,0E0,0E0,0E0],"parents":[2147483647,0,0,1,1,2,2],"right_children":[2,4,6,-1,-1,-1,-1],"split_conditions":[1.2295778E0,-7.1299034E-1,1.7053633E0,-7.958528E-3,9.467197E-5,7.967564E-3,-3.929532E-4],"split_indices":[2,1,5,0,0,0,0],"split_type":[0,0,0,0,0,0,0],"sum_hessian":[1.584659E3,1.387132E3,1.9752713E2,2.4460449E2,1.1425275E3,1.7750883E2,2.0018303E1],"tree_param":{"num_deleted":"0","num_feature":"7","num_nodes":"7","size_leaf_vector":"1"}},{"base_weights":[-6.6228737E-3,-1.6425176E-1,4.912257E-2,5.8797497E-4,-8.641854E-3,-1.9707375E-3,4.252659E-3],"categories":[],"categories_nodes":[],"categories_segments":[],"categories_sizes":[],"default_left":[0,0,0,0,0,0,0],"id":110,"left_children":[1,3,5,-1,-1,-1,-1],"loss_changes":[1.7133745E1,5.3110867E0,9.204752E0,0E0,0E0,0E0,0E0],"parents":[2147483647,0,0,1,1,2,2],"right_children":[2,4,6,-1,-1,-1,-1],"split_conditions":[-6.9955814E-1,-9.028444E-1,-3.1966558E-1,5.8797497E-4,-8.641854E-3,-1.9707375E-3,4.252659E-3],"split_indices":[2,3,5,0,0,0,0],"split_type":[0,0,0,0,0,0,0],"sum_hessian":[1.583497E3,3.165706E2,1.2669264E3,1.0176496E2,2.1480562E2,4.7545892E2,7.9146747E2],"tree_param":{"num_deleted":"0","num_feature":"7","num_nodes":"7","size_leaf_vector":"1"}},{"base_weights":[-6.983182E-3,-2.1144603E-1,3.509348E-2,6.5843767E-4,-9.1691315E-3,-2.8622174E-3,4.246716E-3],"categories":[],"categories_nodes":[],"categories_segments":[],"categories_sizes":[],"default_left":[0,0,0,0,0,0,0],"id":111,"left_children":[1,3,5,-1,-1,-1,-1],"loss_changes":[1.6676842E1,2.0577202E0,1.3842933E1,0E0,0E0,0E0,0E0],"parents":[2147483647,0,0,1,1,2,2],"right_children":[2,4,6,-1,-1,-1,-1],"split_conditions":[-1.3041177E0,-1.9253614E0,-3.1966558E-1,6.5843767E-4,-9.1691315E-3,-2.8622174E-3,4.246716E-3],"split_indices":[1,3,5,0,0,0,0],"split_type":[0,0,0,0,0,0,0],"sum_hessian":[1.582724E3,1.3890752E2,1.4438164E3,1.1080922E1,1.278266E2,5.768885E2,8.66928E2],"tree_param":{"num_deleted":"0","num_feature":"7","num_nodes":"7","size_leaf_vector":"1"}},{"base_weights":[-7.4748467E-3,8.638365E-2,-9.700452E-2,-2.472821E-3,5.196157E-3,-6.7318548E-3,1.8874223E-4],"categories":[],"categories_nodes":[],"categories_segments":[],"categories_sizes":[],"default_left":[0,0,0,0,0,0,0],"id":112,"left_children":[1,3,5,-1,-1,-1,-1],"loss_changes":[1.6499783E1,7.7685704E0,7.385049E0,0E0,0E0,0E0,0E0],"parents":[2147483647,0,0,1,1,2,2],"right_children":[2,4,6,-1,-1,-1,-1],"split_conditions":[6.211915E-2,-8.056725E-1,-2.5236417E-2,-2.472821E-3,5.196157E-3,-6.7318548E-3,1.8874223E-4],"split_indices":[4,5,1,0,0,0,0],"split_type":[0,0,0,0,0,0,0],"sum_hessian":[1.5820651E3,7.75637E2,8.06428E2,1.5783382E2,6.178032E2,4.0064078E2,4.0578723E2],"tree_param":{"num_deleted":"0","num_feature":"7","num_nodes":"7","size_leaf_vector":"1"}},{"base_weights":[-7.592309E-3,-5.235762E-2,1.7805234E-1,-7.6587633E-3,1.7769295E-5,7.746814E-3,-4.1492557E-4],"categories":[],"categories_nodes":[],"categories_segments":[],"categories_sizes":[],"default_left":[0,0,0,0,0,0,0],"id":113,"left_children":[1,3,5,-1,-1,-1,-1],"loss_changes":[1.650688E1,1.1587685E1,1.5245934E0,0E0,0E0,0E0,0E0],"parents":[2147483647,0,0,1,1,2,2],"right_children":[2,4,6,-1,-1,-1,-1],"split_conditions":[1.2295778E0,-7.1299034E-1,1.7053633E0,-7.6587633E-3,1.7769295E-5,7.746814E-3,-4.1492557E-4],"split_indices":[2,1,5,0,0,0,0],"split_type":[0,0,0,0,0,0,0],"sum_hessian":[1.5810243E3,1.3843434E3,1.9668086E2,2.4287244E2,1.141471E3,1.767168E2,1.9964058E1],"tree_param":{"num_deleted":"0","num_feature":"7","num_nodes":"7","size_leaf_vector":"1"}},{"base_weights":[-7.32722E-3,-9.5520146E-2,8.776748E-2,-7.134954E-3,2.9099782E-3,-3.1514168E-3,5.42232E-3],"categories":[],"categories_nodes":[],"categories_segments":[],"categories_sizes":[],"default_left":[0,0,0,0,0,0,0],"id":114,"left_children":[1,3,5,-1,-1,-1,-1],"loss_changes":[1.6453226E1,1.6563229E1,9.614658E0,0E0,0E0,0E0,0E0],"parents":[2147483647,0,0,1,1,2,2],"right_children":[2,4,6,-1,-1,-1,-1],"split_conditions":[1E0,5.488392E-1,-9.6767485E-1,-7.134954E-3,2.9099782E-3,-3.1514168E-3,5.42232E-3],"split_indices":[0,1,5,0,0,0,0],"split_type":[0,0,0,0,0,0,0],"sum_hessian":[1.5798993E3,8.192522E2,7.6064716E2,5.412692E2,2.7798294E2,1.4197636E2,6.186708E2],"tree_param":{"num_deleted":"0","num_feature":"7","num_nodes":"7","size_leaf_vector":"1"}},{"base_weights":[-7.2489046E-3,-5.1244546E-2,1.751654E-1,6.357568E-4,-6.1375294E-3,7.6215207E-3,-4.0748532E-4],"categories":[],"categories_nodes":[],"categories_segments":[],"categories_sizes":[],"default_left":[0,0,0,0,0,0,0],"id":115,"left_children":[1,3,5,-1,-1,-1,-1],"loss_changes":[1.591945E1,1.1263998E1,1.4739294E0,0E0,0E0,0E0,0E0],"parents":[2147483647,0,0,1,1,2,2],"right_children":[2,4,6,-1,-1,-1,-1],"split_conditions":[1.2295778E0,7.770754E-1,1.7053633E0,6.357568E-4,-6.1375294E-3,7.6215207E-3,-4.0748532E-4],"split_indices":[2,4,5,0,0,0,0],"split_type":[0,0,0,0,0,0,0],"sum_hessian":[1.5789955E3,1.3828226E3,1.9617291E2,9.318904E2,4.5093228E2,1.7621468E2,1.9958227E1],"tree_param":{"num_deleted":"0","num_feature":"7","num_nodes":"7","size_leaf_vector":"1"}},{"base_weights":[-6.7773946E-3,-1.72095E-1,4.223413E-2,1.8261712E-3,-8.339016E-3,-2.0962178E-3,3.9585303E-3],"categories":[],"categories_nodes":[],"categories_segments":[],"categories_sizes":[],"default_left":[0,0,0,0,0,0,0],"id":116,"left_children":[1,3,5,-1,-1,-1,-1],"loss_changes":[1.57224865E1,5.320835E0,9.14007E0,0E0,0E0,0E0,0E0],"parents":[2147483647,0,0,1,1,2,2],"right_children":[2,4,6,-1,-1,-1,-1],"split_conditions":[-8.010916E-1,-1.4796488E0,-3.1966558E-1,1.8261712E-3,-8.339016E-3,-2.0962178E-3,3.9585303E-3],"split_indices":[2,3,5,0,0,0,0],"split_type":[0,0,0,0,0,0,0],"sum_hessian":[1.5781206E3,2.5118916E2,1.3269315E3,2.8989319E1,2.2219984E2,5.027558E2,8.2417566E2],"tree_param":{"num_deleted":"0","num_feature":"7","num_nodes":"7","size_leaf_vector":"1"}},{"base_weights":[-7.012423E-3,-2.0330937E-1,3.331656E-2,-8.813827E-3,7.5691217E-4,-2.0432565E-3,4.7136117E-3],"categories":[],"categories_nodes":[],"categories_segments":[],"categories_sizes":[],"default_left":[0,0,0,0,0,0,0],"id":117,"left_children":[1,3,5,-1,-1,-1,-1],"loss_changes":[1.5292903E1,2.039259E0,1.2785244E1,0E0,0E0,0E0,0E0],"parents":[2147483647,0,0,1,1,2,2],"right_children":[2,4,6,-1,-1,-1,-1],"split_conditions":[-1.3041177E0,2.2723713E0,1E0,-8.813827E-3,7.5691217E-4,-2.0432565E-3,4.7136117E-3],"split_indices":[1,5,0,0,0,0,0],"split_type":[0,0,0,0,0,0,0],"sum_hessian":[1.577361E3,1.3728043E2,1.4400806E3,1.2901176E2,8.268655E0,7.5838965E2,6.816909E2],"tree_param":{"num_deleted":"0","num_feature":"7","num_nodes":"7","size_leaf_vector":"1"}},{"base_weights":[-7.3186182E-3,-5.184028E-2,1.6389464E-1,-8.0854315E-3,-3.6995963E-4,-6.5681577E-4,7.342597E-3],"categories":[],"categories_nodes":[],"categories_segments":[],"categories_sizes":[],"default_left":[0,0,0,0,0,0,0],"id":118,"left_children":[1,3,5,-1,-1,-1,-1],"loss_changes":[1.5094382E1,9.550055E0,2.0321121E0,0E0,0E0,0E0,0E0],"parents":[2147483647,0,0,1,1,2,2],"right_children":[2,4,6,-1,-1,-1,-1],"split_conditions":[1.1318048E0,-1.1336002E0,-1.213175E0,-8.0854315E-3,-3.6995963E-4,-6.5681577E-4,7.342597E-3],"split_indices":[2,1,1,0,0,0,0],"split_type":[0,0,0,0,0,0,0],"sum_hessian":[1.5762982E3,1.3566807E3,2.1961757E2,1.4158444E2,1.2150962E3,2.4705194E1,1.9491237E2],"tree_param":{"num_deleted":"0","num_feature":"7","num_nodes":"7","size_leaf_vector":"1"}},{"base_weights":[-7.221453E-3,-1.1442434E-1,6.2800296E-2,1.2678868E-3,-6.303961E-3,-1.8012993E-3,4.6850867E-3],"categories":[],"categories_nodes":[],"categories_segments":[],"categories_sizes":[],"default_left":[0,0,0,0,0,0,0],"id":119,"left_children":[1,3,5,-1,-1,-1,-1],"loss_changes":[1.463131E1,5.783798E0,7.9889765E0,0E0,0E0,0E0,0E0],"parents":[2147483647,0,0,1,1,2,2],"right_children":[2,4,6,-1,-1,-1,-1],"split_conditions":[-2.8966373E-1,-9.028444E-1,-3.1966558E-1,1.2678868E-3,-6.303961E-3,-1.8012993E-3,4.6850867E-3],"split_indices":[2,3,5,0,0,0,0],"split_type":[0,0,0,0,0,0,0],"sum_hessian":[1.5753024E3,5.7455066E2,1.0007517E3,1.4262434E2,4.319263E2,3.4622015E2,6.5453156E2],"tree_param":{"num_deleted":"0","num_feature":"7","num_nodes":"7","size_leaf_vector":"1"}},{"base_weights":[-7.1693147E-3,-9.040548E-2,8.267109E-2,-8.001429E-3,1.6403327E-3,-3.042665E-3,5.14275E-3],"categories":[],"categories_nodes":[],"categories_segments":[],"categories_sizes":[],"default_left":[0,0,0,0,0,0,0],"id":120,"left_children":[1,3,5,-1,-1,-1,-1],"loss_changes":[1.4629181E1,1.6083477E1,8.780523E0,0E0,0E0,0E0,0E0],"parents":[2147483647,0,0,1,1,2,2],"right_children":[2,4,6,-1,-1,-1,-1],"split_conditions":[1E0,1.50965E-1,-9.6767485E-1,-8.001429E-3,1.6403327E-3,-3.042665E-3,5.14275E-3],"split_indices":[0,1,5,0,0,0,0],"split_type":[0,0,0,0,0,0,0],"sum_hessian":[1.5744069E3,8.1661786E2,7.57789E2,3.908334E2,4.257845E2,1.4180573E2,6.159833E2],"tree_param":{"num_deleted":"0","num_feature":"7","num_nodes":"7","size_leaf_vector":"1"}},{"base_weights":[-7.348481E-3,-4.9109012E-2,1.6621351E-1,-8.119096E-3,-2.0700275E-4,7.269268E-3,-4.5046705E-4],"categories":[],"categories_nodes":[],"categories_segments":[],"categories_sizes":[],"default_left":[0,0,0,0,0,0,0],"id":121,"left_children":[1,3,5,-1,-1,-1,-1],"loss_changes":[1.434755E1,1.041027E1,1.4533148E0,0E0,0E0,0E0,0E0],"parents":[2147483647,0,0,1,1,2,2],"right_children":[2,4,6,-1,-1,-1,-1],"split_conditions":[1.2295778E0,-1.0824449E0,1.7053633E0,-8.119096E-3,-2.0700275E-4,7.269268E-3,