{"learner":{"attributes":{"best_iteration":"990","best_score":"0.5945233076632735","scikit_learn":"{\"_estimator_type\": \"classifier\"}"},"feature_names":["Sex","Age","Weight","Height","InitialO2","InitialHR","InititalRR"],"feature_types":["float","float","float","float","float","float","float"],"gradient_booster":{"model":{"gbtree_model_param":{"num_parallel_tree":"1","num_trees":"1000"},"iteration_indptr":[0,1,2,3,4,5,6,7,8,9,10,11,12,13,14,15,16,17,18,19,20,21,22,23,24,25,26,27,28,29,30,31,32,33,34,35,36,37,38,39,40,41,42,43,44,45,46,47,48,49,50,51,52,53,54,55,56,57,58,59,60,61,62,63,64,65,66,67,68,69,70,71,72,73,74,75,76,77,78,79,80,81,82,83,84,85,86,87,88,89,90,91,92,93,94,95,96,97,98,99,100,101,102,103,104,105,106,107,108,109,110,111,112,113,114,115,116,117,118,119,120,121,122,123,124,125,126,127,128,129,130,131,132,133,134,135,136,137,138,139,140,141,142,143,144,145,146,147,148,149,150,151,152,153,154,155,156,157,158,159,160,161,162,163,164,165,166,167,168,169,170,171,172,173,174,175,176,177,178,179,180,181,182,183,184,185,186,187,188,189,190,191,192,193,194,195,196,197,198,199,200,201,202,203,204,205,206,207,208,209,210,211,212,213,214,215,216,217,218,219,220,221,222,223,224,225,226,227,228,229,230,231,232,233,234,235,236,237,238,239,240,241,242,243,244,245,246,247,248,249,250,251,252,253,254,255,256,257,258,259,260,261,262,263,264,265,266,267,268,269,270,271,272,273,274,275,276,277,278,279,280,281,282,283,284,285,286,287,288,289,290,291,292,293,294,295,296,297,298,299,300,301,302,303,304,305,306,307,308,309,310,311,312,313,314,315,316,317,318,319,320,321,322,323,324,325,326,327,328,329,330,331,332,333,334,335,336,337,338,339,340,341,342,343,344,345,346,347,348,349,350,351,352,353,354,355,356,357,358,359,360,361,362,363,364,365,366,367,368,369,370,371,372,373,374,375,376,377,378,379,380,381,382,383,384,385,386,387,388,389,390,391,392,393,394,395,396,397,398,399,400,401,402,403,404,405,406,407,408,409,410,411,412,413,414,415,416,417,418,419,420,421,422,423,424,425,426,427,428,429,430,431,432,433,434,435,436,437,438,439,440,441,442,443,444,445,446,447,448,449,450,451,452,453,454,455,456,457,458,459,460,461,462,463,464,465,466,467,468,469,470,471,472,473,474,475,476,477,478,479,480,481,482,483,484,485,486,487,488,489,490,491,492,493,494,495,496,497,498,499,500,501,502,503,504,505,506,507,508,509,510,511,512,513,514,515,516,517,518,519,520,521,522,523,524,525,526,527,528,529,530,531,532,533,534,535,536,537,538,539,540,541,542,543,544,545,546,547,548,549,550,551,552,553,554,555,556,557,558,559,560,561,562,563,564,565,566,567,568,569,570,571,572,573,574,575,576,577,578,579,580,581,582,583,584,585,586,587,588,589,590,591,592,593,594,595,596,597,598,599,600,601,602,603,604,605,606,607,608,609,610,611,612,613,614,615,616,617,618,619,620,621,622,623,624,625,626,627,628,629,630,631,632,633,634,635,636,637,638,639,640,641,642,643,644,645,646,647,648,649,650,651,652,653,654,655,656,657,658,659,660,661,662,663,664,665,666,667,668,669,670,671,672,673,674,675,676,677,678,679,680,681,682,683,684,685,686,687,688,689,690,691,692,693,694,695,696,697,698,699,700,701,702,703,704,705,706,707,708,709,710,711,712,713,714,715,716,717,718,719,720,721,722,723,724,725,726,727,728,729,730,731,732,733,734,735,736,737,738,739,740,741,742,743,744,745,746,747,748,749,750,751,752,753,754,755,756,757,758,759,760,761,762,763,764,765,766,767,768,769,770,771,772,773,774,775,776,777,778,779,780,781,782,783,784,785,786,787,788,789,790,791,792,793,794,795,796,797,798,799,800,801,802,803,804,805,806,807,808,809,810,811,812,813,814,815,816,817,818,819,820,821,822,823,824,825,826,827,828,829,830,831,832,833,834,835,836,837,838,839,840,841,842,843,844,845,846,847,848,849,850,851,852,853,854,855,856,857,858,859,860,861,862,863,864,865,866,867,868,869,870,871,872,873,874,875,876,877,878,879,880,881,882,883,884,885,886,887,888,889,890,891,892,893,894,895,896,897,898,899,900,901,902,903,904,905,906,907,908,909,910,911,912,913,914,915,916,917,918,919,920,921,922,923,924,925,926,927,928,929,930,931,932,933,934,935,936,937,938,939,940,941,942,943,944,945,946,947,948,949,950,951,952,953,954,955,956,957,958,959,960,961,962,963,964,965,966,967,968,969,970,971,972,973,974,975,976,977,978,979,980,981,982,983,984,985,986,987,988,989,990,991,992,993,994,995,996,997,998,999,1000],"tree_info":[0,0,0,0,0,0,0,0,0,0,0,0,0,0,0,0,0,0,0,0,0,0,0,0,0,0,0,0,0,0,0,0,0,0,0,0,0,0,0,0,0,0,0,0,0,0,0,0,0,0,0,0,0,0,0,0,0,0,0,0,0,0,0,0,0,0,0,0,0,0,0,0,0,0,0,0,0,0,0,0,0,0,0,0,0,0,0,0,0,0,0,0,0,0,0,0,0,0,0,0,0,0,0,0,0,0,0,0,0,0,0,0,0,0,0,0,0,0,0,0,0,0,0,0,0,0,0,0,0,0,0,0,0,0,0,0,0,0,0,0,0,0,0,0,0,0,0,0,0,0,0,0,0,0,0,0,0,0,0,0,0,0,0,0,0,0,0,0,0,0,0,0,0,0,0,0,0,0,0,0,0,0,0,0,0,0,0,0,0,0,0,0,0,0,0,0,0,0,0,0,0,0,0,0,0,0,0,0,0,0,0,0,0,0,0,0,0,0,0,0,0,0,0,0,0,0,0,0,0,0,0,0,0,0,0,0,0,0,0,0,0,0,0,0,0,0,0,0,0,0,0,0,0,0,0,0,0,0,0,0,0,0,0,0,0,0,0,0,0,0,0,0,0,0,0,0,0,0,0,0,0,0,0,0,0,0,0,0,0,0,0,0,0,0,0,0,0,0,0,0,0,0,0,0,0,0,0,0,0,0,0,0,0,0,0,0,0,0,0,0,0,0,0,0,0,0,0,0,0,0,0,0,0,0,0,0,0,0,0,0,0,0,0,0,0,0,0,0,0,0,0,0,0,0,0,0,0,0,0,0,0,0,0,0,0,0,0,0,0,0,0,0,0,0,0,0,0,0,0,0,0,0,0,0,0,0,0,0,0,0,0,0,0,0,0,0,0,0,0,0,0,0,0,0,0,0,0,0,0,0,0,0,0,0,0,0,0,0,0,0,0,0,0,0,0,0,0,0,0,0,0,0,0,0,0,0,0,0,0,0,0,0,0,0,0,0,0,0,0,0,0,0,0,0,0,0,0,0,0,0,0,0,0,0,0,0,0,0,0,0,0,0,0,0,0,0,0,0,0,0,0,0,0,0,0,0,0,0,0,0,0,0,0,0,0,0,0,0,0,0,0,0,0,0,0,0,0,0,0,0,0,0,0,0,0,0,0,0,0,0,0,0,0,0,0,0,0,0,0,0,0,0,0,0,0,0,0,0,0,0,0,0,0,0,0,0,0,0,0,0,0,0,0,0,0,0,0,0,0,0,0,0,0,0,0,0,0,0,0,0,0,0,0,0,0,0,0,0,0,0,0,0,0,0,0,0,0,0,0,0,0,0,0,0,0,0,0,0,0,0,0,0,0,0,0,0,0,0,0,0,0,0,0,0,0,0,0,0,0,0,0,0,0,0,0,0,0,0,0,0,0,0,0,0,0,0,0,0,0,0,0,0,0,0,0,0,0,0,0,0,0,0,0,0,0,0,0,0,0,0,0,0,0,0,0,0,0,0,0,0,0,0,0,0,0,0,0,0,0,0,0,0,0,0,0,0,0,0,0,0,0,0,0,0,0,0,0,0,0,0,0,0,0,0,0,0,0,0,0,0,0,0,0,0,0,0,0,0,0,0,0,0,0,0,0,0,0,0,0,0,0,0,0,0,0,0,0,0,0,0,0,0,0,0,0,0,0,0,0,0,0,0,0,0,0,0,0,0,0,0,0,0,0,0,0,0,0,0,0,0,0,0,0,0,0,0,0,0,0,0,0,0,0,0,0,0,0,0,0,0,0,0,0,0,0,0,0,0,0,0,0,0,0,0,0,0,0,0,0,0,0,0,0,0,0,0,0,0,0,0,0,0,0,0,0,0,0,0,0,0,0,0,0,0,0,0,0,0,0,0,0,0,0,0,0,0,0,0,0,0,0,0,0,0,0,0,0,0,0,0,0,0,0,0,0,0,0,0,0,0,0,0,0,0,0,0,0,0,0,0,0,0,0,0,0,0,0,0,0,0,0,0,0,0,0,0,0,0,0,0,0,0,0,0,0,0,0,0,0,0,0,0,0,0,0,0,0,0,0,0,0,0,0,0,0,0,0,0,0,0,0,0,0,0,0,0,0,0,0,0,0,0,0,0,0,0,0,0,0,0,0,0,0,0,0,0,0,0,0,0,0,0,0,0,0,0,0,0,0,0,0,0,0,0,0,0,0,0,0,0,0,0,0,0,0,0,0,0,0,0,0,0,0,0,0,0,0,0,0,0],"trees":[{"base_weights":[-0E0,-5.2402E-1,3.4357488E-1,-2.8179668E-2,-5.6415275E-3,-8.4916195E-3,1.8477922E-2],"categories":[],"categories_nodes":[],"categories_segments":[],"categories_sizes":[],"default_left":[0,0,0,0,0,0,0],"id":0,"left_children":[1,3,5,-1,-1,-1,-1],"loss_changes":[3.8564594E2,3.9651E1,1.03859024E2,0E0,0E0,0E0,0E0],"parents":[2147483647,0,0,1,1,2,2],"right_children":[2,4,6,-1,-1,-1,-1],"split_conditions":[-2.8966373E-1,2.532755E-1,-8.3803654E-1,-2.8179668E-2,-5.6415275E-3,-8.4916195E-3,1.8477922E-2],"split_indices":[2,1,1,0,0,0,0],"split_type":[0,0,0,0,0,0,0],"sum_hessian":[1.76E3,6.5725E2,1.10275E3,3.3775E2,3.195E2,1.67E2,9.3575E2],"tree_param":{"num_deleted":"0","num_feature":"7","num_nodes":"7","size_leaf_vector":"1"}},{"base_weights":[-2.3337053E-3,-5.1071745E-1,3.3132774E-1,-2.7463185E-2,-5.5003255E-3,-8.333244E-3,1.786538E-2],"categories":[],"categories_nodes":[],"categories_segments":[],"categories_sizes":[],"default_left":[0,0,0,0,0,0,0],"id":1,"left_children":[1,3,5,-1,-1,-1,-1],"loss_changes":[3.6323853E2,3.7636612E1,9.827225E1,0E0,0E0,0E0,0E0],"parents":[2147483647,0,0,1,1,2,2],"right_children":[2,4,6,-1,-1,-1,-1],"split_conditions":[-2.8966373E-1,2.532755E-1,-8.3803654E-1,-2.7463185E-2,-5.5003255E-3,-8.333244E-3,1.786538E-2],"split_indices":[2,1,1,0,0,0,0],"split_type":[0,0,0,0,0,0,0],"sum_hessian":[1.7598475E3,6.571804E2,1.1026671E3,3.3768295E2,3.1949747E2,1.66997E2,9.356701E2],"tree_param":{"num_deleted":"0","num_feature":"7","num_nodes":"7","size_leaf_vector":"1"}},{"base_weights":[-4.5357076E-3,-4.9783286E-1,3.195422E-1,-2.6771547E-2,-5.3627053E-3,-8.177955E-3,1.727549E-2],"categories":[],"categories_nodes":[],"categories_segments":[],"categories_sizes":[],"default_left":[0,0,0,0,0,0,0],"id":2,"left_children":[1,3,5,-1,-1,-1,-1],"loss_changes":[3.4218933E2,3.574974E1,9.300641E1,0E0,0E0,0E0,0E0],"parents":[2147483647,0,0,1,1,2,2],"right_children":[2,4,6,-1,-1,-1,-1],"split_conditions":[-2.8966373E-1,2.532755E-1,-8.3803654E-1,-2.6771547E-2,-5.3627053E-3,-8.177955E-3,1.727549E-2],"split_indices":[2,1,1,0,0,0,0],"split_type":[0,0,0,0,0,0,0],"sum_hessian":[1.7594081E3,6.5697876E2,1.1024292E3,3.374887E2,3.1949008E2,1.6698819E2,9.3544104E2],"tree_param":{"num_deleted":"0","num_feature":"7","num_nodes":"7","size_leaf_vector":"1"}},{"base_weights":[-6.6131894E-3,-4.3299288E-1,3.4713182E-1,-2.5610162E-2,-4.054549E-3,-6.651712E-3,1.8149678E-2],"categories":[],"categories_nodes":[],"categories_segments":[],"categories_sizes":[],"default_left":[0,0,0,0,0,0,0],"id":3,"left_children":[1,3,5,-1,-1,-1,-1],"loss_changes":[3.2278204E2,5.4212814E1,7.854234E1,0E0,0E0,0E0,0E0],"parents":[2147483647,0,0,1,1,2,2],"right_children":[2,4,6,-1,-1,-1,-1],"split_conditions":[-1.354833E-1,1.5664892E-1,-8.3803654E-1,-2.5610162E-2,-4.054549E-3,-6.651712E-3,1.8149678E-2],"split_indices":[2,1,1,0,0,0,0],"split_type":[0,0,0,0,0,0,0],"sum_hessian":[1.758707E3,7.780775E2,9.806295E2,3.694366E2,4.086409E2,1.5022652E2,8.30403E2],"tree_param":{"num_deleted":"0","num_feature":"7","num_nodes":"7","size_leaf_vector":"1"}},{"base_weights":[-8.1321765E-3,-4.7446308E-1,2.9873797E-1,-2.5507111E-2,-5.127202E-3,-7.6708756E-3,1.6288755E-2],"categories":[],"categories_nodes":[],"categories_segments":[],"categories_sizes":[],"default_left":[0,0,0,0,0,0,0],"id":4,"left_children":[1,3,5,-1,-1,-1,-1],"loss_changes":[3.059576E2,3.2273865E1,8.369543E1,0E0,0E0,0E0,0E0],"parents":[2147483647,0,0,1,1,2,2],"right_children":[2,4,6,-1,-1,-1,-1],"split_conditions":[-2.8966373E-1,2.532755E-1,-8.209848E-1,-2.5507111E-2,-5.127202E-3,-7.6708756E-3,1.6288755E-2],"split_indices":[2,1,1,0,0,0,0],"split_type":[0,0,0,0,0,0,0],"sum_hessian":[1.7578422E3,6.562576E2,1.1015846E3,3.3679138E2,3.1946622E2,1.7294475E2,9.2863983E2],"tree_param":{"num_deleted":"0","num_feature":"7","num_nodes":"7","size_leaf_vector":"1"}},{"base_weights":[-9.971322E-3,-4.1299132E-1,3.249694E-1,-2.4438545E-2,-3.8661414E-3,-6.400164E-3,1.7052101E-2],"categories":[],"categories_nodes":[],"categories_segments":[],"categories_sizes":[],"default_left":[0,0,0,0,0,0,0],"id":5,"left_children":[1,3,5,-1,-1,-1,-1],"loss_changes":[2.8855127E2,4.9350906E1,7.0555374E1,0E0,0E0,0E0,0E0],"parents":[2147483647,0,0,1,1,2,2],"right_children":[2,4,6,-1,-1,-1,-1],"split_conditions":[-1.354833E-1,1.5664892E-1,-8.3803654E-1,-2.4438545E-2,-3.8661414E-3,-6.400164E-3,1.7052101E-2],"split_indices":[2,1,1,0,0,0,0],"split_type":[0,0,0,0,0,0,0],"sum_hessian":[1.7567112E3,7.771233E2,9.795879E2,3.6857126E2,4.0855203E2,1.5019193E2,8.2939594E2],"tree_param":{"num_deleted":"0","num_feature":"7","num_nodes":"7","size_leaf_vector":"1"}},{"base_weights":[-1.1311452E-2,-4.524147E-1,2.7940533E-1,-2.4768967E-2,-5.340598E-3,-7.2235153E-3,1.53648835E-2],"categories":[],"categories_nodes":[],"categories_segments":[],"categories_sizes":[],"default_left":[0,0,0,0,0,0,0],"id":6,"left_children":[1,3,5,-1,-1,-1,-1],"loss_changes":[2.7374777E2,2.9220322E1,7.544944E1,0E0,0E0,0E0,0E0],"parents":[2147483647,0,0,1,1,2,2],"right_children":[2,4,6,-1,-1,-1,-1],"split_conditions":[-2.8966373E-1,1.5664892E-1,-8.03933E-1,-2.4768967E-2,-5.340598E-3,-7.2235153E-3,1.53648835E-2],"split_indices":[2,1,1,0,0,0,0],"split_type":[0,0,0,0,0,0,0],"sum_hessian":[1.755441E3,6.5514996E2,1.100291E3,3.120492E2,3.4310077E2,1.7837039E2,9.2192065E2],"tree_param":{"num_deleted":"0","num_feature":"7","num_nodes":"7","size_leaf_vector":"1"}},{"base_weights":[-1.3025797E-2,-4.4148475E-1,2.6960048E-1,-2.3754457E-2,-4.7689974E-3,-7.437598E-3,1.4754166E-2],"categories":[],"categories_nodes":[],"categories_segments":[],"categories_sizes":[],"default_left":[0,0,0,0,0,0,0],"id":7,"left_children":[1,3,5,-1,-1,-1,-1],"loss_changes":[2.5825742E2,2.7992783E1,7.144894E1,0E0,0E0,0E0,0E0],"parents":[2147483647,0,0,1,1,2,2],"right_children":[2,4,6,-1,-1,-1,-1],"split_conditions":[-2.8966373E-1,2.532755E-1,-8.3803654E-1,-2.3754457E-2,-4.7689974E-3,-7.437598E-3,1.4754166E-2],"split_indices":[2,1,1,0,0,0,0],"split_type":[0,0,0,0,0,0,0],"sum_hessian":[1.7539701E3,6.544589E2,1.0995112E3,3.3505615E2,3.1940277E2,1.6686092E2,9.3265027E2],"tree_param":{"num_deleted":"0","num_feature":"7","num_nodes":"7","size_leaf_vector":"1"}},{"base_weights":[-1.4601383E-2,-3.862397E-1,2.9505163E-1,-2.2859983E-2,-3.6320023E-3,-6.030801E-3,1.5562335E-2],"categories":[],"categories_nodes":[],"categories_segments":[],"categories_sizes":[],"default_left":[0,0,0,0,0,0,0],"id":8,"left_children":[1,3,5,-1,-1,-1,-1],"loss_changes":[2.4540172E2,4.2959366E1,6.016941E1,0E0,0E0,0E0,0E0],"parents":[2147483647,0,0,1,1,2,2],"right_children":[2,4,6,-1,-1,-1,-1],"split_conditions":[-1.354833E-1,1.5664892E-1,-8.3803654E-1,-2.2859983E-2,-3.6320023E-3,-6.030801E-3,1.5562335E-2],"split_indices":[2,1,1,0,0,0,0],"split_type":[0,0,0,0,0,0,0],"sum_hessian":[1.7523206E3,7.749743E2,9.773462E2,3.6661295E2,4.083614E2,1.5011311E2,8.2723303E2],"tree_param":{"num_deleted":"0","num_feature":"7","num_nodes":"7","size_leaf_vector":"1"}},{"base_weights":[-1.569915E-2,-4.2320853E-1,2.5087374E-1,-2.3229884E-2,-4.9175965E-3,-6.975106E-3,1.3961296E-2],"categories":[],"categories_nodes":[],"categories_segments":[],"categories_sizes":[],"default_left":[0,0,0,0,0,0,0],"id":9,"left_children":[1,3,5,-1,-1,-1,-1],"loss_changes":[2.3119481E2,2.6046585E1,6.5625786E1,0E0,0E0,0E0,0E0],"parents":[2147483647,0,0,1,1,2,2],"right_children":[2,4,6,-1,-1,-1,-1],"split_conditions":[-3.0846623E-1,1.5664892E-1,-8.03933E-1,-2.3229884E-2,-4.9175965E-3,-6.975106E-3,1.3961296E-2],"split_indices":[2,1,1,0,0,0,0],"split_type":[0,0,0,0,0,0,0],"sum_hessian":[1.7505828E3,6.479039E2,1.1026788E3,3.0793268E2,3.399712E2,1.7897943E2,9.236994E2],"tree_param":{"num_deleted":"0","num_feature":"7","num_nodes":"7","size_leaf_vector":"1"}},{"base_weights":[-1.717142E-2,-3.690008E-1,2.764672E-1,-2.4102373E-2,-5.1573473E-3,-2.6853988E-4,1.796875E-2],"categories":[],"categories_nodes":[],"categories_segments":[],"categories_sizes":[],"default_left":[0,0,0,0,0,0,0],"id":10,"left_children":[1,3,5,-1,-1,-1,-1],"loss_changes":[2.198764E2,3.9224854E1,5.7639763E1,0E0,0E0,0E0,0E0],"parents":[2147483647,0,0,1,1,2,2],"right_children":[2,4,6,-1,-1,-1,-1],"split_conditions":[-1.354833E-1,-3.605875E-1,1E0,-2.4102373E-2,-5.1573473E-3,-2.6853988E-4,1.796875E-2],"split_indices":[2,1,0,0,0,0,0],"split_type":[0,0,0,0,0,0,0],"sum_hessian":[1.7486951E3,7.7322235E2,9.754728E2,2.45741E2,5.274813E2,4.3916107E2,5.363117E2],"tree_param":{"num_deleted":"0","num_feature":"7","num_nodes":"7","size_leaf_vector":"1"}},{"base_weights":[-1.7637523E-2,-3.6034322E-1,2.684619E-1,-2.1400925E-2,-3.3454194E-3,-2.610541E-4,1.7454915E-2],"categories":[],"categories_nodes":[],"categories_segments":[],"categories_sizes":[],"default_left":[0,0,0,0,0,0,0],"id":11,"left_children":[1,3,5,-1,-1,-1,-1],"loss_changes":[2.08518E2,3.8020813E1,5.4373993E1,0E0,0E0,0E0,0E0],"parents":[2147483647,0,0,1,1,2,2],"right_children":[2,4,6,-1,-1,-1,-1],"split_conditions":[-1.354833E-1,1.5664892E-1,1E0,-2.1400925E-2,-3.3454194E-3,-2.610541E-4,1.7454915E-2],"split_indices":[2,1,0,0,0,0,0],"split_type":[0,0,0,0,0,0,0],"sum_hessian":[1.747246E3,7.7242615E2,9.7481976E2,3.6420584E2,4.0822034E2,4.391685E2,5.356513E2],"tree_param":{"num_deleted":"0","num_feature":"7","num_nodes":"7","size_leaf_vector":"1"}},{"base_weights":[-1.7693494E-2,-3.9600772E-1,2.2992599E-1,-2.1392489E-2,-4.183748E-3,-7.0739207E-3,1.3029156E-2],"categories":[],"categories_nodes":[],"categories_segments":[],"categories_sizes":[],"default_left":[0,0,0,0,0,0,0],"id":12,"left_children":[1,3,5,-1,-1,-1,-1],"loss_changes":[1.9880429E2,2.314241E1,6.132451E1,0E0,0E0,0E0,0E0],"parents":[2147483647,0,0,1,1,2,2],"right_children":[2,4,6,-1,-1,-1,-1],"split_conditions":[-3.0846623E-1,2.532755E-1,-8.03933E-1,-2.1392489E-2,-4.183748E-3,-7.0739207E-3,1.3029156E-2],"split_indices":[2,1,1,0,0,0,0],"split_type":[0,0,0,0,0,0,0],"sum_hessian":[1.7455627E3,6.452651E2,1.1002976E3,3.2901944E2,3.1624564E2,1.7894199E2,9.213556E2],"tree_param":{"num_deleted":"0","num_feature":"7","num_nodes":"7","size_leaf_vector":"1"}},{"base_weights":[-1.8944208E-2,-2.8355536E-1,3.1844562E-1,-2.1746518E-2,-1.3707206E-3,1.7513636E-2,-1.5186284E-3],"categories":[],"categories_nodes":[],"categories_segments":[],"categories_sizes":[],"default_left":[0,0,0,0,0,0,0],"id":13,"left_children":[1,3,5,-1,-1,-1,-1],"loss_changes":[1.8994542E2,7.328991E1,4.318583E1,0E0,0E0,0E0,0E0],"parents":[2147483647,0,0,1,1,2,2],"right_children":[2,4,6,-1,-1,-1,-1],"split_conditions":[1.5407512E-1,-7.639167E-2,7.770754E-1,-2.1746518E-2,-1.3707206E-3,1.7513636E-2,-1.5186284E-3],"split_indices":[2,1,4,0,0,0,0],"split_type":[0,0,0,0,0,0,0],"sum_hessian":[1.7434116E3,9.941707E2,7.4924097E2,3.761491E2,6.180216E2,5.2854443E2,2.2069655E2],"tree_param":{"num_deleted":"0","num_feature":"7","num_nodes":"7","size_leaf_vector":"1"}},{"base_weights":[-1.8907089E-2,-3.7963685E-1,2.172818E-1,-2.0892335E-2,-4.4031064E-3,-7.2535425E-3,1.230493E-2],"categories":[],"categories_nodes":[],"categories_segments":[],"categories_sizes":[],"default_left":[0,0,0,0,0,0,0],"id":14,"left_children":[1,3,5,-1,-1,-1,-1],"loss_changes":[1.8042587E2,2.1103424E1,5.7091118E1,0E0,0E0,0E0,0E0],"parents":[2147483647,0,0,1,1,2,2],"right_children":[2,4,6,-1,-1,-1,-1],"split_conditions":[-3.0846623E-1,1.5664892E-1,-8.3803654E-1,-2.0892335E-2,-4.4031064E-3,-7.2535425E-3,1.230493E-2],"split_indices":[2,1,1,0,0,0,0],"split_type":[0,0,0,0,0,0,0],"sum_hessian":[1.7417456E3,6.4327423E2,1.0984713E3,3.0353238E2,3.3974185E2,1.6740996E2,9.310614E2],"tree_param":{"num_deleted":"0","num_feature":"7","num_nodes":"7","size_leaf_vector":"1"}},{"base_weights":[-2.0177644E-2,-2.7273768E-1,3.0221868E-1,-2.0903032E-2,-1.3458994E-3,5.027019E-4,1.8437238E-2],"categories":[],"categories_nodes":[],"categories_segments":[],"categories_sizes":[],"default_left":[0,0,0,0,0,0,0],"id":15,"left_children":[1,3,5,-1,-1,-1,-1],"loss_changes":[1.7293047E2,6.729895E1,4.2041916E1,0E0,0E0,0E0,0E0],"parents":[2147483647,0,0,1,1,2,2],"right_children":[2,4,6,-1,-1,-1,-1],"split_conditions":[1.5407512E-1,-7.639167E-2,1E0,-2.0903032E-2,-1.3458994E-3,5.027019E-4,1.8437238E-2],"split_indices":[2,1,0,0,0,0,0],"split_type":[0,0,0,0,0,0,0],"sum_hessian":[1.7394652E3,9.9187E2,7.475952E2,3.7428937E2,6.175806E2,3.3759894E2,4.0999628E2],"tree_param":{"num_deleted":"0","num_feature":"7","num_nodes":"7","size_leaf_vector":"1"}},{"base_weights":[-1.9717218E-2,-4.1548482E-1,1.7757434E-1,-1.825489E-2,1.3663397E-3,-2.5017527E-3,1.3728351E-2],"categories":[],"categories_nodes":[],"categories_segments":[],"categories_sizes":[],"default_left":[0,0,0,0,0,0,0],"id":16,"left_children":[1,3,5,-1,-1,-1,-1],"loss_changes":[1.6468959E2,1.5824989E1,6.0612106E1,0E0,0E0,0E0,0E0],"parents":[2147483647,0,0,1,1,2,2],"right_children":[2,4,6,-1,-1,-1,-1],"split_conditions":[-4.964912E-1,1.583312E0,1E0,-1.825489E-2,1.3663397E-3,-2.5017527E-3,1.3728351E-2],"split_indices":[2,1,0,0,0,0,0],"split_type":[0,0,0,0,0,0,0],"sum_hessian":[1.737722E3,5.078127E2,1.2299093E3,4.6286472E2,4.494799E1,5.5059576E2,6.7931354E2],"tree_param":{"num_deleted":"0","num_feature":"7","num_nodes":"7","size_leaf_vector":"1"}},{"base_weights":[-1.9508123E-2,-2.364685E-1,3.257578E-1,-2.0662991E-2,-5.32808E-4,1.8064976E-2,-1.9665493E-3],"categories":[],"categories_nodes":[],"categories_segments":[],"categories_sizes":[],"default_left":[0,0,0,0,0,0,0],"id":17,"left_children":[1,3,5,-1,-1,-1,-1],"loss_changes":[1.5906941E2,7.957391E1,4.3124947E1,0E0,0E0,0E0,0E0],"parents":[2147483647,0,0,1,1,2,2],"right_children":[2,4,6,-1,-1,-1,-1],"split_conditions":[3.2329756E-1,-1.7301826E-1,7.770754E-1,-2.0662991E-2,-5.32808E-4,1.8064976E-2,-1.9665493E-3],"split_indices":[2,1,4,0,0,0,0],"split_type":[0,0,0,0,0,0,0],"sum_hessian":[1.7360897E3,1.1031019E3,6.3298773E2,3.777628E2,7.253392E2,4.4464008E2,1.8834767E2],"tree_param":{"num_deleted":"0","num_feature":"7","num_nodes":"7","size_leaf_vector":"1"}},{"base_weights":[-1.9251741E-2,-3.48336E-1,1.981563E-1,-2.0592505E-2,-5.060094E-3,-1.9097057E-3,1.424749E-2],"categories":[],"categories_nodes":[],"categories_segments":[],"categories_sizes":[],"default_left":[0,0,0,0,0,0,0],"id":18,"left_children":[1,3,5,-1,-1,-1,-1],"loss_changes":[1.5093053E2,1.8404716E1,5.303163E1,0E0,0E0,0E0,0E0],"parents":[2147483647,0,0,1,1,2,2],"right_children":[2,4,6,-1,-1,-1,-1],"split_conditions":[-2.8966373E-1,-2.525931E-1,-2.5236417E-2,-2.0592505E-2,-5.060094E-3,-1.9097057E-3,1.424749E-2],"split_indices":[2,1,1,0,0,0,0],"split_type":[0,0,0,0,0,0,0],"sum_hessian":[1.7343013E3,6.44188E2,1.0901133E3,2.2390237E2,4.202856E2,4.7863925E2,6.1147394E2],"tree_param":{"num_deleted":"0","num_feature":"7","num_nodes":"7","size_leaf_vector":"1"}},{"base_weights":[-1.9825453E-2,-2.2828123E-1,3.1210962E-1,-1.9834757E-2,-6.016945E-4,1.6301718E-4,1.8989792E-2],"categories":[],"categories_nodes":[],"categories_segments":[],"categories_sizes":[],"default_left":[0,0,0,0,0,0,0],"id":19,"left_children":[1,3,5,-1,-1,-1,-1],"loss_changes":[1.4668437E2,7.2277626E1,4.0839073E1,0E0,0E0,0E0,0E0],"parents":[2147483647,0,0,1,1,2,2],"right_children":[2,4,6,-1,-1,-1,-1],"split_conditions":[3.2329756E-1,-1.7301826E-1,1E0,-1.9834757E-2,-6.016945E-4,1.6301718E-4,1.8989792E-2],"split_indices":[2,1,0,0,0,0,0],"split_type":[0,0,0,0,0,0,0],"sum_hessian":[1.7322343E3,1.1006611E3,6.315731E2,3.7585565E2,7.248055E2,2.8588593E2,3.456872E2],"tree_param":{"num_deleted":"0","num_feature":"7","num_nodes":"7","size_leaf_vector":"1"}},{"base_weights":[-1.917936E-2,-3.8853672E-1,1.620935E-1,-1.7101675E-2,1.3167114E-3,-2.6707023E-3,1.2897551E-2],"categories":[],"categories_nodes":[],"categories_segments":[],"categories_sizes":[],"default_left":[0,0,0,0,0,0,0],"id":20,"left_children":[1,3,5,-1,-1,-1,-1],"loss_changes":[1.4067508E2,1.4010696E1,5.6354496E1,0E0,0E0,0E0,0E0],"parents":[2147483647,0,0,1,1,2,2],"right_children":[2,4,6,-1,-1,-1,-1],"split_conditions":[-5.115332E-1,1.583312E0,1E0,-1.7101675E-2,1.3167114E-3,-2.6707023E-3,1.2897551E-2],"split_indices":[2,1,0,0,0,0,0],"split_type":[0,0,0,0,0,0,0],"sum_hessian":[1.7303961E3,4.9776868E2,1.2326276E3,4.5307797E2,4.4690685E1,5.537406E2,6.788869E2],"tree_param":{"num_deleted":"0","num_feature":"7","num_nodes":"7","size_leaf_vector":"1"}},{"base_weights":[-1.8984763E-2,-2.193981E-1,3.0010772E-1,-1.9218447E-2,-4.968222E-4,1.6911104E-2,-2.240833E-3],"categories":[],"categories_nodes":[],"categories_segments":[],"categories_sizes":[],"default_left":[0,0,0,0,0,0,0],"id":21,"left_children":[1,3,5,-1,-1,-1,-1],"loss_changes":[1.3533553E2,6.853203E1,4.039897E1,0E0,0E0,0E0,0E0],"parents":[2147483647,0,0,1,1,2,2],"right_children":[2,4,6,-1,-1,-1,-1],"split_conditions":[3.2329756E-1,-1.7301826E-1,7.770754E-1,-1.9218447E-2,-4.968222E-4,1.6911104E-2,-2.240833E-3],"split_indices":[2,1,4,0,0,0,0],"split_type":[0,0,0,0,0,0,0],"sum_hessian":[1.7286052E3,1.0984026E3,6.302026E2,3.7413266E2,7.2426996E2,4.4215503E2,1.8804758E2],"tree_param":{"num_deleted":"0","num_feature":"7","num_nodes":"7","size_leaf_vector":"1"}},{"base_weights":[-1.8747805E-2,-3.7289718E-1,1.5482867E-1,-1.9523455E-2,-3.6950102E-3,-2.6546116E-3,1.24158915E-2],"categories":[],"categories_nodes":[],"categories_segments":[],"categories_sizes":[],"default_left":[0,0,0,0,0,0,0],"id":22,"left_children":[1,3,5,-1,-1,-1,-1],"loss_changes":[1.2890645E2,1.3579849E1,5.286126E1,0E0,0E0,0E0,0E0],"parents":[2147483647,0,0,1,1,2,2],"right_children":[2,4,6,-1,-1,-1,-1],"split_conditions":[-5.115332E-1,2.1917202E-1,1E0,-1.9523455E-2,-3.6950102E-3,-2.6546116E-3,1.24158915E-2],"split_indices":[2,1,0,0,0,0,0],"split_type":[0,0,0,0,0,0,0],"sum_hessian":[1.7266052E3,4.957646E2,1.2308407E3,2.5126419E2,2.445004E2,5.534467E2,6.773939E2],"tree_param":{"num_deleted":"0","num_feature":"7","num_nodes":"7","size_leaf_vector":"1"}},{"base_weights":[-1.9360615E-2,-2.3497824E-1,2.5594103E-1,-1.8211756E-2,-1.0834114E-3,1.4626846E-2,-2.1360111E-3],"categories":[],"categories_nodes":[],"categories_segments":[],"categories_sizes":[],"default_left":[0,0,0,0,0,0,0],"id":23,"left_children":[1,3,5,-1,-1,-1,-1],"loss_changes":[1.25203094E2,5.141098E1,3.539348E1,0E0,0E0,0E0,0E0],"parents":[2147483647,0,0,1,1,2,2],"right_children":[2,4,6,-1,-1,-1,-1],"split_conditions":[1.5407512E-1,-7.639167E-2,7.770754E-1,-1.8211756E-2,-1.0834114E-3,1.4626846E-2,-2.1360111E-3],"split_indices":[2,1,4,0,0,0,0],"split_type":[0,0,0,0,0,0,0],"sum_hessian":[1.7247085E3,9.8288434E2,7.4182416E2,3.6683322E2,6.1605115E2,5.219107E2,2.1991348E2],"tree_param":{"num_deleted":"0","num_feature":"7","num_nodes":"7","size_leaf_vector":"1"}},{"base_weights":[-1.9288054E-2,-2.0748597E-1,2.8072438E-1,-1.821517E-2,-4.727998E-4,1.591165E-2,-2.2227874E-3],"categories":[],"categories_nodes":[],"categories_segments":[],"categories_sizes":[],"default_left":[0,0,0,0,0,0,0],"id":24,"left_children":[1,3,5,-1,-1,-1,-1],"loss_changes":[1.19166016E2,6.133467E1,3.6457718E1,0E0,0E0,0E0,0E0],"parents":[2147483647,0,0,1,1,2,2],"right_children":[2,4,6,-1,-1,-1,-1],"split_conditions":[3.2329756E-1,-1.7301826E-1,7.770754E-1,-1.821517E-2,-4.727998E-4,1.591165E-2,-2.2227874E-3],"split_indices":[2,1,4,0,0,0,0],"split_type":[0,0,0,0,0,0,0],"sum_hessian":[1.722526E3,1.0947162E3,6.278099E2,3.7107437E2,7.236418E2,4.3978815E2,1.8802171E2],"tree_param":{"num_deleted":"0","num_feature":"7","num_nodes":"7","size_leaf_vector":"1"}},{"base_weights":[-1.90377E-2,-3.5491782E-1,1.4538786E-1,1.5702522E-3,-1.5646439E-2,-2.708154E-3,1.1852956E-2],"categories":[],"categories_nodes":[],"categories_segments":[],"categories_sizes":[],"default_left":[0,0,0,0,0,0,0],"id":25,"left_children":[1,3,5,-1,-1,-1,-1],"loss_changes":[1.15417015E2,1.2700104E1,4.946224E1,0E0,0E0,0E0,0E0],"parents":[2147483647,0,0,1,1,2,2],"right_children":[2,4,6,-1,-1,-1,-1],"split_conditions":[-5.115332E-1,-1.3677933E0,1E0,1.5702522E-3,-1.5646439E-2,-2.708154E-3,1.1852956E-2],"split_indices":[2,4,0,0,0,0,0],"split_type":[0,0,0,0,0,0,0],"sum_hessian":[1.7203973E3,4.926853E2,1.227712E3,4.0149265E1,4.5253604E2,5.527143E2,6.749977E2],"tree_param":{"num_deleted":"0","num_feature":"7","num_nodes":"7","size_leaf_vector":"1"}},{"base_weights":[-1.878947E-2,-1.9940121E-1,2.6922852E-1,-1.7669016E-2,-3.685469E-4,-2.7877063E-4,1.6792778E-2],"categories":[],"categories_nodes":[],"categories_segments":[],"categories_sizes":[],"default_left":[0,0,0,0,0,0,0],"id":26,"left_children":[1,3,5,-1,-1,-1,-1],"loss_changes":[1.0958579E2,5.8366714E1,3.4548786E1,0E0,0E0,0E0,0E0],"parents":[2147483647,0,0,1,1,2,2],"right_children":[2,4,6,-1,-1,-1,-1],"split_conditions":[3.2329756E-1,-1.7301826E-1,1E0,-1.7669016E-2,-3.685469E-4,-2.7877063E-4,1.6792778E-2],"split_indices":[2,1,0,0,0,0,0],"split_type":[0,0,0,0,0,0,0],"sum_hessian":[1.7185182E3,1.0923121E3,6.26206E2,3.692395E2,7.2307263E2,2.852294E2,3.409766E2],"tree_param":{"num_deleted":"0","num_feature":"7","num_nodes":"7","size_leaf_vector":"1"}},{"base_weights":[-1.8211436E-2,-3.4069014E-1,1.3938639E-1,-1.7987812E-2,-3.2651266E-3,-7.986202E-3,8.910021E-3],"categories":[],"categories_nodes":[],"categories_segments":[],"categories_sizes":[],"default_left":[0,0,0,0,0,0,0],"id":27,"left_children":[1,3,5,-1,-1,-1,-1],"loss_changes":[1.0600824E2,1.2236923E1,4.853853E1,0E0,0E0,0E0,0E0],"parents":[2147483647,0,0,1,1,2,2],"right_children":[2,4,6,-1,-1,-1,-1],"split_conditions":[-5.115332E-1,2.1917202E-1,-8.209848E-1,-1.7987812E-2,-3.2651266E-3,-7.986202E-3,8.910021E-3],"split_indices":[2,1,1,0,0,0,0],"split_type":[0,0,0,0,0,0,0],"sum_hessian":[1.7164067E3,4.9061206E2,1.2257947E3,2.4638974E2,2.4422232E2,1.8933403E2,1.0364607E3],"tree_param":{"num_deleted":"0","num_feature":"7","num_nodes":"7","size_leaf_vector":"1"}},{"base_weights":[-1.9545665E-2,-1.8122108E-1,2.8094164E-1,-1.6028753E-2,6.6661654E-4,1.5406528E-2,-1.610568E-3],"categories":[],"categories_nodes":[],"categories_segments":[],"categories_sizes":[],"default_left":[0,0,0,0,0,0,0],"id":28,"left_children":[1,3,5,-1,-1,-1,-1],"loss_changes":[1.0227706E2,6.0120453E1,2.7779785E1,0E0,0E0,0E0,0E0],"parents":[2147483647,0,0,1,1,2,2],"right_children":[2,4,6,-1,-1,-1,-1],"split_conditions":[4.4363353E-1,-1.3868583E-2,7.770754E-1,-1.6028753E-2,6.6661654E-4,1.5406528E-2,-1.610568E-3],"split_indices":[2,1,4,0,0,0,0],"split_type":[0,0,0,0,0,0,0],"sum_hessian":[1.7141064E3,1.1637612E3,5.503452E2,4.589337E2,7.048276E2,3.868069E2,1.6353833E2],"tree_param":{"num_deleted":"0","num_feature":"7","num_nodes":"7","size_leaf_vector":"1"}},{"base_weights":[-1.8942367E-2,-3.294185E-1,1.3273664E-1,1.6628931E-3,-1.4602161E-2,-7.983605E-3,8.4746955E-3],"categories":[],"categories_nodes":[],"categories_segments":[],"categories_sizes":[],"default_left":[0,0,0,0,0,0,0],"id":29,"left_children":[1,3,5,-1,-1,-1,-1],"loss_changes":[9.79696E1,1.1880951E1,4.5276512E1,0E0,0E0,0E0,0E0],"parents":[2147483647,0,0,1,1,2,2],"right_children":[2,4,6,-1,-1,-1,-1],"split_conditions":[-5.115332E-1,-1.3677933E0,-8.607722E-1,1.6628931E-3,-1.4602161E-2,-7.983605E-3,8.4746955E-3],"split_indices":[2,4,1,0,0,0,0],"split_type":[0,0,0,0,0,0,0],"sum_hessian":[1.712011E3,4.8842444E2,1.2235865E3,4.0015446E1,4.4840897E2,1.7940028E2,1.0441863E3],"tree_param":{"num_deleted":"0","num_feature":"7","num_nodes":"7","size_leaf_vector":"1"}},{"base_weights":[-1.945946E-2,-1.7494167E-1,2.6975423E-1,-1.5493999E-2,6.4423063E-4,1.486387E-2,-1.6482954E-3],"categories":[],"categories_nodes":[],"categories_segments":[],"categories_sizes":[],"default_left":[0,0,0,0,0,0,0],"id":30,"left_children":[1,3,5,-1,-1,-1,-1],"loss_changes":[9.448652E1,5.6057873E1,2.6350914E1,0E0,0E0,0E0,0E0],"parents":[2147483647,0,0,1,1,2,2],"right_children":[2,4,6,-1,-1,-1,-1],"split_conditions":[4.4363353E-1,-1.3868583E-2,7.770754E-1,-1.5493999E-2,6.4423063E-4,1.486387E-2,-1.6482954E-3],"split_indices":[2,1,4,0,0,0,0],"split_type":[0,0,0,0,0,0,0],"sum_hessian":[1.709769E3,1.1610508E3,5.487182E2,4.56858E2,7.041928E2,3.8528918E2,1.6342899E2],"tree_param":{"num_deleted":"0","num_feature":"7","num_nodes":"7","size_leaf_vector":"1"}},{"base_weights":[-1.886715E-2,-3.8947484E-1,1.0130686E-1,-1.8413015E-2,1.0393523E-3,-3.971851E-3,1.1487265E-2],"categories":[],"categories_nodes":[],"categories_segments":[],"categories_sizes":[],"default_left":[0,0,0,0,0,0,0],"id":31,"left_children":[1,3,5,-1,-1,-1,-1],"loss_changes":[9.2096405E1,1.7129738E1,6.455788E1,0E0,0E0,0E0,0E0],"parents":[2147483647,0,0,1,1,2,2],"right_children":[2,4,6,-1,-1,-1,-1],"split_conditions":[-8.209848E-1,1.0077083E0,1E0,-1.8413015E-2,1.0393523E-3,-3.971851E-3,1.1487265E-2],"split_indices":[1,2,0,0,0,0,0],"split_type":[0,0,0,0,0,0,0],"sum_hessian":[1.7076333E3,3.133301E2,1.3943032E3,2.5005939E2,6.3270718E1,7.133714E2,6.809318E2],"tree_param":{"num_deleted":"0","num_feature":"7","num_nodes":"7","size_leaf_vector":"1"}},{"base_weights":[-1.9123804E-2,-2.3358995E-1,1.8017551E-1,-1.6879242E-2,-2.6435393E-3,-1.4230132E-3,1.2800811E-2],"categories":[],"categories_nodes":[],"categories_segments":[],"categories_sizes":[],"default_left":[0,0,0,0,0,0,0],"id":32,"left_children":[1,3,5,-1,-1,-1,-1],"loss_changes":[8.9118286E1,2.613012E1,3.509328E1,0E0,0E0,0E0,0E0],"parents":[2147483647,0,0,1,1,2,2],"right_children":[2,4,6,-1,-1,-1,-1],"split_conditions":[-6.7794316E-2,-3.605875E-1,-2.5236417E-2,-1.6879242E-2,-2.6435393E-3,-1.4230132E-3,1.2800811E-2],"split_indices":[2,1,1,0,0,0,0],"split_type":[0,0,0,0,0,0,0],"sum_hessian":[1.7059121E3,8.058614E2,9.000507E2,2.4270627E2,5.6315515E2,4.0996808E2,4.9008267E2],"tree_param":{"num_deleted":"0","num_feature":"7","num_nodes":"7","size_leaf_vector":"1"}},{"base_weights":[-1.9203031E-2,-1.6771507E-1,2.5719628E-1,-1.4666911E-2,4.58996E-4,1.4247346E-2,-1.6771464E-3],"categories":[],"categories_nodes":[],"categories_segments":[],"categories_sizes":[],"default_left":[0,0,0,0,0,0,0],"id":33,"left_children":[1,3,5,-1,-1,-1,-1],"loss_changes":[8.601239E1,4.8863888E1,2.4692474E1,0E0,0E0,0E0,0E0],"parents":[2147483647,0,0,1,1,2,2],"right_children":[2,4,6,-1,-1,-1,-1],"split_conditions":[4.4363353E-1,-1.3868583E-2,7.770754E-1,-1.4666911E-2,4.58996E-4,1.4247346E-2,-1.6771464E-3],"split_indices":[2,1,4,0,0,0,0],"split_type":[0,0,0,0,0,0,0],"sum_hessian":[1.7036667E3,1.1570673E3,5.4659955E2,4.535943E2,7.0347296E2,3.833173E2,1.6328224E2],"tree_param":{"num_deleted":"0","num_feature":"7","num_nodes":"7","size_leaf_vector":"1"}},{"base_weights":[-1.8622002E-2,-3.7177292E-1,9.5635936E-2,-1.7583225E-2,9.783297E-4,-3.9002118E-3,1.1009695E-2],"categories":[],"categories_nodes":[],"categories_segments":[],"categories_sizes":[],"default_left":[0,0,0,0,0,0,0],"id":34,"left_children":[1,3,5,-1,-1,-1,-1],"loss_changes":[8.315368E1,1.5532951E1,5.9997498E1,0E0,0E0,0E0,0E0],"parents":[2147483647,0,0,1,1,2,2],"right_children":[2,4,6,-1,-1,-1,-1],"split_conditions":[-8.209848E-1,1.0077083E0,1E0,-1.7583225E-2,9.783297E-4,-3.9002118E-3,1.1009695E-2],"split_indices":[1,2,0,0,0,0,0],"split_type":[0,0,0,0,0,0,0],"sum_hessian":[1.7014944E3,3.106999E2,1.3907944E3,2.4745607E2,6.3243824E1,7.122163E2,6.785782E2],"tree_param":{"num_deleted":"0","num_feature":"7","num_nodes":"7","size_leaf_vector":"1"}},{"base_weights":[-1.885529E-2,-3.0262724E-1,1.1955124E-1,1.7443243E-3,-1.350096E-2,-2.8169192E-3,1.028645E-2],"categories":[],"categories_nodes":[],"categories_segments":[],"categories_sizes":[],"default_left":[0,0,0,0,0,0,0],"id":35,"left_children":[1,3,5,-1,-1,-1,-1],"loss_changes":[8.117018E1,1.0954159E1,4.026184E1,0E0,0E0,0E0,0E0],"parents":[2147483647,0,0,1,1,2,2],"right_children":[2,4,6,-1,-1,-1,-1],"split_conditions":[-5.115332E-1,-1.3677933E0,1E0,1.7443243E-3,-1.350096E-2,-2.8169192E-3,1.028645E-2],"split_indices":[2,4,0,0,0,0,0],"split_type":[0,0,0,0,0,0,0],"sum_hessian":[1.699725E3,4.8294E2,1.2167849E3,3.985276E1,4.4308725E2,5.50315E2,6.664699E2],"tree_param":{"num_deleted":"0","num_feature":"7","num_nodes":"7","size_leaf_vector":"1"}},{"base_weights":[-1.855517E-2,-3.6284772E-1,9.271561E-2,-1.7155388E-2,9.3110686E-4,-3.587906E-3,1.0484838E-2],"categories":[],"categories_nodes":[],"categories_segments":[],"categories_sizes":[],"default_left":[0,0,0,0,0,0,0],"id":36,"left_children":[1,3,5,-1,-1,-1,-1],"loss_changes":[7.878348E1,1.4661217E1,5.330202E1,0E0,0E0,0E0,0E0],"parents":[2147483647,0,0,1,1,2,2],"right_children":[2,4,6,-1,-1,-1,-1],"split_conditions":[-8.209848E-1,1.0077083E0,1E0,-1.7155388E-2,9.3110686E-4,-3.587906E-3,1.0484838E-2],"split_indices":[1,2,0,0,0,0,0],"split_type":[0,0,0,0,0,0,0],"sum_hessian":[1.6977626E3,3.092E2,1.3885625E3,2.4598006E2,6.3219944E1,7.118841E2,6.766784E2],"tree_param":{"num_deleted":"0","num_feature":"7","num_nodes":"7","size_leaf_vector":"1"}},{"base_weights":[-1.8776372E-2,-1.603363E-1,2.4474752E-1,-1.3897122E-2,3.2428815E-4,1.3616007E-2,-1.6716708E-3],"categories":[],"categories_nodes":[],"categories_segments":[],"categories_sizes":[],"default_left":[0,0,0,0,0,0,0],"id":37,"left_children":[1,3,5,-1,-1,-1,-1],"loss_changes":[7.788698E1,4.286002E1,2.2862541E1,0E0,0E0,0E0,0E0],"parents":[2147483647,0,0,1,1,2,2],"right_children":[2,4,6,-1,-1,-1,-1],"split_conditions":[4.4363353E-1,-1.3868583E-2,7.770754E-1,-1.3897122E-2,3.2428815E-4,1.3616007E-2,-1.6716708E-3],"split_indices":[2,1,4,0,0,0,0],"split_type":[0,0,0,0,0,0,0],"sum_hessian":[1.6959552E3,1.1519432E3,5.44012E2,4.4960748E2,7.0233575E2,3.809431E2,1.6306891E2],"tree_param":{"num_deleted":"0","num_feature":"7","num_nodes":"7","size_leaf_vector":"1"}},{"base_weights":[-1.8211788E-2,-3.9955264E-1,7.6923266E-2,-1.6623624E-2,3.4968136E-4,-4.421243E-3,1.0229554E-2],"categories":[],"categories_nodes":[],"categories_segments":[],"categories_sizes":[],"default_left":[0,0,0,0,0,0,0],"id":38,"left_children":[1,3,5,-1,-1,-1,-1],"loss_changes":[7.424764E1,3.3600616E0,6.1330498E1,0E0,0E0,0E0,0E0],"parents":[2147483647,0,0,1,1,2,2],"right_children":[2,4,6,-1,-1,-1,-1],"split_conditions":[-1.1165484E0,2.1847446E0,1E0,-1.6623624E-2,3.4968136E-4,-4.421243E-3,1.0229554E-2],"split_indices":[1,2,0,0,0,0,0],"split_type":[0,0,0,0,0,0,0],"sum_hessian":[1.6937681E3,2.1615565E2,1.4776124E3,2.0470189E2,1.1453764E1,7.5698944E2,7.20623E2],"tree_param":{"num_deleted":"0","num_feature":"7","num_nodes":"7","size_leaf_vector":"1"}},{"base_weights":[-1.8561035E-2,-1.5601818E-1,2.3751998E-1,-1.5030505E-2,-6.6159054E-4,1.32125085E-2,-1.6067377E-3],"categories":[],"categories_nodes":[],"categories_segments":[],"categories_sizes":[],"default_left":[0,0,0,0,0,0,0],"id":39,"left_children":[1,3,5,-1,-1,-1,-1],"loss_changes":[7.3365585E1,3.9904217E1,2.1434212E1,0E0,0E0,0E0,0E0],"parents":[2147483647,0,0,1,1,2,2],"right_children":[2,4,6,-1,-1,-1,-1],"split_conditions":[4.4363353E-1,-3.605875E-1,7.770754E-1,-1.5030505E-2,-6.6159054E-4,1.32125085E-2,-1.6067377E-3],"split_indices":[2,1,4,0,0,0,0],"split_type":[0,0,0,0,0,0,0],"sum_hessian":[1.6921621E3,1.1496791E3,5.4248303E2,3.2076224E2,8.289169E2,3.7947952E2,1.6300348E2],"tree_param":{"num_deleted":"0","num_feature":"7","num_nodes":"7","size_leaf_vector":"1"}},{"base_weights":[-1.825486E-2,-2.4647169E-1,1.317061E-1,2.944087E-5,-1.24837E-2,-2.413256E-3,1.03818355E-2],"categories":[],"categories_nodes":[],"categories_segments":[],"categories_sizes":[],"default_left":[0,0,0,0,0,0,0],"id":40,"left_children":[1,3,5,-1,-1,-1,-1],"loss_changes":[7.0575066E1,1.3222687E1,3.3914093E1,0E0,0E0,0E0,0E0],"parents":[2147483647,0,0,1,1,2,2],"right_children":[2,4,6,-1,-1,-1,-1],"split_conditions":[-2.8966373E-1,-1.761996E-1,-3.0920334E-2,2.944087E-5,-1.24837E-2,-2.413256E-3,1.03818355E-2],"split_indices":[2,4,1,0,0,0,0],"split_type":[0,0,0,0,0,0,0],"sum_hessian":[1.6900068E3,6.2140485E2,1.0686019E3,1.6996564E2,4.514392E2,4.6737903E2,6.0122296E2],"tree_param":{"num_deleted":"0","num_feature":"7","num_nodes":"7","size_leaf_vector":"1"}},{"base_weights":[-1.8001763E-2,-3.8476175E-1,7.333246E-2,-1.601461E-2,3.4344307E-4,-4.2818165E-3,9.829214E-3],"categories":[],"categories_nodes":[],"categories_segments":[],"categories_sizes":[],"default_left":[0,0,0,0,0,0,0],"id":41,"left_children":[1,3,5,-1,-1,-1,-1],"loss_changes":[6.8325516E1,3.1433601E0,5.678938E1,0E0,0E0,0E0,0E0],"parents":[2147483647,0,0,1,1,2,2],"right_children":[2,4,6,-1,-1,-1,-1],"split_conditions":[-1.1165484E0,2.1847446E0,1E0,-1.601461E-2,3.4344307E-4,-4.2818165E-3,9.829214E-3],"split_indices":[1,2,0,0,0,0,0],"split_type":[0,0,0,0,0,0,0],"sum_hessian":[1.6878237E3,2.14173E2,1.4736508E3,2.0272379E2,1.1449229E1,7.5554114E2,7.181096E2],"tree_param":{"num_deleted":"0","num_feature":"7","num_nodes":"7","size_leaf_vector":"1"}},{"base_weights":[-1.8328035E-2,-1.3167699E-1,2.6867893E-1,-1.4496532E-2,3.5527462E-4,-3.3546041E-3,1.2565729E-2],"categories":[],"categories_nodes":[],"categories_segments":[],"categories_sizes":[],"default_left":[0,0,0,0,0,0,0],"id":42,"left_children":[1,3,5,-1,-1,-1,-1],"loss_changes":[6.782618E1,4.8416496E1,1.455743E1,0E0,0E0,0E0,0E0],"parents":[2147483647,0,0,1,1,2,2],"right_children":[2,4,6,-1,-1,-1,-1],"split_conditions":[7.3319197E-1,-3.3785185E-1,-1.4462156E0,-1.4496532E-2,3.5527462E-4,-3.3546041E-3,1.2565729E-2],"split_indices":[2,1,1,0,0,0,0],"split_type":[0,0,0,0,0,0,0],"sum_hessian":[1.6861958E3,1.2829034E3,4.0329236E2,3.7153522E2,9.113683E2,2.7639723E1,3.7565265E2],"tree_param":{"num_deleted":"0","num_feature":"7","num_nodes":"7","size_leaf_vector":"1"}},{"base_weights":[-1.811717E-2,-1.4721507E-1,2.2263287E-1,-1.48184085E-2,-1.032927E-3,1.2511348E-2,-1.6917778E-3],"categories":[],"categories_nodes":[],"categories_segments":[],"categories_sizes":[],"default_left":[0,0,0,0,0,0,0],"id":43,"left_children":[1,3,5,-1,-1,-1,-1],"loss_changes":[6.454169E1,3.4368305E1,1.9975391E1,0E0,0E0,0E0,0E0],"parents":[2147483647,0,0,1,1,2,2],"right_children":[2,4,6,-1,-1,-1,-1],"split_conditions":[4.4363353E-1,-5.3110504E-1,7.770754E-1,-1.48184085E-2,-1.032927E-3,1.2511348E-2,-1.6917778E-3],"split_indices":[2,1,4,0,0,0,0],"split_type":[0,0,0,0,0,0,0],"sum_hessian":[1.6841954E3,1.1446199E3,5.3957556E2,2.6513556E2,8.794844E2,3.7684024E2,1.6273532E2],"tree_param":{"num_deleted":"0","num_feature":"7","num_nodes":"7","size_leaf_vector":"1"}},{"base_weights":[-1.792593E-2,-2.6849538E-1,1.03946716E-1,1.8306527E-3,-1.2093261E-2,-2.5528385E-3,9.063644E-3],"categories":[],"categories_nodes":[],"categories_segments":[],"categories_sizes":[],"default_left":[0,0,0,0,0,0,0],"id":44,"left_children":[1,3,5,-1,-1,-1,-1],"loss_changes":[6.253035E1,9.727104E0,3.1524174E1,0E0,0E0,0E0,0E0],"parents":[2147483647,0,0,1,1,2,2],"right_children":[2,4,6,-1,-1,-1,-1],"split_conditions":[-5.115332E-1,-1.3677933E0,1E0,1.8306527E-3,-1.2093261E-2,-2.5528385E-3,9.063644E-3],"split_indices":[2,4,0,0,0,0,0],"split_type":[0,0,0,0,0,0,0],"sum_hessian":[1.682093E3,4.7523145E2,1.2068617E3,3.9647907E1,4.3558353E2,5.483591E2,6.5850256E2],"tree_param":{"num_deleted":"0","num_feature":"7","num_nodes":"7","size_leaf_vector":"1"}},{"base_weights":[-1.7611368E-2,-3.6759192E-1,6.929016E-2,-1.5295674E-2,3.127154E-4,-4.0265126E-3,9.280321E-3],"categories":[],"categories_nodes":[],"categories_segments":[],"categories_sizes":[],"default_left":[0,0,0,0,0,0,0],"id":45,"left_children":[1,3,5,-1,-1,-1,-1],"loss_changes":[6.1773506E1,2.8072357E0,5.0357468E1,0E0,0E0,0E0,0E0],"parents":[2147483647,0,0,1,1,2,2],"right_children":[2,4,6,-1,-1,-1,-1],"split_conditions":[-1.1165484E0,2.1847446E0,1E0,-1.5295674E-2,3.127154E-4,-4.0265126E-3,9.280321E-3],"split_indices":[1,2,0,0,0,0,0],"split_type":[0,0,0,0,0,0,0],"sum_hessian":[1.6801426E3,2.1148747E2,1.468655E3,2.0004857E2,1.14389105E1,7.539853E2,7.1466974E2],"tree_param":{"num_deleted":"0","num_feature":"7","num_nodes":"7","size_leaf_vector":"1"}},{"base_weights":[-1.7917097E-2,-1.24780625E-1,2.5305364E-1,-1.2424364E-2,1.1752117E-3,-3.3194402E-3,1.1903894E-2],"categories":[],"categories_nodes":[],"categories_segments":[],"categories_sizes":[],"default_left":[0,0,0,0,0,0,0],"id":46,"left_children":[1,3,5,-1,-1,-1,-1],"loss_changes":[6.0165894E1,4.381663E1,1.3575821E1,0E0,0E0,0E0,0E0],"parents":[2147483647,0,0,1,1,2,2],"right_children":[2,4,6,-1,-1,-1,-1],"split_conditions":[7.3319197E-1,-4.228817E-2,-1.4462156E0,-1.2424364E-2,1.1752117E-3,-3.3194402E-3,1.1903894E-2],"split_indices":[2,1,1,0,0,0,0],"split_type":[0,0,0,0,0,0,0],"sum_hessian":[1.6784979E3,1.2776664E3,4.0083157E2,4.9144067E2,7.8622565E2,2.762088E1,3.732107E2],"tree_param":{"num_deleted":"0","num_feature":"7","num_nodes":"7","size_leaf_vector":"1"}},{"base_weights":[-1.749212E-2,1.5539955E-1,-1.8183933E-1,-1.6450475E-3,1.0887421E-2,-1.2530179E-2,2.20692E-3],"categories":[],"categories_nodes":[],"categories_segments":[],"categories_sizes":[],"default_left":[0,0,0,0,0,0,0],"id":47,"left_children":[1,3,5,-1,-1,-1,-1],"loss_changes":[5.846069E1,2.5389622E1,3.586272E1,0E0,0E0,0E0,0E0],"parents":[2147483647,0,0,1,1,2,2],"right_children":[2,4,6,-1,-1,-1,-1],"split_conditions":[3.004379E-1,-6.7794316E-2,1.50965E-1,-1.6450475E-3,1.0887421E-2,-1.2530179E-2,2.20692E-3],"split_indices":[4,2,1,0,0,0,0],"split_type":[0,0,0,0,0,0,0],"sum_hessian":[1.6764938E3,8.2207623E2,8.544175E2,3.5254987E2,4.6952637E2,5.1012817E2,3.442893E2],"tree_param":{"num_deleted":"0","num_feature":"7","num_nodes":"7","size_leaf_vector":"1"}},{"base_weights":[-1.691931E-2,-3.5282278E-1,6.625938E-2,2.596856E-4,-1.4726363E-2,-3.893399E-3,8.926272E-3],"categories":[],"categories_nodes":[],"categories_segments":[],"categories_sizes":[],"default_left":[0,0,0,0,0,0,0],"id":48,"left_children":[1,3,5,-1,-1,-1,-1],"loss_changes":[5.6591263E1,2.6634293E0,4.6658134E1,0E0,0E0,0E0,0E0],"parents":[2147483647,0,0,1,1,2,2],"right_children":[2,4,6,-1,-1,-1,-1],"split_conditions":[-1.1165484E0,-1.9253614E0,1E0,2.596856E-4,-1.4726363E-2,-3.893399E-3,8.926272E-3],"split_indices":[1,3,0,0,0,0,0],"split_type":[0,0,0,0,0,0,0],"sum_hessian":[1.6746436E3,2.0948785E2,1.4651558E3,1.3084169E1,1.9640369E2,7.5276697E2,7.123888E2],"tree_param":{"num_deleted":"0","num_feature":"7","num_nodes":"7","size_leaf_vector":"1"}},{"base_weights":[-1.7223757E-2,-1.2044244E-1,2.4458602E-1,-1.3172773E-2,2.4477756E-4,-3.19899E-3,1.1506664E-2],"categories":[],"categories_nodes":[],"categories_segments":[],"categories_sizes":[],"default_left":[0,0,0,0,0,0,0],"id":49,"left_children":[1,3,5,-1,-1,-1,-1],"loss_changes":[5.6000748E1,3.9112183E1,1.2645424E1,0E0,0E0,0E0,0E0],"parents":[2147483647,0,0,1,1,2,2],"right_children":[2,4,6,-1,-1,-1,-1],"split_conditions":[7.3319197E-1,-3.3785185E-1,-1.4462156E0,-1.3172773E-2,2.4477756E-4,-3.19899E-3,1.1506664E-2],"split_indices":[2,1,1,0,0,0,0],"split_type":[0,0,0,0,0,0,0],"sum_hessian":[1.6730763E3,1.2739524E3,3.9912387E2,3.652146E2,9.087378E2,2.7602167E1,3.715217E2],"tree_param":{"num_deleted":"0","num_feature":"7","num_nodes":"7","size_leaf_vector":"1"}},{"base_weights":[-1.702747E-2,1.4869387E-1,-1.7453238E-1,-1.5755916E-3,1.0428294E-2,-1.198968E-2,2.0523225E-3],"categories":[],"categories_nodes":[],"categories_segments":[],"categories_sizes":[],"default_left":[0,0,0,0,0,0,0],"id":50,"left_children":[1,3,5,-1,-1,-1,-1],"loss_changes":[5.3561E1,2.3250809E1,3.241885E1,0E0,0E0,0E0,0E0],"parents":[2147483647,0,0,1,1,2,2],"right_children":[2,4,6,-1,-1,-1,-1],"split_conditions":[3.004379E-1,-6.7794316E-2,1.50965E-1,-1.5755916E-3,1.0428294E-2,-1.198968E-2,2.0523225E-3],"split_indices":[4,2,1,0,0,0,0],"split_type":[0,0,0,0,0,0,0],"sum_hessian":[1.671092E3,8.19513E2,8.5157904E2,3.521114E2,4.6740164E2,5.0763638E2,3.4394263E2],"tree_param":{"num_deleted":"0","num_feature":"7","num_nodes":"7","size_leaf_vector":"1"}},{"base_weights":[-1.6473642E-2,-2.4701507E-1,9.532021E-2,1.8726349E-3,-1.1204658E-2,-2.2583453E-3,8.2594175E-3],"categories":[],"categories_nodes":[],"categories_segments":[],"categories_sizes":[],"default_left":[0,0,0,0,0,0,0],"id":51,"left_children":[1,3,5,-1,-1,-1,-1],"loss_changes":[5.2441463E1,8.930553E0,2.5689184E1,0E0,0E0,0E0,0E0],"parents":[2147483647,0,0,1,1,2,2],"right_children":[2,4,6,-1,-1,-1,-1],"split_conditions":[-5.115332E-1,-1.3677933E0,1E0,1.8726349E-3,-1.1204658E-2,-2.2583453E-3,8.2594175E-3],"split_indices":[2,4,0,0,0,0,0],"split_type":[0,0,0,0,0,0,0],"sum_hessian":[1.6692433E3,4.6966788E2,1.1995754E3,3.9540913E1,4.3012695E2,5.468845E2,6.5269086E2],"tree_param":{"num_deleted":"0","num_feature":"7","num_nodes":"7","size_leaf_vector":"1"}},{"base_weights":[-1.6174749E-2,-3.372113E-1,6.3097805E-2,3.3611225E-4,-1.4118786E-2,-3.6243733E-3,8.424476E-3],"categories":[],"categories_nodes":[],"categories_segments":[],"categories_sizes":[],"default_left":[0,0,0,0,0,0,0],"id":52,"left_children":[1,3,5,-1,-1,-1,-1],"loss_changes":[5.135743E1,2.7347183E0,4.108477E1,0E0,0E0,0E0,0E0],"parents":[2147483647,0,0,1,1,2,2],"right_children":[2,4,6,-1,-1,-1,-1],"split_conditions":[-1.1165484E0,-1.9253614E0,1E0,3.3611225E-4,-1.4118786E-2,-3.6243733E-3,8.424476E-3],"split_indices":[1,3,0,0,0,0,0],"split_type":[0,0,0,0,0,0,0],"sum_hessian":[1.6673342E3,2.0710881E2,1.4602253E3,1.2919091E1,1.9418973E2,7.511842E2,7.0904114E2],"tree_param":{"num_deleted":"0","num_feature":"7","num_nodes":"7","size_leaf_vector":"1"}},{"base_weights":[-1.6465796E-2,-1.09971136E-1,2.487562E-1,-1.2215583E-2,5.4091326E-4,1.2811192E-2,-6.03129E-4],"categories":[],"categories_nodes":[],"categories_segments":[],"categories_sizes":[],"default_left":[0,0,0,0,0,0,0],"id":53,"left_children":[1,3,5,-1,-1,-1,-1],"loss_changes":[5.1272243E1,3.711457E1,1.1160244E1,0E0,0E0,0E0,0E0],"parents":[2147483647,0,0,1,1,2,2],"right_children":[2,4,6,-1,-1,-1,-1],"split_conditions":[8.1968343E-1,-2.7532876E-1,7.770754E-1,-1.2215583E-2,5.4091326E-4,1.2811192E-2,-6.03129E-4],"split_indices":[2,1,4,0,0,0,0],"split_type":[0,0,0,0,0,0,0],"sum_hessian":[1.6657683E3,1.314233E3,3.5153528E2,3.999775E2,9.142555E2,2.4441353E2,1.0712175E2],"tree_param":{"num_deleted":"0","num_feature":"7","num_nodes":"7","size_leaf_vector":"1"}},{"base_weights":[-1.5768489E-2,-1.2895921E-1,1.9536312E-1,-1.2956113E-2,-1.0377093E-3,-1.8757669E-4,1.2156974E-2],"categories":[],"categories_nodes":[],"categories_segments":[],"categories_sizes":[],"default_left":[0,0,0,0,0,0,0],"id":54,"left_children":[1,3,5,-1,-1,-1,-1],"loss_changes":[4.914179E1,2.4956232E1,1.5981585E1,0E0,0E0,0E0,0E0],"parents":[2147483647,0,0,1,1,2,2],"right_children":[2,4,6,-1,-1,-1,-1],"split_conditions":[4.4363353E-1,-5.595246E-1,1E0,-1.2956113E-2,-1.0377093E-3,-1.8757669E-4,1.2156974E-2],"split_indices":[2,1,0,0,0,0,0],"split_type":[0,0,0,0,0,0,0],"sum_hessian":[1.6639462E3,1.1316105E3,5.3233563E2,2.4964833E2,8.8196216E2,2.5154588E2,2.8078973E2],"tree_param":{"num_deleted":"0","num_feature":"7","num_nodes":"7","size_leaf_vector":"1"}},{"base_weights":[-1.5362888E-2,1.408557E-1,-1.6401376E-1,-1.3721193E-3,9.789628E-3,-1.13125E-2,1.9623481E-3],"categories":[],"categories_nodes":[],"categories_segments":[],"categories_sizes":[],"default_left":[0,0,0,0,0,0,0],"id":55,"left_children":[1,3,5,-1,-1,-1,-1],"loss_changes":[4.7443134E1,1.9913769E1,2.891826E1,0E0,0E0,0E0,0E0],"parents":[2147483647,0,0,1,1,2,2],"right_children":[2,4,6,-1,-1,-1,-1],"split_conditions":[3.004379E-1,-6.7794316E-2,1.50965E-1,-1.3721193E-3,9.789628E-3,-1.13125E-2,1.9623481E-3],"split_indices":[4,2,1,0,0,0,0],"split_type":[0,0,0,0,0,0,0],"sum_hessian":[1.6620078E3,8.152597E2,8.4674805E2,3.5114008E2,4.6411963E2,5.035036E2,3.4324445E2],"tree_param":{"num_deleted":"0","num_feature":"7","num_nodes":"7","size_leaf_vector":"1"}},{"base_weights":[-1.4858887E-2,-1.0436751E-1,2.3889464E-1,-1.1586511E-2,4.9284333E-4,-2.8200906E-3,1.1228636E-2],"categories":[],"categories_nodes":[],"categories_segments":[],"categories_sizes":[],"default_left":[0,0,0,0,0,0,0],"id":56,"left_children":[1,3,5,-1,-1,-1,-1],"loss_changes":[4.6808308E1,3.314465E1,1.0777515E1,0E0,0E0,0E0,0E0],"parents":[2147483647,0,0,1,1,2,2],"right_children":[2,4,6,-1,-1,-1,-1],"split_conditions":[8.1968343E-1,-2.7532876E-1,-1.4462156E0,-1.1586511E-2,4.9284333E-4,-2.8200906E-3,1.1228636E-2],"split_indices":[2,1,1,0,0,0,0],"split_type":[0,0,0,0,0,0,0],"sum_hessian":[1.6601819E3,1.3103972E3,3.4978476E2,3.9694287E2,9.134543E2,2.605325E1,3.237315E2],"tree_param":{"num_deleted":"0","num_feature":"7","num_nodes":"7","size_leaf_vector":"1"}},{"base_weights":[-1.4556764E-2,-3.1708792E-1,5.9710547E-2,4.4642857E-4,-1.3342204E-2,-3.471034E-3,8.026671E-3],"categories":[],"categories_nodes":[],"categories_segments":[],"categories_sizes":[],"default_left":[0,0,0,0,0,0,0],"id":57,"left_children":[1,3,5,-1,-1,-1,-1],"loss_changes":[4.5167805E1,2.8449326E0,3.730397E1,0E0,0E0,0E0,0E0],"parents":[2147483647,0,0,1,1,2,2],"right_children":[2,4,6,-1,-1,-1,-1],"split_conditions":[-1.1165484E0,-1.9253614E0,1E0,4.4642857E-4,-1.3342204E-2,-3.471034E-3,8.026671E-3],"split_indices":[1,3,0,0,0,0,0],"split_type":[0,0,0,0,0,0,0],"sum_hessian":[1.6583494E3,2.0377582E2,1.4545736E3,1.2674642E1,1.9110117E2,7.4929614E2,7.052774E2],"tree_param":{"num_deleted":"0","num_feature":"7","num_nodes":"7","size_leaf_vector":"1"}},{"base_weights":[-1.4849176E-2,-1.0203551E-1,2.3260778E-1,-1.1220801E-2,4.1568108E-4,-2.743283E-3,1.0935332E-2],"categories":[],"categories_nodes":[],"categories_segments":[],"categories_sizes":[],"default_left":[0,0,0,0,0,0,0],"id":58,"left_children":[1,3,5,-1,-1,-1,-1],"loss_changes":[4.439928E1,3.0639526E1,1.0208681E1,0E0,0E0,0E0,0E0],"parents":[2147483647,0,0,1,1,2,2],"right_children":[2,4,6,-1,-1,-1,-1],"split_conditions":[8.1968343E-1,-2.7532876E-1,-1.4462156E0,-1.1220801E-2,4.1568108E-4,-2.743283E-3,1.0935332E-2],"split_indices":[2,1,1,0,0,0,0],"split_type":[0,0,0,0,0,0,0],"sum_hessian":[1.6568004E3,1.3081461E3,3.486544E2,3.951915E2,9.129546E2,2.6042109E1,3.2261227E2],"tree_param":{"num_deleted":"0","num_feature":"7","num_nodes":"7","size_leaf_vector":"1"}},{"base_weights":[-1.4540267E-2,-2.2549728E-1,8.737019E-2,1.9236954E-3,-1.0317898E-2,-1.968504E-3,7.5018094E-3],"categories":[],"categories_nodes":[],"categories_segments":[],"categories_sizes":[],"default_left":[0,0,0,0,0,0,0],"id":59,"left_children":[1,3,5,-1,-1,-1,-1],"loss_changes":[4.344939E1,8.181263E0,2.067649E1,0E0,0E0,0E0,0E0],"parents":[2147483647,0,0,1,1,2,2],"right_children":[2,4,6,-1,-1,-1,-1],"split_conditions":[-5.115332E-1,-1.3677933E0,1E0,1.9236954E-3,-1.0317898E-2,-1.968504E-3,7.5018094E-3],"split_indices":[2,4,0,0,0,0,0],"split_type":[0,0,0,0,0,0,0],"sum_hessian":[1.6549866E3,4.6363196E2,1.1913546E3,3.939779E1,4.2423416E2,5.4518933E2,6.461653E2],"tree_param":{"num_deleted":"0","num_feature":"7","num_nodes":"7","size_leaf_vector":"1"}},{"base_weights":[-1.4270183E-2,1.3377266E-1,-1.5527907E-1,-7.9495665E-5,1.0399154E-2,-1.0696671E-2,1.817121E-3],"categories":[],"categories_nodes":[],"categories_segments":[],"categories_sizes":[],"default_left":[0,0,0,0,0,0,0],"id":60,"left_children":[1,3,5,-1,-1,-1,-1],"loss_changes":[4.246471E1,1.7270845E1,2.5567766E1,0E0,0E0,0E0,0E0],"parents":[2147483647,0,0,1,1,2,2],"right_children":[2,4,6,-1,-1,-1,-1],"split_conditions":[3.004379E-1,2.894531E-1,1.50965E-1,-7.9495665E-5,1.0399154E-2,-1.0696671E-2,1.817121E-3],"split_indices":[4,2,1,0,0,0,0],"split_type":[0,0,0,0,0,0,0],"sum_hessian":[1.653148E3,8.1124115E2,8.4190674E2,4.8139584E2,3.2984534E2,4.9940128E2,3.4250543E2],"tree_param":{"num_deleted":"0","num_feature":"7","num_nodes":"7","size_leaf_vector":"1"}},{"base_weights":[-1.3562363E-2,-3.0348933E-1,5.736651E-2,5.10826E-4,-1.2813364E-2,-3.222882E-3,7.6032784E-3],"categories":[],"categories_nodes":[],"categories_segments":[],"categories_sizes":[],"default_left":[0,0,0,0,0,0,0],"id":61,"left_children":[1,3,5,-1,-1,-1,-1],"loss_changes":[4.1213856E1,2.872387E0,3.296522E1,0E0,0E0,0E0,0E0],"parents":[2147483647,0,0,1,1,2,2],"right_children":[2,4,6,-1,-1,-1,-1],"split_conditions":[-1.1165484E0,-1.9253614E0,1E0,5.10826E-4,-1.2813364E-2,-3.222882E-3,7.6032784E-3],"split_indices":[1,3,0,0,0,0,0],"split_type":[0,0,0,0,0,0,0],"sum_hessian":[1.6514512E3,2.0151128E2,1.4499398E3,1.2526283E1,1.8898499E2,7.477769E2,7.0216296E2],"tree_param":{"num_deleted":"0","num_feature":"7","num_nodes":"7","size_leaf_vector":"1"}},{"base_weights":[-1.3853509E-2,-9.7566776E-2,2.2367473E-1,-9.9534355E-3,8.0899405E-4,-2.664815E-3,1.0531724E-2],"categories":[],"categories_nodes":[],"categories_segments":[],"categories_sizes":[],"default_left":[0,0,0,0,0,0,0],"id":62,"left_children":[1,3,5,-1,-1,-1,-1],"loss_changes":[4.077361E1,2.75849E1,9.534847E0,0E0,0E0,0E0,0E0],"parents":[2147483647,0,0,1,1,2,2],"right_children":[2,4,6,-1,-1,-1,-1],"split_conditions":[8.1968343E-1,-7.639167E-2,-1.4462156E0,-9.9534355E-3,8.0899405E-4,-2.664815E-3,1.0531724E-2],"split_indices":[2,1,1,0,0,0,0],"split_type":[0,0,0,0,0,0,0],"sum_hessian":[1.6499218E3,1.3031804E3,3.467413E2,4.7749176E2,8.256887E2,2.600666E1,3.2073465E2],"tree_param":{"num_deleted":"0","num_feature":"7","num_nodes":"7","size_leaf_vector":"1"}},{"base_weights":[-1.3445236E-2,-1.866979E-1,9.845456E-2,6.9049303E-4,-9.864019E-3,-1.8255339E-3,7.836454E-3],"categories":[],"categories_nodes":[],"categories_segments":[],"categories_sizes":[],"default_left":[0,0,0,0,0,0,0],"id":63,"left_children":[1,3,5,-1,-1,-1,-1],"loss_changes":[3.9166203E1,1.0436556E1,1.915567E1,0E0,0E0,0E0,0E0],"parents":[2147483647,0,0,1,1,2,2],"right_children":[2,4,6,-1,-1,-1,-1],"split_conditions":[-3.0846623E-1,-1.761996E-1,-2.5236417E-2,6.9049303E-4,-9.864019E-3,-1.8255339E-3,7.836454E-3],"split_indices":[2,4,1,0,0,0,0],"split_type":[0,0,0,0,0,0,0],"sum_hessian":[1.6481445E3,5.966653E2,1.0514791E3,1.6632156E2,4.3034375E2,4.6520908E2,5.862701E2],"tree_param":{"num_deleted":"0","num_feature":"7","num_nodes":"7","size_leaf_vector":"1"}},{"base_weights":[-1.32506E-2,1.2725033E-1,-1.4722072E-1,-1.1609708E-3,8.795306E-3,-1.0119755E-2,1.679797E-3],"categories":[],"categories_nodes":[],"categories_segments":[],"categories_sizes":[],"default_left":[0,0,0,0,0,0,0],"id":64,"left_children":[1,3,5,-1,-1,-1,-1],"loss_changes":[3.8159428E1,1.5683239E1,2.2623663E1,0E0,0E0,0E0,0E0],"parents":[2147483647,0,0,1,1,2,2],"right_children":[2,4,6,-1,-1,-1,-1],"split_conditions":[3.004379E-1,-6.7794316E-2,1.50965E-1,-1.1609708E-3,8.795306E-3,-1.0119755E-2,1.679797E-3],"split_indices":[4,2,1,0,0,0,0],"split_type":[0,0,0,0,0,0,0],"sum_hessian":[1.646188E3,8.081853E2,8.380027E2,3.495814E2,4.5860394E2,4.9622757E2,3.4177515E2],"tree_param":{"num_deleted":"0","num_feature":"7","num_nodes":"7","size_leaf_vector":"1"}},{"base_weights":[-1.2816457E-2,-9.335284E-2,2.1554379E-1,-1.0187483E-2,3.1714665E-4,-2.6202213E-3,1.0174964E-2],"categories":[],"categories_nodes":[],"categories_segments":[],"categories_sizes":[],"default_left":[0,0,0,0,0,0,0],"id":65,"left_children":[1,3,5,-1,-1,-1,-1],"loss_changes":[3.7599167E1,2.4735302E1,9.034956E0,0E0,0E0,0E0,0E0],"parents":[2147483647,0,0,1,1,2,2],"right_children":[2,4,6,-1,-1,-1,-1],"split_conditions":[8.1968343E-1,-2.7532876E-1,-1.4462156E0,-1.0187483E-2,3.1714665E-4,-2.6202213E-3,1.0174964E-2],"split_indices":[2,1,1,0,0,0,0],"split_type":[0,0,0,0,0,0,0],"sum_hessian":[1.644429E3,1.299168E3,3.4526096E2,3.89471E2,9.0969696E2,2.5983562E1,3.192774E2],"tree_param":{"num_deleted":"0","num_feature":"7","num_nodes":"7","size_leaf_vector":"1"}},{"base_weights":[-1.2557194E-2,-2.924129E-1,5.2874375E-2,5.934148E-4,-1.2423516E-2,-3.259921E-3,7.3244604E-3],"categories":[],"categories_nodes":[],"categories_segments":[],"categories_sizes":[],"default_left":[0,0,0,0,0,0,0],"id":66,"left_children":[1,3,5,-1,-1,-1,-1],"loss_changes":[3.653038E1,2.9838104E0,3.1689985E1,0E0,0E0,0E0,0E0],"parents":[2147483647,0,0,1,1,2,2],"right_children":[2,4,6,-1,-1,-1,-1],"split_conditions":[-1.1563358E0,-1.9253614E0,1E0,5.934148E-4,-1.2423516E-2,-3.259921E-3,7.3244604E-3],"split_indices":[1,3,0,0,0,0,0],"split_type":[0,0,0,0,0,0,0],"sum_hessian":[1.642683E3,1.8572905E2,1.4569539E3,1.2333149E1,1.733959E2,7.5227325E2,7.046806E2],"tree_param":{"num_deleted":"0","num_feature":"7","num_nodes":"7","size_leaf_vector":"1"}},{"base_weights":[-1.28750345E-2,-9.1303706E-2,2.0979625E-1,-9.869807E-3,2.5306077E-4,1.1004155E-2,-7.628938E-4],"categories":[],"categories_nodes":[],"categories_segments":[],"categories_sizes":[],"default_left":[0,0,0,0,0,0,0],"id":67,"left_children":[1,3,5,-1,-1,-1,-1],"loss_changes":[3.5655743E1,2.288031E1,9.001062E0,0E0,0E0,0E0,0E0],"parents":[2147483647,0,0,1,1,2,2],"right_children":[2,4,6,-1,-1,-1,-1],"split_conditions":[8.1968343E-1,-2.7532876E-1,7.770754E-1,-9.869807E-3,2.5306077E-4,1.1004155E-2,-7.628938E-4],"split_indices":[2,1,4,0,0,0,0],"split_type":[0,0,0,0,0,0,0],"sum_hessian":[1.6411946E3,1.2970381E3,3.441565E2,3.8783142E2,9.0920667E2,2.3773398E2,1.06422516E2],"tree_param":{"num_deleted":"0","num_feature":"7","num_nodes":"7","size_leaf_vector":"1"}},{"base_weights":[-1.2306588E-2,-2.0228402E-1,7.9074755E-2,1.9449317E-3,-9.349196E-3,-1.7984845E-3,6.819841E-3],"categories":[],"categories_nodes":[],"categories_segments":[],"categories_sizes":[],"default_left":[0,0,0,0,0,0,0],"id":68,"left_children":[1,3,5,-1,-1,-1,-1],"loss_changes":[3.483342E1,7.284971E0,1.7036892E1,0E0,0E0,0E0,0E0],"parents":[2147483647,0,0,1,1,2,2],"right_children":[2,4,6,-1,-1,-1,-1],"split_conditions":[-5.115332E-1,-1.3677933E0,1E0,1.9449317E-3,-9.349196E-3,-1.7984845E-3,6.819841E-3],"split_indices":[2,4,0,0,0,0,0],"split_type":[0,0,0,0,0,0,0],"sum_hessian":[1.6395039E3,4.5720148E2,1.1823024E3,3.9299065E1,4.179024E2,5.4284924E2,6.394531E2],"tree_param":{"num_deleted":"0","num_feature":"7","num_nodes":"7","size_leaf_vector":"1"}},{"base_weights":[-1.2075551E-2,-2.835499E-1,5.125415E-2,6.323649E-4,-1.2078603E-2,-3.032686E-3,6.973165E-3],"categories":[],"categories_nodes":[],"categories_segments":[],"categories_sizes":[],"default_left":[0,0,0,0,0,0,0],"id":69,"left_children":[1,3,5,-1,-1,-1,-1],"loss_changes":[3.4216644E1,2.9799538E0,2.824495E1,0E0,0E0,0E0,0E0],"parents":[2147483647,0,0,1,1,2,2],"right_children":[2,4,6,-1,-1,-1,-1],"split_conditions":[-1.1563358E0,-1.9253614E0,1E0,6.323649E-4,-1.2078603E-2,-3.032686E-3,6.973165E-3],"split_indices":[1,3,0,0,0,0,0],"split_type":[0,0,0,0,0,0,0],"sum_hessian":[1.6377639E3,1.8415857E2,1.4536053E3,1.2238464E1,1.719201E2,7.512752E2,7.0233014E2],"tree_param":{"num_deleted":"0","num_feature":"7","num_nodes":"7","size_leaf_vector":"1"}},{"base_weights":[-1.2387171E-2,8.627783E-2,-1.8242714E-1,-1.1670464E-3,9.088243E-3,-1.0408611E-2,1.7463717E-4],"categories":[],"categories_nodes":[],"categories_segments":[],"categories_sizes":[],"default_left":[0,0,0,0,0,0,0],"id":70,"left_children":[1,3,5,-1,-1,-1,-1],"loss_changes":[3.3662807E1,2.2190468E1,1.08573475E1,0E0,0E0,0E0,0E0],"parents":[2147483647,0,0,1,1,2,2],"right_children":[2,4,6,-1,-1,-1,-1],"split_conditions":[7.770754E-1,3.2329756E-1,1.1686151E-1,-1.1670464E-3,9.088243E-3,-1.0408611E-2,1.7463717E-4],"split_indices":[4,2,1,0,0,0,0],"split_type":[0,0,0,0,0,0,0],"sum_hessian":[1.6362987E3,1.0950105E3,5.412882E2,6.851589E2,4.098516E2,3.291437E2,2.121445E2],"tree_param":{"num_deleted":"0","num_feature":"7","num_nodes":"7","size_leaf_vector":"1"}},{"base_weights":[-1.2144161E-2,-8.7342516E-2,2.0143314E-1,-9.436818E-3,2.2907383E-4,-2.5172825E-3,9.545542E-3],"categories":[],"categories_nodes":[],"categories_segments":[],"categories_sizes":[],"default_left":[0,0,0,0,0,0,0],"id":71,"left_children":[1,3,5,-1,-1,-1,-1],"loss_changes":[3.2680687E1,2.0771069E1,8.112528E0,0E0,0E0,0E0,0E0],"parents":[2147483647,0,0,1,1,2,2],"right_children":[2,4,6,-1,-1,-1,-1],"split_conditions":[8.1968343E-1,-2.7532876E-1,-1.4462156E0,-9.436818E-3,2.2907383E-4,-2.5172825E-3,9.545542E-3],"split_indices":[2,1,1,0,0,0,0],"split_type":[0,0,0,0,0,0,0],"sum_hessian":[1.6345968E3,1.2924344E3,3.4216232E2,3.8486462E2,9.075699E2,2.5919306E1,3.16243E2],"tree_param":{"num_deleted":"0","num_feature":"7","num_nodes":"7","size_leaf_vector":"1"}},{"base_weights":[-1.1897769E-2,1.1681585E-1,-1.3477674E-1,-3.5889351E-3,7.12376E-3,-9.246824E-3,1.4842006E-3],"categories":[],"categories_nodes":[],"categories_segments":[],"categories_sizes":[],"default_left":[0,0,0,0,0,0,0],"id":72,"left_children":[1,3,5,-1,-1,-1,-1],"loss_changes":[3.1854574E1,1.5621389E1,1.8567707E1,0E0,0E0,0E0,0E0],"parents":[2147483647,0,0,1,1,2,2],"right_children":[2,4,6,-1,-1,-1,-1],"split_conditions":[3.004379E-1,-8.056725E-1,1.50965E-1,-3.5889351E-3,7.12376E-3,-9.246824E-3,1.4842006E-3],"split_indices":[4,5,1,0,0,0,0],"split_type":[0,0,0,0,0,0,0],"sum_hessian":[1.6329187E3,8.0212787E2,8.307909E2,1.6324507E2,6.388828E2,4.9006918E2,3.407217E2],"tree_param":{"num_deleted":"0","num_feature":"7","num_nodes":"7","size_leaf_vector":"1"}},{"base_weights":[-1.187298E-2,-2.8797904E-1,4.503288E-2,6.7959283E-4,-1.2373125E-2,-3.0721684E-3,6.5782694E-3],"categories":[],"categories_nodes":[],"categories_segments":[],"categories_sizes":[],"default_left":[0,0,0,0,0,0,0],"id":73,"left_children":[1,3,5,-1,-1,-1,-1],"loss_changes":[3.1116457E1,3.199936E0,2.6805475E1,0E0,0E0,0E0,0E0],"parents":[2147483647,0,0,1,1,2,2],"right_children":[2,4,6,-1,-1,-1,-1],"split_conditions":[-1.355273E0,-1.9253614E0,1E0,6.7959283E-4,-1.2373125E-2,-3.0721684E-3,6.5782694E-3],"split_indices":[1,3,0,0,0,0,0],"split_type":[0,0,0,0,0,0,0],"sum_hessian":[1.6317708E3,1.463081E2,1.4854626E3,1.2123668E1,1.3418443E2,7.690429E2,7.1641974E2],"tree_param":{"num_deleted":"0","num_feature":"7","num_nodes":"7","size_leaf_vector":"1"}},{"base_weights":[-1.2265743E-2,-8.552774E-2,1.9608203E-1,-8.31966E-3,5.62188E-4,-2.4243584E-3,9.283537E-3],"categories":[],"categories_nodes":[],"categories_segments":[],"categories_sizes":[],"default_left":[0,0,0,0,0,0,0],"id":74,"left_children":[1,3,5,-1,-1,-1,-1],"loss_changes":[3.1005442E1,1.8614244E1,7.6024723E0,0E0,0E0,0E0,0E0],"parents":[2147483647,0,0,1,1,2,2],"right_children":[2,4,6,-1,-1,-1,-1],"split_conditions":[8.1968343E-1,-4.228817E-2,-1.4462156E0,-8.31966E-3,5.62188E-4,-2.4243584E-3,9.283537E-3],"split_indices":[2,1,1,0,0,0,0],"split_type":[0,0,0,0,0,0,0],"sum_hessian":[1.6304315E3,1.2895696E3,3.408619E2,4.8508984E2,8.0447974E2,2.5876966E1,3.1498492E2],"tree_param":{"num_deleted":"0","num_feature":"7","num_nodes":"7","size_leaf_vector":"1"}},{"base_weights":[-1.1880124E-2,-1.8887194E-1,7.317482E-2,1.9229015E-3,-8.777529E-3,-2.5511815E-3,5.936924E-3],"categories":[],"categories_nodes":[],"categories_segments":[],"categories_sizes":[],"default_left":[0,0,0,0,0,0,0],"id":75,"left_children":[1,3,5,-1,-1,-1,-1],"loss_changes":[3.0034908E1,6.679037E0,1.5893617E1,0E0,0E0,0E0,0E0],"parents":[2147483647,0,0,1,1,2,2],"right_children":[2,4,6,-1,-1,-1,-1],"split_conditions":[-5.115332E-1,-1.3677933E0,-3.1966558E-1,1.9229015E-3,-8.777529E-3,-2.5511815E-3,5.936924E-3],"split_indices":[2,4,5,0,0,0,0],"split_type":[0,0,0,0,0,0,0],"sum_hessian":[1.6287892E3,4.530013E2,1.175788E3,3.9261497E1,4.137398E2,4.2726404E2,7.4852386E2],"tree_param":{"num_deleted":"0","num_feature":"7","num_nodes":"7","size_leaf_vector":"1"}},{"base_weights":[-1.177878E-2,-2.8042328E-1,4.3519434E-2,7.127804E-4,-1.2080335E-2,-2.9758955E-3,6.3671814E-3],"categories":[],"categories_nodes":[],"categories_segments":[],"categories_sizes":[],"default_left":[0,0,0,0,0,0,0],"id":76,"left_children":[1,3,5,-1,-1,-1,-1],"loss_changes":[2.934576E1,3.1914654E0,2.5084414E1,0E0,0E0,0E0,0E0],"parents":[2147483647,0,0,1,1,2,2],"right_children":[2,4,6,-1,-1,-1,-1],"split_conditions":[-1.355273E0,-1.9253614E0,1E0,7.127804E-4,-1.2080335E-2,-2.9758955E-3,6.3671814E-3],"split_indices":[1,3,0,0,0,0,0],"split_type":[0,0,0,0,0,0,0],"sum_hessian":[1.627499E3,1.4508398E2,1.482415E3,1.2040461E1,1.3304352E2,7.6778754E2,7.146275E2],"tree_param":{"num_deleted":"0","num_feature":"7","num_nodes":"7","size_leaf_vector":"1"}},{"base_weights":[-1.2154966E-2,7.9461694E-2,-1.7002682E-1,-1.9318428E-3,7.633513E-3,-9.653881E-3,8.216556E-5],"categories":[],"categories_nodes":[],"categories_segments":[],"categories_sizes":[],"default_left":[0,0,0,0,0,0,0],"id":77,"left_children":[1,3,5,-1,-1,-1,-1],"loss_changes":[2.8863646E1,1.997437E1,9.03097E0,0E0,0E0,0E0,0E0],"parents":[2147483647,0,0,1,1,2,2],"right_children":[2,4,6,-1,-1,-1,-1],"split_conditions":[7.770754E-1,4.3390407E-3,1.1686151E-1,-1.9318428E-3,7.633513E-3,-9.653881E-3,8.216556E-5],"split_indices":[4,5,1,0,0,0,0],"split_type":[0,0,0,0,0,0,0],"sum_hessian":[1.626179E3,1.089045E3,5.3713385E2,5.5760364E2,5.314414E2,3.253916E2,2.1174226E2],"tree_param":{"num_deleted":"0","num_feature":"7","num_nodes":"7","size_leaf_vector":"1"}},{"base_weights":[-1.2082482E-2,-7.11404E-2,2.2686623E-1,-9.5186895E-3,2.8937202E-4,-8.899234E-4,9.989114E-3],"categories":[],"categories_nodes":[],"categories_segments":[],"categories_sizes":[],"default_left":[0,0,0,0,0,0,0],"id":78,"left_children":[1,3,5,-1,-1,-1,-1],"loss_changes":[2.8713697E1,2.1271627E1,3.3708057E0,0E0,0E0,0E0,0E0],"parents":[2147483647,0,0,1,1,2,2],"right_children":[2,4,6,-1,-1,-1,-1],"split_conditions":[1.2107753E0,-5.140533E-1,-1.355273E0,-9.5186895E-3,2.8937202E-4,-8.899234E-4,9.989114E-3],"split_indices":[2,1,1,0,0,0,0],"split_type":[0,0,0,0,0,0,0],"sum_hessian":[1.6252853E3,1.4107445E3,2.1454079E2,3.266068E2,1.0841377E3,1.8464613E1,1.9607617E2],"tree_param":{"num_deleted":"0","num_feature":"7","num_nodes":"7","size_leaf_vector":"1"}},{"base_weights":[-1.1622304E-2,-9.763878E-2,1.4902422E-1,-9.531636E-3,-9.6581224E-4,-6.2719954E-4,9.786001E-3],"categories":[],"categories_nodes":[],"categories_segments":[],"categories_sizes":[],"default_left":[0,0,0,0,0,0,0],"id":79,"left_children":[1,3,5,-1,-1,-1,-1],"loss_changes":[2.785829E1,1.2312515E1,1.1891685E1,0E0,0E0,0E0,0E0],"parents":[2147483647,0,0,1,1,2,2],"right_children":[2,4,6,-1,-1,-1,-1],"split_conditions":[4.4363353E-1,-5.595246E-1,1E0,-9.531636E-3,-9.6581224E-4,-6.2719954E-4,9.786001E-3],"split_indices":[2,1,0,0,0,0,0],"split_type":[0,0,0,0,0,0,0],"sum_hessian":[1.6239288E3,1.1064205E3,5.1750836E2,2.3273126E2,8.736893E2,2.4874892E2,2.6875943E2],"tree_param":{"num_deleted":"0","num_feature":"7","num_nodes":"7","size_leaf_vector":"1"}},{"base_weights":[-1.1308592E-2,-2.6951954E-1,4.1676503E-2,7.6100073E-4,-1.1658341E-2,-2.849478E-3,6.10358E-3],"categories":[],"categories_nodes":[],"categories_segments":[],"categories_sizes":[],"default_left":[0,0,0,0,0,0,0],"id":80,"left_children":[1,3,5,-1,-1,-1,-1],"loss_changes":[2.695352E1,3.1754265E0,2.2990118E1,0E0,0E0,0E0,0E0],"parents":[2147483647,0,0,1,1,2,2],"right_children":[2,4,6,-1,-1,-1,-1],"split_conditions":[-1.355273E0,-1.9253614E0,1E0,7.6100073E-4,-1.1658341E-2,-2.849478E-3,6.10358E-3],"split_indices":[1,3,0,0,0,0,0],"split_type":[0,0,0,0,0,0,0],"sum_hessian":[1.62228E3,1.4331348E2,1.4789666E3,1.1919222E1,1.3139426E2,7.6673126E2,7.122353E2],"tree_param":{"num_deleted":"0","num_feature":"7","num_nodes":"7","size_leaf_vector":"1"}},{"base_weights":[-1.1670359E-2,-6.889178E-2,2.1996596E-1,-9.107847E-3,2.2655113E-4,-8.6631824E-4,9.689207E-3],"categories":[],"categories_nodes":[],"categories_segments":[],"categories_sizes":[],"default_left":[0,0,0,0,0,0,0],"id":81,"left_children":[1,3,5,-1,-1,-1,-1],"loss_changes":[2.6911482E1,1.9172016E1,3.1780624E0,0E0,0E0,0E0,0E0],"parents":[2147483647,0,0,1,1,2,2],"right_children":[2,4,6,-1,-1,-1,-1],"split_conditions":[1.2107753E0,-5.140533E-1,-1.355273E0,-9.107847E-3,2.2655113E-4,-8.6631824E-4,9.689207E-3],"split_indices":[2,1,1,0,0,0,0],"split_type":[0,0,0,0,0,0,0],"sum_hessian":[1.6209875E3,1.407488E3,2.1349959E2,3.243324E2,1.0831556E3,1.8451765E1,1.9504782E2],"tree_param":{"num_deleted":"0","num_feature":"7","num_nodes":"7","size_leaf_vector":"1"}},{"base_weights":[-1.1218583E-2,1.057366E-1,-1.2304495E-1,-3.6010987E-3,6.60587E-3,-8.415481E-3,1.2890004E-3],"categories":[],"categories_nodes":[],"categories_segments":[],"categories_sizes":[],"default_left":[0,0,0,0,0,0,0],"id":82,"left_children":[1,3,5,-1,-1,-1,-1],"loss_changes":[2.6166067E1,1.4327772E1,1.504507E1,0E0,0E0,0E0,0E0],"parents":[2147483647,0,0,1,1,2,2],"right_children":[2,4,6,-1,-1,-1,-1],"split_conditions":[3.004379E-1,-8.056725E-1,1.50965E-1,-3.6010987E-3,6.60587E-3,-8.415481E-3,1.2890004E-3],"split_indices":[4,5,1,0,0,0,0],"split_type":[0,0,0,0,0,0,0],"sum_hessian":[1.6196646E3,7.967616E2,8.229029E2,1.6258624E2,6.3417535E2,4.8326025E2,3.3964267E2],"tree_param":{"num_deleted":"0","num_feature":"7","num_nodes":"7","size_leaf_vector":"1"}},{"base_weights":[-1.1212184E-2,-1.7621057E-1,6.7931086E-2,-8.278496E-3,1.7797905E-3,-2.5387965E-3,5.630031E-3],"categories":[],"categories_nodes":[],"categories_segments":[],"categories_sizes":[],"default_left":[0,0,0,0,0,0,0],"id":83,"left_children":[1,3,5,-1,-1,-1,-1],"loss_changes":[2.5916492E1,6.1009083E0,1.4727334E1,0E0,0E0,0E0,0E0],"parents":[2147483647,0,0,1,1,2,2],"right_children":[2,4,6,-1,-1,-1,-1],"split_conditions":[-5.115332E-1,1.583312E0,-3.1966558E-1,-8.278496E-3,1.7797905E-3,-2.5387965E-3,5.630031E-3],"split_indices":[2,1,5,0,0,0,0],"split_type":[0,0,0,0,0,0,0],"sum_hessian":[1.6185623E3,4.4874954E2,1.1698127E3,4.043087E2,4.444086E1,4.258687E2,7.43944E2],"tree_param":{"num_deleted":"0","num_feature":"7","num_nodes":"7","size_leaf_vector":"1"}},{"base_weights":[-1.1132389E-2,-6.671544E-2,2.1383718E-1,-8.778503E-3,1.962593E-4,-8.6676714E-4,9.434189E-3],"categories":[],"categories_nodes":[],"categories_segments":[],"categories_sizes":[],"default_left":[0,0,0,0,0,0,0],"id":84,"left_children":[1,3,5,-1,-1,-1,-1],"loss_changes":[2.5336802E1,1.766187E1,3.0693588E0,0E0,0E0,0E0,0E0],"parents":[2147483647,0,0,1,1,2,2],"right_children":[2,4,6,-1,-1,-1,-1],"split_conditions":[1.2107753E0,-5.140533E-1,-1.355273E0,-8.778503E-3,1.962593E-4,-8.6676714E-4,9.434189E-3],"split_indices":[2,1,1,0,0,0,0],"split_type":[0,0,0,0,0,0,0],"sum_hessian":[1.6173058E3,1.4046246E3,2.1268115E2,3.2252374E2,1.0821008E3,1.844202E1,1.9423914E2],"tree_param":{"num_deleted":"0","num_feature":"7","num_nodes":"7","size_leaf_vector":"1"}},{"base_weights":[-1.0696935E-2,-1.1970453E-1,1.0467141E-1,-1.0776788E-2,2.3748854E-3,-8.6986384E-4,9.394801E-3],"categories":[],"categories_nodes":[],"categories_segments":[],"categories_sizes":[],"default_left":[0,0,0,0,0,0,0],"id":85,"left_children":[1,3,5,-1,-1,-1,-1],"loss_changes":[2.5118172E1,3.0354218E1,1.7102371E1,0E0,0E0,0E0,0E0],"parents":[2147483647,0,0,1,1,2,2],"right_children":[2,4,6,-1,-1,-1,-1],"split_conditions":[1E0,1.50965E-1,3.2329756E-1,-1.0776788E-2,2.3748854E-3,-8.6986384E-4,9.394801E-3],"split_indices":[0,1,2,0,0,0,0],"split_type":[0,0,0,0,0,0,0],"sum_hessian":[1.6160104E3,8.2721985E2,7.887906E2,3.9806418E2,4.2915567E2,4.8092667E2,3.078639E2],"tree_param":{"num_deleted":"0","num_feature":"7","num_nodes":"7","size_leaf_vector":"1"}},{"base_weights":[-1.0265095E-2,-2.4247472E-1,4.3354593E-2,1.112345E-3,-1.1104522E-2,-7.987501E-3,3.3545285E-3],"categories":[],"categories_nodes":[],"categories_segments":[],"categories_sizes":[],"default_left":[0,0,0,0,0,0,0],"id":86,"left_children":[1,3,5,-1,-1,-1,-1],"loss_changes":[2.4486675E1,4.966202E0,1.923393E1,0E0,0E0,0E0,0E0],"parents":[2147483647,0,0,1,1,2,2],"right_children":[2,4,6,-1,-1,-1,-1],"split_conditions":[-9.8911655E-1,-1.4796488E0,-1.355273E0,1.112345E-3,-1.1104522E-2,-7.987501E-3,3.3545285E-3],"split_indices":[2,3,1,0,0,0,0],"split_type":[0,0,0,0,0,0,0],"sum_hessian":[1.6143806E3,1.7664835E2,1.4377323E3,2.4906912E1,1.5174144E2,9.817423E1,1.3395581E3],"tree_param":{"num_deleted":"0","num_feature":"7","num_nodes":"7","size_leaf_vector":"1"}},{"base_weights":[-1.14102345E-2,-6.5486945E-2,2.0786181E-1,-6.1465213E-3,1.6416447E-3,-8.407148E-4,9.171202E-3],"categories":[],"categories_nodes":[],"categories_segments":[],"categories_sizes":[],"default_left":[0,0,0,0,0,0,0],"id":87,"left_children":[1,3,5,-1,-1,-1,-1],"loss_changes":[2.399453E1,1.6164219E1,2.8945694E0,0E0,0E0,0E0,0E0],"parents":[2147483647,0,0,1,1,2,2],"right_children":[2,4,6,-1,-1,-1,-1],"split_conditions":[1.2107753E0,1E0,-1.355273E0,-6.1465213E-3,1.6416447E-3,-8.407148E-4,9.171202E-3],"split_indices":[2,0,1,0,0,0,0],"split_type":[0,0,0,0,0,0,0],"sum_hessian":[1.6133074E3,1.401602E3,2.1170538E2,7.206172E2,6.809848E2,1.8421381E1,1.93284E2],"tree_param":{"num_deleted":"0","num_feature":"7","num_nodes":"7","size_leaf_vector":"1"}},{"base_weights":[-1.055438E-2,7.284488E-2,-1.5468052E-1,-1.963195E-3,7.20371E-3,-8.729196E-3,-1.9154475E-5],"categories":[],"categories_nodes":[],"categories_segments":[],"categories_sizes":[],"default_left":[0,0,0,0,0,0,0],"id":88,"left_children":[1,3,5,-1,-1,-1,-1],"loss_changes":[2.3827549E1,1.8322916E1,7.0566025E0,0E0,0E0,0E0,0E0],"parents":[2147483647,0,0,1,1,2,2],"right_children":[2,4,6,-1,-1,-1,-1],"split_conditions":[7.770754E-1,4.3390407E-3,1.1686151E-1,-1.963195E-3,7.20371E-3,-8.729196E-3,-1.9154475E-5],"split_indices":[4,5,1,0,0,0,0],"split_type":[0,0,0,0,0,0,0],"sum_hessian":[1.6122776E3,1.0811368E3,5.3114087E2,5.54428E2,5.267088E2,3.1996817E2,2.111727E2],"tree_param":{"num_deleted":"0","num_feature":"7","num_nodes":"7","size_leaf_vector":"1"}},{"base_weights":[-1.0509518E-2,-2.5063473E-1,3.854139E-2,8.4474805E-4,-1.0928671E-2,-2.5969795E-3,5.6095677E-3],"categories":[],"categories_nodes":[],"categories_segments":[],"categories_sizes":[],"default_left":[0,0,0,0,0,0,0],"id":89,"left_children":[1,3,5,-1,-1,-1,-1],"loss_changes":[2.3074568E1,3.1344852E0,1.9229462E1,0E0,0E0,0E0,0E0],"parents":[2147483647,0,0,1,1,2,2],"right_children":[2,4,6,-1,-1,-1,-1],"split_conditions":[-1.355273E0,-1.9253614E0,1E0,8.4474805E-4,-1.0928671E-2,-2.5969795E-3,5.6095677E-3],"split_indices":[1,3,0,0,0,0,0],"split_type":[0,0,0,0,0,0,0],"sum_hessian":[1.6114193E3,1.4018817E2,1.4712311E3,1.1705124E1,1.2848305E2,7.6351074E2,7.077204E2],"tree_param":{"num_deleted":"0","num_feature":"7","num_nodes":"7","size_leaf_vector":"1"}},{"base_weights":[-1.084657E-2,-7.408009E-2,1.694703E-1,-9.4837E-3,-6.5224286E-4,9.002481E-3,-7.4189954E-4],"categories":[],"categories_nodes":[],"categories_segments":[],"categories_sizes":[],"default_left":[0,0,0,0,0,0,0],"id":90,"left_children":[1,3,5,-1,-1,-1,-1],"loss_changes":[2.293513E1,1.3072378E1,6.2924747E0,0E0,0E0,0E0,0E0],"parents":[2147483647,0,0,1,1,2,2],"right_children":[2,4,6,-1,-1,-1,-1],"split_conditions":[8.1968343E-1,-9.1761136E-1,7.770754E-1,-9.4837E-3,-6.5224286E-4,9.002481E-3,-7.4189954E-4],"split_indices":[2,1,4,0,0,0,0],"split_type":[0,0,0,0,0,0,0],"sum_hessian":[1.6101855E3,1.2754438E3,3.347417E2,1.7862367E2,1.0968202E3,2.2930939E2,1.0543232E2],"tree_param":{"num_deleted":"0","num_feature":"7","num_nodes":"7","size_leaf_vector":"1"}},{"base_weights":[-1.0619802E-2,-2.3333463E-1,4.0840253E-2,1.1618104E-3,-1.0745052E-2,-7.6227784E-3,3.175514E-3],"categories":[],"categories_nodes":[],"categories_segments":[],"categories_sizes":[],"default_left":[0,0,0,0,0,0,0],"id":91,"left_children":[1,3,5,-1,-1,-1,-1],"loss_changes":[2.244774E1,4.88175E0,1.7381178E1,0E0,0E0,0E0,0E0],"parents":[2147483647,0,0,1,1,2,2],"right_children":[2,4,6,-1,-1,-1,-1],"split_conditions":[-9.8911655E-1,-1.4796488E0,-1.355273E0,1.1618104E-3,-1.0745052E-2,-7.6227784E-3,3.175514E-3],"split_indices":[2,3,1,0,0,0,0],"split_type":[0,0,0,0,0,0,0],"sum_hessian":[1.6088224E3,1.7526057E2,1.4335618E3,2.4786724E1,1.5047385E2,9.7141945E1,1.3364198E3],"tree_param":{"num_deleted":"0","num_feature":"7","num_nodes":"7","size_leaf_vector":"1"}},{"base_weights":[-1.1692383E-2,-6.361205E-2,1.9940692E-1,-8.144726E-3,8.368485E-5,-7.784397E-4,8.784821E-3],"categories":[],"categories_nodes":[],"categories_segments":[],"categories_sizes":[],"default_left":[0,0,0,0,0,0,0],"id":92,"left_children":[1,3,5,-1,-1,-1,-1],"loss_changes":[2.2137714E1,1.4693993E1,2.5916052E0,0E0,0E0,0E0,0E0],"parents":[2147483647,0,0,1,1,2,2],"right_children":[2,4,6,-1,-1,-1,-1],"split_conditions":[1.2107753E0,-5.140533E-1,-1.355273E0,-8.144726E-3,8.368485E-5,-7.784397E-4,8.784821E-3],"split_indices":[2,1,1,0,0,0,0],"split_type":[0,0,0,0,0,0,0],"sum_hessian":[1.6077745E3,1.3975043E3,2.1027022E2,3.183132E2,1.0791912E3,1.8378965E1,1.9189125E2],"tree_param":{"num_deleted":"0","num_feature":"7","num_nodes":"7","size_leaf_vector":"1"}},{"base_weights":[-1.1238653E-2,6.795585E-2,-1.4789681E-1,-2.0117343E-3,6.9104903E-3,-7.034392E-3,2.626353E-3],"categories":[],"categories_nodes":[],"categories_segments":[],"categories_sizes":[],"default_left":[0,0,0,0,0,0,0],"id":93,"left_children":[1,3,5,-1,-1,-1,-1],"loss_changes":[2.1373732E1,1.7385523E1,6.5028515E0,0E0,0E0,0E0,0E0],"parents":[2147483647,0,0,1,1,2,2],"right_children":[2,4,6,-1,-1,-1,-1],"split_conditions":[7.770754E-1,4.3390407E-3,1.7748501E0,-2.0117343E-3,6.9104903E-3,-7.034392E-3,2.626353E-3],"split_indices":[4,5,2,0,0,0,0],"split_type":[0,0,0,0,0,0,0],"sum_hessian":[1.6065476E3,1.077911E3,5.2863654E2,5.5315344E2,5.247576E2,4.97242E2,3.1394495E1],"tree_param":{"num_deleted":"0","num_feature":"7","num_nodes":"7","size_leaf_vector":"1"}},{"base_weights":[-1.0741256E-2,-2.1602812E-1,4.19826E-2,-9.85311E-3,1.4847799E-3,-7.1214642E-3,3.1459345E-3],"categories":[],"categories_nodes":[],"categories_segments":[],"categories_sizes":[],"default_left":[0,0,0,0,0,0,0],"id":94,"left_children":[1,3,5,-1,-1,-1,-1],"loss_changes":[2.1180603E1,4.8012066E0,1.5497993E1,0E0,0E0,0E0,0E0],"parents":[2147483647,0,0,1,1,2,2],"right_children":[2,4,6,-1,-1,-1,-1],"split_conditions":[-9.02625E-1,1.6628869E0,-1.355273E0,-9.85311E-3,1.4847799E-3,-7.1214642E-3,3.1459345E-3],"split_indices":[2,1,1,0,0,0,0],"split_type":[0,0,0,0,0,0,0],"sum_hessian":[1.6058601E3,2.072628E2,1.3985973E3,1.897026E2,1.7560194E1,9.458601E1,1.3040114E3],"tree_param":{"num_deleted":"0","num_feature":"7","num_nodes":"7","size_leaf_vector":"1"}},{"base_weights":[-1.1633086E-2,-1.1131999E-1,9.4378635E-2,-1.0233063E-2,2.3794032E-3,-2.7790987E-3,7.094335E-3],"categories":[],"categories_nodes":[],"categories_segments":[],"categories_sizes":[],"default_left":[0,0,0,0,0,0,0],"id":95,"left_children":[1,3,5,-1,-1,-1,-1],"loss_changes":[2.0983402E1,2.7911957E1,1.5591348E1,0E0,0E0,0E0,0E0],"parents":[2147483647,0,0,1,1,2,2],"right_children":[2,4,6,-1,-1,-1,-1],"split_conditions":[1E0,1.50965E-1,-5.6266904E-1,-1.0233063E-2,2.3794032E-3,-2.7790987E-3,7.094335E-3],"split_indices":[0,1,5,0,0,0,0],"split_type":[0,0,0,0,0,0,0],"sum_hessian":[1.6046803E3,8.2208154E2,7.8259875E2,3.9382175E2,4.282598E2,2.7353717E2,5.0906158E2],"tree_param":{"num_deleted":"0","num_feature":"7","num_nodes":"7","size_leaf_vector":"1"}},{"base_weights":[-1.1551981E-2,-6.203896E-2,1.9389147E-1,-7.816696E-3,2.5128913E-5,-7.556417E-4,8.54246E-3],"categories":[],"categories_nodes":[],"categories_segments":[],"categories_sizes":[],"default_left":[0,0,0,0,0,0,0],"id":96,"left_children":[1,3,5,-1,-1,-1,-1],"loss_changes":[2.0911749E1,1.3274126E1,2.4460974E0,0E0,0E0,0E0,0E0],"parents":[2147483647,0,0,1,1,2,2],"right_children":[2,4,6,-1,-1,-1,-1],"split_conditions":[1.2107753E0,-5.140533E-1,-1.355273E0,-7.816696E-3,2.5128913E-5,-7.556417E-4,8.54246E-3],"split_indices":[2,1,1,0,0,0,0],"split_type":[0,0,0,0,0,0,0],"sum_hessian":[1.6036251E3,1.3943029E3,2.0932227E2,3.1636383E2,1.0779391E3,1.8352867E1,1.9096939E2],"tree_param":{"num_deleted":"0","num_feature":"7","num_nodes":"7","size_leaf_vector":"1"}},{"base_weights":[-1.1098214E-2,-8.443355E-2,1.2647535E-1,-9.05752E-3,-1.0321602E-3,-7.4781344E-4,8.541445E-3],"categories":[],"categories_nodes":[],"categories_segments":[],"categories_sizes":[],"default_left":[0,0,0,0,0,0,0],"id":97,"left_children":[1,3,5,-1,-1,-1,-1],"loss_changes":[2.013359E1,9.577235E0,9.610323E0,0E0,0E0,0E0,0E0],"parents":[2147483647,0,0,1,1,2,2],"right_children":[2,4,6,-1,-1,-1,-1],"split_conditions":[4.4363353E-1,-1.022961E0,1E0,-9.05752E-3,-1.0321602E-3,-7.4781344E-4,8.541445E-3],"split_indices":[2,2,0,0,0,0,0],"split_type":[0,0,0,0,0,0,0],"sum_hessian":[1.6024327E3,1.0933732E3,5.090596E2,1.5975632E2,9.336168E2,2.4706784E2,2.6199176E2],"tree_param":{"num_deleted":"0","num_feature":"7","num_nodes":"7","size_leaf_vector":"1"}},{"base_weights":[-1.0905743E-2,-5.9822354E-2,1.8820421E-1,-5.5504236E-3,1.4324739E-3,-7.701477E-4,8.313571E-3],"categories":[],"categories_nodes":[],"categories_segments":[],"categories_sizes":[],"default_left":[0,0,0,0,0,0,0],"id":98,"left_children":[1,3,5,-1,-1,-1,-1],"loss_changes":[1.9606066E1,1.2904551E1,2.3917913E0,0E0,0E0,0E0,0E0],"parents":[2147483647,0,0,1,1,2,2],"right_children":[2,4,6,-1,-1,-1,-1],"split_conditions":[1.2107753E0,1E0,-1.355273E0,-5.5504236E-3,1.4324739E-3,-7.701477E-4,8.313571E-3],"split_indices":[2,0,1,0,0,0,0],"split_type":[0,0,0,0,0,0,0],"sum_hessian":[1.6011989E3,1.3926676E3,2.0853127E2,7.157459E2,6.769217E2,1.8350937E1,1.9018033E2],"tree_param":{"num_deleted":"0","num_feature":"7","num_nodes":"7","size_leaf_vector":"1"}},{"base_weights":[-1.0109504E-2,9.090468E-2,-1.0687284E-1,-3.5553842E-3,5.8882516E-3,-7.3812124E-3,1.1713619E-3],"categories":[],"categories_nodes":[],"categories_segments":[],"categories_sizes":[],"default_left":[0,0,0,0,0,0,0],"id":99,"left_children":[1,3,5,-1,-1,-1,-1],"loss_changes":[1.9363878E1,1.2414771E1,1.1633756E1,0E0,0E0,0E0,0E0],"parents":[2147483647,0,0,1,1,2,2],"right_children":[2,4,6,-1,-1,-1,-1],"split_conditions":[3.004379E-1,-8.056725E-1,1.50965E-1,-3.5553842E-3,5.8882516E-3,-7.3812124E-3,1.1713619E-3],"split_indices":[4,5,1,0,0,0,0],"split_type":[0,0,0,0,0,0,0],"sum_hessian":[1.6002241E3,7.8857306E2,8.11651E2,1.6169438E2,6.2687866E2,4.736471E2,3.380039E2],"tree_param":{"num_deleted":"0","num_feature":"7","num_nodes":"7","size_leaf_vector":"1"}},{"base_weights":[-1.0124869E-2,-2.1607848E-1,3.7354242E-2,1.3089501E-3,-1.009721E-2,-7.18289E-3,2.9418084E-3],"categories":[],"categories_nodes":[],"categories_segments":[],"categories_sizes":[],"default_left":[0,0,0,0,0,0,0],"id":100,"left_children":[1,3,5,-1,-1,-1,-1],"loss_changes":[1.9047115E1,4.8657093E0,1.5222408E1,0E0,0E0,0E0,0E0],"parents":[2147483647,0,0,1,1,2,2],"right_children":[2,4,6,-1,-1,-1,-1],"split_conditions":[-9.8911655E-1,-1.4796488E0,-1.355273E0,1.3089501E-3,-1.009721E-2,-7.18289E-3,2.9418084E-3],"split_indices":[2,3,1,0,0,0,0],"split_type":[0,0,0,0,0,0,0],"sum_hessian":[1.5992008E3,1.7253555E2,1.4266653E3,2.4425156E1,1.481104E2,9.579178E1,1.3308734E3],"tree_param":{"num_deleted":"0","num_feature":"7","num_nodes":"7","size_leaf_vector":"1"}},{"base_weights":[-1.111773E-2,-5.7493698E-2,1.8951568E-1,-7.6132235E-3,1.5796236E-4,-4.0401373E-4,8.151759E-3],"categories":[],"categories_nodes":[],"categories_segments":[],"categories_sizes":[],"default_left":[0,0,0,0,0,0,0],"id":101,"left_children":[1,3,5,-1,-1,-1,-1],"loss_changes":[1.8728819E1,1.3201054E1,1.4772997E0,0E0,0E0,0E0,0E0],"parents":[2147483647,0,0,1,1,2,2],"right_children":[2,4,6,-1,-1,-1,-1],"split_conditions":[1.2634223E0,-5.140533E-1,-1.355273E0,-7.6132235E-3,1.5796236E-4,-4.0401373E-4,8.151759E-3],"split_indices":[2,1,1,0,0,0,0],"split_type":[0,0,0,0,0,0,0],"sum_hessian":[1.5981956E3,1.4088174E3,1.8937816E2,3.1883963E2,1.0899778E3,1.6372541E1,1.7300563E2],"tree_param":{"num_deleted":"0","num_feature":"7","num_nodes":"7","size_leaf_vector":"1"}},{"base_weights":[-1.0649083E-2,-1.0371129E-1,8.832003E-2,-9.711585E-3,2.3618191E-3,-2.7562901E-3,6.749944E-3],"categories":[],"categories_nodes":[],"categories_segments":[],"categories_sizes":[],"default_left":[0,0,0,0,0,0,0],"id":102,"left_children":[1,3,5,-1,-1,-1,-1],"loss_changes":[1.8218058E1,2.5586288E1,1.4483149E1,0E0,0E0,0E0,0E0],"parents":[2147483647,0,0,1,1,2,2],"right_children":[2,4,6,-1,-1,-1,-1],"split_conditions":[1E0,1.50965E-1,-5.6266904E-1,-9.711585E-3,2.3618191E-3,-2.7562901E-3,6.749944E-3],"split_indices":[0,1,5,0,0,0,0],"split_type":[0,0,0,0,0,0,0],"sum_hessian":[1.5970598E3,8.1837604E2,7.786838E2,3.9064365E2,4.2773242E2,2.727852E2,5.058986E2],"tree_param":{"num_deleted":"0","num_feature":"7","num_nodes":"7","size_leaf_vector":"1"}},{"base_weights":[-1.0588715E-2,-6.689652E-2,1.5072943E-1,-8.627501E-3,-6.828082E-4,8.109616E-3,-7.893266E-4],"categories":[],"categories_nodes":[],"categories_segments":[],"categories_sizes":[],"default_left":[0,0,0,0,0,0,0],"id":103,"left_children":[1,3,5,-1,-1,-1,-1],"loss_changes":[1.815831E1,1.0098141E1,5.3840036E0,0E0,0E0,0E0,0E0],"parents":[2147483647,0,0,1,1,2,2],"right_children":[2,4,6,-1,-1,-1,-1],"split_conditions":[8.1968343E-1,-1.022961E0,7.770754E-1,-8.627501E-3,-6.828082E-4,8.109616E-3,-7.893266E-4],"split_indices":[2,2,4,0,0,0,0],"split_type":[0,0,0,0,0,0,0],"sum_hessian":[1.5960267E3,1.2659456E3,3.3008124E2,1.5808243E2,1.1078632E3,2.2520177E2,1.04879456E2],"tree_param":{"num_deleted":"0","num_feature":"7","num_nodes":"7","size_leaf_vector":"1"}},{"base_weights":[-1.03837745E-2,-2.2266865E-1,3.279211E-2,9.835052E-4,-9.859144E-3,-6.8196277E-3,2.7914934E-3],"categories":[],"categories_nodes":[],"categories_segments":[],"categories_sizes":[],"default_left":[0,0,0,0,0,0,0],"id":104,"left_children":[1,3,5,-1,-1,-1,-1],"loss_changes":[1.7763935E1,3.0788841E0,1.4685766E1,0E0,0E0,0E0,0E0],"parents":[2147483647,0,0,1,1,2,2],"right_children":[2,4,6,-1,-1,-1,-1],"split_conditions":[-1.355273E0,-1.9253614E0,-1.022961E0,9.835052E-4,-9.859144E-3,-6.8196277E-3,2.7914934E-3],"split_indices":[1,3,2,0,0,0,0],"split_type":[0,0,0,0,0,0,0],"sum_hessian":[1.5949518E3,1.3536458E2,1.4595872E3,1.1342215E1,1.2402237E2,1.1861312E2,1.3409741E3],"tree_param":{"num_deleted":"0","num_feature":"7","num_nodes":"7","size_leaf_vector":"1"}},{"base_weights":[-1.1356212E-2,-5.621741E-2,1.832002E-1,-7.308107E-3,9.520996E-5,-6.8955985E-4,7.7426317E-3],"categories":[],"categories_nodes":[],"categories_segments":[],"categories_sizes":[],"default_left":[0,0,0,0,0,0,0],"id":105,"left_children":[1,3,5,-1,-1,-1,-1],"loss_changes":[1.754631E1,1.1917034E1,1.4254217E0,0E0,0E0,0E0,0E0],"parents":[2147483647,0,0,1,1,2,2],"right_children":[2,4,6,-1,-1,-1,-1],"split_conditions":[1.2634223E0,-5.140533E-1,-1.6966852E0,-7.308107E-3,9.520996E-5,-6.8955985E-4,7.7426317E-3],"split_indices":[2,1,5,0,0,0,0],"split_type":[0,0,0,0,0,0,0],"sum_hessian":[1.5939604E3,1.4056525E3,1.8830788E2,3.1696002E2,1.0886925E3,3.0317385E0,1.8527614E2],"tree_param":{"num_deleted":"0","num_feature":"7","num_nodes":"7","size_leaf_vector":"1"}},{"base_weights":[-1.0926181E-2,-1.00897215E-1,8.48787E-2,-9.437587E-3,2.2764492E-3,-2.7170961E-3,6.537008E-3],"categories":[],"categories_nodes":[],"categories_segments":[],"categories_sizes":[],"default_left":[0,0,0,0,0,0,0],"id":106,"left_children":[1,3,5,-1,-1,-1,-1],"loss_changes":[1.7012226E1,2.4029331E1,1.3734628E1,0E0,0E0,0E0,0E0],"parents":[2147483647,0,0,1,1,2,2],"right_children":[2,4,6,-1,-1,-1,-1],"split_conditions":[1E0,1.50965E-1,-5.6266904E-1,-9.437587E-3,2.2764492E-3,-2.7170961E-3,6.537008E-3],"split_indices":[0,1,5,0,0,0,0],"split_type":[0,0,0,0,0,0,0],"sum_hessian":[1.5928857E3,8.162177E2,7.766681E2,3.8887698E2,4.2734073E2,2.7245346E2,5.0421463E2],"tree_param":{"num_deleted":"0","num_feature":"7","num_nodes":"7","size_leaf_vector":"1"}},{"base_weights":[-1.0854012E-2,-7.820212E-2,1.1587162E-1,2.9797442E-3,-4.8519145E-3,-7.285642E-4,7.882324E-3],"categories":[],"categories_nodes":[],"categories_segments":[],"categories_sizes":[],"default_left":[0,0,0,0,0,0,0],"id":107,"left_children":[1,3,5,-1,-1,-1,-1],"loss_changes":[1.6947012E1,1.0137143E1,8.258457E0,0E0,0E0,0E0,0E0],"parents":[2147483647,0,0,1,1,2,2],"right_children":[2,4,6,-1,-1,-1,-1],"split_conditions":[4.4363353E-1,-9.203233E-1,1E0,2.9797442E-3,-4.8519145E-3,-7.285642E-4,7.882324E-3],"split_indices":[2,3,0,0,0,0,0],"split_type":[0,0,0,0,0,0,0],"sum_hessian":[1.5918658E3,1.0872064E3,5.0465952E2,2.0867596E2,8.785304E2,2.4619644E2,2.5846307E2],"tree_param":{"num_deleted":"0","num_feature":"7","num_nodes":"7","size_leaf_vector":"1"}},{"base_weights":[-9.857299E-3,-2.1677536E-1,3.213204E-2,9.883868E-4,-9.620784E-3,-6.6686315E-3,2.7324648E-3],"categories":[],"categories_nodes":[],"categories_segments":[],"categories_sizes":[],"default_left":[0,0,0,0,0,0,0],"id":108,"left_children":[1,3,5,-1,-1,-1,-1],"loss_changes":[1.681366E1,3.0002728E0,1.40298E1,0E0,0E0,0E0,0E0],"parents":[2147483647,0,0,1,1,2,2],"right_children":[2,4,6,-1,-1,-1,-1],"split_conditions":[-1.355273E0,-1.9253614E0,-1.022961E0,9.883868E-4,-9.620784E-3,-6.6686315E-3,2.7324648E-3],"split_indices":[1,3,2,0,0,0,0],"split_type":[0,0,0,0,0,0,0],"sum_hessian":[1.591071E3,1.3428244E2,1.4567886E3,1.1326188E1,1.22956245E2,1.1817169E2,1.338617E3],"tree_param":{"num_deleted":"0","num_feature":"7","num_nodes":"7","size_leaf_vector":"1"}},{"base_weights":[-1.0817421E-2,-5.424211E-2,1.7755798E-1,5.4861116E-4,-6.2569273E-3,-6.921497E-4,7.5173723E-3],"categories":[],"categories_nodes":[],"categories_segments":[],"categories_sizes":[],"default_left":[0,0,0,0,0,0,0],"id":109,"left_children":[1,3,5,-1,-1,-1,-1],"loss_changes":[1.6409174E1,1.1476615E1,1.3861494E0,0E0,0E0,0E0,0E0],"parents":[2147483647,0,0,1,1,2,2],"right_children":[2,4,6,-1,-1,-1,-1],"split_conditions":[1.2634223E0,7.770754E-1,-1.6966852E0,5.4861116E-4,-6.2569273E-3,-6.921497E-4,7.5173723E-3],"split_indices":[2,4,5,0,0,0,0],"split_type":[0,0,0,0,0,0,0],"sum_hessian":[1.5900972E3,1.4027373E3,1.8735982E2,9.4176337E2,4.60974E2,3.0256038E0,1.8433421E2],"tree_param":{"num_deleted":"0","num_feature":"7","num_nodes":"7","size_leaf_vector":"1"}},{"base_weights":[-1.0269654E-2,-2.127147E-1,3.0829946E-2,9.92698E-4,-9.456849E-3,-2.966464E-3,4.041184E-3],"categories":[],"categories_nodes":[],"categories_segments":[],"categories_sizes":[],"default_left":[0,0,0,0,0,0,0],"id":110,"left_children":[1,3,5,-1,-1,-1,-1],"loss_changes":[1.6065132E1,2.9485617E0,1.3567557E1,0E0,0E0,0E0,0E0],"parents":[2147483647,0,0,1,1,2,2],"right_children":[2,4,6,-1,-1,-1,-1],"split_conditions":[-1.355273E0,-1.9253614E0,-3.1966558E-1,9.92698E-4,-9.456849E-3,-2.966464E-3,4.041184E-3],"split_indices":[1,3,5,0,0,0,0],"split_type":[0,0,0,0,0,0,0],"sum_hessian":[1.5892678E3,1.3360912E2,1.4556587E3,1.1312325E1,1.222968E2,5.789675E2,8.766911E2],"tree_param":{"num_deleted":"0","num_feature":"7","num_nodes":"7","size_leaf_vector":"1"}},{"base_weights":[-1.0656232E-2,-9.757766E-2,8.197255E-2,-9.163036E-3,2.2240884E-3,-2.5626267E-3,6.278847E-3],"categories":[],"categories_nodes":[],"categories_segments":[],"categories_sizes":[],"default_left":[0,0,0,0,0,0,0],"id":111,"left_children":[1,3,5,-1,-1,-1,-1],"loss_changes":[1.5856535E1,2.2682713E1,1.2493877E1,0E0,0E0,0E0,0E0],"parents":[2147483647,0,0,1,1,2,2],"right_children":[2,4,6,-1,-1,-1,-1],"split_conditions":[1E0,1.50965E-1,-5.6266904E-1,-9.163036E-3,2.2240884E-3,-2.5626267E-3,6.278847E-3],"split_indices":[0,1,5,0,0,0,0],"split_type":[0,0,0,0,0,0,0],"sum_hessian":[1.588658E3,8.1431384E2,7.743442E2,3.872456E2,4.270682E2,2.7218515E2,5.0215903E2],"tree_param":{"num_deleted":"0","num_feature":"7","num_nodes":"7","size_leaf_vector":"1"}},{"base_weights":[-1.0582762E-2,-5.307134E-2,1.7383362E-1,4.8457884E-4,-6.0348343E-3,-6.880461E-4,7.365893E-3],"categories":[],"categories_nodes":[],"categories_segments":[],"categories_sizes":[],"default_left":[0,0,0,0,0,0,0],"id":112,"left_children":[1,3,5,-1,-1,-1,-1],"loss_changes":[1.5698854E1,1.0497805E1,1.3492374E0,0E0,0E0,0E0,0E0],"parents":[2147483647,0,0,1,1,2,2],"right_children":[2,4,6,-1,-1,-1,-1],"split_conditions":[1.2634223E0,7.770754E-1,-1.6966852E0,4.8457884E-4,-6.0348343E-3,-6.880461E-4,7.365893E-3],"split_indices":[2,4,5,0,0,0,0],"split_type":[0,0,0,0,0,0,0],"sum_hessian":[1.5876498E3,1.4009193E3,1.8673048E2,9.4103613E2,4.5988318E2,3.0314717E0,1.8369902E2],"tree_param":{"num_deleted":"0","num_feature":"7","num_nodes":"7","size_leaf_vector":"1"}},{"base_weights":[-1.0042874E-2,-2.015608E-1,3.2085035E-2,1.279228E-3,-9.494962E-3,-6.7005064E-3,2.6168346E-3],"categories":[],"categories_nodes":[],"categories_segments":[],"categories_sizes":[],"default_left":[0,0,0,0,0,0,0],"id":113,"left_children":[1,3,5,-1,-1,-1,-1],"loss_changes":[1.5579246E1,4.350423E0,1.2885873E1,0E0,0E0,0E0,0E0],"parents":[2147483647,0,0,1,1,2,2],"right_children":[2,4,6,-1,-1,-1,-1],"split_conditions":[-1.022961E0,-1.4796488E0,-1.355273E0,1.279228E-3,-9.494962E-3,-6.7005064E-3,2.6168346E-3],"split_indices":[2,3,1,0,0,0,0],"split_type":[0,0,0,0,0,0,0],"sum_hessian":[1.5868369E3,1.5578467E2,1.4310522E3,2.3430727E1,1.3235394E2,9.4780426E1,1.3362719E3],"tree_param":{"num_deleted":"0","num_feature":"7","num_nodes":"7","size_leaf_vector":"1"}},{"base_weights":[-1.0969513E-2,-1.20119944E-1,5.9494626E-2,1.369386E-3,-6.6989115E-3,-2.9063579E-3,5.2593015E-3],"categories":[],"categories_nodes":[],"categories_segments":[],"categories_sizes":[],"default_left":[0,0,0,0,0,0,0],"id":114,"left_children":[1,3,5,-1,-1,-1,-1],"loss_changes":[1.503159E1,6.6526737E0,1.3312706E1,0E0,0E0,0E0,0E0],"parents":[2147483647,0,0,1,1,2,2],"right_children":[2,4,6,-1,-1,-1,-1],"split_conditions":[-3.0846623E-1,-9.203233E-1,-3.1966558E-1,1.369386E-3,-6.6989115E-3,-2.9063579E-3,5.2593015E-3],"split_indices":[2,3,5,0,0,0,0],"split_type":[0,0,0,0,0,0,0],"sum_hessian":[1.5859172E3,5.693638E2,1.0165534E3,1.4608572E2,4.2327805E2,3.578469E2,6.5870654E2],"tree_param":{"num_deleted":"0","num_feature":"7","num_nodes":"7","size_leaf_vector":"1"}},{"base_weights":[-1.0856371E-2,-9.517247E-2,7.909048E-2,-8.956676E-3,2.1796022E-3,-9.531102E-4,7.550544E-3],"categories":[],"categories_nodes":[],"categories_segments":[],"categories_sizes":[],"default_left":[0,0,0,0,0,0,0],"id":115,"left_children":[1,3,5,-1,-1,-1,-1],"loss_changes":[1.4907012E1,2.1664015E1,1.1735946E1,0E0,0E0,0E0,0E0],"parents":[2147483647,0,0,1,1,2,2],"right_children":[2,4,6,-1,-1,-1,-1],"split_conditions":[1E0,1.50965E-1,3.2329756E-1,-8.956676E-3,2.1796022E-3,-9.531102E-4,7.550544E-3],"split_indices":[0,1,2,0,0,0,0],"split_type":[0,0,0,0,0,0,0],"sum_hessian":[1.585024E3,8.12392E2,7.72632E2,3.8577362E2,4.2661844E2,4.7571747E2,2.9691455E2],"tree_param":{"num_deleted":"0","num_feature":"7","num_nodes":"7","size_leaf_vector":"1"}},{"base_weights":[-1.0449841E-2,-2.0505436E-1,2.9050507E-2,9.988229E-4,-9.147117E-3,-6.324306E-3,2.529489E-3],"categories":[],"categories_nodes":[],"categories_segments":[],"categories_sizes":[],"default_left":[0,0,0,0,0,0,0],"id":116,"left_children":[1,3,5,-1,-1,-1,-1],"loss_changes":[1.4778984E1,2.84653E0,1.2418706E1,0E0,0E0,0E0,0E0],"parents":[2147483647,0,0,1,1,2,2],"right_children":[2,4,6,-1,-1,-1,-1],"split_conditions":[-1.355273E0,-1.9253614E0,-1.022961E0,9.988229E-4,-9.147117E-3,-6.324306E-3,2.529489E-3],"split_indices":[1,3,2,0,0,0,0],"split_type":[0,0,0,0,0,0,0],"sum_hessian":[1.5835942E3,1.3212758E2,1.4514667E3,1.1291411E1,1.20836174E2,1.1724683E2,1.3342198E3],"tree_param":{"num_deleted":"0","num_feature":"7","num_nodes":"7","size_leaf_vector":"1"}},{"base_weights":[-1.13245435E-2,-5.2242145E-2,1.6692966E-1,-6.075202E-3,3.091755E-4,-6.915246E-4,7.090324E-3],"categories":[],"categories_nodes":[],"categories_segments":[],"categories_sizes":[],"default_left":[0,0,0,0,0,0,0],"id":117,"left_children":[1,3,5,-1,-1,-1,-1],"loss_changes":[1.4602293E1,9.713263E0,1.3019667E0,0E0,0E0,0E0,0E0],"parents":[2147483647,0,0,1,1,2,2],"right_children":[2,4,6,-1,-1,-1,-1],"split_conditions":[1.2634223E0,-2.7532876E-1,-1.6966852E0,-6.075202E-3,3.091755E-4,-6.915246E-4,7.090324E-3],"split_indices":[2,1,5,0,0,0,0],"split_type":[0,0,0,0,0,0,0],"sum_hessian":[1.582663E3,1.3970073E3,1.856556E2,4.1492624E2,9.820811E2,3.0236375E0,1.8263196E2],"tree_param":{"num_deleted":"0","num_feature":"7","num_nodes":"7","size_leaf_vector":"1"}},{"base_weights":[-1.0809786E-2,-9.3039945E-2,7.698974E-2,-8.698569E-3,2.0682295E-3,-3.1712295E-3,5.5679833E-3],"categories":[],"categories_nodes":[],"categories_segments":[],"categories_sizes":[],"default_left":[0,0,0,0,0,0,0],"id":118,"left_children":[1,3,5,-1,-1,-1,-1],"loss_changes":[1.4166401E1,2.0190842E1,1.1458203E1,0E0,0E0,0E0,0E0],"parents":[2147483647,0,0,1,1,2,2],"right_children":[2,4,6,-1,-1,-1,-1],"split_conditions":[1E0,1.50965E-1,-8.056725E-1,-8.698569E-3,2.0682295E-3,-3.1712295E-3,5.5679833E-3],"split_indices":[0,1,5,0,0,0,0],"split_type":[0,0,0,0,0,0,0],"sum_hessian":[1.5816669E3,8.1085065E2,7.708162E2,3.844333E2,4.2641733E2,2.0455763E2,5.662586E2],"tree_param":{"num_deleted":"0","num_feature":"7","num_nodes":"7","size_leaf_vector":"1"}},{"base_weights":[-1.0840529E-2,-5.2251007E-2,1.590768E-1,-4.7107073E-3,1.102997E-3,-6.970378E-4,7.0592514E-3],"categories":[],"categories_nodes":[],"categories_segments":[],"categories_sizes":[],"default_left":[0,0,0,0,0,0,0],"id":119,"left_children":[1,3,5,-1,-1,-1,-1],"loss_changes":[1.405364E1,8.822231E0,1.798933E0,0E0,0E0,0E0,0E0],"parents":[2147483647,0,0,1,1,2,2],"right_children":[2,4,6,-1,-1,-1,-1],"split_conditions":[1.2107753E0,1E0,-1.355273E0,-4.7107073E-3,1.102997E-3,-6.970378E-4,7.0592514E-3],"split_indices":[2,0,1,0,0,0,0],"split_type":[0,0,0,0,0,0,0],"sum_hessian":[1.5806643E3,1.3772751E3,2.0338925E2,7.065745E2,6.7070056E2,1.8234467E1,1.8515479E2],"tree_param":{"num_deleted":"0","num_feature":"7","num_nodes":"7","size_leaf_vector":"1"}},{"base_weights":[-1.01145515E-2,-1.9945343E-1,2.8263573E-2,1.0102843E-3,-8.92432E-3,-2.7853288E-3,3.7589956E-3],"categories":[],"categories_nodes":[],"categories_segments":[],"categories_sizes":[],"default_left":[0,0,0,0,0,0,0],"id":120,"left_children":[1,3,5,-1,-1,-1,-1],"loss_changes":[1.3944184E1,2.7886457E0,1.1797629E1,0E0,0E0,0E0,0E0],"parents":[2147483647,0,0,1,1,2,2],"right_children":[2,4,6,-1,-1,-1,-1],"split_conditions":[-1.355273E0,-1.9253614E0,-3.1966558E-1,1.0102843E-3,-8.92432E-3,-2.7853288E-3,3.7589956E-3],"split_indices":[1,3,5,0,0,0,0],"split_type":[0,0,0,0,0,0,0],"sum_hessian":[1.5797998E3,1.3114687E2,1.448653E3,1.1258178E1,1.1988868E2,5.772563E2,8.7139667E2],"tree_param":{"num_deleted":"0","num_feature":"7","num_nodes":"7","size_leaf_vector":"1"}},{"base_weights":[-1.0462871E-2,-1.9047919E-1,2.9194836E-2,1.3236449E-3,-9.053186E-3,3.5705252E-3,-3.145592E-3],"categories":[],"categories_nodes":[],"categories_segments":[],"categories_sizes":[],"default_left":[0,0,0,0,0,0,0],"id":121,"left_children":[1,3,5,-1,-1,-1,-1],"loss_changes":[1.3699751E1,4.195381E0,1.1809926E1,0E0,0E0,0E0,0E0],"parents":[2147483647,0,0,1,1,2,2],"right_children":[2,4,6,-1,-1,-1,-1],"split_conditions":[-1.022961E0,-1.4796488E0,2.9412615E-1,1.3236449E-3,-9.053186E-3,3.5705252E-3,-3.145592E-3],"split_indices":[2,3,6,0,0,0,0],"split_type":[0,0,0,0,0,0,0],